358 64
159 0.7186026 0.02758329 0.15211783 0.43500674 -0.32539135 -0.5648277 -0.0871949 0.27353027 0.07752823 0.5337073 -0.21875496 -0.30650386 -0.010277341 0.38097185 -0.37387937 -0.84436166 0.35713926 -0.04358439 -0.35630506 -0.16438922 -0.6300581 0.33122844 0.07308716 0.54255015 -0.40429276 0.516467 0.40809143 -0.46762452 -0.6140128 -0.12292926 0.015127303 0.20237294 -0.2525885 0.29414824 0.8059765 -0.61207706 0.56135225 0.1320057 1.056114 -0.63979214 0.09491101 -0.49431816 -0.46325332 0.18475026 -0.62411416 -0.76134783 -0.106630325 0.1245805 -0.082669325 -0.4452416 -0.6710751 -0.46373358 -0.71980983 -0.06743024 -1.0828929 -0.5343059 -0.11034976 -1.1823313 -0.13510875 0.99931735 0.11945946 0.5435054 0.55992776 -0.7864304
190 0.37788674 0.12282564 0.18157129 0.42736948 0.24691993 -0.055950142 0.7635817 0.33826503 0.7706881 -0.11467456 -0.3816264 -0.2902208 0.39627507 -0.017982403 0.061410077 -1.2909074 -0.21772651 -0.21363288 -0.007835647 -0.3333288 -0.07966972 0.33970642 -0.47266892 -0.16555485 -0.8204583 0.544013 0.2620962 0.09478922 -0.95798177 0.12709858 -0.2699981 -0.23896444 -0.49573296 -0.20145348 0.99529344 0.11001214 0.5142288 0.3343632 0.68225163 -0.07558739 0.25399038 -0.9701209 -0.9374273 0.6312696 -0.594723 -1.1517781 -0.6784433 0.070851915 -0.21383193 -0.095586956 -0.6753784 0.85955673 0.14071535 0.18826815 -0.4525175 -0.37458834 0.2552089 -1.2306126 -0.05663774 0.6663538 0.6560645 0.18870153 0.084989086 -0.40095443
117 0.489879 -0.013956135 -0.21614425 0.6691862 -0.23695982 -0.73735434 0.28732386 -0.16006333 0.359481 0.07192063 -0.008658347 0.52254623 0.4551537 0.039360907 -0.033228897 -0.059002426 0.09045306 0.7189081 -0.47008765 -0.23355031 -0.18404831 -0.22088528 -0.42096233 0.07121594 -0.7173315 -0.06440857 -0.19401479 -0.32905233 -0.7028413 0.32340357 -0.08607836 0.09812797 0.16532314 0.2059483 -0.05696516 -0.2049767 1.0319831 0.24616094 1.0008726 -0.10234394 0.89783967 -0.2643894 -0.6815562 0.56117594 -0.46996543 -1.3586411 0.056197528 -0.19300269 -0.10485635 0.40454262 -0.4497591 0.41570285 -0.60695857 0.15946731 -0.6507077 -0.5810056 0.46457338 -0.80823374 -0.24628763 0.8971974 0.4810327 0.22534618 0.3896479 -0.61500704
284 0.99393004 -0.29636565 -0.55116296 -0.21661997 -0.057657555 -0.90492886 0.5087061 0.14738142 -0.1379928 -0.36760157 -0.6148657 0.23896185 -0.6586131 -0.11448868 0.250477 -0.37861937 0.19211894 -0.25869167 0.17662224 -0.68760973 -0.17572917 0.3440139 0.09270081 -0.15018484 -0.8266545 0.100911915 -0.3631052 0.027275436 -1.0051593 -0.18429162 -0.3466976 -0.33306023 -0.098854624 -0.05427161 0.63230723 -0.026124414 0.96774226 0.011508021 1.2035493 -0.18295725 0.16186768 -0.3493457 -0.3930867 0.39786884 -0.48228183 -0.53046453 -0.11863457 -0.10569004 -0.035535116 0.19155948 -0.021861374 -0.07717481 -0.3167044 0.29948652 -0.7725873 -0.26015416 0.27843758 -1.1239038 -0.19515915 1.1930126 0.26208043 0.48247802 -0.18987633 -0.5654043
287 0.93678564 -0.3262707 -0.54231125 -0.27191564 -0.07174348 -0.90877885 0.5040251 0.11008665 -0.12087513 -0.3730367 -0.6288754 0.26335534 -0.6533518 -0.0883789 0.26898065 -0.41999358 0.16578427 -0.19559135 0.17557366 -0.59911317 -0.1144706 0.38529724 0.12411641 -0.10981998 -0.7630811 0.079392776 -0.42288864 -0.033584855 -1.0362616 -0.18765175 -0.27372232 -0.38414255 -0.0937456 -0.06709249 0.68347836 -0.09222455 0.9040358 0.06696074 1.119279 -0.18054242 0.11337546 -0.35016596 -0.39949745 0.32480064 -0.4848999 -0.6233121 -0.18559755 -0.14153779 -0.04909156 0.22200549 0.086283624 -0.07094451 -0.3217824 0.23267433 -0.77689135 -0.18904957 0.35904038 -1.1466252 -0.17847048 1.2754749 0.30501193 0.5169223 -0.08765145 -0.58065224
96 0.42037997 -0.41519228 0.20670858 0.8618386 -0.15523043 -0.6387912 0.59588224 -0.17771095 -0.22641854 -0.67845356 0.5604004 -0.851818 0.24989894 0.12312002 0.060487304 -0.33197892 0.40224817 -0.47953495 0.36578307 -0.19039871 -0.6234228 -0.055053692 -0.29783422 -0.10399146 -0.99086165 0.10190647 -0.487745 -0.40222615 -0.605211 -0.18044727 -0.22483698 0.00656719 -0.19423456 -0.11080798 0.49567243 0.41315225 0.67964995 0.25722173 0.95257246 -0.08196408 0.25212952 -0.33403215 -0.31648895 0.07615621 -0.7752618 -0.8323187 -0.5254603 -0.16275643 -0.29509905 -0.017657075 -0.37554535 0.1515282 -0.6066087 -0.1431463 -0.67937636 -0.4186623 0.37666726 -0.7231197 0.18672353 0.8685965 0.33017862 0.37105456 0.4512323 -0.9675107
125 0.6447956 -0.024848675 -0.15053481 0.77505267 -0.0859872 -0.6762399 0.5298614 -0.06953649 0.45589763 0.14155155 -0.17645745 0.34775552 0.47163355 0.2337321 0.111525245 0.04614307 0.104602784 0.6507945 -0.4265533 -0.14656137 -0.31488392 -0.35920948 -0.1472322 0.0048295436 -0.732609 -0.099021986 -0.15296294 -0.05068017 -0.75623757 0.24352221 -0.0972736 0.0823236 0.10983954 0.1477928 -0.0015401202 -0.109934814 0.8456773 -0.04449664 1.3148338 -0.31300163 0.66128695 0.01738035 -0.7007092 0.5497311 -0.47111624 -1.4069027 -0.075219795 0.08337927 -0.30642816 0.5801947 -0.46289274 0.4218568 -0.6248783 0.047062453 -0.8360177 -0.85724455 0.56873524 -0.68878007 -0.5255548 0.57957643 0.41436213 0.3148875 0.39177108 -0.53857285
68 1.0801247 0.8156842 -0.08357256 -0.51557106 -0.25254956 0.2828608 0.39719898 -0.42896736 -0.0071400427 0.032403115 -0.14683542 -0.053595584 0.515848 0.21559791 0.3658593 -0.2048114 -0.10709917 -0.15065923 0.40342653 -0.1292787 -0.8403308 0.20102714 -0.4112191 0.0979469 -0.6581156 0.56988275 -0.24013525 -0.32597807 -0.31002346 0.12758173 0.047650114 -0.1228828 -0.20387615 0.26532722 0.3533103 0.13276038 0.78576493 0.28953746 0.84838986 0.14935753 0.20286784 -0.36114517 -0.36809155 0.46145448 -0.7251894 -0.8054251 -0.14082702 0.0766588 0.027745537 0.2074341 -0.27849478 0.2259322 -0.33150896 -0.103943944 -0.73250425 -0.43921036 -0.03137372 -0.63264155 0.027262028 0.91058743 0.099283636 0.25891566 0.38502052 -0.7783703
253 1.1520574 0.68814844 -0.0670756 -0.48308617 -0.18487725 0.41746956 0.3957792 -0.44143704 -0.058726676 -0.008948203 -0.24251595 -0.060229342 0.53229666 0.28383952 0.20966873 -0.103581786 -0.13133341 -0.07115637 0.4802483 -0.0033994305 -0.8120743 0.101121 -0.44136968 -0.11185022 -0.68514663 0.5849506 -0.22485688 -0.2391304 -0.35001472 0.067569055 -0.038388874 -0.07997964 -0.072522685 0.26238093 0.40823966 0.15461947 0.79140365 0.20337872 0.98182416 -0.11456748 0.2006152 -0.32825997 -0.40857384 0.4593931 -0.4840792 -0.73561126 -0.15216732 0.19555011 0.07292431 0.22008438 -0.3163206 0.27248386 -0.3101136 -0.13210973 -0.7801677 -0.41754687 -0.18204027 -0.7184314 0.039695464 0.95382714 0.17807898 0.31053418 0.40451887 -0.6915288
344 0.3896938 -0.40012795 0.21668164 0.83929294 -0.14943013 -0.61781275 0.5861967 -0.2135731 -0.1593091 -0.7556247 0.49998346 -0.84440297 0.2375023 0.112687 0.05996396 -0.36388198 0.42631814 -0.4015306 0.3929735 -0.20606203 -0.5577204 -0.06205365 -0.293522 -0.09045495 -0.94660413 0.033956703 -0.4907719 -0.45528758 -0.62837636 -0.2185652 -0.22366858 -0.036794163 -0.14401886 -0.14232154 0.4773785 0.36900967 0.64192766 0.29282936 0.84556055 -0.026552683 0.2864336 -0.34616867 -0.2851162 0.06753306 -0.81841385 -0.8995029 -0.5216256 -0.1498465 -0.25160724 0.00045524898 -0.35828122 0.10435594 -0.55518025 -0.12761869 -0.6723207 -0.36053714 0.34004626 -0.7557728 0.27722692 0.94885343 0.35669097 0.41204846 0.63035095 -1.0069944
311 0.23646232 -0.05013954 -0.11786523 0.28439885 0.23998219 -0.34171665 0.25282297 0.004693586 0.6289057 0.27192453 -0.3064175 -0.09301535 0.36461478 0.5500293 0.25846553 -0.1142603 0.071256995 -0.3622393 0.39460868 -0.114994444 -0.14915445 0.14583139 -0.14779283 0.0707901 -1.2685997 0.36558682 -0.7318146 0.17938176 -0.7423204 0.6412711 -0.782925 0.4550506 -0.05558452 0.3277525 0.9566645 -0.22566837 1.0333339 0.726171 0.3815801 -0.184889 0.33493152 -0.21423559 -0.21987681 0.28552744 -1.0135934 -0.2100874 -0.08544719 0.34306705 -0.17378555 0.08099364 -0.3076466 -0.19197549 -0.8634744 0.10925608 -0.7548214 0.0791776 0.48479563 -1.1862524 -0.60584944 0.78516465 0.6661093 0.3369211 0.5754902 -0.72540843
57 0.95545167 0.56557643 -0.16351087 -0.065256186 -0.34840363 -0.23801135 0.633448 -0.052066702 0.1349727 -0.08153454 -0.02443477 0.19767877 0.33933267 0.13133904 0.52467275 0.25359422 -0.2907141 -0.1511281 0.34948286 0.36824268 -0.7585083 0.16655436 -0.33156615 0.03647151 -0.40767032 0.657428 -0.1937645 -0.31695455 -0.57425493 0.06744303 -0.072556004 -0.017910987 0.12724093 0.25082833 0.4332399 0.14475438 0.4443643 0.35101557 0.8228604 -0.18493088 0.26767942 -0.37155658 -0.14283177 0.45779708 -0.9738638 -0.6043336 -0.49381897 -0.05028923 -0.06256847 -0.21450116 -0.31327608 0.3180074 0.00878894 -0.08207663 -0.6988278 -0.46742284 -0.18628365 -0.70084405 -0.44436133 0.93025535 0.14203703 0.9605559 0.3550532 -0.64477223
348 0.78097945 0.60373074 -0.1821501 -0.09514631 -0.4500835 -0.2565531 0.62917626 -0.07049895 0.030468881 -0.14967297 -0.08394044 0.3815165 0.3714024 -0.008505721 0.48997304 0.20834659 -0.23151533 -0.15810335 0.30002147 0.35419136 -0.79402363 0.11470563 -0.3296971 -0.043394666 -0.48081383 0.58430624 -0.118155956 -0.27882275 -0.5233875 0.198479 -0.070152216 0.08430529 0.11665573 0.27752677 0.4909641 0.13435407 0.55841315 0.4150697 0.90002364 -0.27467704 0.36713302 -0.4956317 -0.32155785 0.42064312 -0.9705882 -0.50693226 -0.60770375 -0.1696289 0.08414533 -0.30310813 -0.27056652 0.31598625 -0.1317233 -0.022115992 -0.6994413 -0.4201422 -0.32089883 -0.70825636 -0.2419549 0.90102 0.03351906 0.8219372 0.33071265 -0.6372147
188 -0.05108206 0.086156756 -0.3713027 0.15147126 -0.170487 -0.06811125 0.27459896 -0.238693 0.01530601 0.16041902 -0.00016505855 0.06286158 0.18677665 -0.2640236 -0.5031462 -0.35071835 -0.04830131 -0.13260472 0.23913011 -0.8306562 -0.46565178 0.27615055 -0.33794364 0.40709308 -0.37537423 0.54393274 -0.01348635 -0.44257563 -0.09543675 -0.13357675 -0.7543275 0.11584414 0.5234388 0.2893225 0.63072866 0.030649496 0.84692156 0.12686892 1.2168827 -0.303654 0.48987687 -0.23903176 -0.17477432 0.3331134 -0.65833735 -0.591402 -0.85552543 0.30811638 -0.13705337 0.21174978 0.015498078 0.09007868 0.071742326 0.19237454 -0.9597821 -0.24051212 0.6223061 -0.9294481 -0.12403544 0.46603474 0.83412445 0.47809088 0.25126112 -0.6721329
313 0.26899654 0.0086614145 -0.011079361 0.16918714 0.027515303 -0.33143622 0.3539837 0.023847602 0.5731447 0.07436528 -0.23534672 -0.061893787 0.3895623 0.52057964 0.1559821 -0.16919087 -0.008910897 -0.10633416 0.41743895 -0.023856964 -0.15733317 0.12699479 -0.122818336 0.06271542 -1.162176 0.22126658 -0.7113077 0.27244738 -0.8158884 0.5627795 -0.91759765 0.76260316 0.12819907 0.33734125 0.992203 -0.13776295 0.9924993 0.54111564 0.40541375 -0.19132036 0.2158585 -0.35108668 -0.38011473 0.15048462 -1.095222 -0.1741564 -0.0072496827 0.41010204 -0.17033955 0.1951152 -0.5083752 -0.15527558 -0.819924 0.08424915 -0.7274611 -0.1356233 0.354113 -1.4296297 -0.48151687 0.7098215 0.41939113 0.066495314 0.34437144 -0.8279577
187 0.008525021 0.122273065 -0.24235463 0.16603553 -0.18674074 -0.28761366 0.27281854 -0.22565979 -0.107062854 0.21436974 -0.05016529 0.038436905 0.16820434 -0.15983227 -0.33305845 -0.43683937 -0.15831144 -0.17039984 0.22619407 -0.8895735 -0.41108745 0.29780713 -0.25576052 0.5023611 -0.45710212 0.59525275 0.08697773 -0.5001785 -0.11604118 -0.09075005 -0.794306 0.12772308 0.5226941 0.32723463 0.6276684 0.1272266 0.8427732 0.06575769 1.1600174 -0.2169465 0.4719497 -0.2017786 -0.09369114 0.39114216 -0.73518455 -0.65563583 -0.8156891 0.26020548 -0.15465114 0.28562668 0.020262707 0.11849271 0.14385952 0.25706908 -0.9874787 -0.20848414 0.62538064 -0.8373711 -0.07366964 0.36254302 0.7325864 0.42667454 0.33624044 -0.68347037
334 0.2429137 0.5921331 0.48184288 0.29712135 -0.17283742 -0.52347124 -0.16883786 -0.30458388 0.6296596 -0.11869423 -0.21675994 0.14412515 0.15166835 -0.20656505 -0.1534192 -0.65926445 -0.4134624 -0.42483917 0.3714485 -0.46639696 -0.49902868 -0.07003752 0.06605976 -0.08644136 -1.1995425 0.1518841 0.0027968928 -0.29242566 -0.7579154 -0.57096726 0.33506304 -0.18609479 0.44051942 0.18435845 0.38013795 0.2458949 0.42760178 0.21278365 0.78214514 -0.7308949 0.61942106 -0.45441318 -0.62735087 -0.10682179 -1.1546504 -0.6882142 -0.19717008 0.35240763 -0.59032667 0.15360193 -0.28587297 0.32787704 -0.62345266 0.44482785 -1.1126701 0.15339082 0.32939258 -0.49301547 -0.6824634 1.5400199 0.21594979 0.08640598 -0.09184995 -0.80602163
11 0.5932562 0.06613322 0.2455486 0.33436996 0.28224334 -0.3811037 0.34193817 -0.67998534 0.21543881 -0.2579205 -0.3728379 -0.66174096 -0.19566932 -0.059807334 0.07755709 -0.21759035 -0.040464696 0.467782 -0.033002656 -0.5655334 -0.9411911 -0.15006427 -0.15391858 0.055111337 -0.5272736 0.5545239 0.41463158 0.004639883 -1.2078855 0.3268287 -0.13918264 0.10683233 -0.16532631 0.262022 0.39840156 -0.31024382 0.41841912 0.4336492 1.1521298 -0.7472977 0.10538133 -0.6111859 0.37165606 0.4393821 -1.3702413 -0.4776969 -0.09788082 -0.50459105 0.48454502 0.050130192 0.101683915 0.6714277 -0.40923905 0.12408507 -0.45849067 -0.32149372 0.526339 -1.1249763 -0.38018194 0.8348545 0.8279066 -0.30495745 0.16813141 -1.2834749
267 0.5662361 0.056426212 0.114259504 -0.055944547 0.054740593 -0.6143235 -0.30425525 -0.38513762 0.32502404 0.24943028 0.29166013 -0.34012932 -0.11044392 -0.25094837 0.17620102 -0.53285366 -0.025003653 -0.078060955 -0.24492247 0.6411374 -0.4310464 -0.13283221 -0.43613356 -0.41966638 -0.6267167 0.29123753 -0.15855438 0.3417374 -0.16175683 0.023149148 -0.7072475 -0.0078968685 0.28846613 -0.35954225 0.3168633 -0.13673685 0.68854284 0.015407474 1.3174889 0.010428848 -0.03624344 -0.37806126 -0.49412313 0.5614923 -0.9882332 -0.550712 -0.3445753 -0.05604274 -0.27014166 0.03012383 -0.3703804 -0.015668295 0.04470764 0.6138994 -0.9540963 -0.15920185 0.3380696 -0.9708986 -0.021736808 1.2042556 0.72887456 0.12166996 0.4893235 -0.66091806
174 0.34819707 0.28704453 -0.029040508 0.39680287 -0.23640153 -0.5228969 0.08122379 0.23645285 0.3618424 -0.52898514 -0.26687708 -0.34916705 -0.07280718 0.30282882 0.15390179 -0.61129904 -0.13701667 0.1351717 0.0076345825 0.22980648 -1.503912 0.35651857 -0.37421197 0.5587534 -0.54902095 -0.16699818 0.2055722 0.02671507 -0.9150816 0.06648802 -0.53498656 -0.17154475 0.038451735 0.24863505 0.52120125 0.6432473 1.0999242 0.5066726 1.0398699 0.01760727 0.5046923 -0.29015228 -0.23650298 0.87977433 -0.088830285 -0.5266962 -0.45755202 0.3988066 -0.4503116 -0.09366341 0.23683415 -0.17129149 -0.4695293 0.42936683 -0.41884434 -0.46562096 0.2636512 -1.0300199 -0.44881704 1.0480988 0.49496853 -0.06776969 0.3978778 -0.6896924
341 0.3955965 0.22124751 -0.16013366 0.24600501 -0.2953817 -0.47669482 0.084363505 0.3119019 0.32014972 -0.5596565 -0.27948886 -0.44515687 0.014638038 0.25677037 0.053004626 -0.59490234 -0.059083764 0.180054 -0.16577286 0.3169722 -1.4888463 0.32781082 -0.31571302 0.48629862 -0.6193177 -0.17221136 0.18207614 0.033575606 -0.9036235 0.0020827788 -0.54892397 -0.17172289 -0.08972743 0.2940997 0.5823637 0.6896602 1.1101093 0.47856906 1.0104561 -0.090368636 0.63433945 -0.2054666 -0.25581473 0.73763293 -0.13383672 -0.56463665 -0.36875713 0.46550223 -0.5336599 -0.20224294 0.29563165 -0.0062480746 -0.43906114 0.29201365 -0.49971884 -0.34743854 0.2661196 -0.98195666 -0.5554505 1.0375832 0.56377876 0.006497407 0.40610173 -0.6789904
266 0.5348919 0.018614376 0.0949395 -0.094962254 0.11689334 -0.64099526 -0.24598101 -0.3081417 0.25632963 0.17897625 0.15757462 -0.40609932 -0.060542468 -0.31708756 0.21975349 -0.50286907 0.015620273 -0.050509587 -0.35904402 0.68409824 -0.3734845 -0.14852428 -0.34534883 -0.40122822 -0.7468762 0.2500482 -0.023620747 0.29977435 -0.17266041 0.043180425 -0.7882558 -0.038203906 0.23715241 -0.3262204 0.3417772 -0.111255966 0.7271766 0.01820114 1.2636517 -0.017904507 0.0028260488 -0.28677857 -0.42824203 0.5091134 -1.0268123 -0.63461256 -0.31112394 0.023413062 -0.20959014 0.035337813 -0.39892015 0.031731546 0.12317043 0.5787427 -1.0723841 -0.10751388 0.20846695 -0.95109016 0.015754823 1.2217551 0.6900587 0.113678835 0.5716296 -0.6390708
212 -0.3693977 -0.400398 -0.46410248 0.04991609 -0.6520618 -0.5507153 0.4927414 -0.36523157 0.37345976 0.29356375 -0.056616392 -0.41810733 0.50062406 -0.12865457 0.41986665 -0.62415934 -0.65566117 -0.11854544 0.38423902 -0.87669075 -0.70251787 -0.041769795 0.15649743 -0.11272094 -0.21582171 0.24548595 0.19745034 -0.29585668 -0.41548678 -0.031941194 -0.29507503 0.16518535 -0.15419297 0.16670947 0.40566495 -0.10907546 0.85984874 0.035640966 1.0019846 -0.23954009 0.33655095 0.09704952 -0.5155903 0.6044998 -0.71504205 -0.2730288 -0.5209364 0.13324223 -0.22691922 0.33170593 -0.050675005 0.014285251 -0.14075516 -0.2246477 -0.856311 -0.32270795 0.12006688 -0.95329905 -0.17618835 1.0335709 0.69059765 0.42749 0.49403474 -0.6478173
44 -0.38382378 -0.49216115 -0.3852324 0.01422133 -0.6022624 -0.5586941 0.57865053 -0.2630593 0.23161331 0.19482027 -0.17293233 -0.40537673 0.6009545 -0.08719096 0.3583893 -0.4955511 -0.6341939 -0.13026954 0.31409782 -0.7652529 -0.6662971 0.0063164136 0.08355268 -0.15658501 -0.24183263 0.25360116 0.2676963 -0.27825835 -0.40519273 -0.09961336 -0.33963698 0.18229192 -0.08316682 0.16709213 0.4440638 -0.121633135 0.67610794 0.0740421 0.97662807 -0.33034828 0.3370424 0.19181089 -0.47624072 0.6414822 -0.7088813 -0.37757644 -0.5066358 0.30237922 -0.19272223 0.3535811 -0.05632636 -0.024294678 -0.11799914 -0.25330535 -1.0029436 -0.3109813 0.094154485 -1.0689981 -0.14702499 1.0562776 0.70699835 0.359405 0.41986117 -0.5933037
107 0.7839015 0.40981695 0.017002976 0.6888139 0.06801799 -0.6815117 -0.5445188 0.05146692 -0.05103357 -0.13869497 -0.71418893 -0.25105426 0.26509297 0.11257267 0.019820396 -0.42489144 -0.018536367 -0.41144675 0.16715546 -0.35874254 -0.71831834 0.23091651 -0.022097275 -0.18179153 -0.47838467 -0.17685772 -0.40506116 -0.5761377 -0.63230145 0.18280512 0.08305136 0.33678964 -0.0029390664 0.45360896 0.32262748 0.1168047 0.48388395 0.68544173 1.14431 0.00861166 -0.16828792 -0.042103857 -1.2435459 0.23167951 -1.3489854 -0.465417 -0.60512006 0.12145448 0.10509505 0.19250043 0.048987404 0.14934365 0.040548902 -0.20365617 -0.6079408 -0.72976565 0.4986993 -1.2404603 -0.24197236 0.7627584 0.8119023 0.14436899 0.16416991 -0.13761757
233 0.50854623 0.051466603 0.073681615 0.050210036 0.09117139 -0.7600057 0.065010846 -0.34846088 0.79753244 -0.8260074 -0.30996543 -0.3585705 -0.0045711487 0.075814545 0.13060361 -0.36830598 0.015878938 -0.18883929 -0.0193736 0.16540481 -0.5171887 0.4349916 0.13985671 0.4606076 -0.79703045 1.1535249 -0.5190898 -0.88346773 -0.46385917 0.06448203 -0.09020164 0.65503985 -0.18340866 -0.8103595 0.6878452 0.042692944 0.7463051 -0.4075653 1.1702837 -0.6266587 0.995935 -0.18344887 -0.79348016 0.9127765 -0.80296606 -0.71153045 -0.51774913 0.33763868 0.5317086 0.2250243 -0.30819827 -0.254377 -0.20250887 -0.25586036 -0.3650937 -0.22024599 0.46487182 -0.817006 -0.6116092 0.96686673 0.43983546 -0.11249944 0.2346403 -0.62034386
275 0.66567665 -0.9560314 0.87444526 -0.17747255 -0.3330559 -0.11682889 -0.17846304 -0.15001442 0.5275441 0.025852682 0.13342898 -0.019926354 0.075404555 0.021651858 -0.07236988 -0.12866391 0.17654645 0.26567963 -0.013887775 -0.39218807 -0.7802575 0.30060217 0.10026402 0.067129895 -0.62236995 0.14759953 -0.17394601 -0.20740718 -0.76952165 0.017650517 -0.17359243 -0.37031302 0.012963674 0.14346297 0.72313625 0.10263215 0.83729815 0.51161283 0.8270619 0.11730672 0.32188097 -0.17284442 -0.4043489 0.7028033 -1.1271265 -0.6655592 -0.53616583 0.3038055 -0.01116196 0.21710669 -0.34539968 0.27587038 -0.013938119 -0.048418112 -0.7708773 -0.2212976 0.0739672 -0.8034132 -0.48116568 0.5580585 -0.061741587 0.33737534 0.26108307 -0.48616573
336 0.56317705 -0.059465524 0.21066922 0.1381703 0.37590638 -0.5406708 0.48187527 -0.7740933 0.21457176 -0.08865513 -0.13270822 0.021245657 -0.16445172 0.17871933 -0.11798833 -0.61610746 -0.040048826 0.21638454 0.6448038 0.15289344 -0.40215075 0.7301884 0.23836046 0.43555763 -0.5078639 0.19276468 0.47478053 0.24477531 -0.62839115 -0.03597605 -0.28253168 0.522606 -0.39675376 -0.03130191 0.2591257 0.25783983 0.6835511 1.199127 1.6587168 -0.18014577 0.9370168 -0.20562257 -0.31827173 0.24374697 -1.1147677 -0.4215821 -0.028959054 0.119025 -0.7986584 0.14358833 -0.5921363 0.3491018 -0.42454553 -0.28162178 -0.7859021 -0.33058965 0.6691263 -0.9642886 0.43628561 1.1729683 0.4357558 0.7362408 0.1778515 0.054397322
99 0.6552884 0.22958212 0.14143674 0.39619097 -0.36795115 -0.3879737 -0.26802334 0.21257648 0.30387843 0.22965346 -0.528005 -0.20623088 -0.042234927 -0.04167098 0.010321837 -0.5574534 -0.12723695 -0.17012756 0.028950578 -0.47639236 -0.7989203 0.16288638 -1.066584 -0.1692473 -1.1763769 0.10474729 0.039985508 -0.42548338 -0.8981455 0.42261946 -0.4510084 -0.16672273 -0.43888196 -0.6987118 0.70913416 -0.42832276 0.3044052 0.68636316 1.4070293 -0.27349797 0.59284997 0.50039536 0.029811174 0.71779317 -0.47685063 -0.5300826 -0.778125 -0.072721854 0.06150076 0.12655315 -0.33959353 0.25029084 -0.53467804 -0.28478977 -0.89344877 -0.008692366 0.6576598 -0.054401554 -0.0336592 1.2437433 0.5302816 0.8197494 0.12816256 -0.60301363
173 0.15613437 0.09212338 -0.08041195 -0.038834456 -0.37097874 -0.1927797 0.47748098 -0.4086828 0.3251499 -0.16392402 0.11465711 -0.36810714 0.42062798 0.490513 -0.037148368 -0.9151564 0.26296738 0.14334789 0.21929672 0.22535898 0.0031588902 -0.043045033 -0.39637312 0.2778283 -1.610244 -0.016365109 0.13388015 -1.0086997 -1.0089998 0.14092858 -0.55393565 -0.62310016 -0.13086684 0.3465405 0.043301903 -0.19555037 0.20569079 0.15045932 1.788763 -0.22357722 0.4076241 -0.3775241 -0.61815596 0.68483853 -1.1190253 -0.121019416 -0.1128966 0.06896372 0.05038389 0.031719573 0.1780879 -0.20637238 -0.18855497 0.24284117 -0.47351906 -0.34811214 0.35924155 -1.273863 -0.4695916 0.7081884 0.10997871 0.5806061 0.0382838 -0.28497487
332 0.5164747 -0.08681613 0.21357113 0.23948906 -0.040579386 -0.4683268 -0.0054249386 0.3599683 0.33024842 -0.2920521 -0.13574074 0.0016220214 0.35423723 -0.09865347 -0.07500618 -1.149769 -0.37743443 -0.44413975 -0.07385403 0.21766973 -0.35156137 -0.25929165 -0.16836976 0.46414405 -0.5192782 0.71695626 -0.9395863 0.1852908 -0.7810121 -0.3025782 -0.049493443 -0.39468196 -0.16573484 0.17070352 0.5815197 0.08820462 0.3352338 0.8415705 1.4925869 -0.23929012 1.1489849 -0.019220449 0.06377947 0.15484191 -0.5463699 -0.044885714 -0.21520019 -0.26634753 0.19947343 1.0255492 -0.3020852 0.20517105 -0.23224528 0.006941707 -1.2580767 -1.0437154 -0.11948427 -1.3378918 -0.2305458 0.6421873 0.5543172 0.14373598 0.43505204 -0.8672199
12 0.34157082 0.442159 0.36323047 -0.080320865 -0.62379485 -0.5539131 0.13658161 0.2500047 0.7212861 0.02155769 -0.059757464 -0.7344254 -0.102976985 -0.7499983 0.7215207 -0.14687683 0.034435313 -0.30390444 0.26120102 -0.28533152 -0.13779837 0.31154957 -0.20328456 0.63357556 -0.7598816 0.2757592 -0.047136564 0.17207709 -0.46273306 -0.05508282 -0.16973358 -0.28695896 -0.27466476 0.61292344 1.4330955 -0.05542705 0.3483408 0.36352974 1.4156307 0.17206383 0.7720502 0.2637723 -0.3578352 0.20440473 -1.4467695 -0.9651607 -0.23428248 0.12206115 -0.13945943 -0.4314278 -0.10613614 -0.37885392 -0.19066475 0.029850733 -0.103920616 -0.65451163 0.68812996 -1.090502 0.23037603 1.1239523 0.41625282 0.055813476 -0.076826744 -0.9443525
274 0.61962646 -0.894047 0.8287559 -0.19587414 -0.43385696 -0.2141338 -0.24856605 -0.2788579 0.45078757 0.06944615 0.18782118 0.07308859 -0.012657108 0.02248264 -0.06386456 -0.21792203 0.13031654 0.1886302 0.009865985 -0.4513723 -0.79258174 0.29043642 0.021356253 -0.018836042 -0.6215505 0.2023424 -0.25468513 -0.17297938 -0.7703196 0.0892375 -0.12568814 -0.28486493 0.0921716 0.19579004 0.77224946 0.20511846 0.8176055 0.5120818 0.83614266 0.0050278786 0.3870729 -0.14548112 -0.4527282 0.910478 -1.1323403 -0.6077857 -0.5779418 0.21139923 -0.02524169 0.17139865 -0.30174127 0.27595255 -0.17438081 0.15579921 -0.7285405 -0.2271218 0.10648838 -0.81571245 -0.31796992 0.3831994 -0.11851599 0.33194166 0.26367718 -0.41517708
31 0.6014222 -0.98650545 0.81990266 -0.1805556 -0.37703064 -0.23270427 -0.28915322 -0.21979927 0.45118272 0.054167278 0.07723415 0.10600115 0.11941393 0.12149233 -0.035895243 -0.16941608 0.2415182 0.17437325 -0.00854518 -0.43956602 -0.7324185 0.3161978 0.09613263 0.064768724 -0.6286242 0.16076145 -0.20911984 -0.1997027 -0.6631188 0.102628574 -0.16522507 -0.3331884 0.02924218 0.14659414 0.7444445 0.11465607 0.8217075 0.62216395 0.8648683 0.111468494 0.39872453 -0.27809614 -0.5365499 0.77552587 -1.1102062 -0.6169373 -0.5823757 0.20173196 0.024955502 0.09085018 -0.15858985 0.38021618 -0.11060166 0.06982964 -0.74526215 -0.19419676 0.04920734 -0.7462522 -0.31131312 0.56192243 -0.101044714 0.26547536 0.25845703 -0.57926095
306 0.56182545 0.063687116 0.117512785 0.37038797 -0.33282435 -0.49210924 0.5603103 -0.34641638 -0.2639781 -0.35303828 -0.24740928 -0.29509464 0.42314228 0.3537571 0.10551974 -0.83052707 -0.47956452 0.17014627 -0.08178996 -0.46264705 -0.31675097 -0.21408114 -0.73362106 0.65581983 -0.7807806 0.27182424 -0.3581646 0.510155 -0.49129105 -0.5882632 -0.07302401 -0.29432386 0.4347421 -0.30534783 0.51982254 -0.34906965 1.3447877 0.8587241 1.180772 -0.5227525 -0.10221277 0.52199847 -0.6275366 0.32532632 -1.039311 -0.63743126 -0.2888606 0.33575222 0.45386395 -0.75939953 -0.5336619 0.27962318 -0.08028215 0.029797457 -0.3744566 -0.12567154 0.75357646 -1.1243721 -0.6798304 1.0649227 -0.105512396 0.16651624 0.5350092 -0.3967363
133 0.5208549 -0.059420597 -0.11438943 -0.04577673 -0.69628704 -0.8031247 -0.44724143 -0.776836 -0.2668284 -0.24253033 0.093795784 -0.4949799 -0.02369461 0.3937611 0.06014093 0.50830346 0.18324825 0.37298468 0.10970075 -0.16559832 -0.9645312 0.09384521 0.0691963 0.25566724 -0.718773 -0.013336046 -0.49395913 -0.32982013 -0.52984965 -0.033695184 -0.42125997 0.26696178 0.57917136 0.71446234 0.25645712 -0.118922 0.7591114 0.39133942 1.6151199 -0.5039461 0.2987862 0.51156974 -0.010636621 -0.0809642 -1.013905 -0.45520037 -0.06299281 0.18025194 0.17467247 0.3463535 0.09498963 -0.7626374 -0.52802753 0.26520646 -0.93804026 -0.46334553 0.4558242 -0.51032495 -0.41562775 1.6024173 -0.0037153112 0.4457974 0.30906025 -0.86387634
350 0.6395927 -0.9378218 0.890783 -0.00503162 -0.15663865 -0.09299305 -0.20767687 -0.3412097 0.41831413 0.195652 0.16902761 0.13905497 -0.0045169825 0.10141658 0.11049627 -0.26377258 0.03380004 0.1857198 -0.11680688 -0.38325197 -0.7208457 0.43394142 -0.05317262 0.1378383 -0.6559399 0.06344674 -0.27615023 -0.17382942 -0.7804586 0.0038668502 -0.24050824 -0.3042 -0.07023014 0.09839616 0.67770725 0.26026568 0.91503334 0.23882422 0.76222605 -0.08391813 0.3148003 -0.084595695 -0.581171 0.5464258 -1.107287 -0.39886278 -0.57889974 0.23770279 0.0054159383 0.25442797 -0.1125822 0.37974778 -0.19703667 0.10321494 -0.38485324 -0.48676142 -0.018697739 -0.76363 -0.3027337 0.7338291 -0.018588545 0.507098 0.21028858 -0.66634065
34 -0.04403613 0.02110204 -0.28247514 0.13098915 -0.4320354 -0.17624377 0.3013833 -0.16415223 -0.055633977 0.13825819 -0.124240056 -0.024314012 0.39572808 -0.15755276 -0.35444918 -0.36942664 -0.11382761 -0.17485783 0.17441532 -0.9068434 -0.40313354 0.27119985 -0.1396894 0.4772357 -0.4450851 0.31939664 0.2381562 -0.39347416 0.0063347593 -0.11579669 -0.8641503 0.21379696 0.25933614 0.09456538 0.4531215 0.18704878 0.9186509 0.169418 1.1267946 -0.23134525 0.43620187 -0.37098166 -0.14768659 0.28920272 -0.79947424 -0.60499215 -0.7996527 0.35202152 0.055622756 0.3231694 -0.07482871 0.1437413 0.0326573 0.0744601 -1.0202477 -0.39697653 0.43665418 -0.8210931 -0.19536118 0.5321572 0.7711915 0.38662732 0.14182648 -0.8170703
216 0.32066366 0.30529475 -0.1355291 -0.2829394 0.111558646 -1.035605 -0.34075123 -0.5909279 0.5507582 -0.69785225 -0.013035227 -0.28309476 0.48962495 0.1952437 -0.20280004 -0.14609803 -0.01843792 0.13163549 -0.39586526 -0.68263596 -0.42078745 -0.19691761 -0.3120326 0.24287543 -1.0624868 0.5441895 0.029954545 0.37708038 -0.6616265 -0.109176524 -0.46012112 -0.24870595 -0.2942874 0.23796168 0.4868221 -0.12067681 0.5094071 0.44696456 0.8089154 -0.14226554 0.13064876 -0.35027906 -0.37858006 0.13697879 -0.62581927 -0.66585225 -0.82592684 0.28473657 -0.24370287 0.14797892 -0.24362603 -0.15869926 -0.4626199 -0.366694 -0.39202794 -0.54756653 -0.22432527 -0.8580362 0.07767792 0.8065554 0.53391945 0.6385023 0.087271005 -0.3236442
27 0.6640084 -0.9295658 0.9077347 -0.008663064 -0.23488136 0.06654925 -0.26820803 -0.41387454 0.42471534 0.18607087 0.22287117 0.20682736 0.006927683 -0.011745277 -0.026480678 -0.15889823 0.07221425 0.0799178 -0.0983853 -0.38186893 -0.72185546 0.14874502 0.06784682 0.09224446 -0.6556918 0.13221994 -0.26343763 -0.10075637 -0.8533799 0.007977572 -0.22842106 -0.21280386 -0.0661376 0.046251938 0.7085197 0.26058966 0.87251514 0.36656734 0.74184704 -0.021131478 0.38466465 -0.20866792 -0.57514435 0.5788825 -0.9955892 -0.4871249 -0.5567633 0.1682995 0.07171921 0.034752812 -0.0999654 0.22579935 -0.068208456 0.15370287 -0.45411712 -0.5617367 0.13786882 -0.799225 -0.41612583 0.7665305 0.1695522 0.63632095 0.2316495 -0.5337031
215 0.25932106 0.28544292 -0.14907445 -0.110741414 0.25301546 -1.0120624 -0.28829062 -0.645359 0.60374874 -0.67483497 0.16846748 -0.11418928 0.32817364 0.21108022 -0.26038995 -0.17408644 -0.15169749 0.07332186 -0.2867836 -0.7389248 -0.58233577 -0.10263802 -0.4506947 0.108245686 -1.100658 0.6844759 -0.024253624 0.39759722 -0.6500084 -0.04234205 -0.44615325 -0.25758708 -0.19557877 0.1745364 0.33954084 -0.1525336 0.48578098 0.39898008 0.8484924 -0.10379902 0.09264306 -0.3811208 -0.38127995 0.13636029 -0.5293787 -0.59195685 -0.77872336 0.2549783 -0.19418092 0.11740199 -0.18287872 -0.17468971 -0.5693417 -0.19708414 -0.38128915 -0.6910321 -0.22491665 -0.89742905 -0.032507293 0.8345271 0.4784378 0.6699638 0.12640263 -0.2519503
269 0.1159018 -0.034212988 -0.2017674 0.2630367 -0.44475064 -0.18143463 0.39842278 -0.19919597 0.023456505 0.1449258 -0.09030626 -0.06137445 0.29898798 -0.1897409 -0.35003573 -0.3960982 -0.23354582 -0.11713287 0.2192648 -0.8007391 -0.5146191 0.17811072 -0.32065687 0.4254881 -0.3572202 0.46542984 0.094241105 -0.29223797 -0.08484209 -0.2368845 -0.8179815 0.22525245 0.21922053 0.18544932 0.38238683 0.22079362 0.82750607 -0.077559926 1.0787026 -0.121580414 0.4440354 -0.2709287 -0.10001902 0.28103742 -0.91588867 -0.63289255 -0.675948 0.43051186 -0.0655635 0.31498286 0.021339936 -0.0270103 0.0798688 0.07925808 -1.0562377 -0.2891534 0.60945594 -0.8683095 -0.30505797 0.41222495 0.8858097 0.6110431 0.1526422 -0.6747586
230 0.5176868 -0.03439228 0.094905466 0.16724902 -0.24565816 -0.47870845 -0.0043668794 -0.20678556 0.8223912 0.05322425 -0.257163 -0.20642853 0.07219198 -0.11108802 -0.31156623 -0.17527227 0.17232239 0.0027116707 0.40727898 0.031788006 -0.43496808 0.9095332 -0.048313044 -0.6934274 -0.98506004 0.25737837 -0.18976302 -0.39860684 -1.1717876 0.7672314 -0.51265055 0.09747329 -0.56272143 0.7786803 0.31526133 0.21953999 0.3871867 -0.083451465 0.90091646 -0.7525818 0.2620123 -0.5745731 -0.15334441 0.521619 -0.7147069 -0.92785734 -0.6274043 -0.017338593 -0.90578836 0.2684307 0.080827884 -0.646412 0.24275273 -0.042845447 -1.1327167 -0.98277724 0.222138 -0.37208638 0.16718778 0.95841545 0.6508656 0.11726882 0.016864998 -1.1726346
124 0.6046987 0.3009788 0.026093377 0.38800797 0.14986065 -0.82815623 -0.40468654 0.08945381 -0.28081626 -0.26752022 -0.4501017 -0.42951372 0.077783756 0.27827695 -0.1313885 -0.39549726 -0.027972545 -0.39014307 0.24134777 -0.33575687 -0.7216512 0.3984993 -0.38947743 -0.5126281 -0.32288575 -0.30235845 -0.16793129 -0.40842173 -0.4371157 0.6340447 -0.2510425 0.15829718 -0.31681287 0.33755505 0.45007643 -0.06913696 0.7162081 0.5801041 1.214357 -0.027759194 0.3154332 -0.004536421 -0.8795096 0.12461107 -1.2311838 -0.79544914 -0.40434724 0.10713489 0.27104312 0.3074424 -0.259302 0.036989853 0.30203328 -0.15124246 -0.24833702 -0.8546598 0.27658308 -1.4271991 -0.53937346 0.6570419 0.5558623 0.3347898 0.5155207 -0.2263111
6 0.46549493 -0.18868572 -0.030868556 -0.44081414 0.7173521 -0.75819814 0.30569315 0.016455723 0.63116074 0.249315 0.30179527 -0.36126253 -0.09309755 0.4996557 0.5023157 -0.19657879 -0.4422161 0.04251376 -0.45772305 -0.20820399 -0.7075103 0.08793193 -0.9770341 -0.25382608 -0.6922187 -0.2435981 -0.1910936 -0.41397887 -0.4996322 -0.2787703 -0.13999678 -0.10302892 0.36476064 0.030412631 0.7449329 0.47368592 0.38818946 0.40058687 1.2337755 -0.55208427 0.40580767 -0.56362414 -0.39508054 0.30934227 -0.79689634 -0.43762025 0.035996437 0.2880032 0.11037329 -0.0786951 -0.7957803 -0.46282208 0.23200956 0.20163111 -1.1578938 -0.4311546 0.76426977 -0.77519405 0.22457306 0.9156219 0.6327288 0.09366032 0.35524064 -0.5661409
67 0.9332924 0.6038948 0.007616956 -0.3168438 0.06323802 -0.02722639 0.5502493 -0.259727 -0.16401704 0.02544392 -0.19146647 0.21123804 0.54395074 0.21248296 0.5423758 0.011340471 -0.26202404 -0.090469874 0.47696778 0.17748855 -0.8531431 0.04050064 -0.2958815 0.098055385 -0.701453 0.6825358 -0.13545305 -0.44151205 -0.36215347 0.13859002 -0.07071535 -0.030645652 -0.17261745 0.27750662 0.4790375 0.10975031 0.54045963 0.35673267 0.74073255 -0.03223297 0.16241784 -0.21864133 -0.29355174 0.4270438 -0.67129856 -0.8748534 -0.37276456 -0.05356722 0.10779559 -0.016510127 -0.17118843 0.2533027 -0.06083946 0.080162324 -0.8123406 -0.52176774 -0.16305022 -0.70688856 -0.061005514 1.1108313 0.044309806 0.49167895 0.34864113 -0.679327
260 0.35522434 -0.071506396 -0.36521932 0.4556237 -0.11373435 -0.0046815155 -0.6953801 0.28689227 0.19567034 -0.43191674 0.3602781 -0.33302152 0.48938537 0.23429702 0.44971815 -0.13408907 -0.28856474 -0.19652595 0.3161647 -0.37353545 -0.4305195 0.4599266 -0.49700397 0.5750989 -0.78273845 0.09516137 -0.0037882908 0.4476034 -1.1186683 0.24418202 -0.06114684 0.39315695 -0.1480264 -0.12710474 0.46051925 -0.042710893 0.84197813 0.062113322 1.4515685 -0.8054854 0.323273 -0.43807578 -0.4880586 0.51291484 -0.93595874 -0.91777325 -0.054055884 -0.13888553 -0.068693474 0.33860037 -0.058649503 0.076807626 0.08735679 0.28956842 -0.9915181 -0.057693265 0.1014172 -1.0458252 0.13182472 0.85821074 -0.06505044 0.41488555 -0.004729425 -0.536634
338 0.70730364 0.20462441 0.25707304 0.2657297 0.029033922 -0.80038065 0.61369836 -0.4377514 0.7093065 -0.20674714 -0.026963644 -0.47102252 0.5903853 -0.38373053 -0.5406574 -0.49085185 -0.3437688 -0.12176991 -0.47502756 -0.41949815 -0.56649536 0.45518026 -0.122195385 0.18146262 -0.5025642 0.07543365 -0.6161462 -0.070417084 -0.6845899 0.68630034 -0.112434305 0.3302127 -0.4189789 0.3538871 0.4022554 0.4240583 0.40648264 0.3709533 1.467661 -0.059739374 0.07113632 0.074742444 -0.46653786 0.31764773 -0.37493062 -0.49670854 -0.12309118 0.3517741 0.18474022 0.07008559 -0.26466706 0.073732436 -0.015389869 0.7106336 -0.68834406 0.27534342 0.4557118 -1.1150805 -0.117806286 1.1433185 -0.13054395 0.9286546 0.14867662 -1.125167
252 0.76665473 0.6701048 -0.10579986 -0.21932624 -0.01727872 0.12218687 0.6046041 -0.27954516 0.095546685 -0.12315844 -0.24135743 0.20932193 0.4486736 0.039524402 0.557001 0.095954835 -0.08314996 -0.26578444 0.4654977 0.09039454 -1.0057267 0.10810542 -0.34013546 0.038227938 -0.49423397 0.675736 -0.18777229 -0.36244023 -0.42676708 0.15344757 0.033745218 -0.27529472 0.0344295 0.3145608 0.30994037 -0.08187414 0.5768501 0.41931897 0.87687945 -0.021570247 0.13613345 -0.33196726 -0.34640294 0.5523523 -0.7353073 -0.77001816 -0.30476084 0.1625842 0.06855892 0.039840516 -0.35009998 0.08601782 -0.18803163 -0.10996449 -0.74313796 -0.4484821 -0.22645742 -0.7646453 0.03949296 1.0917425 0.082662925 0.50047636 0.43688133 -0.66889006
245 0.15732849 0.04165579 -0.21522501 0.05238582 0.18443258 -0.85924155 -0.18015361 -0.31956786 0.15197031 -0.26347604 -0.26332766 -0.21534702 0.04977023 0.4791277 -0.4627931 0.1920248 -0.9104678 -0.010105447 -0.42457375 -0.1737626 -0.33222145 -0.004614249 -0.2688639 0.11685741 -1.2373877 0.6497146 0.12961043 0.14290103 -0.9231456 -0.38808843 -0.23823927 -0.10116235 -0.3691497 0.3541827 0.6681542 0.0054924693 0.52277243 0.07657063 1.018785 0.37943178 0.18881594 -0.1233451 -0.41109902 0.21718754 -0.87939525 -0.6608483 -0.6001417 0.17007199 -0.23479027 0.10462605 -0.19483529 -0.053168092 -0.3193382 -0.16280824 -0.38767314 -0.32156765 -0.0210186 -0.69466925 0.15637586 0.61922735 0.20601687 0.43526867 0.34659776 -0.6334016
254 0.70594937 -0.21734826 -0.01064617 0.10838988 -0.08235666 -0.5117988 0.19967611 0.28325692 0.69719434 -0.36537266 -0.47530502 -0.76613295 0.48284543 0.28055122 -0.09985732 -0.73881954 -0.21295746 -0.10549204 -0.0905163 0.10036007 -0.8854521 0.4953993 0.040902168 -0.52096885 -0.82704777 0.666807 0.14821842 0.13875797 -0.38834456 -0.009243308 0.09221298 0.16272728 0.8452043 0.13212788 0.6007197 -0.32856995 1.4575874 0.55125684 0.6830574 -0.25319144 0.65332377 0.10753871 -0.44199744 0.05365233 -0.8310244 -0.87307507 -0.2841174 -0.1503084 0.029904755 0.3768729 -0.043868743 -0.13307732 -0.24234788 0.31803733 -0.5752767 -0.6859278 0.6946375 -0.59942544 0.34235555 0.79740775 0.27884772 1.04264 -0.32616028 -0.830513
55 0.06277346 0.1092931 -0.29137027 0.1304436 0.19243371 -0.87182343 -0.24286753 -0.40632108 0.18067172 -0.21608031 -0.3551224 -0.16941935 0.11872336 0.48613366 -0.44385472 0.18432143 -0.77520883 -0.14531319 -0.4573023 -0.21460365 -0.32535356 0.2029484 -0.33860406 0.136212 -1.1768903 0.6896116 0.109755285 0.17520943 -0.81223154 -0.32255247 -0.12867385 -0.23725656 -0.34770247 0.32556683 0.6573984 0.020193975 0.6249171 0.054940358 1.1287112 0.4145234 0.097458735 -0.21633305 -0.40026137 0.2801485 -0.8841893 -0.52728784 -0.5605052 0.120717935 -0.28180945 0.16385788 -0.16302232 0.012412853 -0.551259 -0.16466974 -0.36049387 -0.4421668 -0.026162356 -0.61913246 0.09422914 0.6236163 0.13192604 0.38098276 0.3352361 -0.6419921
321 0.3212528 -0.013163101 -0.084968485 0.17937596 0.12605184 -0.3327394 0.45235077 -0.001996217 0.59714615 0.04729339 -0.13881384 -0.10764568 0.48082864 0.5482366 0.20292038 -0.15536979 0.040562123 -0.052782975 0.30852807 -0.01321421 -0.12312128 0.17548354 0.0046686786 0.04563227 -0.9480921 0.22823921 -0.7610686 0.28887877 -0.84827256 0.34422722 -0.7635366 0.61595225 0.15591727 0.55004734 0.81861514 -0.025257563 1.0998585 0.37036395 0.35612097 -0.20271565 0.30725878 -0.49904317 -0.48324168 0.106631994 -1.3342425 -0.13644798 -0.0039790403 0.5050104 -0.2587217 0.21527058 -0.3502538 -0.3062584 -0.82226974 0.17041211 -0.5461758 -0.016217396 0.30879432 -1.5969236 -0.4042963 0.69642806 0.4980688 0.15653217 0.42013383 -0.8869669
333 0.50391346 -0.033204075 0.17918189 0.17743617 -0.0009754813 -0.4965585 0.006212364 0.42646563 0.29176563 -0.282492 -0.041471627 0.048461925 0.40036187 -0.10567426 -0.05026559 -1.2533882 -0.40937108 -0.45607176 -0.1902697 0.14156626 -0.40667677 -0.35072717 -0.17301975 0.5292009 -0.5400435 0.6481977 -0.9202129 0.08361768 -0.81679636 -0.31629735 0.0063163615 -0.38389814 -0.12412451 0.115094475 0.4603157 -0.013975595 0.485851 0.8624886 1.447725 -0.07998915 1.2521021 -0.029310584 0.12507504 0.11506273 -0.71982616 0.026004132 -0.19924305 -0.3511782 0.2822077 0.9319996 -0.24412884 0.20684375 -0.26747704 0.0275143 -1.1639583 -0.8950218 -0.10438617 -1.3864913 -0.1852649 0.638897 0.48930654 0.16742863 0.45303828 -0.87242186
104 0.3463843 -0.15558498 -0.30191234 0.9477684 0.7310818 -0.30850816 -0.49555224 0.022835463 -0.31061494 -0.35158163 -0.11933489 0.82540613 0.3669594 -0.013858023 0.6424655 -0.72087467 0.425509 0.25931528 0.5692082 -0.40387723 -0.61405826 -0.32863417 0.9386345 0.11469268 -1.3656548 0.97704977 -0.5395786 -0.33322588 0.053158756 -1.0929811 -0.8375423 -0.14696904 0.9502222 -0.13500391 0.22327352 0.616747 2.565675 0.14033039 0.6004828 1.3309727 0.28744984 0.024649652 -1.0264798 1.7659901 -2.628579 0.5360301 -1.3026444 -0.018518625 -1.0201118 0.29498237 -0.76034844 -0.17163615 -0.28710872 -1.286069 -1.2617452 -0.37537646 -0.51873845 -1.2518605 -0.13968585 1.6129242 0.94790024 1.8226582 0.8574746 -1.7467567
18 0.35709155 0.29382217 0.2966643 0.36827666 -0.2868985 -0.3196695 0.011595654 -0.30254605 0.86194515 -0.056658253 -0.17297056 0.024784693 0.15269005 -0.30844048 0.122505404 -0.6833911 -0.39533278 -0.120459914 0.17162497 -0.330356 -0.3491829 -0.065913714 0.17600302 0.22271413 -1.4074811 0.43102866 -0.19435818 -0.34821182 -0.9381262 -0.8042109 0.16860795 0.040075835 0.5633081 0.26458716 0.34998256 0.3129408 0.38563362 0.38761634 0.8941124 -0.6756029 0.26117864 -0.3798093 -0.41084126 0.1333726 -0.916507 -0.71393484 -0.26718694 0.4315576 -0.48874006 -0.0040088817 -0.22323905 0.36981604 -0.7856214 0.47776893 -1.2328781 0.16510119 0.18040946 -0.33195335 -0.2697925 1.4969671 0.39783934 0.08929492 -0.22961542 -0.77946424
325 0.5487624 0.032319203 0.07389404 0.41075474 -0.20239186 -0.28130633 0.12183277 -0.22663611 -0.052731212 -0.024471877 -0.60131913 -0.7772466 0.08745298 -0.57705975 0.50941736 -0.04521994 -0.28035706 0.54706055 -0.22500852 -0.45941997 -0.50337297 0.11904295 -0.43037134 -0.040183946 -1.021234 0.76410514 -0.14293152 -0.5712144 -0.4542196 -0.1386413 -0.32519266 0.14028546 -0.21128456 -0.64584213 0.63491035 -0.06187636 0.5649404 1.2664565 1.1065867 -0.4497229 0.39938515 -0.72423995 -0.7956644 0.10746058 -0.6562554 -0.5301422 -0.11258699 0.3839728 -0.8792121 0.5882444 -0.014057709 -0.3398757 -0.15363991 0.54063046 -0.48046553 -0.5609675 0.32159108 -1.2146978 -0.37801808 0.58394736 -0.18324283 0.47306806 0.43671104 -0.752581
318 0.31049797 -0.20580207 -0.5635774 0.79455537 0.27369145 -0.90101826 -0.09145526 0.019942194 0.11139279 -0.29369348 0.29572117 0.5928372 0.8020428 -0.042562798 0.31038913 -0.8294515 0.3112236 0.5882056 0.27210847 -0.03730697 -0.6090622 0.2798793 -0.11816416 -0.5288313 -0.606474 0.4955833 0.20202823 -0.088019684 -0.80271715 -0.55783683 -0.33220193 0.3652637 -0.35365108 0.235897 1.182972 0.13398203 0.24517712 0.6309874 1.1411752 -0.07721143 0.26981124 -0.054172624 -0.0842106 0.5429771 -1.1499189 -0.52782476 -0.6073712 0.12055807 0.13587183 0.011650979 -0.38605073 -0.36185208 0.00024845483 0.5781202 -0.45676854 -0.4449295 0.5094072 -0.601556 -0.7400252 1.0922863 0.073575854 0.4184273 -0.020020097 -0.9406866
171 0.34618863 0.32289177 -0.022555811 0.2623859 -0.34902748 -0.48477527 0.023697836 0.2217155 0.37669513 -0.4893463 -0.2883818 -0.25457373 0.008750412 0.28624645 0.030700073 -0.6768569 -0.19200563 0.3070904 -0.015176301 0.3225835 -1.4934977 0.24971043 -0.24765462 0.5566186 -0.52894866 -0.16398165 0.06443886 -0.03776785 -1.0275275 0.039084736 -0.43306607 -0.11891566 0.09376553 0.21971124 0.72692555 0.5999088 1.0291401 0.4594036 0.97631687 -0.021053264 0.50656086 -0.31800243 -0.33985975 0.6904594 -0.081716195 -0.54495424 -0.48367596 0.20026137 -0.5806717 -0.17049599 0.43485054 -0.07430916 -0.4092843 0.29235873 -0.47469616 -0.29486567 0.46534815 -1.0164984 -0.42698863 1.1305844 0.54394287 -0.05922793 0.54107654 -0.61076146
109 0.80384505 0.5394533 -0.25972956 -0.06785958 -0.5277174 -0.1945656 0.72152257 -0.30654335 0.3523964 -0.208924 0.021653503 0.16351749 0.041986126 0.15409821 0.49187225 0.12822989 -0.25295386 -0.21114936 0.32610586 0.2588773 -0.8766203 0.15220363 -0.4646823 0.102678075 -0.5576549 0.5048669 -0.33874834 -0.18620762 -0.4220336 0.12276018 -0.18589103 0.21088293 0.07163677 0.31810948 0.3158973 -0.003783703 0.37536165 0.56856203 0.76759917 -0.32325405 0.40920883 -0.3933045 -0.4220909 0.32049182 -0.86670315 -0.5793515 -0.7837112 -0.39668617 -0.0301733 -0.17792217 -0.3878326 0.39845568 0.08567258 0.19738032 -0.61637694 -0.47976133 -0.28112164 -0.6614655 -0.46624216 0.89354783 0.1537744 0.8903755 0.33913925 -0.6327868
162 0.59117323 0.2547467 0.30484965 0.37387264 0.00026075242 -0.88524234 0.4980972 -0.43111697 0.66832745 -0.12318552 0.009511979 -0.2892403 0.661025 -0.32065642 -0.47994727 -0.45556924 -0.34771016 -0.20521404 -0.35810885 -0.39960176 -0.5397201 0.3975919 0.13091959 0.14533898 -0.40399212 0.16813815 -0.5304831 -0.13274273 -0.81995934 0.83626413 -0.039281946 0.24183416 -0.17535402 0.25192842 0.48256478 0.34124523 0.4936065 0.5072282 1.6596313 -0.04875676 -0.110115446 -0.1887956 -0.42583308 0.3995642 -0.19367906 -0.44234347 -0.19255611 0.2874977 0.21144216 0.067241125 -0.2878113 0.09095345 0.0024338895 0.55670315 -0.65051085 0.27011815 0.5082214 -1.0502476 -0.12849398 1.1646794 -0.17631674 0.85948396 0.23972444 -1.1607797
127 0.5315817 -0.046516657 -0.092607506 -0.03459835 -0.6495367 -0.8028216 -0.53348887 -0.64051193 -0.256712 -0.18830726 0.06630118 -0.41535673 -0.015595281 0.29137814 0.07540677 0.44349545 0.121852584 0.3004659 0.071448565 -0.14684147 -0.978063 -0.008894094 0.030903662 0.3109355 -0.768286 0.023925738 -0.6304378 -0.38845676 -0.54625636 -0.014189733 -0.4209074 0.26472384 0.5008254 0.58275694 0.21394548 -0.18055828 0.74022883 0.563462 1.6315446 -0.4466871 0.4836367 0.53810817 0.13888845 -0.11312833 -0.9936031 -0.2630584 -0.041387662 0.095620096 0.15614156 0.5167777 0.12410929 -0.80888563 -0.5911182 0.22177275 -1.0132225 -0.49521193 0.38943744 -0.5447624 -0.39460528 1.5140034 0.0024870224 0.45718122 0.36493713 -0.94498116
328 0.34355968 -0.07753281 -0.34370822 0.41802943 -0.090305574 0.11269106 -0.6471495 0.24694836 0.23636475 -0.39676657 0.37319368 -0.30458283 0.5238559 0.1404049 0.33493653 -0.11761502 -0.35698822 -0.044936676 0.29850963 -0.24136534 -0.41051805 0.428122 -0.5257233 0.60473454 -0.72978896 0.046975225 -0.084902264 0.40285936 -1.1649169 0.24467523 0.052735038 0.41785458 -0.17567822 -0.19887002 0.5741088 -0.083397165 0.8277213 0.0022932864 1.376128 -0.77344567 0.24655999 -0.42985123 -0.49977136 0.35482574 -0.93025285 -0.9552169 -0.13197942 -0.24666137 -0.0712494 0.3291033 0.07426133 0.037151705 0.04102353 0.21281283 -1.057065 -0.09562034 0.24041025 -1.1259716 0.062293977 0.9725834 -0.02415148 0.45613313 0.0027879523 -0.42452177
113 0.8306863 0.35908034 -0.010215563 0.63103443 0.08710076 -0.7257811 -0.50110674 0.016309626 0.021475784 -0.21634436 -0.64990896 -0.27994427 0.12579587 0.23333049 -0.061613787 -0.46262777 0.00016026336 -0.3307023 0.2533537 -0.41986683 -0.8097927 0.2786995 -0.41040826 -0.36712283 -0.3520004 -0.2022279 -0.53150713 -0.46233368 -0.51271373 0.19078247 0.07996969 0.3306468 -0.09156006 0.49129382 0.2846649 0.113096006 0.43983155 0.4900354 1.1567793 0.027198866 0.09760158 0.039220426 -1.2520884 0.23462802 -1.4123325 -0.4443082 -0.46588114 0.16544737 0.03490286 0.17482173 0.10213135 0.08378537 0.08170492 -0.112968795 -0.51249564 -0.6719242 0.5007894 -1.34634 -0.26444605 0.6854038 0.78415394 0.30479136 0.25291756 -0.14648595
108 0.86261576 0.55060524 -0.2574625 -0.17985447 -0.44833395 -0.20579217 0.76138663 -0.17898744 0.25159416 -0.1957316 -0.15921214 0.037290394 0.20036386 0.14437693 0.46769702 0.257113 -0.16268864 -0.16070795 0.13432918 0.31602368 -0.7075431 0.14288354 -0.39012784 0.120499834 -0.5072584 0.46489725 -0.22956239 -0.29906213 -0.620516 0.046922833 -0.073174834 0.12182952 0.2084568 0.38786224 0.49979126 -0.109502286 0.37471774 0.49971744 0.753435 -0.35219556 0.49576807 -0.27531344 -0.40943244 0.3554399 -0.93984574 -0.522527 -0.8504322 -0.3451801 -0.16216847 -0.14380872 -0.35586536 0.33125538 0.19683789 0.00536202 -0.74317026 -0.15578577 -0.31173033 -0.76820713 -0.26114026 0.91038966 0.20506564 0.8634849 0.5001299 -0.59737366
24 0.4479587 -0.8611898 0.6569112 -0.02551875 -0.09292421 0.18413913 -0.14558434 -0.5499428 0.45740822 0.021173496 0.07408898 0.22729126 0.0077190725 -0.1381979 0.03176894 -0.21473636 0.29337084 -0.09554725 -0.31295303 -0.47179538 -0.84789675 0.5267526 -0.2056343 0.10933838 -0.76742196 0.18076071 -0.18540193 -0.12492365 -0.88400817 0.04269124 -0.19964293 -0.15246491 0.15400484 0.114371054 0.7627063 0.08885294 0.77136856 0.27421734 0.8326898 0.088636525 0.32457745 0.06991382 -0.64820373 0.5307844 -0.9633456 -0.31547952 -0.35414216 0.20606239 -0.087237366 0.12184044 -0.21061425 0.36903387 -0.10700211 0.11070222 -0.5357359 -0.7243641 0.042328022 -0.7335658 -0.3655638 0.7607767 0.03444729 0.41748583 0.3474825 -0.5630656
265 0.56092304 0.14926158 0.09675715 0.32432914 0.31071272 -0.4152299 0.4834751 -0.3793376 -0.19302848 -0.26467565 0.14878066 -0.5289986 0.18592292 0.18948005 -0.10284985 -0.7638337 -0.5540228 0.0060501825 -0.030778954 -0.31107792 -0.45955002 0.30408224 -0.30028704 0.021658296 0.114099376 0.4303736 -0.57585156 -0.19998808 -1.4095925 0.28064775 -0.8468405 -0.09575486 0.16143493 0.16189359 0.79922765 -0.39892334 0.8117959 0.56838197 1.2965139 -0.2563259 0.5961422 -0.3614072 -1.1320121 0.57002544 -1.1351314 -0.67075443 -0.20718688 0.05374449 -0.1487785 0.09168685 0.010223623 -0.34756276 -0.6771304 0.4426075 -0.9802606 -0.35522178 -0.1782902 0.24286209 -0.34036127 0.8712027 0.4841834 0.2310588 -0.021825377 -0.4093815
232 0.34041986 -0.022898689 -0.18424551 -0.4161145 0.22857948 -0.7492579 -0.11083625 -0.2862987 0.26292485 0.44351524 0.3292229 -0.2921598 -0.03816052 0.038039774 0.4873856 -0.50631094 -0.09629962 -0.1324089 -0.64559925 0.41894737 -0.5511754 0.03472451 -0.4139586 -0.23377955 -0.7936406 -0.018995008 -0.1583189 0.04803285 -0.14966592 0.10818998 -0.3663342 -0.15483844 0.056373917 -0.07543817 0.6197635 0.20724827 0.79834706 0.30601937 1.3470017 -0.578077 0.048995502 -0.52744037 -0.82920146 0.2441055 -0.8914637 -0.32067755 -0.50232536 -0.16521466 -0.022334753 0.056357056 -0.41775873 0.01389212 -0.111583695 0.31377205 -1.0393057 -0.20540401 0.70562875 -0.6425272 0.17498773 0.9240598 0.6755918 -0.008856339 0.44363105 -0.72286755
290 0.71418506 0.61173165 -0.15972015 0.43008816 -0.16018987 0.32889646 0.23358092 -0.74406165 0.12113238 0.14017938 0.23988359 -0.35579902 -0.3292827 0.6021995 -0.0028869982 -0.9439192 0.021033425 0.20894071 -0.25445753 -0.5727187 -0.42071682 0.108646914 0.035030413 -0.3406605 -1.0650057 0.33504918 -0.312533 0.11842987 -0.2951681 0.2716848 0.024546452 -0.106750414 -0.008582545 0.16603829 0.914211 0.07472864 0.7544197 0.4696223 0.9617189 -0.019056568 0.5315562 -0.036862027 -0.420776 0.5574207 -0.5650502 -0.92480946 -0.1578456 0.46661872 0.07417022 0.6963337 0.282199 -0.23558244 0.029292364 -0.48672202 -0.78769803 -0.058126748 0.10137581 -1.0107038 0.3066082 1.2269858 0.11872253 -0.21120787 0.21817307 -0.68100977
342 0.32724944 0.28864053 -0.024323415 0.17071688 -0.30273175 -0.45007324 0.089000046 0.20783788 0.3046541 -0.59517384 -0.35741115 -0.31986517 0.056951758 0.3511669 0.04518308 -0.66466147 -0.10875593 0.17665476 -0.10151655 0.2121671 -1.5436414 0.2652901 -0.2175164 0.6361989 -0.70991194 -0.23220383 0.13638106 -0.030695317 -0.94864124 -0.055784214 -0.57855886 -0.026873149 -0.012096961 0.23243922 0.5699793 0.5658292 0.87187415 0.6259923 0.82567734 -0.03711406 0.5612947 -0.22079954 -0.3914944 0.73366225 -0.08653553 -0.6636681 -0.5185744 0.22459032 -0.5277015 -0.11151524 0.3180949 -0.091981195 -0.31219253 0.47042805 -0.5168016 -0.33052742 0.38301328 -1.0108286 -0.3686922 1.18211 0.58708787 -0.17153673 0.48960605 -0.66059756
165 0.643373 0.30134553 0.25697488 0.21868399 -0.03026049 -0.75717956 0.5894698 -0.43289542 0.6247048 -0.20170991 -0.03944657 -0.47724444 0.7518156 -0.30729857 -0.55135757 -0.4678117 -0.32077792 -0.1954427 -0.53802246 -0.43092787 -0.5421919 0.50579756 0.18199965 0.27397016 -0.5068293 0.007914738 -0.4135096 -0.18522362 -0.84138876 0.74257946 -0.11351952 0.27793604 -0.32162797 0.19525193 0.35340333 0.4027006 0.44804618 0.5785225 1.4112185 -0.06676841 -0.1538037 -0.070282035 -0.3950123 0.35537347 -0.31609306 -0.5348294 -0.25479698 0.31189132 0.26300976 0.27596477 -0.49058977 0.07174255 0.0044826525 0.60358196 -0.77605206 0.17149927 0.5145669 -1.063128 -0.20573777 1.1564062 -0.15304394 0.78674126 0.2362917 -1.1261903
164 0.4250237 -0.34808356 0.18824326 0.7490526 -0.19290572 -0.5547005 0.5651679 -0.26469398 -0.24527124 -0.7071782 0.47013214 -0.78733766 0.25860947 -0.013080669 -0.17779416 -0.34798217 0.38680896 -0.23750113 0.3756051 -0.14511828 -0.5078915 -0.045355726 -0.48713988 -0.20732008 -0.96950895 0.10455722 -0.5433384 -0.46301344 -0.66911423 -0.12104101 -0.06823698 0.14139806 0.003410036 -0.10115692 0.8497289 0.45511246 0.7162508 0.082316376 0.99728596 -0.073955186 0.34361252 -0.31068936 -0.35800546 0.06282761 -0.7329238 -0.7275228 -0.5079104 -0.3531595 -0.32512587 -0.14470206 -0.2255935 0.18299782 -0.70716435 -0.0818774 -0.87285507 -0.40031758 0.4117934 -0.8554406 0.36480743 0.82941794 0.21596988 0.2847408 0.57982874 -0.7731403
353 0.190253 0.016292535 -0.24082708 -0.03018564 -0.041577544 -0.71790576 0.4008907 0.2752559 0.0033119216 0.82535315 -0.08433377 -0.70011175 0.047271278 -0.11390831 -0.16141996 -0.5138659 0.3149874 0.5600583 0.45414567 -0.34554386 -0.7945856 0.5771162 -0.38121507 0.1540058 -1.1807777 0.85283494 -0.2688513 0.46490106 -1.3625287 0.34899253 0.12101368 0.07320555 0.44496664 -0.1648562 -0.013468727 0.59116447 0.3919548 0.21855082 1.2277561 0.11169326 0.6776303 -0.067672156 -0.7986211 -0.16819371 -0.88955426 -0.6995138 -0.6489492 0.07438613 0.26458508 0.09469449 -0.3175805 -0.1485883 -0.14380352 0.05701017 -0.61232454 -0.24214385 -0.008277746 -0.7646301 -0.4301242 1.0067712 0.36279526 0.15538064 0.43654197 -0.6008186
351 0.3494103 -0.9833135 0.7750755 -0.042195626 -0.019956393 0.07031829 -0.122932054 -0.45342836 0.27878353 0.011317328 0.052055985 0.31707382 0.01087916 -0.018747203 0.08245231 -0.21039711 0.19977169 -0.07596786 -0.35897973 -0.34614828 -0.76706815 0.5002048 -0.09587642 0.051393457 -0.7949453 0.21470462 -0.14034832 -0.2247732 -0.95463437 0.0741838 -0.22985953 -0.19118938 0.18971327 0.06807902 0.70478916 0.09475377 0.6401462 0.3497945 0.6590871 0.013408306 0.32315454 0.07802871 -0.5695438 0.5206467 -0.9523916 -0.5131324 -0.38145575 0.30351985 -0.0019702956 0.0864826 -0.0657491 0.38448343 -0.05984239 0.11232435 -0.5853501 -0.6442465 0.03760309 -0.8179732 -0.29467598 0.8798895 0.06590856 0.52851415 0.5068959 -0.54469734
316 0.008117494 -0.11463638 -0.4223758 -0.14468709 0.03208441 -0.57633007 0.28443953 -0.061091956 -0.053008523 0.92439634 -0.3080423 -0.7374173 0.18687274 0.031173201 -0.29068726 -0.53896385 0.43149045 0.39965132 0.30384442 -0.17333992 -0.69553274 0.289092 -0.37671205 0.33875367 -0.8275991 0.7118906 -0.57843816 0.30902284 -1.227809 0.40739277 0.29800323 -0.051356748 0.37068757 -0.2733608 0.1334727 0.6701434 0.2589557 0.41772953 0.95251864 -0.04632609 0.55437684 -0.13579775 -0.61298 0.106723376 -0.9589894 -0.93567604 -0.78904897 0.06239113 0.08096478 0.06352231 -0.29513627 -0.16393983 -0.2640489 0.08861768 -0.46927103 -0.4849631 0.16262662 -0.8852444 -0.41118342 1.2696447 0.3750873 0.31312573 0.043146253 -0.5756601
305 0.51353365 0.057881203 0.053693824 0.42220643 -0.3438637 -0.52484447 0.50056237 -0.3187605 -0.30004993 -0.3524391 -0.23174843 -0.27899477 0.41486108 0.41049853 0.20452395 -0.79107594 -0.40931386 0.08674223 -0.09593205 -0.5071576 -0.33933085 -0.22836375 -0.70522 0.6245001 -0.7282686 0.3343372 -0.32739735 0.54599744 -0.4142188 -0.6059815 -0.08468504 -0.32747465 0.52615875 -0.2886718 0.567036 -0.31980896 1.3340774 0.89348894 1.3220932 -0.5021062 -0.045045264 0.46586427 -0.69132185 0.39872098 -1.0083787 -0.5577185 -0.24316913 0.41231978 0.55235726 -0.73618776 -0.55059636 0.39788002 -0.24713938 0.09787997 -0.273971 -0.025795113 0.6744025 -1.1201242 -0.6346497 1.0493652 -0.10197495 0.22477283 0.50269717 -0.38175327
186 0.5375727 -0.10603184 0.13782091 0.19385365 -0.29320252 -0.46840367 -0.014942023 -0.24753852 0.81553847 -0.0108298585 -0.3340174 -0.24751262 0.07034523 -0.06864109 -0.3264889 -0.1827927 0.1639459 -0.016928025 0.4842215 0.1513503 -0.3842753 0.8956241 -0.036358107 -0.6562513 -0.95055956 0.35217392 -0.25934517 -0.28045678 -1.1208053 0.6925036 -0.5225157 0.047189932 -0.54287434 0.79144835 0.3987391 0.26756385 0.24098578 -0.015775645 1.0077233 -0.88604903 0.2464535 -0.47889912 -0.16103658 0.52191204 -0.5775191 -0.88668114 -0.58962655 0.030091435 -0.8630027 0.40201977 0.04880685 -0.6185056 0.25134876 -0.066630475 -1.2288082 -1.1169671 0.21890274 -0.39741206 0.08740338 0.91962117 0.6939571 0.108248875 0.020093497 -1.1730436
278 1.1492314 -0.25515994 -0.5124202 -0.47331887 -0.23260243 -0.7913917 0.48622757 0.0767656 -0.14674784 -0.32163915 -0.38731605 0.050203938 -0.65033615 -0.0042110602 0.1780424 -0.48730448 0.075045176 -0.27176684 0.15392555 -0.6756002 -0.11688562 0.35564393 0.19086942 -0.006479391 -0.8872797 -0.004370784 -0.3781625 -0.0058522397 -1.0985086 -0.32842565 -0.4016053 -0.14046438 -0.19534501 -0.104896635 0.567974 -0.088278376 0.8772128 0.19765596 1.0810543 -0.18243589 0.105010726 -0.36132175 -0.3556886 0.26933128 -0.3916187 -0.7375223 -0.2703865 -0.25789252 -0.09684841 0.36821526 -0.19453782 -0.09496528 -0.18628864 0.3123265 -0.59381664 -0.23885953 0.44518265 -1.1081684 -0.41528618 1.1811159 0.43844792 0.4503673 -0.23210381 -0.651995
142 0.115463786 -0.060796294 -0.2867376 -0.07219144 -0.046409704 -0.7190061 0.2500449 0.19461392 -0.08162988 0.79780614 -0.25885335 -0.68168443 0.21779402 0.11878867 -0.1796011 -0.48372638 0.42417458 0.5054038 0.43512186 -0.28507775 -0.6111522 0.48108882 -0.33700168 0.22731392 -0.8947924 0.7421418 -0.3720695 0.41563615 -1.2609531 0.30746445 0.099957295 -0.05241344 0.47873282 -0.3131444 -0.021161223 0.6941925 0.24131359 0.36056677 1.0844756 0.0039202017 0.64154613 -0.20868811 -0.7557817 0.04398606 -0.9502578 -0.758947 -0.66178596 0.21054524 0.23406151 0.077653036 -0.30205294 -0.09761911 -0.16874737 0.04928567 -0.44146177 -0.39280608 -0.053799372 -0.81709814 -0.25531533 1.253936 0.35986477 0.19949114 0.19301684 -0.81767064
66 -0.141338 0.22847892 -0.36695725 0.03911992 -0.002800209 -0.19557214 -0.18403149 -0.2788698 0.2885133 -0.41426727 -0.38111883 -0.280195 -0.1931318 0.37914148 -0.7134252 0.23281041 -0.7812821 0.09186067 -0.36594024 -0.12969176 -0.2634812 -0.011399664 -0.10327088 -0.022525406 -0.9119095 0.4419076 -0.082610786 -0.00016787022 -0.8206088 -0.4142237 -0.11998706 -0.13274372 -0.43359435 0.2556114 0.57012206 0.063999325 0.6813381 0.27556062 0.96835786 0.29797 0.066250704 -0.20185374 -0.32968032 0.564035 -0.9710556 -0.59710765 -0.6425928 0.019765062 -0.13578025 0.17680399 -0.65862614 -0.10119759 -0.4699875 0.12939389 -0.48941252 -0.5265545 0.2254009 -0.7200578 0.091713406 0.6760085 0.1670562 0.4450954 0.34006867 -0.62487316
48 -0.40038228 0.038755383 0.17558515 0.19649996 -0.07631141 -0.09052592 0.17803217 0.33800015 0.12733309 -0.48983636 -0.54810286 -0.27935043 -0.37338796 0.5749041 -0.2535403 0.10209305 -0.49075085 0.27864626 -0.1434471 -0.07803177 -0.3060433 0.21259378 -0.22562471 -0.20070368 -0.7339818 0.5732465 -0.31892538 -0.0036306763 -0.4147886 -0.35924745 0.0019607497 0.14569853 -0.5112749 0.4886049 0.26524237 -0.045021426 0.6295086 0.27431226 1.3751899 0.41214642 0.07805185 -0.16167472 -0.46052042 0.5550208 -0.89023846 -0.61002696 -0.4033891 -0.07162365 -0.12722185 0.09516367 -0.56146926 -0.09608238 -0.25410274 0.17844886 -0.81145406 -0.1584724 0.32720616 -0.61872154 -0.09199882 0.79968363 0.1409142 0.24251553 0.12055313 -0.81083995
200 0.32949167 -0.0024824273 -0.158905 -0.27584153 0.1259108 -0.7977492 -0.062878706 -0.3056804 0.33802247 0.3208288 0.2736659 -0.22880666 -0.13457727 0.04947491 0.5866607 -0.557643 -0.059776187 -0.1898455 -0.5920532 0.30768788 -0.72474056 0.023334293 -0.45327073 -0.22546488 -0.810219 0.039746698 -0.10190737 0.1933371 -0.09089008 0.13609734 -0.5290434 -0.09355905 0.05812641 -0.104994036 0.41931424 0.2922863 0.703319 0.28719607 1.3720505 -0.45876467 -0.02472409 -0.58734876 -0.8301507 0.36542717 -0.96730113 -0.30832762 -0.3365861 -0.0076569263 0.0869956 0.099788 -0.58910173 -0.0062735556 -0.10440859 0.39335907 -1.0993913 -0.41750625 0.6485273 -0.5911693 0.20059314 0.79620963 0.5386067 -0.04940869 0.3438065 -0.77130044
277 1.0383904 -0.245439 -0.5322346 -0.42454892 -0.38358647 -0.8928074 0.54104054 0.03550847 -0.14070913 -0.3659095 -0.38384512 0.19957212 -0.6973002 -0.11275361 0.1764833 -0.532188 0.06267119 -0.33434469 0.12076506 -0.62491953 -0.24519394 0.49753925 0.003157435 -0.11846093 -0.81436217 0.083909936 -0.46192485 0.043228377 -1.0766612 -0.2620681 -0.2479415 -0.14474872 -0.13798133 -0.07197084 0.56660813 -0.023279075 0.81402886 0.14168984 1.1010417 -0.12100775 0.042886324 -0.3901417 -0.29352865 0.38659367 -0.53213316 -0.7735756 -0.1763492 -0.19933215 -0.095263846 0.35824934 -0.08739796 -0.13610959 -0.42975527 0.32980633 -0.7366919 -0.26471713 0.5928627 -1.1465389 -0.4441087 0.97562027 0.334631 0.46724764 -0.24994376 -0.48188335
219 0.60847336 0.43080238 -0.034093007 -0.16991124 -0.012869674 -1.0500016 -0.3245223 -0.32362938 0.49671075 -0.729192 0.41003922 -0.18814208 0.3826878 0.14009823 -0.03944673 -0.24114154 -0.25378564 0.18569304 -0.38155726 -0.8164045 -0.45389873 -0.11278378 -0.18755427 0.13874923 -0.9741761 0.823671 0.12151734 0.37765425 -0.8554281 0.11156148 -0.5597988 -0.22308293 -0.04170162 0.16864203 0.34966367 0.10238077 0.39447698 0.2241254 0.8077156 -0.1017074 0.10879985 -0.290313 -0.39851525 0.14627099 -0.7391388 -0.4091174 -0.6564057 0.3321971 -0.3238368 0.041159663 -0.20772047 -0.13926914 -0.5209774 -0.41682935 -0.44308522 -0.73458964 0.11588069 -0.8733162 -0.0580439 0.77370596 0.475833 0.7366857 0.26055172 -0.2514298
144 0.44295 0.2615797 -0.68793607 1.0044132 -0.13453601 -0.6562972 0.11356395 -0.43378067 0.4158735 -0.07626219 0.32937524 0.045342997 0.21027163 0.30698222 0.18093699 -1.0214076 0.40748593 0.5786685 -0.27810293 -0.29000992 -0.27673015 0.68649703 -0.08404524 -0.29210708 -0.7818833 0.108180605 -0.045241106 0.046651043 -0.42128134 -0.30948642 -0.08495141 0.25446475 -0.20563588 0.1804659 1.3186489 0.13002174 0.5926731 0.6667614 1.02588 -0.102155074 0.43685994 -0.06776888 -0.122300856 0.49538028 -1.2167128 -0.3595366 -0.90472734 -0.22351454 -0.03415643 0.53262913 -0.08034782 -0.15737675 0.023265662 0.20234682 -0.52491194 -0.20526855 0.113124505 -0.62604433 -0.64194524 1.1063998 -0.08657626 0.095775835 -0.014413954 -0.8226722
241 -0.20491637 0.11288162 -0.36801958 0.029786471 0.07570028 -0.4201491 -0.22927986 -0.27272004 0.13379899 -0.30969796 -0.22599015 -0.20117123 -0.19384088 0.65749323 -0.7276409 0.16723551 -0.7842609 0.007178073 -0.27598682 -0.094705865 -0.41352645 -0.020630766 -0.16982445 -0.12584516 -0.9203637 0.5571052 -0.2348637 0.014739469 -0.7137986 -0.38649836 -0.122641906 -0.07763539 -0.46427238 0.2550502 0.47893023 -0.0012272248 0.6074038 0.3272849 1.0391864 0.17010832 0.04069598 -0.2465972 -0.4185708 0.59748673 -0.8086304 -0.6077306 -0.6709426 0.042210203 -0.22914734 0.14935634 -0.49659172 0.08679102 -0.50041604 0.12070122 -0.44569516 -0.45710763 0.19814627 -0.7427787 0.024921762 0.64121157 0.10730357 0.44978434 0.07997025 -0.7343749
102 0.5038685 -0.11138428 -0.03893634 0.15719293 -0.4257041 -0.53597564 0.060823556 0.43828362 0.66758084 -0.19732235 -0.24320959 -0.43006453 0.58409774 0.3915797 -0.03090236 -0.76703846 -0.19024539 -0.33267364 0.15691467 0.17163473 -0.5643034 0.5845038 -0.0010797277 -0.3143522 -0.98299253 0.37386873 -0.19635056 0.049491182 -0.20005308 -0.05606689 -0.21807328 0.100435734 0.8186744 0.106887646 0.7875246 -0.054081954 1.4050465 0.46455905 0.8058106 0.06732785 0.4634578 0.13142703 -0.98885345 0.12102772 -0.41134837 -1.066361 -0.51078045 0.24223703 -0.21772164 0.36929616 -0.41117734 -0.5073991 -0.08965297 0.27361214 -0.69402945 -0.7558982 0.57377046 -0.39486876 0.24921696 1.122428 -0.06763714 1.2654766 -0.18538435 -0.37392527
335 0.24254423 0.56654924 0.485474 0.2587099 -0.16073489 -0.48213738 -0.082672864 -0.3267015 0.58347476 -0.17670514 -0.3290504 0.17735054 0.23131035 -0.12999572 -0.16638649 -0.6248826 -0.2933016 -0.41987184 0.29612443 -0.48722997 -0.61856014 -0.22983126 0.10257396 0.0070576207 -1.204972 0.16625173 -0.011263632 -0.1942913 -0.77053463 -0.5565564 0.32342649 -0.1281466 0.34432396 0.18176438 0.40474975 0.14306626 0.25284258 0.18510294 0.6822466 -0.6728042 0.6616956 -0.40060848 -0.8997075 -0.16507797 -1.1820129 -0.60688 -0.27457902 0.23825233 -0.66445017 0.13163829 -0.19114687 0.29899183 -0.5174588 0.44523254 -1.2894892 0.15175202 0.5297353 -0.51189756 -0.63007504 1.5907645 0.18763979 0.05307992 -0.16180767 -0.8463819
345 0.48860973 -0.30802488 -0.178945 0.7061079 -0.52576464 -0.7608348 -0.07748591 -0.3835136 -0.1944886 -0.17441235 0.020521387 0.066359855 0.33824313 0.10330951 -0.20279746 -0.324843 -0.09007409 0.4116183 -0.21252073 0.035268594 -0.5055985 0.2945813 -0.75751543 0.1870358 -0.7385685 0.7956585 -0.121495426 -0.5364601 -0.8780004 0.24670753 -0.31518766 -0.26231974 0.06676703 0.6212369 0.13209246 -0.05709839 0.9643955 0.51795137 0.2714139 -0.26142123 0.47003707 -0.47363064 -0.8778596 0.5770676 -0.3959755 -0.45739868 0.10895878 -0.2948944 -0.02555462 0.75013787 -0.87362605 0.2307699 0.05189929 -0.14607282 -0.7938091 0.0711073 0.6188588 -0.9835384 -0.17136237 1.4614164 0.69593006 0.25054306 -0.06704647 -0.5044829
261 0.2630858 -0.0801919 -0.53310114 0.35514006 -0.08862436 0.14645311 -0.64953285 0.18660377 0.33172536 -0.52611 0.2713849 -0.40753758 0.5549787 0.22949715 0.41887397 -0.12970899 -0.12630732 -0.20798539 0.18711627 -0.37309816 -0.4022268 0.59848475 -0.43893185 0.68929684 -0.6531113 0.086935654 -0.07161961 0.36801916 -1.1619341 0.15538326 0.064585686 0.17703782 -0.1522174 -0.16859157 0.4123097 -0.15971838 0.6457428 0.21046591 1.1783934 -0.7132664 0.26610953 -0.34977305 -0.48379263 0.5126061 -1.0593601 -1.060973 -0.08730867 -0.09337231 -0.10197322 0.41288498 -0.00085265335 0.010422675 0.079741865 0.23920608 -1.1135427 -0.04014645 0.32169282 -1.0453665 0.09669931 0.9535136 0.08437687 0.5245025 0.2865804 -0.5036361
110 0.48190176 -0.011963085 -0.15637006 0.6637696 -0.42857274 -0.772231 0.2559629 -0.24868321 0.39665642 0.01337889 -0.06993478 0.36845672 0.3955692 -0.09391557 0.011038625 0.05690642 0.15454897 0.60831094 -0.38992086 -0.19246158 -0.046867363 0.00951043 -0.60838395 0.2097788 -0.62415016 0.13491817 -0.22978994 -0.22698887 -0.57084584 0.27960283 -0.051354982 -0.0918645 0.10843524 0.45615202 0.13166554 -0.1879548 0.78254163 0.3196051 0.8520093 -0.073490344 0.95400876 -0.07916847 -0.8865408 0.74091405 -0.506773 -1.3500035 0.17209476 -0.20673366 -0.16436191 0.42705488 -0.47729248 0.27846727 -0.5408641 0.17655699 -0.5972866 -0.59387046 0.65186304 -0.83976644 -0.10743007 1.0025791 0.66325444 0.14016286 0.24951822 -0.63650495
327 0.30540225 -0.19211082 -0.43649098 0.46477798 -0.13347125 0.0520473 -0.63398725 0.14965637 0.3853885 -0.5135619 0.27459404 -0.36969236 0.45788467 0.24324071 0.46292126 -0.20397876 -0.20596564 -0.18870421 0.2768548 -0.34262845 -0.44552442 0.550932 -0.60404766 0.6604866 -0.73194075 0.06424038 -0.16178937 0.47558245 -0.9573388 0.15358074 0.00024473466 0.25792006 -0.37775606 -0.14684997 0.30005446 -0.03594962 0.75135005 0.14917357 1.2256448 -0.68471456 0.31832787 -0.473476 -0.42544243 0.3756359 -1.0734755 -1.1301124 0.0014895478 -0.08428119 0.02090639 0.33741677 0.1161634 0.01645423 0.049893647 0.31241462 -1.0575918 -0.05439348 0.2081097 -0.963837 -0.049184866 0.9375944 0.108496875 0.64445585 0.11790528 -0.50947714
149 0.8989274 0.07592564 -0.26073435 0.6341696 -0.03019947 -0.522306 -0.4739802 0.14842555 0.31523404 -0.09491967 -0.45157993 -0.5001741 0.030401496 -0.20852526 0.2670538 -0.6114199 -0.20189236 0.010409996 0.0128583675 -0.15528701 -0.41355225 0.33803603 0.031644724 -0.12742826 -0.774745 -0.022554273 -0.62634635 -0.86083645 -0.8652511 -0.07127317 -0.11947024 0.6185099 0.18461007 0.6085067 0.20814969 0.22768387 0.69327915 0.89912057 1.3474004 0.001942498 -0.44997618 0.08998438 -0.58833486 0.33972284 -1.1200285 -0.8576104 -0.48169065 0.45370778 0.28392795 -0.038704533 -0.05758758 0.31579646 -0.07122279 -0.2632803 -0.5084401 -0.5695272 -0.03418438 -1.0781116 -0.016327385 0.6281398 1.0898834 0.30660832 0.2905389 -0.010743997
154 0.7082104 0.56677496 -0.24548504 0.74169743 -0.3055423 0.08946078 0.20735879 -0.64780843 0.14227921 0.21675321 0.46107373 -0.2130063 -0.4382698 0.55323607 0.04058025 -1.0131834 -0.04531412 0.22210789 -0.36781716 -0.54564714 -0.4424926 0.04019592 0.14710402 -0.42294803 -1.0799091 0.37258014 -0.2758766 0.20395905 -0.326233 0.32068586 0.015824057 -0.005055278 -0.09728939 0.122494474 0.9557872 0.26236463 0.8695529 0.4142858 1.0466477 0.021499751 0.6065974 -0.18092893 -0.28773487 0.49703568 -0.7652863 -0.8174355 -0.15048315 0.40310848 0.09615689 0.47927177 0.4034062 -0.21529788 0.04091364 -0.49380708 -0.7762385 -0.11570917 0.16358177 -0.8647421 -0.009934999 1.1032407 0.070297696 0.0085568335 0.09485676 -0.6178633
296 0.32112262 0.12397312 -0.060945928 0.23348837 -0.09913464 -0.2873924 -0.0012878453 -0.05721999 0.25741285 -0.16408502 0.029180702 -0.6783042 -0.053550534 0.41558775 0.5555125 -0.29566652 0.13189103 0.031904783 -0.14545465 -0.34024474 -0.94243115 -0.16452481 -0.0443559 0.27680597 -0.46829897 0.3224083 0.15226103 -0.3363724 -0.54371774 -0.0811203 -0.44983885 0.22007017 0.26322666 0.090028964 1.1751451 0.11243755 0.099425 0.2034509 1.3226972 0.5786054 0.61392605 -0.52766263 -0.66651577 0.009402008 -0.7287078 -0.72629297 -0.18981571 0.1590918 0.5428425 0.95984507 -0.52810913 0.64329845 -0.9923681 0.6655148 -0.5137608 0.05626535 0.27223617 -1.1539915 -0.30084905 1.2917284 0.47567624 0.93128484 0.022627749 -0.09977598
297 0.2960465 0.032655697 -0.08581342 0.17754175 -0.100249514 -0.3200476 -0.15925898 0.020733884 0.4798481 -0.03482783 0.0029816397 -0.62830645 -0.10765986 0.26643527 0.40611562 -0.08917431 0.3053093 -0.042109437 -0.026174866 -0.084470905 -0.91338193 0.15917636 0.15833852 -0.185414 -0.51739776 0.41684118 0.16299367 -0.52472335 -0.7550429 0.2969493 -0.52055156 0.25572076 0.007370293 0.45778364 1.2018481 0.2756061 -0.16129595 -0.023500672 1.3424854 0.32323936 0.71295714 -0.76553327 -0.53445524 0.09119087 -0.55421686 -0.7732028 -0.27597612 0.119796954 0.105126835 1.1794102 -0.29036924 0.4175911 -0.88412166 0.5287743 -0.7678059 -0.1663086 0.13816808 -0.94922334 -0.090470195 1.1861559 0.70391536 0.91092265 -0.11195484 -0.30920994
61 -0.58758223 0.46751577 0.26151335 -0.07836275 -0.01106648 0.101809256 0.05818816 0.43411595 -0.10441219 -0.47680786 -0.34676751 -0.33695278 -0.2144221 0.6001933 0.017002149 -0.33017543 0.08804214 0.44258255 -0.2337438 -0.28513426 -0.13446096 0.25618365 -0.040892523 -0.38760716 -0.4560334 0.52684104 -0.49166897 -0.3074242 -0.57570094 -0.11661995 -0.035049472 0.21997532 -0.24070996 0.20324992 0.13607156 0.12488544 0.8418261 0.3738246 1.0824554 -0.057863664 0.14476687 -0.10581534 -0.2914601 0.6833411 -0.74761474 -0.45633057 -0.27054584 -0.1411844 -0.2546229 0.061331302 -0.5895579 0.2270331 -0.17997918 0.2438007 -0.8872391 -0.31916603 0.3904243 -0.71406007 -0.24430472 1.1274322 0.28435835 0.561488 0.24141657 -0.8086427
218 0.49869034 0.35048264 0.045091722 -0.23377842 0.11873372 -1.1818396 -0.34760773 -0.44083422 0.48407564 -0.60408986 0.27858305 -0.18178968 0.5221568 0.3880455 -0.062411275 -0.25141886 -0.15049504 0.2300384 -0.290402 -0.7723437 -0.36989138 0.043038286 -0.35712448 0.14062141 -0.87018895 0.8144344 -0.05997543 0.29092816 -0.7053241 0.078165144 -0.34617764 -0.31616095 0.05750318 0.19750218 0.5209499 -0.031248378 0.38852605 0.32051173 0.885088 -0.19409944 -0.010826707 -0.33531088 -0.3484894 0.26659372 -0.5529277 -0.4697474 -0.82471377 0.18087576 -0.45701355 0.14814882 -0.027245315 -0.0836659 -0.6341708 -0.418429 -0.47345123 -0.56181926 0.06275985 -0.9277917 -0.03633309 0.83456254 0.4547884 0.6084189 0.15083171 -0.21699485
247 0.4803194 0.14078508 -0.09311589 0.39898133 -0.3121122 -0.33545524 0.23490612 -0.46439627 0.013720222 0.12984318 -0.43176663 -0.81047493 -0.002591144 -0.24061656 0.5481021 0.3085571 -0.0032757604 0.6927455 -0.1574004 -0.7529925 -0.67925555 0.43449026 -0.45320442 -0.36204118 -1.0697758 0.37977853 0.31947318 -0.648178 -0.56492907 0.19451983 -0.4627568 0.32987785 -0.052551094 -0.35018015 0.65287054 -0.09584876 0.8621842 0.6402108 0.9030403 -0.3649996 -0.15229711 -0.8414811 -1.0314957 0.27882984 -0.96572286 -0.9955361 -0.30865866 0.5719298 -0.88305074 -0.2118508 0.03441557 -0.3197634 -0.22316165 0.5258809 -0.11460755 0.013851462 0.6397557 -0.8212652 -0.2709467 0.96278846 -0.16561046 0.62399 0.2126648 -0.58640105
239 -0.39254773 0.06496901 -0.3109466 0.19922793 0.04973476 -0.28901953 -0.16147937 -0.22524679 0.34692335 -0.39327595 -0.57125187 -0.24037671 -0.25808895 0.5437376 -0.57232565 0.18913205 -0.5367178 0.19368237 -0.16838762 0.05850078 -0.36637655 -0.15657799 -0.023646511 -0.12625813 -0.68684566 0.5562097 -0.33705327 0.008777287 -0.6556193 -0.38779905 0.022609102 -0.30941764 -0.5310312 0.3629311 0.54810435 -0.08239153 0.77962977 0.26995254 1.1645064 0.288729 0.033873152 -0.32171127 -0.47796836 0.48028478 -0.8695723 -0.569247 -0.5439013 0.06839282 -0.19046922 0.0754013 -0.4163214 0.046797603 -0.280525 -0.12409088 -0.5626949 -0.23126273 0.257503 -0.59279126 -0.010784025 0.78899497 0.1899472 0.6289645 0.30664894 -0.79981387
166 0.33408165 -0.24203959 0.06305544 0.89365476 -0.17830606 -0.5874106 0.51221216 -0.23358396 -0.19564575 -0.7702586 0.39684993 -0.804294 0.26225886 -0.102265164 -0.032090735 -0.2969204 0.5686012 -0.43361574 0.37363583 -0.28580767 -0.6045009 -0.08791146 -0.2851581 -0.20356663 -0.974591 0.19771543 -0.40791252 -0.4205231 -0.7277213 -0.03376663 -0.15206568 -0.018296156 0.11182215 -0.0564882 0.73101383 0.40796685 0.7735629 0.16383182 1.0798204 -0.031917095 0.29850718 -0.28980625 -0.36732557 0.27793372 -0.7726469 -0.58767176 -0.44672593 -0.22924393 -0.33538008 -0.11860706 -0.44821364 0.17497918 -0.64508724 -0.1135681 -0.8582794 -0.41025808 0.30443862 -0.7438406 0.4411499 0.7574733 0.15762703 0.25032473 0.6885061 -0.83082545
355 0.4530042 0.30705205 -0.32323468 1.0327811 -0.2169043 -0.23749755 0.43311763 -0.44433817 0.14783233 -0.021898622 0.4966667 -0.054774363 -0.3671032 0.52441436 0.0615735 -0.78666717 0.08362768 0.17124532 -0.63036656 -0.40048587 -0.47122815 0.10829508 0.12403861 -0.41962832 -1.0590422 0.33502656 -0.11911504 0.20687002 -0.42819586 0.1388454 -0.109272316 0.2469378 0.016138569 0.07888642 1.0273916 0.10424151 0.32211927 0.75430727 0.8525167 -0.023350261 0.6300789 -0.035738006 -0.20819315 0.65514004 -0.96538335 -0.8033859 -0.4479912 0.31366113 0.10103176 0.31174946 0.28961393 -0.3940455 0.31045765 -0.2369189 -0.95365745 -0.24583599 0.1706549 -1.0550743 -0.20506515 1.2337677 0.042939745 0.030788168 -0.21655282 -0.5189146
157 0.6521525 -0.014586753 0.21962728 0.28500223 0.35776815 -0.3866948 0.47147843 -0.5907053 0.26671553 -0.27876553 -0.3879163 -0.78839916 -0.28354222 -0.16823277 -0.06643128 -0.29613748 -0.048439957 0.49216175 -0.023227537 -0.5067776 -1.018958 -0.1338176 -0.44114146 0.012544116 -0.6104502 0.5110311 0.29946768 0.15069534 -1.0413424 0.14333363 -0.16580155 0.23092571 -0.12891959 0.4673158 0.40678754 -0.22956368 0.27638978 0.30354008 1.0981455 -0.83692765 0.10073772 -0.5102118 0.23521888 0.6583471 -1.4510708 -0.49785614 0.05941034 -0.4776177 0.42011374 0.19428071 0.24880314 0.6407604 -0.49971667 0.020412289 -0.46195227 -0.3090244 0.57421 -1.0949857 -0.47145236 0.78278416 0.72527134 -0.06135248 0.17376652 -1.2087575
53 -0.3245236 -0.40534806 -0.27712312 0.033482783 -0.60204 -0.50525844 0.52757645 -0.32206362 0.26369196 0.24246584 -0.12841852 -0.27567458 0.49371198 -0.18620908 0.15175259 -0.6052673 -0.74171054 0.1456029 0.4015596 -0.7584277 -0.50200564 0.044261884 -0.16028628 -0.11266795 -0.24177495 0.12875722 0.19178823 -0.3656355 -0.24515405 -0.07889306 -0.4446351 0.34852636 -0.04964966 0.051750775 0.53975064 0.020951731 0.90937823 -0.15881412 1.0100789 -0.2239399 0.4251594 -0.01626819 -0.31476504 0.42130035 -0.7420359 -0.42243415 -0.503741 0.17745319 -0.06512591 0.25195244 0.123762675 0.047529995 -0.18972631 -0.09895588 -0.93133104 -0.40132582 -0.04121236 -1.1116837 -0.077566154 1.0597034 0.62062967 0.39598 0.36908197 -0.6252955
60 -0.5002906 0.5900698 0.2725826 0.025015676 -0.19451085 0.014762292 0.02719806 0.38963845 -0.08741775 -0.40313607 -0.26971582 -0.3568759 -0.38260025 0.46568516 0.15803272 -0.31921956 0.021564458 0.32310015 -0.15887873 -0.39150643 -0.12133782 0.15943766 0.04646449 -0.31311822 -0.54409295 0.6834683 -0.4406941 -0.12001485 -0.5307317 -0.036974132 -0.06772237 0.26775622 -0.2994444 0.36757278 0.17619668 0.2717435 0.82786083 0.35127303 1.1953102 -0.013941073 0.20431249 -0.0504297 -0.39238968 0.76800203 -0.7534327 -0.40802038 -0.23747167 -0.21606316 -0.19152592 -0.06568662 -0.6521498 0.11149002 -0.14823693 0.36365905 -0.7661241 -0.41466665 0.51561254 -0.57827425 -0.21265343 0.94492596 0.3208838 0.5669904 0.22413996 -0.79029274
217 -0.50193304 0.06486337 0.089885466 0.17068684 -0.0985773 -0.012090725 0.15474573 0.3067515 -0.013098504 -0.4237639 -0.53791 -0.08142598 -0.31261262 0.44535562 -0.2489606 0.022292482 -0.499742 0.25282693 -0.2936502 -0.0479252 -0.33808404 0.08242802 -0.052546714 -0.17044522 -0.8442006 0.5311048 -0.26102862 -0.052836157 -0.5115116 -0.24281916 0.024316244 0.21056923 -0.6028668 0.44462627 0.24949391 -0.075806625 0.77734977 0.34685293 1.3036197 0.39204466 0.11926013 -0.2685603 -0.5830457 0.38445175 -0.9049358 -0.57315034 -0.60747796 -0.25937152 0.021075647 0.028698018 -0.381113 -0.10135082 -0.34371367 0.19303358 -0.75150764 -0.06756184 0.36814547 -0.6122468 0.016708322 0.8341788 0.14396553 0.26089814 0.2228752 -0.80635166
54 -0.060754705 0.16432989 -0.28851414 0.041123033 -0.032949034 -0.6631186 -0.2600877 -0.42697614 0.36462528 -0.31210855 -0.26946533 -0.13610953 -0.13945776 0.61519384 -0.5532965 0.090758674 -0.82329506 0.12146277 -0.26237848 -0.20000236 -0.35644457 0.06973543 -0.28689322 0.13566792 -0.9296069 0.5947391 -0.195305 0.117093585 -0.83232903 -0.39798924 -0.14925495 -0.19256927 -0.4457678 0.16360435 0.5451779 0.020880174 0.46311957 0.16935398 0.8756668 0.5408507 0.080082335 -0.32507068 -0.503827 0.31637496 -0.98815095 -0.62375724 -0.5132572 0.044879258 -0.16320188 0.1216506 -0.17097735 0.040919483 -0.40050155 -0.05010188 -0.41631585 -0.5311588 0.3026864 -0.6454382 0.14889368 0.64997566 0.14910705 0.57217073 0.38393015 -0.8519944
119 0.6364509 -0.02678807 -0.24237132 0.4775835 -0.1618805 -0.6977377 0.366838 -0.07096574 0.28953433 0.14037596 0.011774531 0.29204828 0.51741195 0.2020202 0.013395267 0.06852781 0.12079689 0.5732642 -0.5334676 -0.20313193 -0.024231723 -0.18708074 -0.17762098 -0.01589555 -0.7865587 -0.06821124 -0.11310468 -0.23061842 -0.77863556 0.1887858 -0.09271995 0.12082403 0.1404729 0.2697395 0.07840125 -0.21353897 0.82193977 0.26735863 1.1599637 -0.3711803 0.9731294 0.052839506 -0.7345266 0.6431757 -0.37149143 -1.5201609 -0.10660059 -0.058702882 -0.33830628 0.49331534 -0.4741554 0.45559743 -0.54363406 0.15409875 -0.60060465 -0.5774629 0.5124721 -0.7440741 -0.36862335 0.7410216 0.6233197 0.19924563 0.49446025 -0.6900331
52 -0.28708634 -0.47409123 -0.35619357 0.023941047 -0.49519703 -0.46718132 0.5492237 -0.36411288 0.265583 0.23005022 -0.010633631 -0.38482684 0.44019297 -0.031047434 0.18765408 -0.5924363 -0.6841726 -0.09914797 0.41124582 -0.8954723 -0.6924954 0.10196386 -0.23177764 -0.0034737503 -0.3560837 0.25560778 0.0894098 -0.28713307 -0.09678693 -0.13326918 -0.5469291 0.40272138 -0.14471358 0.110783435 0.32840613 -0.10935977 0.6747471 -0.0045760944 0.9780746 -0.1771731 0.40083247 0.18825337 -0.4691508 0.5235028 -0.66798323 -0.41113812 -0.51394725 0.16477677 -0.22423793 0.30764997 0.044766687 0.14426222 -0.116395324 0.03809057 -0.89435744 -0.5123697 0.076421596 -1.0540131 -0.21517116 1.0603055 0.67409605 0.2971373 0.117396295 -0.72223514
51 -0.26641375 0.082696 -0.3457027 0.19067885 -0.0055279876 -0.23932996 -0.18435544 -0.043748915 0.34856796 -0.3722979 -0.34084356 -0.21885243 -0.32473013 0.49593565 -0.61175305 0.18661606 -0.6319235 0.14442274 -0.20162848 -0.12315706 -0.43605623 -0.19956088 -0.106204934 -0.14643122 -0.8325965 0.54508364 -0.2815554 0.047027763 -0.6846726 -0.3628684 -0.1641168 -0.05324894 -0.55370754 0.2561928 0.30447856 -0.0429376 0.8005237 0.30791378 1.1970993 0.4750279 0.1821741 -0.40219197 -0.45495635 0.4514354 -0.90847033 -0.53143597 -0.4270252 0.09197848 -0.11552868 -0.075667866 -0.5275951 0.084308885 -0.22887176 0.0013166356 -0.5020263 -0.32791907 0.1293829 -0.6133152 -0.024266375 0.73926747 0.15770917 0.5545062 0.15416256 -0.8969054
257 0.5603808 -0.14444476 -0.011865654 0.080926634 -0.19877766 -0.46594277 0.21763034 0.29731658 0.7333353 -0.30916098 -0.32801417 -0.64771914 0.5850288 0.37299713 -0.09757927 -0.88220733 -0.17506978 -0.16442417 0.041067015 0.21093012 -0.69983226 0.4254821 0.056972604 -0.3818124 -1.0808365 0.50703347 0.15274547 -0.13400379 -0.4024007 0.04312598 -0.052552193 0.020891054 0.85968554 0.10451346 0.4935927 -0.33328637 1.4209862 0.518554 0.8513035 -0.06460757 0.60539067 0.015946213 -0.6135963 0.1362124 -0.7615793 -0.78292656 -0.29415545 -0.12538233 0.01869767 0.3515299 -0.059325326 -0.3408332 -0.15417165 0.34107897 -0.5244901 -0.76550376 0.66949344 -0.60691714 0.3045243 0.8180275 0.07981734 1.1591687 -0.36204883 -0.6393546
214 -0.33018297 0.1410171 0.19560277 0.05544773 -0.14082596 0.020929577 0.008056823 0.3851465 -0.07791953 -0.3263618 -0.37803647 -0.2522293 -0.3665557 0.6275968 -0.24414875 -0.042694736 -0.55744857 0.4000558 -0.10398329 -0.03515603 0.03940968 0.27573046 -0.1288914 -0.40595448 -0.7176021 0.6677142 -0.3131292 -0.13421571 -0.5658149 -0.26732627 0.06665533 0.26786718 -0.33752176 0.44794124 0.43678498 0.1165876 0.7789495 0.27887204 1.4277855 0.21883437 0.23068613 -0.19214623 -0.38982773 0.48739988 -0.6654015 -0.5410167 -0.39569923 -0.28346515 -0.12252903 -0.042493008 -0.40695456 0.02732648 -0.21409127 0.2184195 -0.69729406 -0.06676745 0.43377876 -0.56234807 -0.20477079 0.9073606 0.3158159 0.3819489 0.4668358 -0.8112697
255 0.039308503 -0.25711343 -0.16041934 0.09558713 -0.35949954 -0.2815075 0.3346778 -0.2475768 0.18163854 0.25855005 -0.15014952 -0.24339896 0.5053727 0.06012406 -0.22843651 -0.39893952 -0.3927975 0.05635073 0.40305164 -0.90098107 -0.27152166 0.03528301 -0.16884458 0.35562047 -0.26258847 0.31120655 0.10251586 -0.45670104 -0.08587386 -0.26016268 -0.78331065 0.297581 0.17084426 0.024632348 0.5058925 0.0062848777 0.79161775 0.06084134 1.0059172 -0.015271247 0.4786039 -0.25189766 -0.15070358 0.30190238 -0.62698364 -0.59293324 -0.65431654 0.20439196 -0.14133078 0.20218986 0.20124082 0.120929375 0.28171274 -0.008410492 -0.95248264 -0.33722675 0.33662885 -0.95959324 -0.27048457 1.0031605 0.92932814 0.519199 0.23142928 -0.85102385
43 -0.50807476 0.54939526 0.49500516 0.019381901 -0.1184136 0.07620675 0.16027369 0.3150196 0.0014110598 -0.404769 -0.33748135 -0.38982287 -0.29176524 0.2531222 0.23309903 -0.42848653 0.16564889 0.47896218 -0.21525732 -0.26903164 -0.11538853 0.11936208 -0.2132561 -0.30627105 -0.5159137 0.3799199 -0.547387 -0.12868173 -0.48242918 -0.15442094 -0.025747484 0.353679 -0.46384987 0.31020364 0.193335 0.30263147 1.0874505 0.17639226 1.152364 -0.14141904 0.25576982 -0.12357192 -0.10166707 0.5053068 -0.800463 -0.5868074 -0.18865791 -0.13486148 -0.10590157 -0.00875118 -0.5745461 -0.05272305 -0.1726298 0.3127303 -0.7450171 -0.37296867 0.29172173 -0.6671254 -0.37257808 1.0320177 0.4687587 0.8049033 0.080261044 -0.6254472
206 -0.5150589 0.5220711 0.4905703 0.18632747 0.1072852 0.009956196 0.13163555 0.231502 -0.07285697 -0.25257862 -0.30969778 -0.32675222 -0.29194638 0.483355 0.2762331 -0.4300122 0.10952819 0.36910993 -0.12847969 -0.25374332 -0.23349465 0.040995035 -0.20565127 -0.3208285 -0.4407681 0.5021014 -0.6472757 -0.21406288 -0.54503614 -0.15660162 0.05794569 0.29977435 -0.3290061 0.37585267 0.21428384 0.19633101 1.0814162 0.15519688 1.2267503 -0.30794254 0.14547269 -0.10489056 -0.23420638 0.6507927 -0.61712724 -0.36122984 -0.36527342 -0.22253901 -0.29828066 0.11548707 -0.4978058 -0.018864976 -0.1423635 0.31731892 -0.66683525 -0.28247258 0.34972197 -0.7114939 -0.28029194 1.0543555 0.4555406 0.8007198 -0.010483134 -0.623659
118 0.5459204 -0.06673328 -0.056147967 0.8820948 -0.1387259 -0.7570765 0.38006955 -0.18871182 0.37101355 0.09095314 -0.22096542 0.5057646 0.4771283 0.29762396 0.1193902 0.06014658 0.107405216 0.5682062 -0.32482263 -0.18764095 -0.08261036 -0.19201332 -0.25616822 -0.010946985 -0.6898187 -0.054761894 -0.1344709 -0.08664007 -0.62640756 0.2056271 -0.12484248 -0.051550634 0.15189809 0.20827352 -0.116139226 -0.10312602 0.83814955 0.21887809 1.1796306 -0.38529623 0.82221156 -0.21052195 -0.7774073 0.69995826 -0.37536278 -1.4179372 -0.14667432 -0.0049091806 -0.06974617 0.5953347 -0.35540828 0.28590173 -0.6263572 0.27564174 -0.57823765 -0.6713427 0.40925875 -0.73715746 -0.23140371 0.8631947 0.6305603 0.31523874 0.4686707 -0.67648995
207 0.6119051 0.43455595 -0.33490488 0.8492966 -0.2772551 0.030298645 0.3070523 -0.48632997 0.14454074 0.06132813 0.53035563 -0.18892603 -0.3760272 0.53942186 -0.022520024 -0.79119843 0.042466428 0.22848234 -0.54486716 -0.3970513 -0.32902712 0.08282627 0.17540096 -0.5058216 -0.9534687 0.24894108 -0.2000294 0.24098866 -0.39373523 0.1085059 -0.041556653 0.010396934 -0.05360925 0.096093446 0.97253346 0.20139773 0.60992926 0.600451 0.8933068 -0.19685148 0.774105 -0.11626181 -0.33851847 0.53966856 -0.90489805 -0.73209554 -0.39713147 0.471413 0.10037999 0.4106892 0.3462509 -0.3344732 0.20249125 -0.47057366 -0.69685096 -0.059646018 0.07273326 -1.0549147 -0.059363697 1.3164645 0.21373378 0.14568053 -0.04684514 -0.69405675
126 0.33163002 -0.14402606 -0.31933734 0.9290411 0.7487336 -0.30944005 -0.5157915 0.037774853 -0.30305448 -0.34764457 -0.118659705 0.82574874 0.3699562 -0.025108868 0.6305466 -0.74837744 0.4429398 0.2584659 0.56564415 -0.3778469 -0.61075276 -0.3154604 0.9377453 0.117106624 -1.3816851 0.9557671 -0.5064145 -0.35846382 0.06330942 -1.0585955 -0.82688415 -0.13767909 0.9347585 -0.13041121 0.2071802 0.6000497 2.5964398 0.14221066 0.6050683 1.3594952 0.29366177 0.0023514235 -1.0585049 1.7633784 -2.635574 0.5447606 -1.3128701 -0.017404078 -1.0220453 0.31084383 -0.7504955 -0.18348242 -0.2778205 -1.2860891 -1.2703543 -0.3768131 -0.54200435 -1.2657514 -0.13374639 1.5888515 0.95029557 1.8543549 0.8419358 -1.7491566
38 0.07609115 -0.17329039 -0.069947295 0.30178845 -0.34159148 -0.36144724 0.39652905 -0.10404957 -0.008239164 0.40548578 -0.10910918 -0.10519884 0.53316426 0.0012968068 -0.14852595 -0.2846245 -0.46785125 -0.03966027 0.40153646 -0.8959591 -0.43294853 -0.017859254 -0.16545956 0.29008046 -0.25384605 0.4335697 0.19464114 -0.31946877 -0.09594305 -0.13553831 -0.74038196 0.2951082 0.21125185 0.04453297 0.577515 0.14339207 0.8997575 -0.19154184 1.2415079 -0.07861915 0.430572 -0.2773196 -0.31159374 0.4186681 -0.6601278 -0.24447034 -0.6656864 0.19940971 -0.15907516 0.1578112 0.19473568 0.0858112 0.117189415 -0.021927983 -0.9820118 -0.42885545 0.39401573 -0.9670173 -0.17238784 0.8555215 0.7696976 0.39129227 -0.031468168 -0.7926485
244 -0.08054073 0.112484634 -0.19565316 0.14272758 0.0523303 -0.6489734 -0.308282 -0.36599 0.25594792 -0.33013043 -0.34075433 -0.12511194 -0.09486755 0.6305423 -0.5644605 0.14379294 -0.8642605 0.1472444 -0.15829451 -0.15015648 -0.32310683 -0.06784681 -0.032929447 0.11732756 -1.0189631 0.6169303 0.0109701 0.09254665 -0.87081194 -0.2938745 -0.23605107 -0.13325433 -0.30164078 0.099150375 0.58938664 0.039889213 0.61424166 0.20417574 1.073385 0.43204752 -0.15506662 -0.45195663 -0.35478655 0.3056799 -0.7367586 -0.65543234 -0.61616176 0.05841396 -0.0913484 0.20951174 -0.43774864 0.040504448 -0.27670163 -0.1577016 -0.4762891 -0.6142036 0.07790037 -0.599294 0.020782843 0.7372942 0.086218804 0.43309587 0.37943056 -0.74506706
202 -0.5140793 0.45720953 0.7338287 0.0697455 -0.035821073 0.038930014 0.2703634 0.20337969 -0.29795378 -0.36487296 -0.38911912 -0.16662495 0.038811885 0.18662737 0.6199617 -0.46919194 0.5199437 0.07561309 -0.43752575 -0.31702626 -0.13769959 0.3878838 -0.30793276 -0.2856985 -0.62647223 0.42511737 -0.32670623 -0.056260165 -0.6721918 -0.13204157 0.002755363 0.4957671 -0.121488184 0.40780598 0.26008368 0.12690923 0.9594524 0.2540501 1.2723321 -0.333904 0.30813932 -0.036620088 -0.3231189 0.40946698 -0.54651284 -0.40487918 -0.23446512 -0.12543009 -0.15000938 0.092954695 -0.33394054 -0.13537532 -0.055921223 0.18380903 -0.6204615 -0.26009813 0.19800456 -0.6736503 -0.27358043 1.1615503 0.71376914 0.6361193 0.12054358 -0.6218054
39 -0.54053694 0.48299077 0.71176475 0.049620103 -0.14988169 -0.11190542 0.25152668 0.06128208 -0.21697998 -0.3134372 -0.34938678 -0.19799992 0.0028380412 0.23576099 0.586206 -0.62266 0.5237222 0.0523037 -0.4404491 -0.30639157 -0.2645647 0.48608607 -0.36377886 -0.26687917 -0.6082099 0.5334285 -0.41314828 -0.06501476 -0.6312058 -0.053520974 0.11097266 0.50109476 -0.15711994 0.43993798 0.27698225 0.105180144 1.0133032 0.19552833 1.3446844 -0.23407306 0.13810377 -0.079387866 -0.23502307 0.38617834 -0.50380397 -0.47364458 -0.14930676 -0.1923821 -0.2877275 0.16122304 -0.32232282 0.012603371 -0.13732557 0.104872935 -0.7376893 -0.28839305 0.306995 -0.56394815 -0.51453704 0.9270532 0.5956471 0.6446848 0.119962595 -0.5377867
337 0.5358454 -0.014068348 0.16482076 0.11709106 0.37251946 -0.55343115 0.5079369 -0.83659977 0.2642993 -0.041865803 -0.065776706 0.034530763 -0.19506322 0.2734148 -0.13402863 -0.5365707 0.04556692 0.24119289 0.67666006 0.050116397 -0.4597688 0.84162766 0.23252583 0.33255726 -0.5413705 0.039423376 0.62081814 0.19408354 -0.6826193 0.093980834 -0.33768404 0.6002671 -0.38032904 0.0717124 0.23134486 0.24630922 0.7829084 0.981421 1.5693493 -0.12413062 0.7969978 -0.25797886 -0.35460514 0.29614934 -1.2128187 -0.5816858 -0.11404979 0.1326735 -0.791539 -0.08153271 -0.59872323 0.3403984 -0.42898402 -0.26429743 -0.7000425 -0.18169549 0.72672546 -0.83111525 0.49179894 1.3070266 0.44978708 0.7549172 0.110866405 0.095349476
47 -0.3670174 0.22922851 0.18799113 0.0705563 -0.20175251 -0.14236148 0.013514423 0.4124107 -0.019732486 -0.3883773 -0.3887782 -0.24821015 -0.39227226 0.64468306 -0.08563193 -0.20581245 -0.4904179 0.40812197 -0.14874841 -0.13381533 -0.049048793 0.3613687 -0.12790494 -0.31238863 -0.60909027 0.49351096 -0.3518243 -0.16319084 -0.509093 -0.32472697 -0.01559482 0.1687517 -0.39298922 0.4600448 0.20651785 0.11563154 0.89197403 0.22461745 1.3599766 0.22500119 0.23576166 -0.25648582 -0.42737457 0.5042373 -0.94359154 -0.49929228 -0.41534433 -0.17105591 -0.14332864 0.13734417 -0.49670064 0.09368341 -0.3055631 0.23376244 -0.49462214 0.03527912 0.2615503 -0.55536014 -0.007072687 0.851527 0.15622534 0.3429234 0.39312544 -1.0467165
205 -0.6112825 0.5378146 0.6746268 0.1000216 -0.2781509 -0.04833937 0.15686682 0.11305868 0.01128216 -0.44809902 -0.36174968 -0.134773 -0.069733866 0.4181862 0.51635516 -0.5126337 0.41052923 0.18114138 -0.24869037 -0.35547805 -0.17675458 0.20716394 -0.2524708 -0.1810093 -0.31359324 0.44819486 -0.60008425 -0.06896792 -0.60120106 -0.14086877 0.044602506 0.4536579 -0.17696464 0.2592016 0.1482931 0.0688122 0.83896214 0.44578472 1.2425132 -0.06724814 0.08907905 -0.4147533 -0.24869658 0.5763125 -0.62444896 -0.5417147 -0.22352782 -0.1779452 -0.17204213 0.068403915 -0.38283974 -0.14806838 -0.07403277 0.12545228 -0.62357646 -0.34326795 0.4364788 -0.6482364 -0.2505367 1.1081576 0.6347735 0.7161984 -0.029843876 -0.7795562
22 -0.4420595 0.5044116 0.6834015 -0.037874907 -0.2735445 -0.026438907 0.20497061 0.31956837 -0.24110165 -0.43648663 -0.2692787 -0.22124688 -0.05036358 0.38244438 0.40219447 -0.4766047 0.39203322 0.25909266 -0.33441913 -0.24307245 -0.2983675 0.030982848 -0.12739465 -0.34339812 -0.41058254 0.46887463 -0.4669975 -0.048125155 -0.7854576 -0.13418894 -0.031655893 0.5717614 -0.16613504 0.3340761 0.23160313 0.09546515 0.88844097 0.21713747 1.2924926 -0.20595954 0.19093072 -0.21224627 -0.3324811 0.49058643 -0.6234652 -0.42962003 -0.18437676 -0.08055648 -0.3371474 0.06480597 -0.5290553 -0.02894943 0.09788948 -0.008456745 -0.74190456 -0.23208626 0.46260408 -0.70530015 -0.38123387 0.93111473 0.54354906 0.6984126 -0.08889052 -0.7367182
285 0.79640424 0.19788323 0.2707217 -0.14433526 0.010461098 -1.0896596 -0.24634719 -0.13177624 0.3973032 -0.8504238 0.35576504 -0.07605977 0.4972154 0.28018796 0.3574224 -0.5320075 -0.26651284 0.20226134 -0.3293303 -0.9074845 -0.22632526 0.14424989 -0.30290413 0.119419694 -0.96081614 0.8441147 0.22155096 0.23207933 -0.5071409 0.34641153 -0.5721921 -0.1604241 0.123656906 0.3787483 0.33710453 0.03613211 0.3505344 0.3173015 0.99932057 -0.28630424 0.11880639 -0.34665886 -0.2862842 0.0660684 -0.6084786 -0.5134473 -0.8240856 0.15841128 -0.3812407 0.16450997 -0.062205397 -0.20520312 -0.6167958 -0.33217344 -0.4377424 -0.43661824 0.06807276 -0.83059376 -0.08912422 0.9808125 0.45458 0.45383242 0.4414235 -0.20557275
196 0.20415924 -0.084799096 -0.1326402 -0.40092918 0.17520674 -0.68295515 -0.008131345 -0.34137705 0.45727444 0.2597892 0.2226233 -0.17266573 -0.073856704 0.045919586 0.4387766 -0.5355879 -0.119556405 -0.053020224 -0.6234087 0.3645113 -0.5978799 0.16445784 -0.61722124 -0.2540259 -0.75001156 -0.1995367 -0.17541367 0.022009417 -0.01510519 0.050002374 -0.3619808 -0.13844849 0.0076648523 -0.2337993 0.51241726 0.3579621 0.6746442 0.4671033 1.2291809 -0.5267507 0.0009885672 -0.76597625 -0.66505235 0.16278985 -0.96224976 -0.5235812 -0.34737673 -0.016957114 0.34102514 0.022209026 -0.44374207 -0.13796003 -0.24264777 0.38774216 -1.1634895 -0.4691065 0.6520224 -0.6775886 0.15061945 0.98800504 0.6560528 0.025324335 0.41967157 -0.6677715
292 0.59923947 -0.7124912 -0.48188868 0.27730724 -0.021902064 0.35505795 0.057739392 -0.14534402 0.1108672 -0.14797527 -0.7571924 -0.24193978 0.19768399 0.080666915 0.047947455 -0.78005266 -0.14026862 -0.2684164 -0.22105874 -0.18372057 -0.32091781 -0.3185553 -0.4396391 0.15332064 -0.30499408 0.3611046 -0.32310304 -0.20684414 -0.4343213 0.77260566 -0.046049606 0.09220189 0.38569582 0.35758772 0.4839578 0.48272914 0.43120998 0.2305418 1.3921893 -0.3521669 0.46043965 -0.38789713 -0.13061735 0.41233557 -1.1198256 -0.6564351 -0.7013077 -0.005268965 -0.5823663 0.042554602 -0.6492796 -0.28192148 -0.48833922 0.16094552 -0.13519008 -0.42900974 0.45943135 -0.7936695 -0.28402317 1.6515979 0.0387213 0.14195961 0.028019942 -0.58051264
237 0.14400165 -0.024536373 -0.27987257 -0.38494614 0.09678054 -0.7655509 -0.07339339 -0.2811699 0.47101885 0.22542611 0.21886511 -0.13036697 -0.03931762 -0.046543114 0.46915323 -0.4900577 0.0024276888 -0.07660422 -0.62671494 0.3717684 -0.6246431 0.16894737 -0.5382009 -0.35029146 -0.6229542 -0.044214703 -0.17064036 0.008262407 -0.20062003 0.121111766 -0.24277209 -0.27759412 0.2562191 -0.11064971 0.6339986 0.29636195 0.7127423 0.44168568 1.3653954 -0.5002342 -0.0006063347 -0.7558219 -0.6559701 0.33639902 -1.0105863 -0.38373607 -0.24239789 0.10049493 0.17544337 -0.010731402 -0.5055458 -0.11365867 -0.21120898 0.13164236 -1.2254152 -0.2714946 0.7148857 -0.6218605 0.22484806 0.8322101 0.6102114 0.03487587 0.5429089 -0.6459056
240 0.70491946 0.57273877 -0.17584738 0.015817853 -0.54822236 -0.48436162 0.71624297 -0.261922 0.43112487 -0.07943704 -0.17320809 -0.08077013 -0.027150009 0.32674706 0.4547553 0.2259896 -0.2571787 -0.20418206 0.13794972 0.2386422 -0.51522404 0.51393545 -0.5005706 0.24017522 -0.51007664 0.38377932 -0.30105636 -0.3688433 -0.41800287 0.2865603 -0.09360015 0.020564102 0.44388026 0.2334905 0.5348902 -0.03631877 0.58805037 0.5292993 0.9104741 -0.39385384 0.40129834 -0.4941073 -0.2146478 0.382238 -0.861208 -0.4438886 -0.8427507 -0.5648515 -0.20211597 -0.11971423 -0.28949422 0.65808135 0.014263389 0.078481674 -0.71651393 -0.404225 -0.5701148 -0.70767796 -0.4106409 0.9582817 0.015845025 0.7657497 0.44985363 -0.53633314
170 0.12624894 0.11346231 -0.11926772 -0.03689872 -0.4629138 -0.221148 0.42064422 -0.31232977 0.27264124 -0.11273828 0.17234589 -0.26561555 0.41395813 0.4546476 -0.0051049422 -0.8700463 0.27000841 0.06485415 0.23088002 0.21718022 0.113592535 0.027088992 -0.4788567 0.33166295 -1.5803068 -0.10312104 -0.08489535 -0.9701062 -0.93345726 0.055138554 -0.66080076 -0.6229757 -0.24275398 0.3777111 0.16992575 -0.033603393 0.13299459 0.10378472 1.7990752 -0.16157891 0.4299648 -0.286625 -0.8081093 0.68694544 -0.9917505 -0.22275597 -0.18251368 0.2967805 -0.12393549 0.052075103 0.017541144 -0.29406407 -0.15617341 0.19637369 -0.58236283 -0.29042345 0.24338455 -1.2241148 -0.5248466 0.8327569 0.03476076 0.6181609 0.17565157 -0.13388808
225 -0.08545224 -0.3338217 -0.3380355 0.032211717 -0.58741266 -0.46921438 0.38182625 -0.10550923 0.17385569 0.31382033 0.08664091 -0.32449064 0.55757064 -0.025891004 -0.038587 -0.4582126 -0.538883 -0.09069405 0.30819348 -0.8407641 -0.43617022 0.20126031 -0.17837909 0.09261601 -0.22444293 0.34853736 0.18029863 -0.44342202 -0.18900676 -0.16762094 -0.64205414 0.32194883 0.16494867 0.030375352 0.4768562 0.027829694 0.9225926 -0.015702467 1.2311666 -0.00574777 0.3542779 -0.25486958 -0.014418461 0.43472186 -0.69905484 -0.50129986 -0.36697623 0.39101994 -0.266608 0.19926272 0.022543738 0.2771833 0.0535565 -0.31451356 -0.9167217 -0.38530907 0.2237179 -0.9305573 -0.4536383 0.8321983 0.7468384 0.42520854 0.06562637 -0.83413
90 0.21032667 -0.60884416 0.96639717 0.030551719 -0.22780254 0.010515162 0.04005632 -0.56663185 0.10726383 -0.088434145 -0.103574865 0.39547366 0.12849814 -0.23313558 0.4551633 -0.46124557 0.45142975 -0.16901988 -0.5407589 -0.33228043 -0.7593878 0.38854045 -0.27160105 0.014420093 -0.8267268 0.08814861 -0.068145074 0.009375306 -1.1263727 -0.060602013 -0.22711988 0.28879902 0.21024297 0.2419123 0.6930572 0.09072908 0.8934029 0.08690785 0.97663367 -0.087386265 0.3850527 -0.08513843 -0.6141724 0.2034279 -0.80618656 -0.37846336 -0.25667146 0.24631812 -0.0164941 0.17802963 -0.10569372 0.14122923 0.1187555 -0.088551216 -0.3387266 -0.4743686 -0.1329562 -0.716812 -0.2391524 0.7587994 0.3199841 0.59034026 0.33573574 -0.61696094
94 0.12727274 -0.62378895 1.0567504 0.1599085 -0.041347977 -0.10218634 -0.039810114 -0.6405415 0.1530823 0.032643124 -0.06436756 0.4526915 0.09365819 -0.08265512 0.5263936 -0.4143516 0.35577124 -0.32450354 -0.3668159 -0.3483632 -0.7607779 0.40260354 -0.3153175 0.055440616 -0.7759452 0.18587467 -0.10640636 -0.070777684 -1.0754055 0.03640809 -0.15179479 0.18013063 0.32021207 0.2045123 0.8137686 -0.04900512 0.88270044 0.15099534 1.0828316 -0.09103928 0.2507498 -0.10373001 -0.45662457 0.35288557 -0.6354632 -0.3921071 -0.2597275 0.16179231 -0.14868154 0.2162645 -0.086060956 0.13196665 0.12887286 -0.06763407 -0.30287185 -0.54966253 -0.09627901 -0.68852997 -0.33092812 0.8369634 0.26607066 0.57495064 0.3110029 -0.57173973
75 0.42377788 0.13291995 -0.122173645 0.43876156 -0.694607 -0.36685747 -0.046386488 0.48423335 0.387679 -0.14974631 -0.23002714 -0.6535099 0.47203526 0.070968166 0.3338209 -0.34102502 -0.09036841 -0.14396633 -0.5805855 -0.5440937 -0.7191566 -0.25089073 -0.74225664 -0.33217758 -0.90604687 0.49972272 -0.8276082 -0.37658224 -0.9378985 0.07547639 -0.27167928 -0.5921417 0.2983604 0.43773752 0.8758539 -0.17105487 0.5428873 -0.46127382 0.68740326 -0.3496012 -0.15054193 -0.22764152 -0.52255803 0.4015649 -0.70647216 -0.8288039 -0.6561569 0.21955423 0.5052056 0.31897745 0.06836341 -0.29508564 -0.16130412 0.54432803 -0.6869626 -0.39176956 0.11044518 -0.88022524 -0.74594957 0.79692185 0.2741126 0.12965064 0.25726098 -1.1949633
320 0.6083473 0.4044524 0.08134219 0.18035372 0.0813114 -0.79999316 -0.529888 -0.037927717 -0.28065914 -0.20586629 -0.36933842 -0.42350096 0.10001679 0.30028704 -0.34375697 -0.44109207 -0.09462507 -0.16731645 0.42468527 -0.22675051 -0.4877533 0.36378205 -0.44507188 -0.6099219 -0.13437293 -0.33057344 -0.18505242 -0.44594058 -0.5860832 0.7140897 -0.13587883 0.04318703 -0.153598 0.2445733 0.84621096 -0.13455293 0.8330848 0.47393736 1.2329326 -0.09885534 0.47297448 -0.12069625 -0.7700772 0.035811003 -1.0829232 -0.83734626 -0.4328922 -0.0829892 0.16138253 0.3364957 -0.17928694 0.025988758 0.3378974 -0.21258494 -0.15341122 -0.7192395 0.4407909 -1.5025797 -0.6212446 0.73659897 0.5270883 0.46187776 0.8199885 -0.24224365
