170 64
42 0.27234995 0.56600237 -0.049673203 -0.24594049 -0.1462896 -0.34081236 -0.021552715 0.09244548 -0.014378509 0.048916537 0.020320592 -0.15646309 -0.045385357 -0.6085064 0.092278644 -0.28654012 0.059269104 0.19911839 -0.92526096 0.07231019 -0.5818871 0.11154998 -0.3158252 -0.058234803 -0.14697947 0.5095838 -0.038971566 0.46427652 0.081052095 0.18025625 0.11298692 0.14419042 0.034873843 0.30323914 0.36002222 -0.013999465 -0.18638203 0.2812025 -0.10072589 0.17851399 -0.20713955 0.40784517 0.10912505 0.21456313 -0.54434067 0.27641338 -0.31833363 -0.11792694 0.0037414331 -0.19969824 0.35017356 0.01718439 0.1566524 0.3860367 0.0067689675 -0.48179638 -0.87733865 -0.34327635 0.20241638 0.30056387 1.6030655 0.21486355 -0.47337675 0.043289278
169 0.45231453 0.6982157 -0.14752305 -0.18730843 -0.27999157 -0.30492318 -0.009872285 0.33125007 -0.13631473 0.14192338 -0.15458982 -0.110909484 0.07750553 -0.7139884 -0.048580855 -0.2033008 -0.023375623 0.03798221 -0.8535951 0.06563535 -0.5551153 -0.05546902 -0.19905534 -0.18669611 -0.27361885 0.29077178 0.16612571 0.29594174 0.009161913 0.29385766 0.30389234 0.2221956 0.12259147 0.51069766 0.45204428 0.04628021 -0.09769676 0.17462946 -0.2039166 0.05458202 -0.25999674 0.42276227 -0.1314378 0.2619528 -0.7135733 0.23290439 -0.069571875 -0.0718669 -0.15672019 -0.13480517 0.2948585 0.19924052 0.15824872 0.413374 -0.013257817 -0.40723002 -0.8270255 -0.07900639 0.0076992325 0.42011163 1.4698343 0.47321424 -0.27220073 0.082465924
41 0.37477306 0.6554721 -0.02278098 -0.33708003 -0.1886701 -0.41612548 -0.05344665 0.0696647 -0.1507639 0.01883203 -0.0055649406 -0.15502197 0.00069083326 -0.6726761 0.05957829 -0.09528373 0.17810853 0.08987754 -0.98747665 0.12254015 -0.4636048 0.018385755 -0.14684612 -0.10821952 -0.08308185 0.30947894 0.04242174 0.34278014 0.039375767 0.230683 0.2550508 0.27256045 0.07011617 0.5413666 0.3992759 0.09751743 -0.072226204 0.25962546 0.030725868 0.10047097 -0.16651869 0.5182907 -0.062102363 0.12449938 -0.5914542 0.18313463 -0.44045824 -0.041098457 -0.008077695 -0.05412139 0.33223832 0.08267723 0.003737731 0.39151657 0.061877117 -0.5745527 -0.748086 -0.2827399 0.16705039 0.37946147 1.5095803 0.3949498 -0.26401705 0.14509535
40 0.25733328 0.77868325 -0.14791006 -0.19377123 -0.21041165 -0.30774066 0.053095896 0.033995375 -0.115851015 0.014985715 0.10279513 -0.120987564 0.082254715 -0.65159315 -0.09197337 -0.23756784 0.1690065 0.15669583 -0.9877086 0.20648077 -0.5441657 -0.093911745 -0.29305288 -0.015518172 -0.10333241 0.36492154 0.10634669 0.38850763 0.03505134 0.36081225 0.107191026 0.1751258 -0.03298478 0.38328466 0.41791812 0.050115082 -0.1023012 0.27882835 -0.11044648 0.24365494 -0.20636548 0.4482581 -0.014946544 0.22398314 -0.47014213 0.2939973 -0.34806007 -0.032189324 -0.10187379 -0.21480905 0.3086147 0.008756694 0.1491219 0.41051272 -0.05567768 -0.58536 -0.7036587 -0.29458976 0.019650988 0.46134362 1.5339261 0.3180749 -0.4456303 0.16911137
14 0.08422146 0.48908383 -0.09529297 -0.01352589 0.21953134 0.06464926 0.31400758 -0.43223017 0.029376747 0.18520133 -0.36386037 -0.33414942 -0.24582653 0.24719484 0.022900647 -0.032792073 0.2789635 -0.21280481 0.11655655 0.34010488 -0.34337872 0.2005994 0.20316248 0.20167989 -0.08480816 0.22156964 -0.10287147 -0.15926854 -0.12614124 0.24493355 -0.0716694 0.32822642 0.8386574 -0.06584429 0.082386374 -0.0646539 -0.008878881 -0.47941962 0.41731513 -0.113121994 -0.092968896 0.1296401 -0.7869182 -0.094589576 -0.6164962 -0.5064229 -0.034231395 0.53644323 -0.20988552 -0.25676912 -0.39676335 -0.14952175 0.1304116 0.10888932 -0.31163952 -0.6448149 -0.4408902 -0.47241846 -0.33777875 0.08313449 1.4575138 0.7156567 -0.63606435 -0.18790719
152 0.46691418 0.102831 -0.3225217 -0.13616645 -0.051905375 -0.41839463 -0.0549795 -0.23282205 0.024528474 0.116669044 -0.20375957 0.26754645 0.37126347 -0.23029703 0.6068841 -0.029451324 0.16283812 0.6085301 -0.55852616 0.048713848 -0.19779555 -0.1485779 -0.38030842 0.20121385 0.2211463 0.35983574 0.0476503 0.5949929 -0.08916606 -0.03983252 0.16990517 0.21123536 -0.036822114 0.61943793 0.15738428 -0.09141834 -0.23106532 0.056169756 0.18300463 -0.37612218 0.0063293204 0.27815762 0.15059969 -0.08813928 -0.5540037 0.07071075 -0.08984921 0.18812914 -0.10552103 0.1463222 -0.012460795 -0.15899493 0.0015398703 -0.12547778 0.28501603 -0.74867237 -0.69252044 -0.3879409 0.35868058 0.3316974 1.5125458 0.6346819 -0.3181216 -0.2696576
151 0.43519506 0.1079025 -0.23763718 -0.19651732 0.027267069 -0.43591073 -0.023200333 -0.29280227 -0.009731914 0.22860633 -0.27479705 0.3003973 0.31468594 -0.3708299 0.4583631 0.0032809416 0.22917466 0.51337576 -0.589889 0.18278427 -0.118548535 -0.08562213 -0.47235674 0.20614712 0.34924984 0.44649568 0.030753737 0.65830255 0.031266574 -0.10526357 0.18006216 0.12251239 0.01811881 0.43421474 0.15631449 -0.22254488 -0.21031466 -0.00032501112 0.039318945 -0.43110487 -0.0456488 0.23322183 0.2042972 -0.09486344 -0.64907545 0.11167576 -0.13275845 0.17677063 -0.14709097 0.07530307 0.041783072 -0.020496292 -0.00536015 -0.16106042 0.2969981 -0.721308 -0.68278426 -0.4392204 0.25771883 0.46493307 1.5065428 0.5255132 -0.24501331 -0.30067366
147 0.48820698 0.26072145 -0.06400273 -0.0035216282 0.05415028 -0.6475175 0.18299231 -0.06837194 0.1716303 -0.12994312 -0.32678586 0.3024134 0.3753895 0.079794936 0.38739118 -0.18646643 -0.3156802 0.31159636 -0.0598353 0.44316202 -0.011306118 -0.17435126 -0.08091765 0.16484976 0.059523348 0.34865826 -0.016459586 0.5452698 0.020272506 0.15282406 -0.18413925 0.3266681 0.4427069 0.41091704 0.28320733 -0.40605614 -0.25965714 0.105957285 0.8577611 -0.53333557 0.13588424 0.27927125 0.046282332 -0.4236758 -0.30837512 0.5268188 -0.18936841 0.20749983 -0.6387054 0.024023335 0.27120143 -0.13105497 -0.086926185 -0.30830956 0.6602067 -0.6651822 -0.8279977 -0.52286756 0.013921426 0.58378553 1.3027622 0.5782313 -0.45414996 -0.002955163
117 0.2757578 0.6824798 -0.024390498 -0.31819952 -0.16328645 -0.25370473 -0.1222495 0.04143304 -0.13781434 0.13682945 -0.0078246035 -0.100541905 0.019405017 -0.63583213 -0.06440433 -0.18076058 0.09903599 0.15879866 -1.1059712 0.20524336 -0.5370965 0.07203745 -0.28633258 -0.08185797 -0.21602283 0.45241436 0.022874307 0.3855803 0.18563233 0.30157906 0.10877343 0.15895058 -0.09228617 0.36904988 0.35391068 -0.029579388 -0.13275255 0.21627927 -0.20687881 0.060382396 -0.22224124 0.47056934 -0.15959018 0.3061628 -0.5326203 0.29884052 -0.25428262 -0.06758957 -0.19298296 -0.1641017 0.34130752 -0.09552933 0.22104424 0.4001182 -0.07355373 -0.5478449 -0.77473813 -0.3667667 0.19149396 0.2904152 1.5343603 0.19896305 -0.5493611 0.01008975
71 0.48608273 -0.31551495 0.366354 0.53088796 0.30508128 -0.39247847 -0.10761727 -0.0550763 0.41754177 -0.13673519 0.2526984 -0.17579816 -0.40030935 -0.36446348 -0.15905504 -0.39211813 0.012340525 -0.1421288 -0.39367455 0.6172725 -0.2041361 -0.48806745 -0.08586242 -0.16841951 -0.22660473 0.13458799 0.09752994 -0.03763171 0.08323829 0.24289542 -0.15966481 0.295052 0.17311789 0.26545632 -0.2909819 0.09663595 -0.21602084 0.20766316 -0.11641154 -0.46320182 -0.05821827 0.0677595 -0.681732 -0.6550742 -0.14284226 0.40313336 0.45240167 0.13235389 -0.18423261 -0.6839749 -0.39955667 0.013313447 -0.063151665 0.51371753 0.08689416 -0.5343485 -0.4214714 -0.95200884 -0.38709283 0.23407368 1.71179 1.249913 -0.4503636 -0.65927917
22 0.24474756 0.53229254 -0.09844537 0.16248743 0.3992578 -0.050021335 0.34809747 -0.45753613 0.039430257 0.09195597 -0.5043359 -0.2874922 -0.2698987 0.3648219 0.1806098 0.03719084 0.4541969 -0.3971392 0.112396896 0.15492874 -0.6079236 0.1795876 0.19771865 0.086239375 -0.32993633 0.3157287 -0.20025988 -0.1676348 -0.30120042 0.30439818 -0.13706475 0.17346853 0.65648437 -0.06240064 0.10748923 -0.14583308 0.241648 -0.4466808 0.24681385 0.06854237 -0.05519235 0.08059146 -0.6564024 -0.1670767 -0.47396666 -0.2155453 -0.18911159 0.7660479 -0.23637477 -0.29908884 -0.32701364 -0.19883673 0.06161838 0.08971944 -0.19213016 -0.90591145 -0.44956896 -0.57716554 -0.26010892 0.1836597 1.3851749 0.58101916 -0.531542 -0.24914008
160 0.11770268 -0.044503216 0.4789032 -0.22372921 -0.120111614 -0.47000936 -0.35362917 -0.034672894 -0.29267412 0.32856822 -0.1000614 -0.39645836 -0.072869 0.37352163 -0.25277257 0.28074363 -0.1969967 -0.035329457 0.25123182 0.015358263 -0.3033507 0.019343596 -0.4048101 -0.28529423 0.05478299 -0.25390056 0.24463642 -0.23185675 -0.004844092 0.89430964 0.20518827 0.351954 0.19887312 -0.09640287 0.13289048 0.12964478 -0.0034928361 -0.06802702 0.066114604 -0.45226067 -0.2244336 0.033269607 0.39392492 -0.31816253 0.12444643 0.25051913 0.07991258 0.37464562 -0.5866445 0.0074386904 -0.19100448 0.06322855 0.2570643 -0.005385415 -0.20963208 -0.49518982 -0.6271655 -0.8105141 -0.3047405 0.49624625 2.385667 0.71758723 -0.5009935 -0.13431776
128 -0.62374306 -0.24675317 0.17318115 -0.20743784 -0.064561464 -0.46638778 0.028204758 -0.12064506 0.09770961 0.21467853 -0.3643165 0.47714764 -0.009986172 -0.14285262 -0.010017562 0.23997803 -0.19455695 -0.36013263 0.19286796 -0.23744875 -0.041575562 -0.59285283 0.16192566 -0.0038279905 -0.16558453 -0.3367942 -0.03181142 0.09634847 -0.039448395 0.3264312 -0.19497544 -0.28019816 0.6138883 -0.14287636 0.0733954 -0.5456692 -0.2517899 0.31564647 0.121760316 0.4959389 -0.09508547 0.3762787 -0.67307705 0.2673904 -0.15150276 0.21232893 0.19560269 -0.08681142 -0.27799085 -0.30952987 0.20240466 0.16499658 0.13296531 0.10864825 0.07567486 -0.7545348 -0.36987105 -0.68194455 0.074686885 0.423899 1.7653825 0.95961106 -0.32296026 -0.670437
167 -0.27870727 0.14041059 -0.05347149 -0.30310535 -0.42112285 0.00994565 -0.025267698 -0.18347071 0.014713163 0.0061810724 -0.41980663 0.4122897 -0.2758761 -0.19808891 -0.012288259 -0.02333859 -0.31341544 -0.19089317 -0.24443671 -0.21747182 -0.16097958 -0.45510194 0.3891362 -0.33638147 -0.32207462 -0.35043618 0.19594498 0.23653674 -0.35023943 0.77822995 0.2736566 -0.1947949 0.67659277 0.0739146 0.20877093 -0.32841802 -0.09142518 -0.019456055 -0.010864295 0.4092303 -0.36966136 0.23665375 -0.46156612 0.106568515 -0.28173253 0.30763197 0.29739907 -0.122766174 -0.52010536 -0.36811724 -0.019922508 0.15472457 0.016444465 0.26574668 0.5177235 -0.5081087 -0.4690361 -0.4371747 -0.4574528 0.5615574 1.4178989 1.090804 0.11068561 -0.5285764
144 0.13322261 0.41483516 -0.18310343 -0.22293533 0.46704856 0.31217092 -0.10422234 0.23167424 -0.19727781 0.13759209 0.30173004 0.34994403 -0.042185333 -0.22853854 0.06250988 -0.03186767 -0.1649822 -0.063205995 0.44084066 0.17446712 -0.77265024 -0.38662854 0.008295625 -0.13537522 -0.108887725 0.13361876 0.07444478 0.3616803 0.68464196 0.017354175 0.083101556 -0.1763384 0.672003 -0.033111423 0.50400704 0.059307177 0.471741 0.11655545 -0.2971334 -0.47981763 0.31697312 0.14163181 -0.7062125 -0.2380338 0.45343697 0.047343083 -0.089534596 0.07970912 -0.37841377 0.083055966 -0.3124898 -0.5505226 -0.29650995 0.0988848 0.40237546 -0.48260382 -0.7873552 -0.66763884 -0.34105352 0.2793734 2.282695 1.1608926 -0.34356192 -0.06804032
29 0.00091120636 0.24191593 0.09679817 0.19098607 0.32069716 0.042144056 0.09737933 -0.57984513 -0.732559 -0.122451216 -0.3482155 -0.14248294 -0.06763666 0.12128315 0.42678234 -0.4937455 0.08866258 0.036295645 0.22837754 0.025503043 0.23882815 0.4497958 0.14161192 0.19567671 -0.28534567 0.3155 0.19134292 -0.030514456 0.23186408 3.7588983e-05 0.12621586 0.39454073 0.57194847 0.22847794 0.15121934 -0.23302422 -0.25663412 -0.18520857 0.25867423 0.09697821 0.07751912 0.24840046 -0.5672405 0.094822064 -0.24659504 -0.28960016 0.094089 0.4943509 -0.54735535 -0.71739084 -0.21824525 0.18192925 0.001687685 0.23858011 -0.28833878 -0.17515005 -0.56406486 -0.5477276 -0.7245593 -0.23667946 1.8293707 0.64935344 -0.46503067 -0.15267807
106 0.23593791 0.49145555 0.41319853 -0.22529696 0.30394742 -0.34731758 -0.015457789 0.008676663 0.029659746 -0.0530554 0.20426558 0.2770956 -0.4125409 -0.18523194 0.16213185 0.046653554 -0.16003627 -0.039721955 -0.2114334 -0.23277038 0.025862584 -0.3037445 0.07375708 0.3367077 -0.031252105 0.71087784 0.17834395 -0.6386275 0.07756526 0.36352596 -0.106891334 0.28668725 0.691026 0.11202626 0.74476004 -0.08681953 -0.07679765 -0.3282721 -0.39243978 -0.07944409 0.4371041 0.27838948 0.3482482 -0.13211882 0.09422337 -0.20942768 0.13615139 0.49234557 -0.7370455 -0.102620274 0.17103304 -0.028710991 0.5933699 0.61123633 0.52973574 -0.7060915 -0.37278634 -0.8397753 -0.1634872 0.3258356 1.5488929 1.6247227 -0.9605829 -0.7409889
98 0.18658054 0.444829 -0.08981912 -0.20580837 0.46469906 0.34535596 -0.15271175 0.086105876 -0.21260135 0.14495829 0.18506415 0.39050364 0.013998042 -0.3123264 0.05039735 -0.015778424 -0.117422916 -0.20786001 0.430373 0.2122802 -0.8117609 -0.42702025 0.033993367 -0.1355741 -0.04585246 0.09676814 0.05332609 0.35945037 0.7779597 0.09464103 0.1496806 -0.10835756 0.61405176 0.016241053 0.38087988 0.13696451 0.5647936 0.14588785 -0.28516117 -0.34270304 0.36962685 0.08740489 -0.5756058 -0.25751752 0.3522956 -0.032015547 0.030934667 -0.0009936219 -0.43356237 0.10201413 -0.18799481 -0.65184695 -0.37910253 0.12216946 0.43029132 -0.4606482 -0.76359403 -0.79665923 -0.43629864 0.39247292 2.2085142 1.0030315 -0.5874443 -0.21757084
148 0.5483252 0.37204787 0.0042182608 -0.06255796 0.047511745 -0.6094422 0.1935809 -0.15813555 0.3111651 -0.030554358 -0.28417787 0.34576207 0.27567378 0.106932566 0.31751314 -0.057033446 -0.2651158 0.4816812 -0.29623324 0.5348951 -0.14295703 -0.057029415 -0.14588802 0.2136857 -0.08665625 0.27738664 -0.021560552 0.4431657 0.1987104 0.06873012 0.007257806 0.28670797 0.22843567 0.4763282 0.17905386 -0.54370505 -0.23301437 -0.10065816 0.7805786 -0.3076738 0.22416572 0.27624166 0.13178156 -0.36472756 -0.32563248 0.26759323 0.08352477 0.061248768 -0.53528684 0.06576814 0.4396263 -0.12678045 -0.23255858 -0.48629943 0.6870695 -0.57389474 -0.5820372 -0.44578946 -0.03709146 0.6691158 1.5005325 0.5444507 -0.43542257 -0.30465847
48 -0.12126318 -0.42015707 -0.09670261 -0.23918554 0.6066696 -0.73616636 0.7733703 -0.3504753 -0.04100306 0.055118985 0.011884258 -0.028761962 0.35080412 0.1042646 -0.41566485 0.036907546 -0.70019156 0.005026731 -0.36628857 0.21331105 -0.31305426 0.1005616 0.1779205 -0.43494084 -0.27778438 -0.10297309 -0.10530022 0.24908932 0.11559635 0.09227606 0.066179425 0.30197117 0.34199485 0.3464976 0.39438778 -0.27910072 0.850604 -0.08684603 -0.21484838 -0.077215634 0.5078673 0.49200356 0.14939119 -0.24306934 -0.46570072 0.033093106 -0.157635 0.18423073 -0.61173433 -0.58375514 -0.7598275 -0.24033241 0.32953376 0.5000167 0.085672684 -0.3923227 -0.46018568 -0.604315 -0.16185826 0.35192436 1.8332835 1.0972533 -0.71658266 -0.19962263
72 -0.16846682 -0.46607256 -0.1114941 -0.3675469 0.66608053 -0.745347 0.8369067 -0.33759603 -0.090278834 0.049943913 0.12724337 0.06309058 0.2926254 0.13375235 -0.3839808 0.008087469 -0.6488279 -0.05524883 -0.48157865 0.20720235 -0.24806117 0.06282025 0.34727255 -0.35175726 -0.2437188 -0.06038115 -0.11246738 0.16212276 0.05656229 0.073969215 0.12543134 0.30649865 0.29061225 0.22511265 0.4223736 -0.1706197 0.8415963 -0.115826525 -0.06470578 -0.11327432 0.41497743 0.4460703 0.18706556 -0.21811678 -0.4471798 0.041020922 -0.104119904 0.08355136 -0.5049724 -0.5974121 -0.7857728 -0.21290213 0.19120775 0.5458698 0.13756783 -0.41882393 -0.41042665 -0.665925 -0.11352619 0.3751656 1.9467655 1.0027373 -0.75332403 -0.17735857
61 0.42580125 -0.37894818 0.38752207 0.56182045 0.2014019 -0.41083783 -0.04084318 -0.21480677 0.3171398 -0.1683645 0.25542212 -0.22315429 -0.38936776 -0.36980325 -0.18236129 -0.2884818 0.064717375 -0.24617186 -0.42658302 0.506618 -0.269308 -0.5104937 -0.14138679 -0.16639733 -0.23627512 0.16980684 0.18061759 -0.028233914 0.16840823 0.24822012 -0.27962834 0.41505697 0.2511239 0.32413113 -0.19584517 0.087284476 -0.19152045 0.28562683 -0.17522213 -0.5507864 0.013105337 -0.06658253 -0.73174596 -0.7337815 -0.15837897 0.41535527 0.39866543 0.17264262 -0.22805351 -0.72308326 -0.30973974 -0.06727549 -0.049357723 0.43924558 0.100454085 -0.66168773 -0.44401464 -0.8391411 -0.31527802 0.20648736 1.6672096 1.253548 -0.42100006 -0.56132394
165 -0.21714641 0.26494518 0.034140784 0.24239253 0.3276647 -0.078525394 0.09154841 -0.53419524 -0.818564 -0.13525963 -0.13183692 -0.08845769 0.020064149 0.036057856 0.35213614 -0.29743618 0.20245238 0.07222277 0.1790301 0.117992036 0.118844695 0.4625577 0.24292122 0.27847296 -0.19083318 0.31730682 0.22665204 -0.106679544 0.24684818 0.103152424 0.08852796 0.5437076 0.54057354 0.31518814 0.09210729 -0.20067726 -0.060729466 -0.28957537 0.24692984 0.15572666 0.08932544 0.06073588 -0.705667 -0.029235082 -0.3517663 -0.45205155 0.13898742 0.3970781 -0.51827693 -0.6665352 -0.050673075 0.15630172 0.007213202 0.08776957 -0.3048388 -0.14863554 -0.61057144 -0.71433836 -0.6567465 0.024803432 1.7895982 0.5698667 -0.35627833 -0.1751018
107 -0.75679255 0.6816361 -0.5629619 0.6105595 0.014964442 -0.043487344 0.43979567 -1.0798868 -1.155132 -1.6992869 -0.26856676 -0.28423765 -0.44113734 -0.5942194 -0.80516875 -1.6640828 -0.12824598 -0.63172346 -0.1269186 1.5141681 -0.72253525 1.5177592 0.41715586 -1.0133711 -1.1684318 0.6380267 -0.10022602 -0.495218 -0.4480865 -0.7034456 -0.034097493 -0.24530376 1.0297289 -0.34393218 -0.9173091 0.4633555 -1.1633679 -0.6798257 -2.0507782 -0.65525025 1.9125121 0.003510385 -0.12604535 -0.8654715 -0.23963153 0.101230815 0.4685299 -1.0149058 -0.40842342 -0.08073408 -1.0880942 -0.49780005 0.8247458 0.7301003 -0.21605097 -3.1241996 -2.0564413 -0.61088866 -1.6834613 1.3113666 2.941462 2.658371 -1.6182954 -0.2267059
26 0.3119773 -0.14022884 0.43491212 -0.2633462 -0.11505874 -0.49492452 -0.45186657 -0.058247235 -0.30457115 0.29454327 -0.026214117 -0.4219788 -0.03932488 0.5079863 -0.21827953 0.21343212 -0.20204408 -0.2154034 0.18592426 0.14081159 -0.36142707 0.042580582 -0.18752834 -0.29205868 -0.12079524 -0.21880993 0.15428804 -0.0848124 0.13278691 0.95517045 0.39717963 0.309391 0.08297274 -0.13359743 0.0534857 0.08654402 -0.26749614 -0.23767215 0.0015530182 -0.3504778 -0.059837725 0.08146311 0.35924327 -0.10416184 0.2204582 0.26158836 -0.055867944 0.37549388 -0.59045106 -0.051123343 -0.17619433 -0.010615823 0.25199494 -0.15016167 -0.20633084 -0.6039837 -0.65181905 -0.74900883 -0.25406602 0.38285112 2.2705812 0.93108416 -0.5189571 -0.21985944
162 0.5650561 -0.004947353 -0.40647978 -0.15591036 -0.09864744 -0.4793546 -0.03398767 -0.20735855 0.23955013 0.19596918 -0.32013157 0.28568694 0.48410344 -0.2984246 0.4214548 -0.10829737 0.21153 0.5502845 -0.5341518 0.21929748 -0.14338207 -0.088152796 -0.4709955 0.2971135 0.26759356 0.43970317 -0.12943722 0.6930718 -0.008620681 -0.051328562 0.17466035 0.19886048 0.016031504 0.5316618 0.2613578 -0.2534204 -0.2740703 0.017844226 0.0975489 -0.30528778 -0.031404637 0.19746935 0.12557569 -0.063030034 -0.37277544 -0.08283599 -0.06845381 0.18969388 -0.27327815 0.22999506 0.027235135 -0.074525036 0.01381615 -0.014995134 0.11623 -0.77961594 -0.5556912 -0.5154856 0.19058226 0.34996113 1.5852927 0.5776594 -0.17366931 -0.37011597
52 -0.0050686556 0.79227597 -0.061428696 0.11150034 0.15762368 0.037562735 0.28022796 -0.34554142 0.0555647 0.10973711 -0.44595668 -0.31687543 -0.17618008 0.3579068 0.10528952 0.053310636 0.294506 -0.3748938 0.10109731 0.25438303 -0.32266307 0.12501006 0.077696204 0.143496 -0.059819855 0.1353831 -0.20452385 -0.11496421 -0.0822263 0.077436335 0.006212521 0.23284228 0.86778677 -0.080566764 -0.015442219 0.069543324 0.15470037 -0.554287 0.37220562 -0.045247912 -0.06517122 0.075763345 -0.49558714 -0.21028972 -0.63827425 -0.42652428 -0.17825055 0.4392656 -0.07804567 -0.5671438 -0.3593834 -0.11518301 0.26074892 -0.007476269 -0.11924061 -0.67002815 -0.41119462 -0.70238364 -0.42030147 0.14230163 1.4850403 0.65762156 -0.61654437 -0.2618384
153 -0.44267333 -0.08892059 -0.08171579 -0.24403434 -0.27765712 -0.27265322 -0.019689757 -0.28931588 0.16339123 -0.021556329 -0.4319906 0.26760292 -0.1470986 -0.13256717 -0.1602483 0.033857185 -0.13917056 -0.1950961 0.0388902 -0.3965871 0.017814165 -0.47883967 0.098441504 -0.26350048 -0.10669122 -0.5320713 0.2390375 0.2437283 -0.050609343 0.40999484 -0.09786386 -0.27793995 0.7162133 -0.11517917 0.19387206 -0.4701158 -0.2548237 0.15515114 -0.027536971 0.5532681 -0.27281067 0.32021934 -0.5386516 0.16622604 -0.24930517 0.26969227 0.19058652 0.03993753 -0.45225704 -0.27430993 -0.045773797 0.09147245 0.013813482 0.27297643 0.46470064 -0.7481108 -0.4817418 -0.5917682 -0.16723385 0.39745373 1.4782112 1.0946484 -0.1838604 -0.57515603
15 0.42922136 0.22046024 -0.26052114 0.05444599 -0.05574945 -0.4823177 -0.06560796 -0.16675763 0.047905542 0.2908044 -0.38002285 0.22694091 0.41959026 -0.4054527 0.5261009 -0.2512638 0.049658086 0.43885544 -0.5290209 0.04212553 -0.045249812 -0.1666277 -0.32951525 0.21401136 0.2884184 0.44233504 0.0155367125 0.75707567 -0.016677985 -0.055254206 0.21177013 0.19511679 -0.0075025973 0.5187881 0.19250263 -0.22452988 -0.07183075 0.029014423 0.21083419 -0.38757902 -0.10335412 0.18715937 0.19859374 -0.23915018 -0.45399758 0.104527816 -0.13172536 0.17782979 -0.2611839 0.209562 0.034413036 -0.06016784 0.0475357 -0.101496294 0.23069167 -0.97740734 -0.59955645 -0.47182983 0.24912919 0.3166493 1.4684724 0.51805454 -0.35347435 -0.19635262
4 0.019658936 0.79369086 -0.023698417 0.10639657 0.17888527 0.0071913614 0.25291836 -0.42676207 0.13466121 0.10840027 -0.31635615 -0.3648642 0.050203152 0.2818877 0.1642634 0.09999146 0.419311 -0.18539356 0.18033962 0.16779539 -0.383446 0.31010062 0.19348799 0.040497407 -0.17723449 0.31619954 -0.06612905 0.03242565 -0.18966275 0.059033923 -0.033333134 0.14087372 0.8068907 -0.1785065 0.049684133 0.027662754 0.03105624 -0.56743145 0.26746732 -0.10756774 0.021231415 0.15668415 -0.7117855 -0.19890521 -0.4848827 -0.38130784 0.08796106 0.526972 -0.37532884 -0.5998146 -0.32410067 -0.018304722 0.24116637 0.06116573 -0.27384678 -0.43094316 -0.41252938 -0.49964046 -0.25463066 0.17150575 1.517997 0.60264105 -0.56494015 -0.41609642
31 0.34580424 -0.1608719 0.39246896 -0.29508534 -0.14860392 -0.56409776 -0.44768035 -0.13189557 -0.34921068 0.3176372 0.07702156 -0.45706162 -0.027049517 0.46048382 -0.19193292 0.33791444 -0.10994605 -0.11086898 0.19873367 0.06390314 -0.31504825 0.08101541 -0.07020361 -0.16977282 -0.07489513 -0.2305682 0.22405699 -0.16413826 0.06145078 0.95139813 0.17899871 0.29787117 0.14437096 -0.055261083 0.09204985 0.17371958 -0.008393475 -0.17156418 0.0145400725 -0.4330025 -0.18635221 -0.07873667 0.26897845 -0.1018577 0.13498811 0.28618315 -0.094275214 0.3078204 -0.64167476 -0.0086969035 -0.13893245 0.055672005 0.12022362 -0.071575314 -0.16608049 -0.627299 -0.5887489 -0.83600223 -0.23621272 0.5402223 2.2655897 0.8665659 -0.5082421 -0.09560039
154 -0.5288019 0.02028652 -0.17571335 -0.41732973 -0.47770557 0.03685498 -0.24570467 -0.2981948 0.06377113 -0.045367606 -0.34484088 0.32321358 -0.26604757 -0.16170478 0.041357405 -0.008013898 -0.22471479 -0.12568678 -0.15439339 -0.25310606 -0.2607244 -0.3965848 0.45166388 -0.35316673 -0.2920202 -0.3031603 0.31743357 0.23324262 -0.11674386 0.7399812 0.04059011 -0.026126442 0.8120217 0.030838355 0.18021025 -0.6814082 -0.027393222 -0.039527763 -0.22043668 0.15138257 -0.38570404 0.09291589 -0.36725304 -0.017083755 -0.40988272 0.4006978 0.2411368 0.052342374 -0.5535496 -0.47518778 -0.095668726 0.090488374 -0.072117 0.19194676 0.5177961 -0.5337022 -0.5661118 -0.57536596 -0.3545394 0.55713594 1.2840165 1.0091614 -0.028569179 -0.6138841
108 0.4898419 0.21180123 -0.28203857 -0.10269345 -0.015170689 -0.42801017 -0.034972608 -0.12162382 0.30199188 0.13068025 -0.30643976 0.3573784 0.29696327 -0.07401537 0.3699827 -0.08243588 0.028612798 0.546152 -0.6350127 0.3185425 -0.079536304 -0.04292225 -0.45658633 0.28400317 0.13067202 0.3628097 -0.07562146 0.66733813 0.04321578 -0.10699862 0.36764577 0.18655014 0.016120078 0.55822 0.20805043 -0.29697758 -0.3496328 -0.1345439 0.27301773 -0.3440017 -0.0090633 0.21944879 0.188887 -0.097750746 -0.41485482 0.108068556 -0.17385031 0.14025019 -0.28606194 0.0798027 0.12700175 -0.120062456 -0.021744978 -0.11918687 0.34752604 -0.7044813 -0.66704476 -0.49402896 0.09419079 0.39601776 1.5319579 0.5428188 -0.20881563 -0.27603891
150 0.44429573 -0.24747929 0.3758304 0.7019891 0.07572961 -0.42390805 0.03508942 -0.14513358 0.3398927 -0.18601918 0.41361707 -0.20975517 -0.45629212 -0.28612626 -0.22122392 -0.41170675 0.06283004 -0.17517543 -0.42310122 0.50627774 -0.16312723 -0.29200763 -0.016027188 -0.075962976 -0.15565741 0.060880773 0.050189592 0.038349226 0.2306122 0.24794568 -0.29892996 0.16498655 0.1754845 0.29285228 -0.19834588 0.055655614 -0.009449683 0.20286252 -0.09011678 -0.5479111 -0.11376096 -0.017381737 -0.6084775 -0.6829421 -0.13652635 0.37442234 0.27600887 0.13577539 -0.2152731 -0.6317501 -0.28494984 0.057341546 -0.14131737 0.5914499 0.110491484 -0.6491994 -0.43008247 -0.88590807 -0.40805283 0.3077498 1.7124175 1.2524256 -0.33060434 -0.7495477
93 0.3134925 0.39338806 0.26571167 -0.32674265 0.23751888 -0.35543716 -0.006556991 -0.034783788 0.065108046 -0.026402459 0.27765235 0.49421662 -0.34564155 -0.067280956 0.14567718 0.11827079 -0.093634285 -0.043081548 -0.25415763 -0.078611046 0.15362614 -0.29921144 0.14238805 0.36899894 0.066121824 0.7310703 0.1999935 -0.6827589 0.035799723 0.46596533 -0.19713062 0.3032953 0.7171474 0.07309658 0.7594386 -0.06951503 0.012603698 -0.26982948 -0.46200716 -0.13300003 0.3404641 0.29696348 0.24904518 -0.15172578 0.16329558 -0.12963876 0.11542889 0.5870512 -0.7250167 -0.24651752 0.14936517 -0.037882343 0.6147177 0.6236111 0.4276388 -0.6143682 -0.6285729 -0.8795545 -0.13695908 0.32980615 1.5384161 1.5302316 -0.9777443 -0.6404496
10 -0.7060573 -0.2637377 0.18910712 -0.15840247 -0.18249919 -0.4926943 0.02325508 -0.13248603 0.29463947 0.24446967 -0.35972616 0.50135 -0.011259761 -0.093804866 0.12424447 0.24438763 -0.046056796 -0.4616792 0.17941147 -0.14648362 0.028282456 -0.53196764 0.15126392 0.16078901 -0.21320963 -0.29118064 -0.08485391 0.08176434 0.027688142 0.34644175 -0.31203732 -0.32884702 0.58734965 -0.08553187 0.22318026 -0.5360114 -0.21340635 0.5009129 0.18478082 0.45896006 -0.13913012 0.37662104 -0.61949396 0.31864786 0.020777496 0.20245591 0.13406853 -0.16507891 -0.40231475 -0.34216523 0.12847243 0.05543405 0.1842879 0.1839125 -0.08112727 -0.78923637 -0.36379886 -0.7672607 0.019566057 0.47200608 1.8226022 0.90579224 -0.2883256 -0.6342353
143 -0.7297287 -0.26025036 0.21560515 -0.10863516 -0.19106409 -0.53038687 0.043884136 -0.20429546 0.17822178 0.26755378 -0.39369395 0.42794168 -0.04209791 -0.14030571 0.09153013 0.33349282 -0.14644729 -0.45008603 0.21724871 -0.1638516 -0.0022930156 -0.6283368 0.14239122 0.16429077 -0.26277313 -0.2762859 -0.056801822 0.10040712 0.16780627 0.3800082 -0.34931865 -0.30911973 0.5530604 -0.049490713 0.17760135 -0.47830242 -0.07893956 0.4505055 0.23511344 0.41954273 -0.10671247 0.38748837 -0.67200464 0.3181058 -0.07289057 0.23072527 0.13540836 -0.13804154 -0.4186669 -0.3400077 0.26897722 0.039203044 0.19479893 0.077082746 -0.07705914 -0.86079276 -0.31897545 -0.7004919 -0.090911135 0.48468658 1.7359217 1.0107908 -0.38575476 -0.66166157
39 0.28073797 0.33762392 -0.062373627 0.23486893 0.3269376 -0.027376505 0.31312037 -0.3465136 -0.04136721 0.1819337 -0.0802657 -0.18496016 -0.37807837 0.24923627 0.0047523025 0.09526006 0.44523335 -0.3017465 0.3562085 0.26302245 -0.67911255 0.16928025 0.10365415 0.059827223 -0.28497708 0.33079886 -0.19706573 -0.27941072 -0.40422034 0.34439012 0.19420725 0.08584602 0.60627365 0.09559384 0.15472999 -0.33039698 0.18398125 -0.33681363 0.32377613 -0.026944363 -0.21689138 0.37644085 -0.73710406 -0.09448212 -0.77833384 -0.30931115 -0.19555648 0.5984743 -0.31937653 -0.21550949 -0.34298727 -0.39624408 0.32707685 -0.12345425 -0.06848025 -0.91351444 -0.45500925 -0.4047844 -0.42343342 0.047136437 1.3659966 0.5648895 -0.6378125 -0.48578602
20 -0.31974116 0.18547447 0.00653181 0.34128127 0.37445512 -0.06027657 0.016798537 -0.48812953 -0.886277 -0.19837575 -0.19050243 -0.13630712 0.1788839 -0.04295601 0.3718027 -0.30033985 0.26987815 -0.01664508 0.1752254 0.24104932 0.17205146 0.5938132 0.18685032 0.26253694 -0.1593666 0.22778367 0.3302197 -0.05767112 0.29150808 0.09284364 0.082652904 0.5843755 0.6919768 0.23025313 0.15492731 -0.09494512 -0.32037234 -0.27335808 0.22994012 0.101596884 0.13512675 0.26391184 -0.6549857 0.03133874 -0.29674572 -0.32326698 0.05469348 0.5051746 -0.6376506 -0.5368837 -0.18259284 0.085463434 0.023591114 0.30896458 -0.13233131 -0.070802994 -0.5302412 -0.6834897 -0.5258051 0.008781498 1.8258687 0.6516986 -0.20027755 -0.222705
32 0.42388532 -0.13051242 0.32940382 -0.31293765 -0.11686089 -0.44025555 -0.34385315 -0.17870162 -0.19698207 0.31807414 -0.012841272 -0.4275804 0.004589629 0.43294168 -0.22718632 0.21750171 -0.07056992 -0.13807777 0.17971084 -0.0044745337 -0.32617342 0.078573704 -0.11019372 -0.25676566 -0.043166257 -0.3006585 0.31220117 -0.25374785 0.14217412 1.0043774 0.23260504 0.21794267 0.1592946 -0.13466564 0.14444587 0.17869358 -0.24841067 -0.25284985 0.12012089 -0.39807996 -0.14924839 0.114131965 0.42274484 -0.16670409 0.19649026 0.28912303 0.1058629 0.25562584 -0.5055045 -0.023051167 -0.26547417 0.040407702 0.1380475 0.011539342 -0.06878458 -0.45839158 -0.5081311 -0.79483926 -0.17140788 0.49929905 2.4323018 0.7408748 -0.62147945 -0.20732686
145 0.23437345 0.2072606 0.22705758 -0.019102722 0.6868884 -0.4481059 0.36821875 0.24399547 0.061863318 -0.0820464 0.1407191 -0.5841054 0.14096196 0.8691146 0.61034536 0.33872578 -0.30260426 -0.05026855 -0.74444765 0.038717095 -0.28456554 -0.4954673 0.3218396 -0.19399732 0.5884275 0.46260586 0.38365862 0.20023549 0.82197154 0.767701 0.4283491 -0.24586909 1.1319559 0.29758704 0.29974145 -0.33271244 -0.00063243194 0.7577179 -0.27851665 0.014359255 -0.22794135 -0.007169456 -0.4071961 -0.1429042 -0.5492618 0.14902589 0.18295301 0.46406773 -0.6717612 -0.009891303 -0.099411644 -0.093218006 0.14276496 0.38969225 0.030677322 -0.49097228 -0.15087253 -0.9954906 -0.45808458 0.21254563 2.0075474 0.78243977 -0.3671933 -0.49566272
129 -0.4226021 -0.22356102 0.0071231853 -0.43651995 0.07655204 -0.5159184 0.016690953 -0.4168977 0.047378846 -0.028989265 -0.18012711 0.43044 -0.14542925 -0.015825586 -0.17841484 0.1436182 -0.117909834 -0.032107368 0.088245064 -0.4199672 0.07395368 -0.5138751 0.077229396 -0.18653816 -0.08237416 -0.46470502 -0.07847101 0.25369704 -0.00037778678 0.33345076 -0.1839008 -0.081904575 0.77545196 -0.44360703 -0.045233846 -0.18721852 -0.27110374 0.21583445 -0.06661856 0.6159103 -0.17967662 0.27607837 -0.7305953 0.14363508 -0.23796089 0.2500381 0.20792846 0.016961252 -0.36865532 -0.17650452 0.0710028 0.2554195 0.10826502 0.15724283 0.48860177 -0.86226684 -0.7236687 -0.66995 -0.114248514 0.33454782 1.610825 0.841008 -0.23530534 -0.7471636
9 -0.3928455 -0.22534238 0.091035336 -0.26344135 0.0271534 -0.5347166 0.10437788 -0.44069904 0.112650864 0.005366157 -0.3390081 0.38942343 -0.11076294 -0.101102985 -0.062148273 0.071626894 -0.13999808 -0.20314665 0.13293722 -0.44007915 0.02957012 -0.42162 0.14173402 -0.058255557 -0.059411228 -0.45292392 -0.025509043 0.22814618 0.04813007 0.34317416 -0.30031762 -0.28469554 0.69572216 -0.36786488 0.14187108 -0.18154866 -0.29912138 0.26450816 -0.027027087 0.6223182 -0.2537015 0.36918068 -0.657956 0.20848745 -0.23092218 0.2801866 0.16442873 -0.13572128 -0.36172184 -0.1994186 0.06460974 0.22531529 0.052706245 0.11031813 0.40656987 -0.86233544 -0.4043195 -0.7031794 -0.029323949 0.4083033 1.6553822 0.952147 -0.33295968 -0.67289114
44 0.37300652 0.2174756 -0.10876664 -0.15576984 -0.10200614 -0.4915585 -0.12607533 -0.09536901 0.065057054 0.09657545 -0.2967661 0.08410494 0.24695762 -0.5539055 0.52878493 -0.120584965 0.09430949 0.37077937 -0.59690386 0.1655031 -0.28999487 -0.026154786 -0.31721863 0.04894898 0.1779505 0.39926055 0.13899367 0.712906 0.11366303 -0.09804813 0.22536676 0.20711154 -0.022875275 0.5751709 0.12076569 -0.17855783 -0.24262078 0.11858278 0.23493205 -0.2642865 -0.07110406 0.27616164 0.2514934 0.07824606 -0.52510387 0.036186993 -0.30189934 0.13312942 0.0031924206 0.16171214 0.12625386 -0.0603636 0.12342642 0.16513702 0.28291237 -0.9204252 -0.71668357 -0.20036998 0.22935347 0.28094426 1.4727297 0.448354 -0.33120826 -0.21765532
78 -0.7438167 0.67045754 -0.550762 0.62037617 0.010240021 -0.047269493 0.44281814 -1.0739763 -1.1422863 -1.7069348 -0.2764674 -0.28242353 -0.4368797 -0.578153 -0.7827183 -1.6460108 -0.12420829 -0.62022924 -0.13591613 1.5007316 -0.7345789 1.5220168 0.40810296 -1.0015563 -1.1694431 0.6258308 -0.10598853 -0.49510387 -0.4364893 -0.7014966 -0.0359858 -0.25639546 1.0402877 -0.33870843 -0.9100429 0.45987096 -1.1552545 -0.6838246 -2.0451405 -0.652134 1.9108407 -0.009318028 -0.1196265 -0.855308 -0.22475357 0.0915996 0.46630964 -1.0152888 -0.41625318 -0.08124371 -1.0983858 -0.50326514 0.83780956 0.7359663 -0.21105991 -3.1254175 -2.045039 -0.6258908 -1.6728959 1.3111968 2.9313722 2.6516888 -1.6060295 -0.23040934
149 0.23433414 0.5528801 -0.1824383 0.2630089 0.4671206 0.10595045 0.35103256 -0.28371957 0.10356452 0.19853532 -0.3382492 -0.15770371 -0.21727307 0.2912517 0.06422444 0.073940314 0.43598792 -0.22374223 0.18821375 0.19760104 -0.6247496 0.15883556 0.04988369 0.024646504 -0.31007525 0.21398057 -0.2736419 -0.34586868 -0.40713063 0.39154112 -0.037494227 0.22495157 0.6552931 0.006323243 0.1415437 -0.30238003 0.08086071 -0.3463318 0.24201676 -0.07030393 -0.1443553 0.34511185 -0.73860604 -0.16202728 -0.639981 -0.33502474 -0.12130477 0.5125132 -0.3741851 -0.10606199 -0.50149304 -0.18040119 0.38905197 -0.06746983 -0.24426991 -0.6905191 -0.565374 -0.7327523 -0.39518526 0.20293538 1.3557575 0.49544048 -0.5429796 -0.38732582
146 0.6286981 0.21890277 -0.14023311 -0.19693114 0.11755649 -0.7692714 0.06028184 -0.11834107 0.21534133 -0.069782354 -0.24465622 0.35224268 0.19775234 0.25071666 0.27457204 -0.0815814 -0.3288388 0.4783322 -0.3397645 0.56539845 -0.09624771 -0.1362072 -0.16983718 0.34865195 -0.10665286 0.36855412 -0.061480407 0.49536002 0.17356402 0.030930575 0.05080816 0.19837622 0.22558527 0.48291054 0.14826849 -0.52565986 -0.33036718 -0.25716463 0.76536727 -0.35371435 0.20148557 0.011042923 -0.02726227 -0.11252499 -0.34610406 0.29761103 -0.09413106 0.01449393 -0.41616276 -0.03078026 0.43392745 -0.2699959 -0.2949889 -0.3560006 0.59945965 -0.60256517 -0.6635118 -0.5152624 0.017801527 0.567536 1.4591545 0.64796215 -0.4061435 -0.3022709
62 -0.13959092 0.14386538 -0.13465047 -0.3180124 -0.4440908 0.045603964 -0.010591876 0.058009855 -0.17166692 -0.032789428 -0.5217282 0.36033756 -0.24004503 -0.15511931 -0.17941853 0.05794595 -0.35949823 -0.41270685 -0.5035751 -0.2118973 -0.062005047 -0.3164732 0.15605815 -0.2933533 -0.2760678 -0.5031693 0.20144154 0.17262137 -0.33922666 0.6549021 0.11268019 -0.25439972 0.57414097 0.0057329717 0.38969702 -0.36647806 -0.14890201 0.005470222 -0.15112428 0.42015707 -0.30620536 0.11838957 -0.6841831 0.15571234 -0.34370154 0.2976133 0.18275715 -0.0730502 -0.6067369 -0.51514244 0.12646367 0.074461766 0.0075047794 0.36843666 0.54476726 -0.58851075 -0.56596977 -0.495243 -0.3511409 0.5780936 1.4042877 0.9187514 0.10405573 -0.39505306
82 0.36674684 -0.011380583 0.35468015 0.45659485 -0.49365342 -0.44088197 -0.47847748 -0.16982742 -0.238578 0.046315253 -0.3491622 0.18684989 -0.20319675 0.36708835 -0.17183265 -0.17742279 -0.1331731 0.67244905 -0.30336246 0.23137493 -0.0069603277 0.019515347 0.53997296 -0.44940707 -0.24998923 0.37233838 0.09501577 -0.09851407 0.15847902 0.11735031 0.19488816 0.12492234 1.1869361 -0.15584561 0.67209244 0.07991129 0.022621304 0.43567947 -0.29506165 -0.037086684 0.9781282 0.45891908 -0.2855316 -0.065653354 -0.41259098 0.36882037 0.04258881 0.3183811 0.0357427 -0.19615471 -0.41306016 -0.5543283 0.24643 0.15568699 -0.17889608 -1.0456524 -0.24222653 -0.8405899 -0.4612061 0.9796534 1.9355482 0.739497 -0.5240557 -0.37636268
96 0.19841558 0.19526666 0.18726145 -0.037203304 0.68869984 -0.4300162 0.4338326 0.30780056 0.028576069 -0.09161222 0.099716045 -0.5449871 0.16013692 0.85348976 0.5585409 0.3576223 -0.3742714 -0.0045599826 -0.68637425 0.08827371 -0.26477456 -0.6011731 0.305851 -0.26434436 0.5872827 0.4793306 0.3698796 0.1917942 0.8441317 0.82239735 0.5002402 -0.18453154 1.1210039 0.34188068 0.30280036 -0.31994724 -0.13494934 0.7389928 -0.31509796 -0.03620409 -0.21465203 0.029383823 -0.46589124 -0.11253561 -0.52978945 0.16894388 0.21197972 0.554962 -0.62447053 -0.07567921 -0.11290873 -0.118335664 0.18540965 0.28103426 -0.049848966 -0.5236504 -0.19624472 -0.974095 -0.42081335 0.114237234 1.9479033 0.8722829 -0.42115703 -0.4481805
74 0.32791212 -0.0012598012 0.26483065 0.35204947 -0.39496297 -0.37540781 -0.2623118 0.011220101 -0.17512459 0.045505024 -0.3621153 0.31912977 -0.114436574 0.27849555 -0.34635466 -0.18106523 0.14670336 0.76893765 -0.25918034 0.17515668 -0.2227492 -0.31814846 0.61978537 -0.5090299 -0.14156623 0.52589804 -0.0076546385 0.041536544 0.14805807 0.21864472 0.2621684 0.36963147 0.738721 -0.6619374 0.75177777 0.08794153 0.00464587 0.5347773 0.15150371 -0.14552933 0.85414404 0.31005883 -0.25133285 0.2455929 -0.4012075 0.23051693 -0.025199138 0.47965142 -0.110709704 -0.2749065 -0.41661355 -0.6102522 0.2708231 0.3437626 0.0979385 -0.67260295 -0.08347179 -1.0567198 -0.5665311 0.7411811 2.0759022 0.76856583 -0.41356876 -0.45971626
168 -0.18686497 0.07925662 -0.013471993 -0.26667044 -0.5377027 0.044955984 -0.04245615 -0.1437336 -0.1024977 0.14956737 -0.40181625 0.27615294 -0.2924373 -0.25026667 0.24865997 0.010633774 -0.50574595 -0.10163427 -0.09986949 -0.40282014 -0.014857201 -0.3394597 0.45958754 -0.49475476 -0.31599322 -0.20689368 0.12302473 0.21777569 -0.36175838 0.8792171 0.08631014 -0.023971487 0.8258291 0.059573594 0.11822924 -0.49091908 0.06637706 -0.04002548 -0.16538756 0.23678482 -0.4490383 0.006447518 -0.5155644 -0.02939497 -0.3757551 0.24226288 0.12162079 -0.15951306 -0.49972278 -0.43037593 -0.031242907 0.015834903 -0.06388952 0.16778558 0.6657722 -0.42960972 -0.51000565 -0.49589688 -0.35548127 0.57371235 1.3950748 1.0584196 0.037598673 -0.6266441
37 0.39420107 0.24348702 -0.10401122 0.07165145 0.09780833 -0.56575406 0.20189963 -0.039497796 0.15335223 -0.06316879 -0.36578164 0.34093034 0.3604289 -0.0011604205 0.23372942 -0.35496408 -0.394525 0.2777222 -0.1810308 0.4270624 -0.17735456 -0.21092434 0.06703419 0.20376576 0.20549768 0.33961734 0.22715804 0.47206175 0.044283237 0.2103537 -0.18028475 0.23486696 0.4829848 0.4097143 0.3237486 -0.41574284 -0.28832984 -0.009157885 1.0360334 -0.5464057 0.16564564 0.3250053 0.13028105 -0.5918598 -0.30969313 0.43345007 0.21440426 0.20692347 -0.74675626 0.012524231 0.30179706 -0.29506993 -0.096772045 -0.31289548 0.6076153 -0.6920352 -0.77115124 -0.48387113 0.12664078 0.57960963 1.3714869 0.5020678 -0.46881828 -0.0030615842
135 0.14985979 0.16901924 0.25021374 -0.03992439 0.28028086 -0.23243853 -0.1852203 -0.3186441 -0.25079525 1.002187 0.64395124 0.57695395 -0.2999351 0.09487314 0.37259752 -0.18594925 -0.34729847 -0.061668906 -0.15232128 0.092890315 -0.7336274 -0.16495563 -0.528663 -0.69099766 -0.45025334 0.003338109 0.1513049 0.2356973 0.5952838 0.4063447 0.0024194208 0.05970045 0.98342663 0.34004483 0.78463435 0.39288265 -0.33502206 0.13210204 0.71439487 0.376974 0.48569942 -0.3339521 -0.0516766 -0.41580904 -0.8356559 0.20011556 -0.2514397 0.7396484 -0.86401325 -0.5331742 -0.4010666 0.35421634 -0.076860085 0.4176452 -0.050087735 -0.6733884 -0.073369704 -0.91853803 0.04018035 0.5128466 1.7045975 1.1377742 -0.5163093 -0.6146109
90 0.33624053 0.82666606 -0.067437895 -0.05631597 0.6895701 -0.7451655 -0.13563299 -0.28268075 -0.16553651 -0.3163291 -0.21518858 0.5661 -0.59962803 0.2767221 -0.29040718 -0.05216161 -0.56522775 0.008242512 -0.16330862 0.09021664 0.22252999 0.16248833 -0.10852467 0.113708764 -0.07159725 0.19881679 0.50565475 0.7912457 -0.033112507 0.34219897 0.07331911 0.3857271 0.6977862 0.4931952 -0.022982994 -0.6057108 0.010338029 0.34969807 0.92788315 -0.5685651 0.17776057 -0.3250765 -0.35200974 -0.14006473 0.12332924 0.63792896 0.0575712 0.34598497 -0.6052658 -0.09354794 -0.31705636 -0.7729512 0.5450943 -0.21688238 0.2563125 -0.2898373 -0.28741226 -0.7271155 0.44234988 0.75439125 1.7357846 0.8293988 -0.5708023 -0.6845048
30 -0.01077382 0.79060316 -0.04201785 0.009373886 0.06433048 -0.039961528 0.19378021 -0.39022702 0.073149495 0.21086857 -0.39932948 -0.31813687 -0.17599545 0.41186774 0.04972593 0.058440365 0.27219877 -0.3499884 -0.027175209 0.35132685 -0.31896964 0.06685971 0.21556173 0.11011768 0.03142671 0.12151273 -0.1361357 0.09977589 -0.034292556 0.047556803 -0.026601339 0.22013561 0.87469065 -0.22189532 0.10505949 0.037715 -0.010553645 -0.768013 0.26518375 -0.33990288 -0.060498867 0.07469058 -0.7494286 -0.122265905 -0.6044146 -0.48054078 0.009821848 0.4002721 -0.202833 -0.6293537 -0.4180412 0.011201654 0.1867706 0.059467845 -0.20790175 -0.69942886 -0.3657499 -0.69078517 -0.15783694 0.04339864 1.4211243 0.6722959 -0.8060021 -0.107025616
94 -0.72926396 0.64403135 -0.5532037 0.60647357 0.01355871 -0.00067391957 0.41090837 -1.0727323 -1.1199853 -1.6724483 -0.2966382 -0.2752937 -0.42623082 -0.57777256 -0.78598344 -1.6738434 -0.12186819 -0.59659994 -0.12812449 1.4645 -0.77202314 1.4972689 0.40972716 -1.0058882 -1.156879 0.59602517 -0.10778561 -0.5022012 -0.44294634 -0.6814687 -0.022812253 -0.26339972 1.0351949 -0.31529564 -0.8957778 0.47020763 -1.1160088 -0.7079616 -2.049802 -0.6172313 1.916977 -0.053831756 -0.123216406 -0.8358364 -0.22495694 0.11063189 0.4258758 -1.0002689 -0.36235827 -0.098053016 -1.0481558 -0.48915094 0.83536094 0.73232466 -0.23226862 -3.1178415 -2.0731196 -0.6741995 -1.6496993 1.294389 2.9186044 2.6368868 -1.5258114 -0.21850455
123 0.38362375 0.12532036 0.15264122 0.16302706 -0.30768043 -0.5181105 0.21242899 -0.51940733 0.073186144 -0.12676772 0.2500697 -0.10243731 0.123258434 -0.6874865 0.26298562 -0.124229945 -0.62993103 -0.15328664 -0.36839455 -0.23106056 -0.75167346 -0.009760285 -0.6110466 0.57523483 0.5320769 -0.026214859 -0.14103752 -0.42966676 0.36313018 0.7431599 0.9871836 0.39731044 1.2362599 -0.3411625 0.2761142 -0.28820422 0.51210296 0.09514978 0.34884563 -0.159426 0.6858359 0.37717107 -0.585617 0.29917508 0.107926354 0.73841363 0.06824756 0.7246457 -0.6735698 -0.6313856 -0.66192275 0.052627034 -0.121531405 0.010728559 0.1893352 -0.7034785 -0.268853 -0.9410995 -0.090672985 0.30739573 1.8424468 0.88016015 -0.47646055 -0.47882876
103 -0.7764982 0.63699603 -0.527063 0.6087857 -0.042315554 -0.012069542 0.43601343 -1.1264434 -1.1506753 -1.6598128 -0.24726933 -0.24797198 -0.4611371 -0.6314039 -0.79322517 -1.6976684 -0.13983205 -0.6225212 -0.114758566 1.5037109 -0.7432604 1.5009421 0.41098696 -0.97484666 -1.207033 0.5583724 -0.1386023 -0.47120726 -0.45286047 -0.6962685 -0.027158035 -0.23291273 1.0646136 -0.34769097 -0.8997425 0.48351836 -1.1248245 -0.68613815 -1.9585526 -0.6726242 1.9031537 -0.04258375 -0.107949115 -0.86526793 -0.24341084 0.097721145 0.43305376 -1.025408 -0.36421114 -0.12365616 -1.0618806 -0.50235116 0.8255451 0.72198766 -0.22911818 -3.1453316 -2.068054 -0.6219086 -1.6497642 1.3600081 2.9233649 2.591465 -1.5893682 -0.2531681
134 0.34641442 0.11328732 0.07572086 -0.0013063818 0.8168298 -0.71077806 -0.3592791 -0.3396876 0.24275488 0.07519813 0.39972988 0.20068815 0.332964 -0.19124137 0.28623232 -0.77148646 -0.06573029 -0.048069086 -0.22892682 -0.17795256 0.033703193 -0.2895554 -0.109554335 0.026112404 -0.6813255 -0.7626674 -0.15096171 0.34960935 0.10384161 1.0921849 0.254164 0.13138653 1.277544 -0.24390797 0.648108 -0.15617163 0.2346394 0.16414566 -0.18080208 -0.8508285 -0.021804739 0.349017 -0.0927205 -0.13606049 -0.45891273 -0.34964576 0.06910818 0.8434599 -0.1503237 -0.69957364 0.70378906 -0.71108425 0.26155448 0.26560047 -0.10757984 -0.5532459 -0.08954954 -0.802033 -0.42116335 0.4904664 2.0134547 0.9064967 -0.4952586 -0.17584844
16 -0.735363 0.6682259 -0.53864 0.6015542 0.010670701 -0.03562308 0.4122464 -1.0876042 -1.1221883 -1.6963506 -0.24724522 -0.27582106 -0.42372727 -0.6381138 -0.79883677 -1.6635671 -0.12897821 -0.61731285 -0.11318293 1.4808143 -0.7345835 1.52143 0.40590692 -1.0131911 -1.1667068 0.56272167 -0.15356961 -0.50289696 -0.48534653 -0.6498251 -0.017777551 -0.2533511 1.069125 -0.32965526 -0.9199863 0.4280932 -1.087289 -0.67990845 -2.0399892 -0.6739835 1.9164879 -0.051342487 -0.09504885 -0.8296166 -0.2531202 0.07541041 0.44271725 -1.0090839 -0.38064903 -0.06391009 -1.0389284 -0.5227617 0.8472394 0.702473 -0.2435754 -3.1061287 -2.065336 -0.6607861 -1.6630769 1.3027009 2.9005857 2.6375782 -1.5845938 -0.26932406
137 0.020392308 0.3649178 0.03140185 0.0933521 0.2715572 0.070852 0.24441002 -0.6239607 -0.7764847 0.011007863 -0.332543 -0.32482642 -0.011131842 0.097087115 0.35864627 -0.46269724 0.23682345 0.14886352 0.15257393 -0.105971865 0.13913612 0.28652272 0.18376963 0.18469064 -0.3101195 0.3447045 0.2771154 -0.104761966 0.10446809 -0.0020736093 -0.013635347 0.25439554 0.49640444 0.18732186 0.14551717 -0.21844094 -0.04376672 -0.17067003 0.3453766 0.13281709 0.103342384 0.08060993 -0.59172153 0.053734716 -0.25610375 -0.294209 0.31118673 0.53811514 -0.47324044 -0.8022603 -0.16249476 0.054345652 -0.0930132 -0.009895976 -0.365549 -0.20835823 -0.6443395 -0.68730253 -0.6325777 -0.1840844 1.6871351 0.73995525 -0.61917317 -0.11850626
24 -0.7865859 0.69399387 -0.5471421 0.6276564 -0.03444066 -0.07232877 0.4548284 -1.0879751 -1.1634916 -1.6558198 -0.21039237 -0.30179197 -0.45777217 -0.55175537 -0.8135707 -1.7010686 -0.1253278 -0.65915406 -0.16102886 1.5172414 -0.7160147 1.5061661 0.4200339 -1.0068237 -1.1941535 0.6577184 -0.036255125 -0.44940025 -0.45432916 -0.66057223 -0.016885854 -0.26840934 1.0142583 -0.37165192 -0.9271604 0.49716184 -1.1736554 -0.7058429 -2.050995 -0.6362522 1.9120737 -0.024868287 -0.12999795 -0.84074014 -0.21704455 0.09087344 0.48605362 -1.0231936 -0.40493897 -0.09193294 -1.1161087 -0.5412214 0.8439465 0.7667658 -0.22277255 -3.178899 -2.0738075 -0.6158031 -1.7514731 1.3380487 2.918863 2.635555 -1.6239784 -0.21883436
112 0.34578148 0.103447676 0.109756835 0.015127543 -0.4187994 -0.8053769 0.12376362 -0.11566468 -0.48395583 0.03282257 0.12464791 0.15318668 -0.24596076 -0.40684453 -0.0873894 0.15359986 -0.3405293 -0.06896567 -0.2687453 0.008680221 -0.23119023 -0.839233 0.5700157 0.8646033 -0.72992635 -0.039894797 -0.33484188 0.37262455 0.4266944 0.38377285 0.27326638 -0.30139413 0.8762875 0.14282499 0.002719725 -0.12223567 -0.29899254 0.05992925 -0.3214602 0.07506825 -0.036744002 0.09497305 -0.25198647 -1.029118 -0.32959947 -0.0019749114 -0.16448756 1.3324579 -0.81353146 -0.07267929 -0.7729256 -0.2784119 0.36563113 0.18038476 0.18528658 0.009028207 -0.38122582 -0.69618267 -0.16944414 0.5740851 2.248044 0.5673592 -0.9363332 -0.09991781
161 -0.7560589 0.6731321 -0.5640982 0.626715 -0.03896078 -0.058197256 0.4254931 -1.1249956 -1.1413916 -1.6639698 -0.24262622 -0.2698556 -0.44319886 -0.62605846 -0.79171246 -1.673748 -0.08657662 -0.6394834 -0.18610303 1.4620078 -0.7523392 1.5388328 0.38588881 -1.0150005 -1.205614 0.62678105 -0.15422116 -0.49098933 -0.46673056 -0.7529501 0.013216687 -0.24099843 1.0387524 -0.36329636 -0.89655304 0.47674033 -1.1644009 -0.70759827 -2.043058 -0.6105069 1.8986775 -0.02494668 -0.11586391 -0.866197 -0.1894569 0.10892864 0.46251488 -1.0155498 -0.44058618 -0.10668934 -1.1016695 -0.51002544 0.79910237 0.71119463 -0.21025752 -3.141479 -2.0981104 -0.6454993 -1.695044 1.3257297 2.9191556 2.5959227 -1.6274399 -0.21206708
3 -0.79653895 0.69665414 -0.54237986 0.6021703 -0.066103615 -0.089622885 0.43343413 -1.0967802 -1.1639609 -1.6772195 -0.17117593 -0.2815192 -0.44755542 -0.53808004 -0.7967294 -1.7099773 -0.10066374 -0.64244616 -0.16990468 1.5196339 -0.70681316 1.5360178 0.4047624 -1.0299805 -1.2061498 0.6669588 -0.06182384 -0.44499516 -0.48731142 -0.68838614 0.01867751 -0.2697109 1.0285687 -0.38968897 -0.9378131 0.51993483 -1.1886228 -0.73484546 -2.0255666 -0.63752806 1.9054465 -0.024552392 -0.12619762 -0.8604663 -0.18231402 0.09551557 0.45561364 -1.0648944 -0.38570628 -0.13919325 -1.0937004 -0.5386098 0.8420836 0.7461214 -0.2509605 -3.195582 -2.0994666 -0.60257643 -1.7433814 1.3306382 2.9220731 2.6382632 -1.6468668 -0.23624311
23 -0.75487554 0.67655224 -0.56235033 0.63443077 -0.032638066 -0.05622566 0.4375592 -1.096535 -1.1304668 -1.664273 -0.20776221 -0.26556692 -0.44941923 -0.57586247 -0.807506 -1.6796741 -0.11835458 -0.6648799 -0.13342646 1.4805532 -0.72322226 1.521305 0.41713795 -0.9862404 -1.2133145 0.63000876 -0.056388497 -0.4803622 -0.46620068 -0.6844688 -0.014552604 -0.24359496 1.0402672 -0.3633319 -0.88812894 0.51189286 -1.1458814 -0.70909935 -2.020652 -0.63434243 1.8970233 -0.019296525 -0.1185759 -0.8527938 -0.20447803 0.12050973 0.46296522 -1.0242823 -0.39778313 -0.13314116 -1.0678974 -0.5373943 0.81730175 0.76634437 -0.26306286 -3.1628928 -2.1203172 -0.5872154 -1.7234825 1.3253682 2.924221 2.62418 -1.5943779 -0.24406834
8 -1.6504279 -0.45571944 -0.7306792 0.12739627 -0.91826653 -0.107236244 -0.16711229 -1.5934533 -1.8465974 -1.252756 -1.0174509 -0.3259735 -0.910101 -4.035944 -1.4766959 -1.6460731 -0.24417208 -0.9228241 0.52595776 1.3869752 -1.2381401 2.0082645 -0.9237482 -0.10799923 -2.5362291 -0.08017744 -3.4273386 0.124778 -0.6537226 -0.14149429 -0.046569727 -0.4971844 0.5674479 -0.73162895 -0.2312373 1.0781744 0.0062866434 -2.1488705 -0.36014688 -0.9226384 2.6345916 -0.5378707 0.059197176 -2.1860433 -0.7966059 0.5315942 0.03236003 -0.71330136 0.15027584 -2.4159539 -2.7839665 1.5895573 -0.7323043 -0.97101855 0.03508795 -2.9703643 -3.3276181 0.028601576 0.6183818 2.6738813 3.3761935 3.2767997 -1.5243435 -0.5812882
102 -0.786336 0.6977835 -0.5441092 0.6270784 -0.034445807 -0.10147319 0.45217627 -1.090497 -1.1581799 -1.680778 -0.19974694 -0.2610738 -0.44771332 -0.51465267 -0.78152555 -1.6952541 -0.09741603 -0.6695552 -0.19540526 1.5508258 -0.720691 1.5554456 0.39980873 -1.0336212 -1.2035433 0.66069436 -0.054316636 -0.49009344 -0.45905858 -0.7053017 0.0053507835 -0.27143228 1.0364213 -0.3530967 -0.9351674 0.5370666 -1.1888402 -0.68384457 -2.0707312 -0.601463 1.8598487 -0.013156469 -0.12595871 -0.84163153 -0.18316604 0.07392262 0.44200206 -1.0517621 -0.44464156 -0.16044351 -1.088687 -0.54694647 0.84476864 0.7705072 -0.21692543 -3.168821 -2.0975342 -0.6264011 -1.7442758 1.3293834 2.9159262 2.6535242 -1.6506764 -0.2158274
125 -0.80177313 0.6901898 -0.5291344 0.6295163 -0.056587916 -0.0519087 0.41666555 -1.1230927 -1.1557686 -1.6534566 -0.2614566 -0.32662195 -0.4566611 -0.58683044 -0.7823832 -1.6468062 -0.1799473 -0.6271427 -0.16722815 1.5515317 -0.79238296 1.5124301 0.3838939 -1.0005381 -1.2184256 0.7016333 -0.10440481 -0.5345835 -0.4705959 -0.7376066 0.025620105 -0.2708269 1.0327615 -0.35063052 -0.9307602 0.4813881 -1.2009544 -0.6969886 -2.0796096 -0.5802376 1.9084316 -0.08663387 -0.10809519 -0.8326988 -0.17331891 0.11065369 0.49105483 -1.0299178 -0.47714874 -0.028036483 -1.2178105 -0.47943014 0.8324362 0.736012 -0.18205601 -3.153747 -2.1183605 -0.67007524 -1.7124817 1.3354175 2.9048202 2.6242623 -1.6605335 -0.20658754
47 0.9142677 0.4268062 -0.0005467938 -0.7276989 2.6559753 2.1456742 -0.6106004 -1.0927743 -1.537209 -2.8190618 -1.7297958 -1.3101705 -0.46297422 -1.5927908 -0.36393583 -1.4473029 -1.2401509 -0.2837671 2.268823 0.49844563 0.92405033 2.3487601 1.0790513 -2.154704 -1.1876227 0.6486004 0.23635173 0.4842701 -0.80294436 -0.1973309 -0.26429695 1.5424505 2.153479 1.2124273 1.5128417 -0.43887538 -0.3222077 0.39264077 -1.8398451 -2.5038188 3.4388478 -1.2077422 0.26538798 -2.3746412 -2.0733273 0.7169797 0.55434084 0.07364873 -0.17393906 1.5450237 2.095469 -1.0586683 2.0168035 0.3685254 -0.807119 -2.9803076 -2.1942315 -0.7355641 -1.2027658 0.9902947 3.4450238 4.197189 0.067169994 -2.3128812
1 -0.75037897 0.67230535 -0.5359731 0.60623294 -0.013238848 -0.03669 0.41852438 -1.0867695 -1.1356164 -1.6895509 -0.2886264 -0.26498818 -0.43230486 -0.60938036 -0.7872705 -1.6787822 -0.15276922 -0.6116342 -0.114529446 1.500242 -0.75876427 1.502794 0.41736817 -0.9791611 -1.1883878 0.59241 -0.13032132 -0.498714 -0.48523647 -0.67838407 -0.028895233 -0.25506186 1.0231941 -0.34014037 -0.9044109 0.4571979 -1.1071764 -0.6887303 -2.0201893 -0.6376095 1.9390525 -0.04091288 -0.09713341 -0.8442695 -0.19729917 0.108238816 0.4576372 -0.9774725 -0.38354355 -0.08985324 -1.0487355 -0.5041675 0.83564883 0.72450715 -0.21991804 -3.1187923 -2.0391676 -0.64436686 -1.668137 1.2885995 2.9201396 2.6341796 -1.5962765 -0.22304608
21 -0.1973202 1.1368787 -0.9453454 -1.7677981 1.9949554 0.33450007 0.12647103 -0.9661645 -0.045204118 -2.7226183 -1.1365262 -1.8513676 -1.7536585 -3.4824371 -0.22795987 -0.65121746 -1.8105069 -0.86633736 0.6605955 -0.72278094 -1.2547766 1.30341 -0.54318374 0.71049523 -3.8286898 -0.95113915 -1.688928 -0.2612665 0.24332766 0.4305796 0.05130217 -1.3276068 1.8863813 1.1189251 -1.2803978 -0.5067155 -0.28532878 0.17465603 -0.6989325 -0.85699457 3.1801624 -0.7336181 0.47062263 -2.4270515 -1.2314582 0.3964983 1.6646775 0.15979397 -0.73996174 0.8207406 -1.3243542 0.5565891 0.29211843 -1.0087512 0.45919794 -2.3643787 -1.0819252 -1.515224 0.19779785 2.0044856 4.7131224 3.713829 0.67675954 -0.6147587
142 0.93143725 -0.47936767 -1.5393605 -0.06659386 -0.6547855 -0.7988388 0.16003697 -1.1530987 -1.1917124 -0.87036127 -2.3244352 -0.46224096 -1.7905961 -2.6165109 -1.3328972 -0.45926216 -0.042977706 -0.067596644 -0.18577518 -1.343643 -2.350983 2.1441152 0.041482374 0.56661826 -1.7627063 -1.5272847 -0.83086056 -2.3359973 -1.3723707 -1.0978564 -0.4203224 -0.73614144 2.264842 -0.6412177 0.5048612 -0.72398746 -0.11193461 0.074660785 -1.1324631 -1.9457626 2.689874 -1.5390022 -0.6904685 -1.6927123 -1.3763014 -0.49378997 0.28172085 -0.7735376 0.63839567 -0.89229053 -0.29256025 -0.35004666 2.1004055 -2.3518462 1.1583914 -2.4453363 -2.241524 -2.7029722 1.7885689 2.9219434 4.374799 2.7303216 -0.4053473 0.4946272
126 -0.4530456 -0.8549419 -0.7201536 -0.52109253 -0.0070270835 0.5574336 1.7844766 -0.75087065 -2.3561547 -3.4503334 -2.4922242 -0.09123092 -2.0774345 -1.9082793 1.1865741 -1.2688875 -0.25624144 -0.021514395 -0.2758617 -0.48268765 -0.8740459 2.2840507 -0.55381817 -0.4123964 -0.39180335 0.93280137 -1.4092093 -1.3940126 1.3761836 0.26023087 0.24529456 -0.9647658 2.0981638 0.059569195 -0.34599608 0.03550477 -0.18034892 -1.2659127 0.06044615 -0.118329346 4.794254 -2.2050848 -0.25985494 -1.1594034 -1.3984592 1.081792 -0.8327906 -1.2597116 -2.3151119 -0.3643016 -2.4670913 0.99293864 1.4591796 -0.5948416 0.18084605 -1.151355 -2.4845548 -1.2126553 0.6250946 2.61979 4.5327854 2.6517909 -0.31938246 -0.93057036
141 1.099335 -0.43985617 -0.28299242 -0.79467 0.29547536 0.38699707 -1.1152043 -0.9517484 -1.3460753 -3.1343284 -3.4514494 -0.42940426 -0.1943546 -1.3198394 0.35402054 0.11051062 -0.52439326 0.53433245 0.96372104 -1.8461685 -0.29714185 0.00018266312 1.7959833 -0.9474818 -2.7390792 0.40652245 0.119100586 -0.43343586 0.14198622 -1.8617016 0.13123411 0.10415455 2.5637872 1.5349108 -1.4678541 -1.1387521 -0.63484615 0.54597557 -0.9955805 -1.4262104 2.6800032 -0.6200705 0.26766482 -1.2297447 -0.438538 -0.60629606 0.25865844 -1.8293784 -1.6394061 1.3225944 -1.8318962 -0.48412782 0.20639898 0.26667285 1.408652 -1.5892829 -4.0425296 -1.9403731 -1.2478607 0.15975265 5.7427316 2.8434935 0.37208837 0.6292878
51 -0.2329733 -0.92563653 0.5316209 -0.40008706 -0.47740984 0.88352036 -1.1492012 -2.108045 -0.66732544 -1.206849 -1.9964547 -0.35418382 -1.933711 -3.0768456 -1.36152 -1.8420101 0.5228604 0.40729812 -1.0923915 0.85595787 -3.516859 2.0589283 -1.1403755 -1.1104164 -2.6481545 -0.29292384 -0.5074476 -1.5249225 -0.8257921 1.5018686 -0.39906156 0.30706555 1.9718056 1.652581 -1.8651085 -1.116453 -1.4296055 -0.33991128 -1.3877766 -0.9766465 3.6455054 -0.78561735 0.95951575 0.41052765 0.090713926 0.04714663 -0.5255564 -0.18292065 -1.8929772 0.2922341 -1.4789511 -0.60674345 1.0603174 -1.3933382 -0.04327963 -2.053497 -3.1681328 -3.3283856 1.3551397 0.76646364 3.5302844 2.9901648 -2.7956991 -0.0687018
120 0.2718729 -0.90564424 -1.456143 0.4669575 0.19147106 0.7442737 0.88279563 -2.330449 -1.7186024 -3.489566 -2.9800813 -0.5417479 -1.4947114 -2.1165211 -1.0439363 -0.3407549 -0.1424775 1.3369642 1.0103767 1.2894541 0.29990342 2.1513634 1.2760234 -0.5522602 -0.4273386 -0.371475 -1.482854 -1.5551144 -0.904442 -0.8101334 0.6176176 -0.16540594 2.9600644 -0.107216924 0.08779089 0.65853274 1.7769061 -0.08785222 0.0014691803 -1.0883392 2.4172573 0.8449108 -0.048621826 -3.309765 -2.1499588 1.277776 -0.2879367 0.12739903 -0.5695396 -1.3917838 -0.5807735 0.040902264 1.7624471 -0.590628 -0.38370854 -4.0825024 -2.0358737 -1.6029826 2.4147906 1.5171227 3.0752363 4.495911 -1.074893 -2.31673
122 -0.79953855 0.5855699 -0.55385727 0.6143512 -0.032267697 0.064734615 0.32119596 -1.2159268 -1.1331055 -1.6504484 -0.4041371 -0.20820442 -0.4571424 -0.80991125 -0.77384466 -1.6163844 -0.23001236 -0.558974 -0.043412097 1.3931663 -0.70276916 1.6316583 0.24957822 -0.92240036 -1.13811 0.62307054 -0.21000324 -0.63053805 -0.4019106 -0.7509655 -0.017798081 -0.14967634 1.0762379 -0.34520748 -0.8618401 0.5877358 -0.9221065 -0.62639797 -1.7775335 -0.68061286 1.9325018 0.029186836 -0.15248556 -0.80752236 -0.22566213 0.26133105 0.5175272 -1.1137139 -0.37697572 -0.26496938 -1.13847 -0.4376287 0.77688426 0.75224054 -0.18937351 -3.1230135 -2.1807973 -0.5284522 -1.490749 1.2105876 2.9245872 2.6534142 -1.5985148 -0.35722867
130 -0.7631849 0.72461563 -0.54546547 0.6698419 -0.00038997704 -0.09877899 0.4936598 -1.1114111 -1.2273422 -1.7471548 -0.34080073 -0.18963738 -0.40118316 -0.69126534 -0.86705667 -1.6812799 -0.15698202 -0.72417754 -0.15641166 1.5188667 -0.74490094 1.6209534 0.2696746 -0.9194776 -1.1209558 0.6879145 -0.24458197 -0.67699796 -0.47184858 -0.75405616 -0.022201557 -0.24169116 1.0703514 -0.3396218 -0.89743745 0.47283575 -1.0335381 -0.6389142 -1.995248 -0.6935263 1.9296142 0.11649208 -0.11863183 -0.85828644 -0.17222537 0.17277788 0.48180515 -1.0969142 -0.45340982 -0.21697712 -1.1918344 -0.38841364 0.65226346 0.65127707 -0.1582862 -3.1090763 -2.221206 -0.58809185 -1.618448 1.2258788 2.9261105 2.7714543 -1.6992005 -0.3559908
18 -0.7979654 0.6081445 -0.51182604 0.6229438 -0.0700206 -0.065940104 0.34291172 -1.1578956 -1.1157993 -1.7153143 -0.2653534 -0.28754154 -0.37582466 -0.62534314 -0.8101901 -1.6320026 -0.2143239 -0.6238585 -0.044825993 1.4693986 -0.77190477 1.5348679 0.39075592 -0.9368217 -1.1912727 0.5126501 -0.08855067 -0.559736 -0.5017411 -0.6325931 0.015735976 -0.16200055 1.0151109 -0.36403757 -0.90004444 0.4704576 -1.0484661 -0.69802064 -1.9668947 -0.70442325 1.9486803 -0.005641138 -0.17396753 -0.81744915 -0.20509705 0.15202786 0.45420665 -1.0238689 -0.34801275 -0.08677308 -1.0410792 -0.5588751 0.7868897 0.7061773 -0.253746 -3.2518368 -2.1521373 -0.654251 -1.6197836 1.3019714 2.863083 2.6946537 -1.5472555 -0.19197726
140 -0.7194289 0.7223986 -0.5466765 0.62662524 0.018209992 0.029180741 0.41819528 -1.1228554 -1.0924965 -1.7103292 -0.21789792 -0.20252211 -0.3981178 -0.5844946 -0.79786277 -1.7409272 -0.12855852 -0.6190066 -0.19365713 1.5100794 -0.84870946 1.5956169 0.39810485 -0.9823581 -1.277029 0.57401633 -0.22307685 -0.51991665 -0.45497143 -0.68335015 -0.014181407 -0.20374954 1.0864372 -0.34474817 -0.83471364 0.51721275 -1.068738 -0.6546625 -2.0001953 -0.66713774 1.9808321 -0.07010985 -0.097224325 -0.7569696 -0.20716374 0.10182042 0.4422775 -1.0738939 -0.3609178 -0.20844978 -0.8979095 -0.52933556 0.8042591 0.6655517 -0.20520344 -3.1923459 -2.0631475 -0.66533107 -1.6694591 1.3225111 2.895268 2.6952925 -1.5844022 -0.2945795
115 0.22116858 0.1465802 0.1336381 -0.05707586 -0.32921165 -0.90927947 0.02554509 -0.18199179 -0.4266778 -0.05240638 0.08177054 -0.07334954 -0.2733231 -0.3005708 -0.02754198 0.003964775 -0.30656177 -0.057400275 -0.35570097 -0.10442546 -0.4581657 -0.8083734 0.28421888 0.90414196 -1.0771517 0.08214583 -0.33134732 0.29458633 0.35233334 0.2549222 0.36514765 -0.48600096 0.9403815 0.020003466 -0.024839573 0.009034636 -0.50983894 0.27144185 -0.20704769 -0.044645686 0.10485509 0.1362329 -0.09521848 -0.8695621 -0.37393314 -0.27339813 -0.21192695 0.9804689 -0.939921 -0.0720319 -0.85233885 -0.31327727 0.26412368 0.15736619 0.3844025 -0.00048047607 -0.26137063 -0.8456842 -0.26905197 0.57568616 2.206551 0.63352096 -0.7704345 -0.15439305
166 -0.76269895 0.6817001 -0.54687977 0.618421 -0.035901513 -0.053536747 0.45063815 -1.0743644 -1.1695269 -1.6672294 -0.24404813 -0.31245476 -0.44257385 -0.5838621 -0.8209573 -1.6834208 -0.14269525 -0.64750385 -0.13888252 1.5058863 -0.7214874 1.5103246 0.41906214 -0.9984365 -1.1802124 0.6483723 -0.060760643 -0.46496043 -0.46112403 -0.6634761 -0.017700905 -0.25773004 1.0213321 -0.34981668 -0.9181822 0.47604993 -1.1407266 -0.695258 -2.046523 -0.6509028 1.9189528 -0.020877982 -0.12483695 -0.8560313 -0.22522147 0.10617737 0.493869 -1.0021977 -0.38806447 -0.073413275 -1.1062106 -0.5222019 0.8426874 0.7467888 -0.21837832 -3.14926 -2.0713918 -0.6260132 -1.7213544 1.3131701 2.9221601 2.6209595 -1.6144104 -0.22074379
17 -0.39419243 0.06431211 -0.034602772 -0.33334234 -0.56063795 -0.07180746 -0.28880444 -0.36555484 0.08035212 0.09132805 -0.34328967 0.2707187 -0.24088575 -0.24498427 0.17403358 -0.03093761 -0.4048721 -0.042408656 -0.024701366 -0.24158391 -0.015522699 -0.43477052 0.37976137 -0.5387756 -0.16998613 -0.06225323 0.085953765 0.31299755 -0.34032893 0.95074916 0.078602105 0.008808412 0.8763429 0.13581966 0.024503369 -0.5686852 0.12821437 -0.020657087 -0.1851828 0.30894235 -0.38295045 0.07282651 -0.30967698 -0.033972103 -0.36734918 0.08385433 0.06605801 -0.098345436 -0.48024172 -0.4055884 -0.24327487 -0.055657294 -0.13134989 0.1492472 0.6236165 -0.3287122 -0.52592915 -0.6636225 -0.34267533 0.35068673 1.3671659 1.0848969 0.048160825 -0.65160507
0 -0.72955257 0.67759204 -0.5422265 0.59788364 0.028580826 -0.0411047 0.41719797 -1.0790056 -1.119798 -1.7028111 -0.24506417 -0.28659567 -0.4148588 -0.6261155 -0.80525815 -1.6624134 -0.12254919 -0.63752913 -0.12787966 1.4903936 -0.73453987 1.5299734 0.41976044 -1.009001 -1.159903 0.57190335 -0.15046996 -0.49856293 -0.4891937 -0.65481734 -0.00813258 -0.25234422 1.0704108 -0.34054103 -0.91876245 0.43582702 -1.0856539 -0.6756117 -2.059163 -0.68536454 1.901688 -0.042062774 -0.0964567 -0.82091796 -0.25280875 0.07237039 0.44437003 -1.0096751 -0.37166807 -0.063908234 -1.0189129 -0.5297038 0.8519108 0.70022094 -0.22807509 -3.1085017 -2.0661418 -0.650252 -1.6757661 1.3123665 2.896967 2.6534197 -1.5876956 -0.27290714
88 0.26550752 0.7028638 0.8061518 -0.85315806 -0.112654805 -0.906698 -0.27473035 -0.38946176 -0.3183916 -0.12983638 -0.06406679 0.08531488 0.19498771 0.2597992 0.2607754 -0.20851256 -0.18228094 0.17655683 -0.010116619 0.12643367 -0.7361739 -0.15965082 0.34933925 -0.013409287 -0.36883432 -0.10401902 -0.3142138 -0.14784543 0.4576272 0.27924243 0.23471206 0.6230207 0.47805047 0.34336162 0.8163959 -0.009707509 0.26885018 0.40967217 0.22240481 -0.0634438 -0.4187824 0.94658303 -0.7063796 -0.7431602 -0.18037038 0.45147052 -0.08617922 0.26980457 0.12217474 -0.100852296 -0.1888329 -0.15561435 0.10879204 0.54516834 -0.12611061 -0.19876607 -0.37955028 -1.2309697 0.11399979 -0.08705663 1.5770969 1.1517143 -0.46419823 -0.7020773
136 0.28106394 0.16353457 0.143637 -0.0061797593 0.99244326 -0.5027339 -0.3499325 -0.3485123 0.3738997 0.102249 0.35408074 0.19539869 0.4006454 0.007593462 0.3141112 -0.8047688 -0.039213855 -0.024245821 -0.14051439 -0.100215584 -0.016174672 -0.010216092 -0.28133053 -0.36892402 -0.33858502 -0.6428175 0.06855779 0.22413802 0.037933156 1.0765687 0.2294392 0.37640935 1.1831491 -0.20045967 0.77012724 -0.19488974 0.4339994 0.15093435 -0.037393626 -0.8803388 0.06665451 0.33815172 -0.14207429 0.21714756 -0.4117237 -0.1942068 0.16548233 0.46704966 0.042302303 -0.7561524 0.89776456 -0.582255 0.1688169 0.337978 -0.15216853 -0.8164142 -0.17817779 -0.8410025 -0.34985986 0.40128833 1.9393955 1.1135412 -0.31326398 -0.34628192
109 0.28115585 0.39402208 -0.12956272 0.3098481 0.4984107 -0.04460502 0.34156615 -0.34720108 0.013139953 0.13872185 -0.4622022 -0.18405642 -0.35782552 0.376065 0.21585968 -0.019815708 0.38564596 -0.49485937 0.15267706 0.1102 -0.7382514 0.24277586 0.15272646 -0.0015657862 -0.34089705 0.35310203 -0.1875668 -0.3360576 -0.43829122 0.2474402 -0.000695667 0.043571234 0.5820765 -0.13638449 0.2670195 -0.29703417 0.18756412 -0.49854422 0.19025159 0.057562325 -0.16169907 0.18670869 -0.56353813 -0.2704397 -0.5843063 -0.16466758 -0.06372789 0.65490514 -0.2118577 -0.2757331 -0.31298995 -0.32849887 0.10358435 0.043919675 -0.05154298 -0.76799464 -0.5435316 -0.6553078 -0.1312544 0.06895724 1.5216835 0.24546066 -0.55693567 -0.52554494
25 -0.7670108 0.64828706 -0.5316459 0.6141258 -0.041496642 -0.016421145 0.43507513 -1.1211195 -1.1399575 -1.6681944 -0.26195714 -0.25356045 -0.4536619 -0.64378834 -0.7827288 -1.683743 -0.15655087 -0.6233765 -0.115283825 1.500646 -0.7582946 1.5088891 0.40548342 -0.97869545 -1.1924047 0.571291 -0.14305644 -0.4823742 -0.44179213 -0.7057795 -0.017796425 -0.23950142 1.058437 -0.34390435 -0.9034407 0.47013897 -1.1182631 -0.6957326 -1.9780954 -0.6632723 1.922639 -0.052344125 -0.1015037 -0.86177593 -0.22685756 0.08102938 0.42991376 -1.005324 -0.3744014 -0.11498753 -1.0650921 -0.4903989 0.842611 0.7130155 -0.21499236 -3.1417875 -2.054783 -0.64939463 -1.6424397 1.3443066 2.910625 2.615133 -1.5827254 -0.25654918
121 0.36700568 0.12205693 0.08257163 0.022244846 -0.26248467 -0.614808 0.12957102 -0.4439559 0.3204401 -0.039995104 0.23509173 -0.09654154 0.1023772 -0.73132783 0.27379584 -0.1968419 -0.7430938 -0.046520643 -0.3234593 -0.113207854 -0.6041643 0.08093658 -0.38618153 0.64739406 0.2644878 0.1542435 -0.27356616 -0.5077147 0.39902133 0.8445181 1.0757496 0.33847094 1.1498559 -0.28158566 0.402185 -0.37153795 0.61354667 0.0509969 0.24025618 -0.29538128 0.57818896 0.060300887 -0.7836551 0.27999315 0.15934949 0.7306524 0.26243624 0.50630873 -0.63018274 -0.5182978 -0.6543444 0.2327723 0.024179565 0.04842071 0.071285404 -0.69685143 -0.48453632 -1.0696216 -0.13257489 0.32267374 1.9088371 0.60426414 -0.49268112 -0.4886743
86 -0.7231107 0.6419471 -0.55570614 0.6041855 0.008712667 0.008764934 0.43038315 -1.0744834 -1.117627 -1.6641775 -0.29128835 -0.2711522 -0.42237505 -0.58234066 -0.78151375 -1.6737591 -0.13821016 -0.587153 -0.116675936 1.4614431 -0.7624708 1.4996252 0.39832634 -1.0007659 -1.1466117 0.59721696 -0.10647117 -0.5054725 -0.43697807 -0.6810992 -0.027472042 -0.25420818 1.0207516 -0.31390983 -0.8911158 0.461088 -1.1062117 -0.69249463 -2.0297344 -0.62001234 1.9229388 -0.05755096 -0.13456412 -0.82244235 -0.22722234 0.103631474 0.43636662 -0.99388987 -0.36055082 -0.10547235 -1.0483117 -0.4983148 0.82854915 0.7321421 -0.21851431 -3.1214237 -2.0681446 -0.68887246 -1.6474676 1.3004367 2.9133282 2.628829 -1.517273 -0.22573309
5 -0.5103133 -0.1549075 -0.23753749 -0.53563374 -0.42888394 -0.053035095 -0.26108226 -0.42548555 0.22005425 -0.2020362 -0.33764857 0.3669482 -0.3860008 -0.08213491 0.068677485 -0.02619581 -0.14206904 -0.15876055 -0.06428199 -0.23138972 -0.28976244 -0.54105383 0.42471156 -0.44342023 -0.26343513 -0.2702035 0.14685516 0.23371425 -0.021881875 0.662388 0.003277993 0.1197682 0.7939434 0.049974654 0.027263511 -0.6447307 -0.16038367 -0.039803136 -0.18735892 0.3183761 -0.28300622 0.23374099 -0.29967612 0.20148 -0.3200925 0.26856974 0.29036567 0.18585001 -0.5604728 -0.3835241 -0.11511929 0.03996003 -0.17611423 0.09650422 0.45326325 -0.5646995 -0.46002316 -0.66560614 -0.1776145 0.4629069 1.3684666 1.0471764 0.0017205938 -0.59119475
19 0.038069345 0.37781945 -0.12098148 0.115791984 0.2082174 0.05795933 0.2807458 -0.550107 -0.3829981 -0.002488809 -0.26693082 -0.29167122 -0.1401152 0.24220866 0.34939504 -0.17949836 0.37819436 -0.020722311 0.16156717 0.21278805 0.051554684 0.2963035 0.26595387 0.22231537 -0.27846768 0.3442509 0.15067308 -0.075519845 -0.090241715 0.05631042 0.03705824 0.2835272 0.6538367 0.13899815 0.14318222 -0.0624159 -0.0124035645 -0.3082106 0.4711511 0.10262654 -0.02093967 0.17191103 -0.60157627 0.077868 -0.18774332 -0.42703944 0.105140254 0.5310568 -0.38057202 -0.6979348 -0.28892112 0.044991203 0.008585634 0.10484881 -0.4086164 -0.265901 -0.7188338 -0.6689125 -0.5717785 -0.11060262 1.6161109 0.6382717 -0.43037733 -0.1630568
138 0.24178468 0.106435135 0.07861089 -0.10411785 0.21430227 -0.12422905 -0.115199156 -0.261314 0.08088746 1.2490901 0.69732416 0.8318774 -0.2360737 -0.023644052 0.26066932 -0.3267831 -0.40360036 0.008399267 -0.11860139 0.31571868 -0.36711323 -0.1604143 -0.19199507 -0.7346601 -0.22189614 0.041252293 0.04693074 0.13922526 0.64680904 0.5746721 0.037504025 0.15134133 0.716403 0.3327903 0.9477069 0.16314769 -0.12115726 0.093338296 0.6574703 0.44215924 0.19855681 -0.4699401 -0.34518442 -0.44956473 -0.5599161 0.352647 -0.28781003 1.0480926 -0.77281165 -0.44244066 -0.38331285 0.36811724 0.14786924 0.36509684 -0.1815781 -0.5292482 -0.25101677 -1.0101632 -0.01609364 0.3550365 1.878697 0.98154813 -0.62630934 -0.4970303
58 -0.07869288 0.46843448 0.21532808 0.29278636 -0.33397347 -0.45328414 0.6982144 -0.18978333 -0.15685846 0.23951878 0.21468489 0.106782414 -0.27380922 0.31485865 -0.47813404 -0.86464167 -0.41327506 -0.11577557 0.050412465 0.0607417 -0.28521243 -0.19984181 0.08204879 -0.061835874 0.012350476 0.04774824 -0.2650322 0.037099298 0.39857578 0.7350853 -0.045819882 -0.1642072 0.16459413 0.71064067 -0.21783395 0.13730998 -0.0800917 0.298449 -0.27186933 -0.9480547 0.45202607 0.2908507 -0.36126423 0.02181291 -0.20409508 -0.09140716 0.14306617 0.8357942 -0.1476646 -0.25447023 0.012406722 0.12314623 -0.34006503 0.60619134 0.17792226 -0.6890419 -0.69376975 -1.0240092 -0.14176343 0.5427597 1.7156618 0.770787 -0.34110594 -1.193461
91 -0.38861996 0.02103074 -0.10242385 0.38358876 -0.024710873 -0.5564184 0.5530188 -0.34200528 -0.7417184 -0.15079367 -0.15633337 -0.014497919 0.060244057 -0.14433764 0.7528479 -0.34668428 0.20436244 0.12501267 0.04656753 0.709286 0.22253968 0.28717732 0.043180574 0.09162128 -0.66138065 0.1497845 0.98766476 0.2442152 0.3712318 0.4175882 0.3538506 0.52281135 0.84573686 0.011808311 0.17080925 0.3631698 0.09713338 -0.40120202 -0.15619384 0.20514761 0.3888167 0.16345519 -0.4740222 -0.04939298 -0.0021044274 0.19657758 0.048496015 0.4156219 -0.51923394 -0.12023457 0.27097428 0.069116995 0.12382185 0.36091417 0.012738626 0.13928206 -0.42555007 -1.3044715 0.046466406 -0.031212123 2.035584 0.83100283 -0.18722457 -0.42757884
50 0.21848118 -0.13958767 0.3314611 0.5304985 -0.2935607 -0.5777593 -0.37758997 0.29738754 -0.48342195 0.1742505 -0.3104222 0.32150167 -0.15645279 0.19829078 -0.55552655 0.025354696 0.112461194 0.83055395 -0.2116908 0.040725958 -0.46566367 -0.55717826 0.7938337 -0.3351738 -0.00060097553 0.6360315 0.0018410061 0.24377714 0.18139249 0.21268284 0.14069021 0.62606466 0.6085378 -0.754883 0.84240144 -0.18868232 0.39416423 0.24849208 0.18333042 -0.34189636 0.687397 0.0015790504 -0.54129153 0.24036978 -0.62210345 0.19494179 0.032562915 0.6785586 -0.126312 -0.33327678 -0.1411856 -0.37949616 0.25139493 0.309634 0.12953965 -0.58779913 -0.17977664 -1.0011139 -0.35522556 0.6256949 2.1262648 0.7722636 -0.2611021 -0.42351282
87 0.5117045 0.7817447 0.622854 -0.95619947 -0.06615499 -1.0918179 -0.12506258 -0.1781717 -0.5968512 0.05570047 -0.09000773 0.007677358 0.03773229 -0.036026567 0.28916577 -0.1052516 0.13194998 -0.05311428 -0.11498028 0.14314924 -0.5274051 -0.28650758 0.19055334 -0.24800415 -0.29168192 -0.17373948 -0.23848593 -0.26327404 0.6010413 0.24886887 0.1806036 0.59491384 0.4783706 0.29618058 0.7871614 -0.17753081 0.18781501 0.3483121 0.15919802 -0.15109047 -0.29635373 0.92612773 -0.73115176 -0.5498533 -0.19567648 0.46460164 -0.19574142 0.18854898 0.23401047 -0.28279305 -0.29715103 -0.16589059 0.18231662 0.60298973 -0.12284945 -0.11718954 -0.5125518 -0.9446013 0.10685048 0.08988464 1.5520061 0.9356771 -0.34001306 -0.79805297
67 -0.007710751 0.36696 0.25757164 0.40376273 -0.15232736 -0.4750673 0.58059853 -0.25471774 -0.11536813 0.14532416 0.34145892 0.14841259 -0.42426687 0.19006936 -0.41850752 -0.68683815 -0.12065215 -0.16224463 -0.1754295 0.09907003 -0.17750189 -0.18823984 0.2344351 -0.10983271 0.007495722 0.12360768 -0.32145974 -0.014737479 0.28193697 0.80458647 -0.18295869 -0.18344553 0.1626339 0.6057572 -0.30881035 0.40204126 -0.045183588 0.39448854 -0.1851921 -0.98238724 0.4311284 0.5252266 -0.34800825 -0.07575237 -0.22086467 -0.0006871616 0.25245893 0.6735732 -0.27186581 -0.30418193 -0.13299356 0.17937309 -0.5462258 0.36109546 0.14530055 -0.6237776 -0.5951717 -0.9351882 0.027476184 0.36601958 1.7743453 0.9896275 -0.20286468 -1.108792
133 -0.2887393 -0.097278915 -0.12576626 0.3630076 0.0025075322 -0.44973436 0.5685277 -0.23764205 -0.7156208 -0.10806496 -0.22010413 -0.08813804 0.013062815 -0.13916087 0.72629935 -0.4283167 0.12022529 0.11959796 0.032054648 0.68166316 0.17570207 0.2831858 0.07880257 0.09095651 -0.73290205 0.098255 0.9682199 0.2192297 0.3669291 0.37442935 0.32709512 0.59285945 0.84757644 0.048296142 0.2433148 0.22198378 0.033177428 -0.41152424 -0.16538936 0.22455262 0.3923202 0.10051623 -0.46307755 -0.012355063 0.04866157 0.16032968 0.106785916 0.4236331 -0.48833188 -0.05343625 0.28383997 0.058713306 0.12627675 0.3834764 -0.006470956 0.15328118 -0.53443485 -1.3796433 0.099639304 -0.06520659 2.0618668 0.7462343 -0.21780574 -0.5048025
13 0.2455584 0.75045544 -0.19990765 0.16095118 -0.16411713 -0.21807587 -0.11200571 -0.09513792 -0.022375537 0.032556765 0.21651897 -0.19272503 0.115778424 -0.53213155 -0.021742614 -0.17341384 -0.18459885 -0.17315818 -0.6434196 0.34424454 -0.48867792 -0.20599915 -0.19777675 0.040040303 -0.21044049 0.42850438 0.15208806 0.28268805 0.115751654 0.16441976 0.22140189 0.52398473 -0.00691107 0.14355373 0.32480687 0.07478293 -0.16210543 0.58534944 -0.3241179 0.31085873 -0.28663802 0.43845445 0.23051792 0.5536918 -0.76020384 0.13550279 -0.14170492 0.13958217 -0.2030519 -0.22085232 0.20278987 -0.093928434 0.011590935 0.41285163 -0.054823678 -0.54480875 -0.75771517 0.024660207 0.46979743 0.49280226 1.7577091 0.50776786 -0.40837657 0.06627333
46 -0.7520979 0.67032975 -0.5688455 0.61662364 0.0110711325 -0.053898282 0.44656706 -1.0619357 -1.1389562 -1.6813298 -0.26244506 -0.28914088 -0.43387 -0.5701913 -0.7941395 -1.6356237 -0.12561321 -0.6249802 -0.13035291 1.5083816 -0.7144582 1.5233228 0.40951154 -1.0031201 -1.1581091 0.6443437 -0.07830781 -0.49602583 -0.42201316 -0.70249355 -0.045132127 -0.25288144 1.0338086 -0.3347039 -0.89991623 0.47506014 -1.1669375 -0.67381716 -2.033307 -0.6486537 1.8867371 0.011117649 -0.12393974 -0.8482961 -0.22886363 0.09690381 0.47037166 -1.0007476 -0.41435176 -0.0885205 -1.0793111 -0.5012591 0.82546973 0.75326824 -0.20536372 -3.1232479 -2.0480866 -0.61470735 -1.6679922 1.3085686 2.914558 2.6450818 -1.607181 -0.22817262
66 0.14435194 0.20145775 0.24183 0.6071465 -0.07948467 -0.3908762 0.46244964 -0.1278175 0.019576283 -0.025806114 0.39097685 0.26545817 -0.40787306 0.15582648 -0.4039939 -0.44949353 0.01085884 -0.17029831 -0.34050727 0.19406669 -0.14750278 0.027396303 0.25248417 -0.16922788 -0.07621755 0.068028286 -0.42178792 0.027891075 0.13509643 0.69730103 -0.2368259 -0.12142217 0.3452868 0.43903333 -0.28067818 0.26892418 -0.116854735 0.5053346 -0.20577173 -1.0260288 0.23854966 0.4817096 -0.3101327 -0.20234035 -0.19425543 0.16977108 0.11669235 0.62589186 -0.30364084 -0.36381784 -0.24158454 0.36048287 -0.55623823 0.35875678 0.078431666 -0.44272944 -0.68801266 -0.9600063 0.08805244 0.15241477 1.7680043 1.1932378 -0.09684778 -0.97982615
124 0.5773036 0.7066411 -0.11109912 -0.20501523 -0.26604638 -0.43555012 0.0011605734 0.49652386 -0.30321044 0.23202452 -0.10085461 -0.04624103 0.15332727 -0.6375559 -0.050525915 -0.123530455 0.10073109 -0.07530471 -0.93510604 0.11045936 -0.50696445 -0.07491335 -0.15259372 -0.15878312 -0.13391392 0.23916413 0.07955915 0.21833266 -0.10582139 0.2571152 0.4376307 0.14513901 0.18791264 0.5360233 0.31160727 0.13315408 -0.08641451 0.11527266 0.0057679224 0.13754697 -0.028305873 0.5082667 -0.10643347 0.1218464 -0.63460416 0.18632159 -0.10262364 -0.00011960764 -0.10791252 -0.3107773 0.38889644 0.07415972 0.10013326 0.57770145 0.08984647 -0.52029485 -0.83673924 -0.045342226 0.11984325 0.22626786 1.6179674 0.46649906 -0.11636252 0.2283552
132 0.467956 0.8756567 0.021647073 -0.035594597 0.7199604 -0.7060161 -0.022726392 -0.43734053 -0.10835692 -0.31390837 -0.14025366 0.4496056 -0.6876652 0.24517691 -0.381009 -0.10697041 -0.6033488 -0.0069617736 -0.18537652 0.08818934 0.24215372 0.20169334 0.0131462505 0.060800515 -0.14499497 0.11864988 0.59682065 0.74101835 -0.04699542 0.44269145 0.18228629 0.26068044 0.7079745 0.5034262 -0.004952551 -0.55485094 -0.10773231 0.3757793 1.0126045 -0.46802652 0.21607202 -0.2291479 -0.41389325 -0.049261045 0.21182767 0.62848854 -0.036406808 0.26190814 -0.63885725 -0.03741179 -0.29583028 -0.8059622 0.5147364 -0.17848198 0.31616396 -0.25552356 -0.19928977 -0.80360353 0.40210384 0.80310595 1.7171384 0.9258608 -0.67983943 -0.5750263
57 -0.046815254 0.09155736 0.033473734 -0.11240708 -0.14541751 -0.3064027 0.10628181 -0.5419261 -0.011098463 0.19140236 -0.06335815 -0.19221917 -0.04535783 0.093283325 0.0044670464 -0.19637679 -0.4243812 0.38601303 -0.05123778 0.1309953 -0.21083835 -0.28199822 0.058325868 -0.58295745 -0.1800665 0.37484595 -0.35476452 0.42109802 -0.063771956 1.1109612 -0.05488905 0.4459048 0.6928421 0.58493716 0.33376157 -0.73979104 0.6760224 -0.5567832 -0.5229054 0.084616475 0.106462665 0.18394516 0.199879 -0.29451928 -0.4783728 0.089617945 0.0541564 -0.056435183 -0.66974497 -0.7080602 -0.89327586 -0.681571 -0.17892116 0.5291129 0.54576194 0.028612327 -0.23398916 -0.65002126 -0.02033564 0.17810172 1.6767204 1.1175393 -0.07815199 -0.29772463
56 -0.09126702 0.031709716 0.036922954 -0.1600342 -0.059566066 -0.47435355 0.10033361 -0.44441584 0.096509494 0.41409156 0.024691846 -0.20059386 0.16561976 0.063809656 0.08003349 -0.084030904 -0.30127758 0.24898307 -0.15279461 0.26402628 -0.22447725 -0.13448389 0.2391989 -0.5552433 -0.33206937 0.3589035 -0.23662692 0.2738727 0.006999618 1.0323017 -0.0424131 0.31922787 0.6168548 0.6835054 0.16055715 -0.77221596 0.75478756 -0.34860128 -0.34091863 -0.030309467 0.3903476 0.2919082 0.24866134 -0.18416575 -0.3407388 -0.023587259 -0.09210439 -0.14925814 -0.710988 -0.8097604 -0.9785073 -0.7495548 -0.085165285 0.6791473 0.50935185 -0.07494521 -0.26656124 -0.7230399 0.01700505 0.14507136 1.6945212 1.0310353 -0.31018695 -0.18809454
28 0.2984816 0.61958003 -0.2987388 -0.46037135 -0.5189801 -0.09532221 0.099621244 0.35815638 -0.29274824 0.079365976 -0.07121239 0.055050112 -0.118064515 -0.6621257 0.026362538 -0.15396497 -0.023340084 0.031779874 -1.02016 -0.01711958 -0.67187023 -0.075670645 -0.12749775 -0.17851843 -0.31982455 0.30276677 0.40528628 0.34678173 -0.23751828 0.2700293 0.36083773 0.40990886 0.23357594 0.40154955 0.33863077 0.12368418 -0.09339296 0.18109292 -0.30204636 -0.02028218 -0.46668646 0.35989538 -0.19632474 0.2587466 -0.5828775 0.2911261 0.054089915 0.17710505 -0.19233952 -0.26975715 0.39670202 0.19848086 0.007525555 0.3513182 0.014141788 -0.5787422 -0.6216129 0.1737797 -0.25227875 0.6541469 1.4853945 0.59331685 -0.051384345 -0.05789473
64 0.49764082 -0.25666052 0.47674915 0.5717375 0.08532822 -0.256311 0.10064539 -0.55436116 0.22494298 -0.11701016 0.24302132 0.21844852 0.08825955 -0.28765428 -0.26831153 -0.0455469 0.20719741 -0.40308157 -0.69304883 0.3190325 -0.43050608 -0.4986219 -0.18128477 -0.4399097 -0.4617276 0.3389152 0.027394632 -0.2745272 0.06510446 0.09690419 -0.07123085 0.64530474 0.65055895 0.2217166 -0.31082278 -0.07503666 -0.3053027 0.42607176 -0.13524824 -0.48493528 -0.061258707 -0.31969136 -0.5307873 -0.8519757 0.00342123 0.3886986 0.33723205 -0.07822218 -0.12966175 -0.6165353 -0.14178987 -0.10983354 0.21008906 0.15960766 0.20857312 -0.4714244 -0.27560592 -0.8794517 -0.31003907 -0.058027826 1.8995948 1.3079733 -0.4386076 -0.36699772
155 0.26589066 -0.06034439 0.29098442 -0.2664033 -0.122666515 -0.6821911 -0.42929572 -0.17717063 -0.39064565 0.29211482 -0.00776036 -0.48184913 -0.044618625 0.3924022 -0.16353326 0.189213 -0.10386886 0.0206208 0.23573859 0.19269538 -0.4459705 0.07492882 -0.0031606352 -0.26707625 0.037286624 -0.33428475 0.10315433 -0.30677238 0.017868912 0.8414295 0.23191081 0.21995364 0.14353509 -0.05647532 0.07474523 0.18247108 -0.08300446 -0.098838374 -0.09540106 -0.4336564 -0.1817169 -0.22242874 0.29444402 -0.1124063 0.19220129 0.31915814 -0.16674717 0.29476377 -0.8650727 -0.0764579 -0.047535826 -0.03762342 0.21063726 -0.11628661 -0.23225603 -0.6727186 -0.5254178 -0.7604734 -0.1976177 0.47454765 2.249667 0.9736542 -0.47073048 -0.13738644
53 0.4330023 0.016053848 0.3534089 0.8634403 -0.12054995 -0.29558197 0.19824935 -0.09396059 0.2283383 -0.11494662 0.43334258 -0.14265224 -0.3698961 -0.21876697 -0.32419315 -0.37641576 0.015020971 -0.18259707 -0.47829375 0.36292678 -0.10063803 -0.008436929 0.1441196 -0.15055743 -0.122802146 -0.07873273 -0.1846013 0.025091583 0.3537059 0.23589061 -0.3002172 0.010427198 0.20791262 0.24423997 -0.2831512 -0.057802573 0.08175037 0.26550302 0.01571332 -0.64089763 -0.1302197 0.060529653 -0.3542242 -0.6483947 -0.07579885 0.2769346 0.05011089 0.22524935 -0.19087784 -0.5473955 -0.1320953 0.15273644 -0.29449368 0.6289834 0.2186317 -0.5855258 -0.35096514 -0.9230432 -0.34110808 0.20821998 1.8341321 1.2335299 -0.27625176 -1.0657246
81 0.35252714 -0.01401284 0.3388081 0.6617748 -0.32456422 -0.5165488 -0.61292577 -0.4445593 -0.05339438 0.010423761 -0.48906747 0.122841015 -0.3286003 0.2342859 -0.17577694 -0.17635745 -0.20516026 0.5300567 -0.288242 0.28348133 0.050101355 0.023919027 0.5534856 -0.4349163 -0.11217351 0.17153412 0.07063885 -0.24685614 0.2869063 0.28293243 0.20396745 -0.05412708 1.1794566 0.15367329 0.8896736 0.11248192 0.00339253 0.39561728 -0.39120182 0.11282152 1.0724566 0.41387382 -0.16511641 -0.119918354 -0.6914151 0.3488715 0.16662566 0.16340189 0.23504691 -0.022549339 -0.4515677 -0.45796594 0.24964026 -0.12276855 -0.28965965 -0.68393207 -0.63350844 -0.9379815 -0.46212813 1.0249544 1.8994642 0.7603926 -0.7227187 -0.38145825
101 -0.12942459 0.20126471 0.10051826 0.21324347 0.3081355 0.09054705 0.0636944 -0.633855 -0.8729637 -0.123952076 -0.10521969 -0.055750865 0.19704212 0.045125213 0.34491605 -0.56566715 0.37483665 0.013171215 0.031829502 0.124759324 0.19612016 0.61858875 0.28729367 0.2695906 -0.09413078 0.13572153 0.21696763 -0.15340135 0.3558301 0.048751842 0.077221826 0.51556045 0.6013876 0.34022316 0.030259443 -0.17657445 -0.31879133 -0.33800855 0.2856553 0.26406306 0.074432984 0.3164446 -0.6047637 0.108055 -0.23599227 -0.33982924 0.21800105 0.42427263 -0.6237044 -0.4805924 -0.17507865 0.044874694 -0.061228007 0.29772633 -0.06588052 -0.059554644 -0.24760586 -0.6892851 -0.5960151 0.13484377 1.9365581 0.6785897 -0.40686563 -0.11579999
92 0.5616823 0.34464657 0.21227047 -0.19442742 0.19954942 -0.7583147 0.1147416 -0.08928251 0.09852832 -0.37306687 -0.32390162 0.5376824 0.095245436 0.11853159 0.105399415 -0.32010213 -0.2328361 0.21991558 -0.2054395 0.45085904 0.19756557 -0.16330795 -0.24109495 0.13059297 0.08329996 0.4102271 -0.0076898327 0.5837813 0.11920402 0.120106556 -0.14931847 0.16902441 0.50496423 0.48859042 0.09055737 -0.39589435 -0.009276007 -0.11363884 1.0621555 -0.4683721 0.13941363 0.09265191 -0.047153167 -0.22914317 -0.29409125 0.45841682 0.006350389 0.1285182 -0.8327469 0.13797075 0.13094147 -0.4188712 0.05681175 -0.4266867 0.44330356 -0.5760199 -0.56305194 -0.5169767 0.166762 0.5923807 1.5453782 0.54606086 -0.33651042 -0.28301513
83 0.55331814 0.7742267 0.30576783 -0.87458855 -0.11929515 -1.0179373 -0.10485983 -0.111153565 -0.49979448 0.12282604 -0.024311705 -0.1490507 -0.21722735 -0.14164351 0.10119462 -0.24602671 0.27701497 -0.070045464 -0.6228841 0.0049594087 -0.7305392 -0.28854266 -0.021650182 -0.29337516 -0.19774392 -0.21637657 0.0049114847 -0.2314567 0.7843499 0.09291607 0.10100023 0.7859304 0.3296766 0.40908444 0.86481017 -0.28641015 0.114077955 0.1665254 -0.10780644 -0.07255931 -0.38654497 0.9639937 -0.61884046 -0.29978156 -0.12264685 0.34733528 -0.5054427 0.24515006 0.09464974 -0.3912285 -0.28393012 -0.3984927 0.1847986 0.42098188 -0.30087662 0.009185064 -0.66423094 -0.87279904 -0.06607451 0.33603966 1.4882658 0.7330151 -0.30582398 -0.88001543
55 0.18931252 0.1330788 0.18415488 0.77556884 -0.1728236 -0.1894914 0.28981075 0.0156808 0.13134655 0.010985088 0.34280768 -0.022636294 -0.31979302 0.03412471 -0.51237994 -0.30857635 -0.042937566 -0.15336746 -0.4419845 0.23074728 -0.06766947 0.10101516 0.12483606 -0.18419704 -0.12441622 0.0072492114 -0.25824833 0.016113196 0.2302567 0.36579502 -0.31430158 -0.048112042 0.35274917 0.26330313 -0.17925034 -0.042165548 -0.12106104 0.52432984 -0.1286895 -1.0087277 0.037679907 0.34773588 -0.2963367 -0.4825231 -0.097560234 0.22057208 -0.026024118 0.54346204 -0.29718742 -0.4941221 -0.15851927 0.24541801 -0.44737485 0.47895324 0.11848551 -0.42470556 -0.6930373 -0.95989245 0.02888869 -0.025990803 1.7786354 1.2674829 -0.15654513 -1.1475834
131 0.11801063 0.42515776 0.42686412 -0.20041913 0.46010637 -0.4047344 -0.056370195 0.13769238 -0.009470606 -0.06799406 0.22600181 0.26258683 -0.5074612 -0.32215983 0.06056255 0.06809125 -0.26165986 0.025790729 -0.3282005 -0.27251035 0.06264942 -0.31970596 0.246448 0.3474228 -0.03220922 0.7269278 0.08988859 -0.7006114 0.01501155 0.4438094 -0.04737167 0.36490363 0.7140154 0.14566483 0.90843606 -0.1488959 -0.12184288 -0.45893466 -0.3204901 -0.15831314 0.3486562 0.07438611 0.24841061 -0.16193517 0.06571589 -0.41121632 0.20889455 0.3889127 -0.62378544 0.10052018 0.12588583 0.09077598 0.39730343 0.5748767 0.38944906 -0.7549835 -0.43722448 -1.0079726 0.005743378 0.2969347 1.6114618 1.5955703 -0.8849172 -0.6268543
54 -0.19827226 -0.11250203 0.06422542 -0.28489968 0.2086317 -0.5720153 0.13333033 -0.38933438 0.07671375 0.4687378 0.07408686 -0.37694678 0.4328602 -0.04593035 -0.2549371 0.06449976 -0.39578444 0.04822268 -0.21675886 0.34098288 -0.044850886 -0.128327 0.30237865 -0.4772127 -0.2748769 0.22607443 -0.22994225 0.25497597 -0.060737222 0.7647375 -0.010958363 0.39446458 0.6458766 0.69443643 0.21133843 -0.6536271 0.7085466 -0.08394948 -0.24146147 0.016830472 0.7202992 0.29366523 0.2033759 -0.20006292 -0.34330726 -0.15016586 -0.26002926 0.008342737 -0.66414434 -0.69154435 -0.89894444 -0.7260019 -0.10383876 0.6007418 0.3772459 -0.28469732 -0.43300882 -0.8511137 0.1557749 -0.11918619 1.7258009 0.9814426 -0.49304065 -0.19137481
65 -0.20173863 -0.30171037 0.031906467 -0.3147966 0.8274429 -0.6915124 0.7393199 -0.39415517 -0.042443715 0.06845351 0.0299985 0.01237692 0.42443714 -0.03395118 -0.48610845 -0.085303165 -0.433858 -0.033919703 -0.42846274 0.24073257 -0.49299532 -0.024122816 0.5346815 -0.3756578 -0.4289171 -0.108656496 0.0044724457 0.37418032 0.15772879 0.09835779 0.32800946 0.23520118 0.3496428 0.29411006 0.31438354 -0.24793454 0.83308965 -0.18664274 -0.09389198 -0.2006198 0.6005118 0.4915815 0.3509883 -0.15049806 -0.41131127 0.21325187 -0.06765341 0.058271408 -0.6123428 -0.50646293 -0.77922785 0.10982815 0.3762256 0.4808684 0.08534338 -0.51231176 -0.3358303 -0.53952813 -0.29039878 0.32230335 1.8590406 1.0111226 -0.90329075 -0.40750378
49 -0.017891154 -0.2348823 0.13567047 -0.2214002 0.5403604 -0.6815453 0.5239725 -0.3349296 -0.072803475 0.41988036 0.032200444 -0.36645323 0.4863174 0.029003898 -0.48353124 0.1016667 -0.5884739 0.04787737 -0.27147046 0.27041462 0.040071018 -0.083716996 0.09444585 -0.4302182 -0.2797641 0.0743941 -0.4227153 0.29837474 -0.066037 0.4374248 0.04194057 0.35969475 0.43353656 0.51742506 0.37090775 -0.46538475 0.7805738 -0.13872582 -0.2379943 0.1516343 0.7549997 0.3477838 0.018627595 -0.23808853 -0.353804 -0.14084607 -0.22525674 -0.048663907 -0.6287756 -0.54157186 -0.7453118 -0.5188835 0.09646786 0.597509 0.27854052 -0.3255476 -0.40140283 -0.7620573 0.046611685 0.030107558 1.8831943 0.9743227 -0.5532168 -0.3123203
68 -0.061386805 0.060512368 0.04000363 -0.26857206 -0.17096248 0.018669195 0.07562829 -0.5633506 -0.18444024 0.009271434 -0.18559149 -0.15989248 -0.071086586 0.14408429 -0.17631105 -0.17727607 -0.6512796 0.519154 -0.07237302 0.26721323 -0.16537824 -0.47704688 -0.039892837 -0.5503575 -0.16593038 0.23269494 -0.29908052 0.4478194 -0.23031712 1.2406098 -0.061382025 0.4376337 0.87592655 0.44408286 0.36326858 -0.6693165 0.37592462 -0.52968967 -0.5003478 0.18595007 0.01925376 0.20907484 0.046401627 -0.36659166 -0.37885687 0.0540754 0.14375785 0.1259644 -0.6485694 -0.728609 -0.79679865 -0.6025229 -0.19715051 0.47643638 0.663913 -0.2345082 -0.35151094 -0.608897 0.015660288 0.10349815 1.5411357 1.156212 0.20584485 -0.3030115
110 0.12651287 0.0069727884 0.5498192 -0.1767762 -0.200487 -0.4511163 -0.19599363 -0.123939864 -0.37468877 0.26397064 -0.08292769 -0.5474765 -0.0540325 0.3281981 -0.23162605 0.2672635 -0.0044409665 0.028355705 0.2794696 -0.26889214 -0.40922582 0.111583285 -0.52259976 -0.2688029 0.12010442 -0.3091112 0.40282142 -0.2079928 -0.0127524175 0.8311956 -0.03532679 0.27401075 0.20909226 -0.14339757 0.15823492 0.12858924 0.12902105 0.01380623 0.059376113 -0.427817 -0.14537844 0.04442778 0.4029758 -0.47500518 0.013359401 0.2713965 0.18781632 0.35901967 -0.66925687 0.048284166 -0.14757991 -0.0030391891 0.22950113 0.057910386 -0.073412165 -0.5027482 -0.42487743 -0.7181916 -0.19776386 0.67581105 2.4491146 0.73957354 -0.50921106 -0.1139459
116 -0.011802492 0.41758445 -0.12434051 -0.31329226 0.44018662 0.30570737 -0.18399733 -0.02887815 -0.01168768 0.13425201 0.2932887 0.34299675 -0.22392486 -0.05436789 0.15004905 -0.27937233 -0.25752458 -0.21730429 0.2981303 0.3014095 -0.6036844 -0.24191639 -0.029981842 -0.18177442 -0.012534383 0.17651634 0.081526324 0.15685627 0.6945396 -0.06745013 0.155951 -0.3590937 0.6602135 0.050408684 0.5007704 0.017671186 0.41970685 0.074958965 -0.47964975 -0.3340749 0.41137746 0.25611743 -0.6958512 -0.38171142 0.51117146 0.13215089 -0.10050112 0.15696496 -0.05446674 0.105010316 -0.26767933 -0.55130213 -0.29679078 -0.09720513 0.57106745 -0.39352906 -0.74404955 -0.44024158 -0.26339647 0.30790794 2.5511127 1.1098747 -0.3748692 0.079515904
95 0.34276998 0.41090098 0.04644322 -0.12760273 0.35889927 0.19597676 0.025568752 -0.077116236 -0.2699522 -0.14939792 0.18321778 0.5444288 -0.13988324 -0.28053156 0.26784748 0.20154224 -0.14316355 -0.21002698 0.4588741 0.19961575 -0.5618934 -0.10925177 -0.1413331 -0.15345007 -0.1040683 -0.062865674 -0.03716649 0.44433665 0.5697139 0.20972593 0.30065033 -0.13705003 1.0192171 0.27509654 0.29409918 0.23725635 0.36368018 0.19778065 -0.5109244 -0.24803181 0.25340855 0.24227712 -0.3862378 -0.44367328 0.3396303 0.016061207 0.05373861 -0.28738803 -0.6008488 0.14260009 -0.26930255 -0.7073188 -0.7571044 0.3952749 -0.15638998 -0.781477 -0.84780544 -0.78361654 -0.41315007 0.58022493 1.8950605 0.98935443 -0.8963961 -0.16785558
118 0.3253241 0.28508243 0.3291271 -0.07257268 0.6352929 -0.3929133 0.5100907 0.13829993 -0.0046346486 -0.11895588 0.23938349 -0.38525787 0.17709632 0.933768 0.69957983 0.27919343 -0.25939298 -0.040407695 -0.7193322 0.07258698 -0.3470891 -0.5599985 0.3200601 -0.3417701 0.6022341 0.4331125 0.3104062 0.15771796 0.79548955 0.7749502 0.53344977 -0.29665804 1.0261415 0.3461884 0.06526533 -0.3331602 -0.0135093285 0.6956765 -0.34099966 0.17171784 -0.14838454 0.08388936 -0.32834816 -0.10668466 -0.5165104 0.21768144 0.31091616 0.5171454 -0.57362664 -0.096565925 -0.027095752 -0.16700375 0.27912265 0.23396416 0.04709972 -0.4695899 -0.064599425 -0.91913074 -0.5144772 0.21344158 2.0919092 0.7603598 -0.42196053 -0.5478776
45 0.21723835 0.44282407 0.38663423 -0.13467185 0.36553583 -0.4612806 -0.08405594 0.015512664 -0.09671057 -0.20732501 0.29454136 0.32956517 -0.43880758 -0.057957783 0.28055954 0.28671938 -0.07147737 -0.10224853 -0.12997645 -0.17160374 -0.13055962 -0.31180236 -0.026455402 0.45735633 -0.017218962 0.7002008 0.14804298 -0.61438787 -0.035008796 0.34797242 -0.15708129 0.19662707 0.72091967 0.055067275 0.7253176 -0.0023375133 -0.005842508 -0.1708723 -0.37799248 -0.16684994 0.5380315 0.2677542 0.4677119 -0.006727737 -0.07831835 -0.13039553 0.045210626 0.40973708 -0.76712435 -0.3494651 0.17409602 -0.06551457 0.7404335 0.6664443 0.5907957 -0.5346901 -0.7931662 -0.8553379 -0.2764702 0.39677143 1.4573183 1.6932287 -0.70488125 -0.74997747
75 0.32924584 0.57649446 0.63917595 -0.5725137 -0.03239326 -0.5561164 -0.45593718 -0.71272415 -0.31298518 -0.20134258 0.024396274 -0.046952464 0.26030043 0.38676912 0.2765401 -0.27846113 -0.48886347 0.17310484 0.26770845 0.11402994 -0.92618537 -0.38759392 0.5600947 0.15723632 -0.34826943 -0.09892765 -0.10760919 -0.038194366 0.45491442 0.06291766 0.45152375 0.6974348 0.47699317 0.31307766 0.6908415 -0.12535496 0.34008625 0.4852265 0.2639499 -0.06276956 -0.47938076 0.9664108 -0.46048605 -0.7964472 -0.17949308 0.2600241 -0.16764563 0.30905616 0.12013706 -0.10433167 -0.15968159 -0.017193 0.30285385 0.49451745 -0.16747057 -0.330677 -0.41668674 -1.4160131 0.3391526 0.12496564 1.5399097 1.3560357 -0.31664026 -0.8984649
63 0.55378056 -0.3093098 0.53864527 0.6325521 0.071148165 -0.24627005 0.10831227 -0.65977335 0.17879744 -0.25282648 0.21884356 0.2595866 0.15345468 -0.29651356 -0.21298897 0.12582645 0.2302577 -0.4751715 -0.7288457 0.24737707 -0.48636618 -0.39785326 -0.16657789 -0.48535535 -0.4677863 0.2962664 0.012726408 -0.2431486 0.064463146 0.029785182 -0.05921204 0.7197614 0.8186616 0.15646318 -0.20016746 -0.13024761 -0.36369002 0.4184222 -0.12143026 -0.45382717 -0.109016165 -0.42528054 -0.47871855 -0.8355168 -0.047902513 0.44449383 0.1932956 -0.11034635 -0.12203834 -0.5380088 -0.14592229 -0.14962547 0.27608895 0.18674967 0.25649065 -0.4657765 -0.25594735 -0.81155115 -0.26225078 -0.16109903 1.9635135 1.4533415 -0.39252436 -0.21524252
59 -0.1548073 0.4828447 0.27368996 0.18981545 -0.39998156 -0.4540734 0.74835056 -0.054549742 -0.13703045 0.1207437 0.30608836 0.1832461 -0.06388896 0.42112187 -0.44806233 -0.87321985 -0.45276543 -0.14689486 0.22052942 -0.13748874 -0.30087227 -0.013676537 0.12596287 0.027534926 0.08865666 -0.019752825 -0.3120651 0.025535364 0.34394002 0.6401058 -0.07377927 -0.18055212 0.3299192 0.76997274 -0.12157873 0.02369962 -0.15610279 0.2013331 -0.3156389 -0.9625086 0.4036321 -0.039814513 -0.31038946 0.24583858 -0.39855582 -0.013226104 -0.17767246 0.87600327 -0.033704747 -0.108532906 -0.06235193 0.065461606 -0.3063995 0.85747814 0.22995597 -0.6312 -0.8528392 -1.2188905 -0.14266685 0.70469433 1.7914644 0.6926873 -0.3006928 -1.0895165
69 0.023882367 0.03437165 0.35535038 -0.41463688 -0.32151467 0.0303774 -0.108323924 -0.5727771 -0.14205284 -0.075398944 -0.35683507 -0.07248053 -0.025109455 -0.10729099 -0.11371548 -0.12112256 -0.3639618 0.41353422 0.014360282 0.35350442 -0.13172044 -0.5583597 0.011663276 -0.57785636 -0.13905832 0.09279281 -0.08291377 0.4920063 -0.25020432 1.4987273 -0.27065176 0.054994278 0.99675596 0.33475724 0.19206034 -0.7180703 0.24825074 -0.27610198 -0.34505236 0.36347407 0.042796824 0.08093314 -0.19932868 -0.10174928 -0.18835603 -0.15573698 -0.13152689 0.0032250653 -0.5806068 -0.7030578 -0.6378785 -0.33380026 -0.12590052 0.4934728 0.78660285 -0.28577203 -0.47838295 -0.60445964 -0.094348535 0.1057482 1.4423324 0.9889111 0.12784207 -0.5183654
77 0.08154372 0.54936916 -0.1788887 0.13411117 0.2387156 0.14777356 0.5591677 -0.5185526 -0.07333175 -0.030300723 -0.31273907 -0.42438763 -0.33557945 0.19488193 0.31983697 -0.13794003 0.32856324 -0.25275397 0.12812856 0.15177588 -0.20522965 0.009082061 0.28139943 0.16701518 -0.059959237 0.010865543 0.027835324 -0.27141786 -0.26608545 0.07016473 -0.006135648 0.32760578 0.7791597 0.17391776 0.14294234 -3.7827042e-06 -0.10183882 -0.3768275 0.67894304 0.24023673 0.041241646 0.08573892 -0.2839822 -0.13346429 -0.29015025 -0.533508 -0.06869649 0.5928991 0.031029742 -0.4801077 -0.40652663 -0.2668044 0.07869152 0.107823074 -0.3654189 -0.5848413 -0.57818127 -0.65799475 -0.5487119 0.07964383 1.684079 0.64682615 -0.2738963 -0.18560828
100 0.47994778 0.5761551 -0.061077055 -0.7887532 -0.4352132 -1.0799223 -0.37550107 0.005873132 -0.3130731 0.015394114 0.09397218 -0.20190786 -0.080503404 -0.23183928 0.26106173 -0.3189663 0.22627555 -0.15518813 -0.67398316 -0.11541054 -0.7921984 -0.231665 -0.29474518 -0.37995404 -0.048594322 0.17222698 -0.05430254 -0.027833408 0.391411 -0.077861495 0.06672767 0.7877667 0.33734152 0.44489306 0.6652068 0.080195256 0.24327812 0.27508262 -0.22010393 0.071608655 -0.424144 1.0661352 -0.40123603 -0.25173774 -0.31227288 -0.048107512 -0.5099437 0.20807742 0.08803686 -0.18521726 -0.13603602 -0.08537674 0.024837734 0.4715947 -0.2943163 -0.13444228 -0.6949594 -0.81597304 -0.13822478 0.10701297 1.5414909 0.61749244 -0.2360955 -0.6170536
60 -0.3481719 0.066559374 0.23932786 -0.21216641 -0.45381257 -0.114596434 -0.39752263 -0.56792456 -0.12950136 0.08846833 -0.39908198 0.15973413 -0.30544758 -0.16214421 0.12826699 -0.06801639 -0.45567486 0.11732731 -0.08835912 0.14533594 -0.14434335 -0.4324308 0.12413366 -0.6083601 -0.02201707 0.14479442 -0.08118772 0.43044668 -0.33375224 1.3671877 -0.12522212 -0.07504441 0.8875821 0.13729006 0.08299593 -0.8627039 0.2412246 -0.19474407 -0.26294485 0.3391812 -0.10365096 0.06319914 -0.32561734 -0.27457502 -0.20036928 -0.23018175 0.06751492 -0.12159635 -0.5963291 -0.53526276 -0.32954103 -0.25171036 -0.15876706 0.38010135 0.7928873 -0.38334802 -0.4312993 -0.74149156 -0.15389529 0.16525884 1.4601305 0.8825717 0.10688258 -0.5513128
114 0.3857062 0.91256744 0.27221262 0.71343136 0.12101192 -0.45573252 0.19084497 0.0815789 0.23231725 0.5894528 0.361422 0.0769049 0.040514424 -0.13027684 -0.349435 -0.51623017 -0.40421063 0.24007623 -0.46699876 0.008307811 -0.54468274 -0.3003154 -0.015958266 0.14142306 -0.35263848 0.28251913 0.6003699 -0.0058244113 0.35713938 0.27088425 0.3101088 0.69016045 0.35626262 -0.04010975 0.07095683 0.13046908 0.011779705 0.36991766 -0.6128525 0.5775031 -0.6890837 0.518953 0.0074401353 0.5574501 -0.43404353 -0.15209128 -0.12597701 0.08203027 -0.40887973 -0.5599756 -0.1910606 -0.20730789 -0.024568062 0.17935042 0.02003751 -0.6647822 -0.9772255 -0.3585633 0.6558633 0.5201169 1.8836544 0.6437637 -0.5384999 0.3930169
73 0.36325243 -0.13167368 0.4819047 0.32220587 0.41645083 -0.24451457 -0.24363765 0.39349625 0.35231468 -0.2681623 0.35577002 -0.23629093 -0.4222758 -0.48405433 0.18017294 -0.29330066 0.022458106 -0.027251536 -0.28462696 0.6340802 -0.11141937 -0.2545634 -0.043080278 -0.20507294 -0.12913193 -0.04178955 -0.020637922 -0.034396857 -0.21577291 0.12804295 -0.10394706 0.43680596 0.012425255 0.10112398 -0.5968993 0.031361967 -0.07953037 0.3623689 -0.17858037 -0.18848917 0.11281072 0.09036534 -0.64489245 -0.8420886 -0.37421778 0.49430853 0.37759975 0.36124855 -0.21741734 -0.8877734 -0.38559714 -0.049554706 -0.14713857 0.31855962 0.23567523 -0.6367388 -0.22677836 -1.1710447 -0.24601738 0.36759594 1.774318 1.3428605 -0.44578278 -0.5333839
6 0.2283329 0.5936488 -0.19778219 -0.035617087 0.43554428 0.011611468 0.20278697 -0.27778146 0.19064222 0.3058929 -0.6667158 -0.19102108 -0.09687451 0.44975623 0.037581235 -0.1687835 0.44582355 -0.31276667 0.08036031 0.2507916 -0.6206356 0.33761302 0.1754944 0.3933881 -0.23247866 0.38881496 -0.19974467 -0.16603976 -0.32485288 0.33203813 -0.27569953 0.3094884 0.931534 -0.27235204 -0.19206955 -0.15870416 0.29025537 -0.26320004 0.25813153 0.20925815 0.03812182 0.0015964461 -0.4559059 -0.35233176 -0.4683971 -0.14493868 -0.09096614 0.60381913 -0.14883499 -0.1663525 -0.34207672 -0.039088495 -0.0007702874 0.30455402 -0.39388523 -0.562314 -0.508638 -0.29618594 -0.37665212 0.1583627 1.5453416 0.7328714 -0.467114 -0.49148142
