1026 64
849 -0.14218983 -0.04052776 0.08177856 0.2128272 -0.23599836 -0.022057952 -0.12092403 0.08175394 -0.027681481 0.033692203 -0.028013416 -0.08432947 -0.0032736966 -0.06880536 -0.10202341 0.20194282 0.021696476 -0.0043139895 0.038209468 -0.115845345 0.11232012 0.20099111 0.0659335 -0.029745651 0.022667019 0.137716 0.011850454 -0.0014724822 -0.06784582 -0.20221524 -0.064403206 -0.23275372 -0.0120914215 0.14346711 -0.05603681 0.09883299 0.20784529 0.15860099 -0.22777571 0.15413524 -0.06669771 0.08642905 0.105178416 0.16668218 0.16701074 -0.026817484 0.23143034 -0.1471321 0.3017412 0.06052741 0.1069612 0.31766683 -0.076684825 -0.044572517 -0.26419586 0.23836689 0.08122929 0.069674775 0.12968783 0.13585211 0.21585698 -0.16324085 0.14923356 -0.09027018
851 -0.1766016 -0.06255104 0.11235591 0.13417447 -0.24279225 0.05954625 -0.23568365 0.058365088 -0.24092008 0.032867216 -0.05114155 -0.12388294 0.015658854 -0.19087783 -0.0072203386 0.25338894 -0.041104827 0.06998754 -0.0063686175 -0.096828625 0.21265954 0.20093288 0.065219626 -0.15109858 -0.047301363 0.036962844 0.040536188 0.06325317 0.020483792 -0.15711288 0.10945534 -0.27414316 0.058847707 0.050178602 -0.0016870601 0.015205618 0.19177726 0.21094623 -0.26382133 0.07819779 -0.028280286 0.10941288 0.114658676 -0.0067708413 0.11240308 0.036411483 0.2541726 -0.2575994 0.14815913 -0.052802783 0.093297556 0.21786019 0.03265561 0.0331614 -0.25488207 0.23454392 0.061821714 0.13281119 0.009119664 0.11284836 0.26972625 -0.0027257283 0.12531143 0.011855197
723 -0.0051963646 0.01555233 0.10015925 0.053554643 -0.14453079 0.005682507 -0.17362644 0.11562835 -0.14778873 0.011529235 -0.045256678 0.032000653 0.03735115 -0.19879685 -0.0817687 0.2799159 -0.16837712 -0.08483024 -0.049230017 0.001984889 0.21337102 0.035099216 0.09298389 -0.051993173 -0.08938061 0.101668395 0.06513445 0.013243313 0.037726164 -0.036345627 0.033476055 -0.17118855 0.020865142 0.10696157 0.022049025 0.069865935 0.24761342 0.25142547 -0.24733014 0.18163267 -0.13513252 0.15353835 0.06273212 0.06816781 0.18909481 -0.08266204 0.103183195 -0.36619824 0.30063108 0.12043322 -0.04792342 0.27142414 -0.15825552 0.11811037 -0.16276424 0.19991826 0.11016344 0.011385678 0.0562636 0.08672093 0.23041475 -0.06506482 -0.054501347 -0.18599594
840 -0.18784519 -0.013131743 0.121592164 0.20017466 -0.16373317 -0.038820878 -0.2210902 0.045433525 -0.052934747 0.0026427861 0.06742855 -0.1054868 0.027394893 -0.003885127 -0.12939203 0.1818528 0.063179314 0.008981319 -0.031336248 0.021909157 0.09534135 0.19892073 -0.014364851 -0.0789281 -0.032599524 0.072427586 -0.052048966 0.014216789 0.051420104 -0.20335914 0.07838255 -0.27612212 -0.06028791 0.08056502 -0.13409586 0.07230581 0.17333129 0.18646799 -0.21612415 0.09774273 0.029604008 0.11787694 0.08046337 -0.012238667 0.15359567 -0.09922702 0.27037024 -0.1875693 0.27617422 0.0022609856 0.11968517 0.23109354 -0.052013483 0.07949411 -0.3019424 0.20660457 0.14102916 0.08105391 0.05567193 0.23354091 0.3375984 -0.09927644 0.032631874 -0.10488055
682 -0.06908086 -0.08064185 0.021992536 0.0938858 -0.10150781 0.09721637 -0.2248421 0.084642865 -0.06244857 0.056125514 -0.0072352896 -0.1266405 0.10387519 -0.078238405 -0.16369948 0.18398398 0.007209385 0.11132716 0.046512276 -0.04082656 0.26292908 0.0754266 0.09632351 -0.019284802 0.016424393 0.0899141 -0.041692983 0.05820854 0.020287141 -0.07225512 0.03133564 -0.09653471 0.07527738 0.15186071 -0.038118027 0.022516001 0.16936134 0.24352172 -0.23906964 0.2370203 -0.13158795 0.060517333 0.023413809 -0.013877167 0.25007418 -0.080250554 0.23442657 -0.29135582 0.25159797 0.09035818 0.029888567 0.21179447 -0.18403684 -0.010419357 -0.33505115 0.18042554 0.09319406 0.073985085 0.075529814 0.15986322 0.21839947 -0.03496601 -0.053375535 -0.059844185
858 -0.07096281 0.0031544953 0.07387371 0.2839096 -0.09896331 -0.06791446 -0.16872637 0.040252175 -0.106478 0.14133057 0.0059195044 -0.13382725 -0.05479965 -0.10278124 -0.00588983 0.13067341 0.013831856 0.08037746 -0.060068026 0.0088486625 0.086713575 0.07465191 0.023541654 -0.11725622 -0.004428506 0.03145958 -0.10311808 -0.059859242 -0.09387038 -0.23164678 0.07469321 -0.13833813 -0.02363654 0.045889664 -0.08647021 0.096999645 0.20963608 0.22693506 -0.098699026 0.14625683 -0.073306285 0.20389846 0.04403888 0.16919631 0.37738773 -0.034775823 0.29168266 -0.14976813 0.29855308 0.019314138 0.15393817 0.38746968 -0.023601003 0.055569716 -0.21919636 0.1873129 0.10608243 -0.017893277 0.12329688 0.06925367 0.31783187 -0.15960646 0.09961473 -0.0993524
841 -0.219021 0.049057726 0.11946278 0.26052797 -0.26273146 -0.0027562343 -0.103905454 0.011027294 -0.14540263 0.12310363 -0.054812048 -0.116200805 0.055476364 0.04047825 0.013219365 0.19249326 0.076135196 0.016947523 -0.07823928 -0.018226251 0.058333382 0.14742392 0.027257621 -0.10790849 -0.056334473 0.08254309 0.017723206 0.0068122316 0.041327488 -0.13676412 0.0021392938 -0.2825041 0.0065185437 0.13702594 0.053804934 -0.031613037 0.25725707 0.15284078 -0.15680888 0.12770349 0.005819904 0.2741677 0.07890913 0.0026320473 0.2741914 0.071042694 0.27172193 -0.0719123 0.2030428 0.09019089 0.14456394 0.3247453 -0.1488754 0.014281587 -0.26151434 0.24136335 0.13416633 0.0053042686 0.02375183 0.13416342 0.22689623 -0.082953095 0.15060659 -0.14256355
536 -0.11296734 -0.082031175 0.14859577 0.09816066 -0.17376578 0.047551967 -0.2246978 0.09582331 -0.08563432 0.08049643 0.02814767 -0.10072631 0.010343129 -0.11980267 -0.028155152 0.26470503 -0.06268237 0.02292486 0.059627127 -0.06920181 0.18761145 0.10498968 0.11352067 -0.0802561 0.017659256 -0.002612557 -0.029133629 -0.085434206 -0.103266686 -0.108587876 -0.031219076 -0.15789483 -0.059820328 0.029208658 -0.05136699 0.098661885 0.27490878 0.08016112 -0.1688722 0.2478153 -0.13040194 0.02799414 0.009549312 0.07344313 0.15802316 -0.17587334 0.23016053 -0.20141038 0.27857253 -0.0017978029 0.16076945 0.34490234 -0.15128592 0.07458711 -0.13278724 0.20504905 0.15270448 0.19507396 -0.032934766 0.16495997 0.27192262 -0.09968088 0.012157369 -0.08463999
829 -0.051420067 -0.12196157 0.10188489 0.19177324 -0.19763723 0.03458433 -0.22846869 0.09782665 0.07667822 0.1491532 -0.093325704 -0.15008068 0.057036407 -0.028291421 -0.02509631 0.24841553 0.011769409 0.004973376 0.046743985 0.02465151 0.20823273 0.16205758 0.06036573 -0.08165055 -0.083326735 -0.048545323 -0.054041147 0.0280788 -0.032177847 -0.11121185 -0.025264738 -0.08053443 0.04661352 0.12436827 -0.013340113 0.10137053 0.14123262 0.19154835 -0.22251217 0.13930832 -0.040815562 0.13317378 -0.0012911424 -0.043394085 0.23399365 -0.033837978 0.17982045 -0.14609781 0.23410131 0.09417464 0.1309624 0.34564304 -0.046455238 0.25539723 -0.29295477 0.24829435 0.12869267 0.092145935 0.011365705 0.17268693 0.19082804 -0.050210115 0.096560016 -0.15982726
807 0.033412747 -0.15915711 0.17986196 0.085784905 -0.080827184 0.17840573 -0.07851589 0.06414696 -0.113645785 0.14752501 0.0073065246 -0.054011475 0.17824276 -0.025262207 -0.08560316 0.33723876 0.011028128 -0.03488006 -0.015418139 -0.16418214 0.18751961 -0.012622502 0.025579028 0.01859212 -0.013920509 0.036727358 -0.0054393862 0.045757275 -0.04671233 0.054024354 0.021089 -0.12694591 -0.032973032 -0.062093657 0.04570552 0.023364458 0.23157583 0.23304091 -0.27293432 0.31211922 -0.11873793 0.025092866 0.07108647 -0.1116679 0.12874748 -0.08029933 0.16733779 -0.20521519 0.39606962 0.15761742 0.0011523092 0.28578824 0.0488279 -0.023939746 -0.2033741 0.2773945 0.18146221 -0.012257757 0.049603615 0.19192801 0.21058492 0.011761053 0.08559646 -0.077497184
490 -0.0052948347 -0.09699563 0.11071342 0.20051579 -0.03569383 0.17073198 -0.23275876 0.05133215 -0.13261259 0.098231144 0.018096918 -0.1240074 -0.013540624 -0.12299979 -0.14890851 0.21571794 -0.10050687 0.090532824 -0.012180712 -0.026507575 0.32096693 0.14300363 0.10618698 -0.17148477 0.00023872186 0.088392355 -0.034125835 0.09839483 0.110357605 -0.18942341 0.034338135 -0.084990636 -0.0038885695 0.034755565 -0.049747255 0.06470891 0.20606731 0.22789772 -0.25236297 0.18306975 -0.023057168 0.087166406 0.017896391 0.024290014 0.26271302 0.023432666 0.16995627 -0.12757543 0.19113982 0.10131056 0.077433944 0.25559062 -0.12550509 0.012544309 -0.256788 0.31601733 0.13420235 0.053364493 0.042349808 0.127275 0.18610579 -0.09655471 -0.034907293 -0.0071222153
831 -0.17772576 0.071077205 0.032009628 0.15127605 -0.14925604 0.048058778 -0.2883386 0.10041443 -0.14989337 0.104980856 0.018808238 -0.07490235 0.031473912 -0.18048105 0.016616154 0.23598552 -0.09766886 -0.09323536 -0.10017923 -0.08750585 0.17082241 0.18781719 0.13228482 -0.1466711 0.039639357 0.047656335 -0.01726938 0.08607514 -0.02053761 -0.15582834 0.07925242 -0.15907738 0.057420228 0.018420627 0.011823747 0.031658188 0.1847666 0.1857843 -0.22683382 0.11160656 -0.06410104 0.15388298 0.009421182 0.00810742 0.15817493 -0.082759775 0.29401377 -0.19996703 0.15433595 0.07642984 0.107333995 0.33386788 -0.11501354 0.030140573 -0.18412456 0.21138108 0.17669931 0.20114724 0.030685509 0.11060277 0.23993772 -0.04271883 0.09259013 -0.12302083
190 0.10684285 -0.046444375 0.08760395 -0.009194904 -0.20820738 0.024939377 -0.049531 0.036895856 -0.044449423 0.13486752 0.044375367 0.028417407 0.12578435 0.0013022047 -0.15067016 0.25411004 -0.037122585 -0.10555519 0.042790473 -0.12237512 0.30560654 -0.09145097 0.03136268 0.031023262 -0.10343065 0.04113805 0.050136577 0.06829353 0.082206845 -0.11078263 0.054522146 -0.23405826 0.037382647 0.095551334 0.07219143 0.024101006 0.25040102 0.2139022 -0.18282875 0.14384061 -0.15909848 0.21400848 0.12960908 0.025710791 0.10923427 -0.04191738 0.17260587 -0.35268667 0.33609673 0.073630475 0.10830537 0.2623073 -0.07713718 -0.052470062 -0.24690813 0.17593895 0.121380374 -0.06579784 0.051112495 0.103737466 0.3113906 0.06666576 -0.039866313 -0.1319798
548 -0.021675248 -0.08138295 0.16772507 0.116437614 -0.07689771 0.17814633 -0.16677915 0.039730053 -0.06547657 0.11384775 0.058858924 -0.06056399 0.07501643 -0.031787757 -0.06297214 0.3198799 -0.0036977695 0.049807526 0.0823949 -0.03876571 0.1901686 0.11995071 0.024326961 -0.19072185 0.05892972 -0.009868144 -0.038930736 0.016765675 0.0910997 -0.09903717 -0.060038004 -0.11603544 0.06191663 0.074912675 0.10660693 -0.02032249 0.22477388 0.26477885 -0.18855184 0.20977563 -0.06939755 0.08678024 0.0023624755 -0.07943041 0.23874807 -0.033935864 0.1935841 -0.20874862 0.3074293 0.09465699 0.08968139 0.19866374 -0.07574321 0.15201396 -0.3158586 0.17862894 0.013441314 0.021279544 0.009381091 0.13526568 0.25520295 -0.113036625 0.059845302 -0.040284798
770 -0.036183756 -0.009217185 0.0771336 0.031392857 -0.071637236 0.117017984 -0.06438528 0.096443325 -0.08082554 0.17125946 -0.061216883 -0.059786867 0.060107067 -0.060275998 -0.17288943 0.18687288 -0.09579627 -0.09994289 0.08977666 -0.04657593 0.22967057 0.083349936 0.07783483 -0.048729554 -0.049549516 0.018407123 0.11112086 0.029608913 0.04910752 -0.07572219 0.02352433 -0.13974293 0.043282438 -0.016966362 0.15659225 -0.04256069 0.27172726 0.18418477 -0.19261122 0.351951 -0.088244095 0.15420999 0.05770802 -0.07944884 0.22086665 -0.15048158 0.21790089 -0.2756151 0.30154964 0.10467716 -0.002189041 0.20505661 -0.029208926 0.05830789 -0.22699611 0.19019978 0.22713102 -0.015650665 0.08999425 0.18226881 0.22953723 0.052408475 0.005664632 -0.030724218
739 -0.027738329 -0.105049975 0.15199101 0.029476015 -0.122830674 0.10238854 -0.18856904 0.13524118 -0.089132525 0.17300253 -0.037335064 -0.04809608 0.03783273 -0.08762168 -0.19374342 0.270442 -0.06399939 0.029544408 -0.010898614 -0.060809117 0.16001 0.098288536 0.06134026 -0.008453176 -0.0068111466 0.0076184864 0.08415301 -0.024119712 0.07716277 -0.026283506 -0.037990164 -0.17589696 -0.07826229 -0.012031518 -0.13832192 0.062316928 0.15218964 0.16559072 -0.2936853 0.23018336 -0.18407083 0.049582317 0.033240087 0.05985151 0.17596492 -0.11123134 0.20691334 -0.27371916 0.3297668 0.13245787 0.0524175 0.22092976 -0.11181895 0.11513619 -0.25807723 0.21371679 0.17337763 0.09133466 0.12620509 -3.3588727e-05 0.20751056 -0.051461156 -0.0837143 -0.17663428
843 -0.047019076 -0.0022795966 0.13864887 0.22850353 -0.14343889 -0.018922122 -0.20920463 0.034761146 -0.115241885 0.103431076 0.006170271 -0.12104565 0.01817761 -0.120917805 0.002758797 0.19232263 -0.16037638 0.022012822 -0.029167624 -0.010018159 0.1817717 0.19590418 0.0039075064 -0.08436667 -0.020029236 0.027001316 0.0057293656 -0.07246987 0.073882855 -0.21781242 0.029706478 -0.1132347 -0.002245843 0.0076797665 -0.121454686 0.080029115 0.16461635 0.09516394 -0.27237424 0.20518328 0.011002125 0.096319504 0.23637941 -0.03416961 0.24295418 -0.11285301 0.28954726 -0.025092443 0.18781026 0.11512135 0.14033921 0.21267551 -0.10329969 0.13085414 -0.29682025 0.30887908 0.08562456 0.20406815 -0.04366918 0.06030627 0.33198985 -0.12250756 0.086487845 -0.11790346
488 -0.09312468 -0.05212018 0.10359243 0.12612537 -0.24428365 0.09382806 -0.24059413 0.05991072 -0.0777164 0.13224904 -0.016098369 -0.14154136 0.099523865 -0.086406186 -0.08094813 0.15917262 0.03376888 0.07149186 -0.050954156 0.036831386 0.18188287 0.050221264 0.053442392 -0.124578774 -0.15159103 0.030534003 0.04445257 -0.0077099996 0.008109816 -0.113058 -0.021888765 -0.13571537 0.058258273 0.014965327 0.07013419 0.11761446 0.21830127 0.26773724 -0.28470722 0.17793146 -0.04008945 0.112797365 0.067330845 -0.010953809 0.13456072 -0.025286648 0.14629078 -0.21290217 0.26855764 0.063215315 0.035898082 0.3124095 -0.008608634 0.06267211 -0.29721442 0.36932573 0.10218206 0.061072182 0.041796323 0.16307703 0.09348904 -0.023701115 0.0058357227 -0.08610043
178 -0.03666417 -0.11629199 0.048728015 0.002614534 -0.20439458 0.047322173 -0.037424073 0.09017522 -0.055276327 0.026043072 0.05093079 -0.028442254 0.10319583 -0.19775298 -0.12367433 0.290217 -0.01700651 7.279178e-05 -0.033645667 -0.0980998 0.27234417 0.08421497 0.013367909 -0.10667091 -0.1981455 0.07378345 0.012811969 -0.0114814965 -0.0029231093 -0.11688028 0.009269774 -0.103599176 0.09997814 0.015766729 0.13070218 0.014065777 0.43175042 0.1800175 -0.25032613 0.24294132 -0.081306025 0.19657645 0.20849891 0.02387579 0.17999035 -0.060777877 0.23609024 -0.30250052 0.26368895 0.20727041 -0.02549264 0.11092279 0.06084977 0.041230362 -0.1537471 0.1756071 0.17092593 -0.042836756 0.15149875 0.09091219 0.22070384 -0.120952316 -0.002676567 -0.037558828
197 0.02655014 -0.076917425 0.011964032 0.06433217 -0.13547024 0.015034688 -0.16196913 0.18260008 -0.0665963 -0.011104118 -0.028259734 -0.08067496 -0.034255583 -0.10035501 -0.1197231 0.31967297 -0.020956729 0.042984687 -0.058946554 -0.14892668 0.24467748 0.12960202 -0.049157567 0.06273478 -0.19427067 0.04736346 0.02781169 0.086583994 0.089406006 -0.07649188 0.051736355 -0.17382371 -0.09805609 0.075687364 -0.02201734 -0.029590087 0.23270199 0.12538777 -0.22001348 0.24086322 0.017000746 0.26222402 0.07851664 0.02766404 0.13209811 -0.017337859 0.10740573 -0.20987445 0.37077972 0.13675396 0.14331149 0.27798575 0.012604643 0.037432536 -0.23210748 0.19209594 0.10993533 -0.04421825 0.103041075 -0.036771394 0.29564258 -0.11521675 0.0063435156 -0.06315672
528 -0.1229971 -0.047601916 0.10965094 0.13101614 -0.17516027 0.06408475 -0.2580957 0.18048006 -0.15857159 0.19320542 -0.048664495 -0.09521537 -0.016544228 -0.10720661 -0.106532335 0.2733156 -0.055866707 0.042458408 -0.03533803 0.039838634 0.04543351 0.14142472 0.09157976 -0.104291916 0.0019579015 -0.0015994755 -0.08493731 0.03406795 -0.017388474 -0.15088709 -0.008930732 -0.31705257 0.008612441 0.0019944035 0.016932765 0.0024817407 0.28568998 0.19152622 -0.26665872 0.0954728 -0.047173407 0.05947864 0.026755268 0.06396729 0.14787719 -0.07906926 0.13637032 -0.22563818 0.29798838 0.0043640113 0.2201911 0.24038973 -0.023830391 0.15641445 -0.11199964 0.1853831 0.058828518 0.009946119 0.0073555633 0.17125057 0.29127958 -0.15844347 0.02652864 -0.12457148
176 -0.076274864 -0.015861 0.10785612 -0.102828175 -0.06450675 0.0919432 -0.069364674 0.16332644 -0.060793318 0.18166068 0.095167875 -0.047043204 0.079066694 -0.08151028 -0.1926976 0.17719235 -0.086779796 -0.010334165 0.07858286 -0.10676084 0.26369584 0.01134353 0.0015731859 -0.0063284975 -0.0993971 -0.03217334 -0.016479272 0.15625009 0.053884443 -0.046808526 0.07908748 -0.17928869 0.06511139 -0.030456487 -0.001930154 -0.011021503 0.34060726 0.18348667 -0.23146653 0.32819796 -0.13576263 0.19442466 0.026477193 0.120831385 0.21903773 -0.046523433 0.0994057 -0.15359035 0.2691686 0.15612064 0.02309607 0.25059307 -0.054414276 -0.04952598 -0.24867012 0.18343976 0.097474284 0.041853644 0.05773454 0.05267289 0.3836323 0.04776309 0.08402846 -0.10298992
852 -0.11165302 -0.004111726 0.07469087 0.23420149 -0.16850875 0.103095055 -0.1838062 0.053142812 -0.10407285 0.124180734 0.04983209 -0.21832366 0.07065253 -0.06307449 -0.1167728 0.22878698 -0.06928492 0.079968765 0.031642426 0.02604886 0.05213794 0.07368208 0.09607159 -0.1803571 -0.018295044 -0.022183336 -0.006175252 0.011997676 -0.051743552 -0.047410738 0.10301487 -0.14004754 0.02604012 -0.010160532 -0.01884743 0.07286197 0.21254832 0.22250037 -0.18343219 0.18240044 -0.04047227 0.11707581 -0.01455444 0.03778844 0.18676959 -0.10161703 0.2966615 -0.18780933 0.21927808 0.051098008 0.16229674 0.3803749 -0.107161134 0.18010056 -0.25136352 0.2815197 0.06047168 0.03335027 -0.027736332 0.05505103 0.17828609 -0.14795387 0.06420606 -0.109236546
556 -0.13982454 -0.06533565 0.146921 0.14272572 -0.13949588 0.004557083 -0.1558178 0.03529508 -0.08824193 0.051774666 -0.04125791 -0.18457049 0.02072453 -0.16615582 -0.14576802 0.19268724 -0.028493289 0.083943 -0.018432895 0.05681079 0.23550428 0.12712607 0.12359054 -0.1347851 0.018385623 -0.035080984 -0.05018427 -0.054523587 0.05793098 -0.11298858 0.043030415 -0.119532205 0.052860428 0.08953108 0.016740562 -0.065752976 0.19727094 0.24126776 -0.21682525 0.2664685 -0.14977565 0.12477824 0.042032026 0.09094927 0.32752335 -0.15940686 0.27819493 -0.25344822 0.20753588 0.20035642 -0.007985604 0.16785875 -0.09207917 0.08467016 -0.23087363 0.23493215 0.065523855 0.02464379 0.06807426 0.06794642 0.13769329 -0.06876942 0.017735707 -0.07464573
792 0.0072264452 0.027059356 0.0071022282 0.045813024 -0.17509887 0.19744128 -0.16900349 0.08065569 -0.12132888 0.07367511 0.05289026 -0.05181059 0.09345479 -0.15691102 -0.11192249 0.37079445 -0.029717486 0.06453162 -0.014584205 0.026279194 0.27696586 0.15049714 0.058751483 -0.04390718 -0.16581227 0.0106187025 0.04238982 0.027589798 -0.10880061 0.05286955 0.16641462 -0.120380774 0.022662276 0.054773178 0.079810865 0.012468463 0.21575622 0.08542377 -0.2188777 0.18961978 -0.15108544 0.106139705 -0.0010243747 0.047897357 0.21849506 0.03197409 0.14297442 -0.24410863 0.3313786 0.17988734 0.05906473 0.27302203 -0.06915314 0.03973241 -0.22037923 0.13101856 0.13318126 0.07790266 0.0802311 0.06736727 0.3752593 -0.008251529 -0.03950922 -0.12876476
180 -0.036677428 -0.036332246 -0.06024496 0.03039722 -0.12365197 0.035674218 -0.074664555 0.12310676 -0.12418846 -0.009089288 0.11245658 -0.05427469 0.0073449 -0.18705699 -0.20651199 0.17909881 0.0042733788 -0.068047404 0.004490508 -0.075419985 0.23314433 0.06774943 0.030701097 -0.03463281 -0.123053074 0.09528865 -0.014207984 0.148471 -0.019054996 -0.083696105 0.081551716 -0.12488835 -0.06026297 0.11618537 0.020605445 -0.08423197 0.25987816 0.100414015 -0.27427977 0.38311437 -0.08452114 0.21038553 0.022267824 -0.03667796 0.12817445 0.06799363 0.25707826 -0.21182138 0.3960214 0.09296278 -0.0057641547 0.20812221 -0.06820776 0.05853209 -0.28189397 0.0051772753 0.17944966 -0.026172172 0.21924573 0.07904739 0.2661937 -0.0071117086 0.076077655 -0.118419014
181 -0.0021850576 -0.11001835 0.054760203 0.062459722 -0.039820097 0.017723512 -0.01916047 0.076563746 -0.06173161 0.08478836 0.018591987 -0.16118254 -0.018864483 0.005829498 -0.10446863 0.3162029 -0.065445565 -0.01798535 -0.019225018 -0.18376829 0.22588943 0.07882592 0.06361471 0.006313814 -0.13602939 0.033217847 -0.0777799 -0.011750774 0.07394978 -0.01108323 0.16081084 -0.09542497 0.020332385 0.15111741 0.039774016 -0.01938326 0.18693681 0.27664998 -0.17210272 0.26651904 -0.14228006 0.25861156 0.12017672 0.059472315 0.124135815 -0.11936259 0.17279775 -0.23328592 0.26343492 0.07123918 -0.0075613763 0.18196157 0.096776 0.11546421 -0.30459154 0.20588954 0.18089491 0.030015817 0.162473 0.08383239 0.32722744 -0.052357826 0.07134166 -0.087713875
186 -0.026921846 -0.15290008 0.03791539 0.06775074 -0.08963551 0.06662766 -0.11818589 0.09718804 0.06559643 0.10463833 -0.054512337 -0.055915784 0.024992188 -0.08991576 -0.17237946 0.21977237 -0.11713793 0.057141207 -0.028900534 -0.20961648 0.19311799 0.08347404 -0.10674758 -0.11278429 0.0021243582 0.0050938693 -0.072640754 0.0054916344 0.10624213 -0.03051535 -0.031312965 -0.15921257 -0.10485134 0.059645083 0.029348105 -0.043913834 0.2591561 0.20380388 -0.15944831 0.23606169 -0.05017652 0.3217103 0.07670726 0.023564894 0.21000735 0.022617882 0.1259424 -0.27658725 0.33091697 0.17237934 -0.00494212 0.2674373 -0.0005350398 0.025308264 -0.2100809 0.18848486 0.1473378 0.04681317 0.12600125 0.067338735 0.31188595 -0.10937574 0.13472395 -0.005863466
521 -0.04560153 -0.122623116 0.17138366 0.14332794 -0.12033138 0.2350464 -0.23828708 0.19798917 -0.051550537 0.118160196 -0.03898354 -0.15762344 0.049197115 -0.078346804 -0.09512679 0.15047303 -0.059644967 0.0070516355 0.11671153 -0.050148305 0.079088725 0.13902016 0.09050109 -0.078697346 0.056353673 0.07229634 0.011201149 0.0025136406 -0.008293458 -0.23912305 0.047850672 -0.24783273 0.02784447 0.02014647 0.13545983 0.019499877 0.25059485 0.15547103 -0.13915552 0.23922302 -0.075465895 0.07410684 -0.023913879 -0.054111563 0.18454693 0.06278754 0.2257293 -0.15129614 0.35237384 0.13055757 0.083370894 0.222823 -0.007379203 0.025270494 -0.20788592 0.28356734 0.06758977 0.024705108 0.02375488 0.20305683 0.20599982 -0.093608916 -0.020138709 -0.091865405
557 0.0067451084 -0.05219045 0.15491334 0.12441981 -0.20350893 0.16482495 -0.19696245 0.13020685 -0.09085809 0.03826778 -0.06318721 -0.16801421 0.0044460776 -0.09168353 -0.16006063 0.19394866 -0.0677709 0.026113208 -0.08459291 0.037283733 0.12639767 0.08028495 -0.026066316 -0.18437932 0.08072285 0.0065583307 -0.19838822 0.12650302 0.09401687 -0.18600658 0.03262613 -0.020771755 0.047916446 -0.013276317 0.028981896 -0.11946854 0.2034782 0.2874213 -0.2966852 0.14505802 0.016792132 0.20491348 0.047334768 -0.021922072 0.24268839 -0.06619527 0.22108905 -0.21443994 0.21268654 0.056084115 0.03841261 0.25649202 -0.22323582 0.14104508 -0.19859993 0.20957193 0.15650144 0.05356748 0.014050469 0.18716699 0.23115744 -0.046101578 0.073668346 -0.07991745
541 -0.029148042 0.038916104 0.1410332 -0.014412851 -0.17194355 0.10406226 -0.15772322 0.15539332 -0.08063282 -0.0044479496 0.00865241 -0.14780435 0.12423632 -0.13275397 -0.050556976 0.34848815 -0.15341908 -0.0014675222 -0.06600215 -0.06937098 0.14919533 0.077400915 0.15579496 -0.021234032 -0.007701304 -0.11441077 0.08460492 0.011457176 0.020226767 -0.05642661 0.013127023 -0.23115303 0.09648243 0.107315674 -0.11737559 -0.04692165 0.21898386 0.18612014 -0.24628088 0.28222156 -0.19483162 -0.077436745 0.018080156 0.076448254 0.25390705 -0.012138694 0.21169598 -0.13312523 0.34815317 0.1161564 0.04029983 0.24678819 -0.06798052 0.08307718 -0.2281654 0.2272141 0.1160975 0.061151024 0.08270328 0.03640606 0.23805872 -0.019514328 0.016452277 -0.08057395
583 -0.16123289 0.0054323827 0.16116013 0.18642001 -0.19621465 0.03886534 -0.18240403 0.04930155 -0.08045766 0.04042085 -0.19419491 -0.1202233 0.03264937 -0.14736931 -0.063171394 0.25702348 -0.15566257 0.036792487 0.008440061 -0.1790192 0.07237963 0.27659705 0.049100038 -0.16283208 0.0009530265 -0.0017523693 0.06288055 0.06828048 -0.0050705136 -0.1759554 0.007622971 -0.27165934 -0.077846825 0.03422979 0.05362343 0.01577069 0.121038474 0.13319504 -0.14228842 0.2066692 0.07963558 0.08400842 0.070342705 0.07108855 0.16977783 -0.0027601419 0.26512852 -0.1836853 0.20833616 -0.07478498 0.21120076 0.2719012 -0.07312341 0.07143292 -0.2846265 0.19201192 0.08252416 0.09169923 -0.003691769 0.23393562 0.2724453 -0.10446715 0.017360186 -0.099967994
170 0.11533311 -0.03883327 0.037557974 0.035635453 -0.1275212 0.019342091 -0.037400305 0.03178845 -0.059300903 0.13588893 0.003231142 -0.046729956 -0.0284056 -0.20622988 -0.17269655 0.2696871 -0.038423028 -0.03983973 -0.06113061 -0.12819196 0.28388503 0.0039425585 0.025016079 -0.0073658186 -0.14429863 -0.05755261 -0.11637502 -0.02694335 0.07714757 -0.13316396 0.16652656 -0.16410078 0.049590502 0.21743822 -0.00059614016 -0.083666585 0.29823548 0.25890288 -0.26212427 0.28646144 -0.073534235 0.18819447 -0.028623201 -0.053893864 0.18108043 -0.06181496 0.13523276 -0.2597495 0.31810874 0.06124602 0.07824337 0.20424962 0.08467043 0.025228614 -0.23572582 0.13946112 0.109801285 -0.034137044 0.045333114 0.063111655 0.27114072 0.024465159 0.08535951 -0.09637852
824 0.035559695 -0.04544785 0.12212454 0.016832309 -0.16773553 0.123808526 -0.1723971 0.122277506 0.017329056 0.14358127 0.049824655 0.031506665 0.05519995 -0.15326783 -0.21821637 0.26551542 -0.1323637 -0.010591453 0.049957935 0.009969507 0.2229968 0.005196694 0.08049541 -0.12467705 -0.0977991 0.03776651 -0.0027586643 0.025017 -0.14845029 0.03353459 0.082457066 -0.12092548 -0.016693488 0.12178138 0.13430782 0.098624684 0.26764283 0.20279619 -0.20512463 0.29094207 -0.2581419 0.20829672 0.120609194 -0.029904936 0.17259116 0.018381344 0.13028353 -0.19734941 0.32699376 0.12436491 -0.06187515 0.24586421 0.033577435 0.107448794 -0.31218883 0.13392338 0.15702613 0.0647607 0.16180353 0.057258338 0.25754884 0.033631235 -0.0032880914 -0.020248596
711 -0.008120856 0.02583454 0.09893371 0.079479754 -0.15407422 0.0586243 -0.07537044 0.10267854 -0.101711385 0.10019602 0.04997736 -0.07444762 0.054106083 -0.17337063 -0.1726256 0.27206475 0.11256768 -0.051379837 0.014790723 -0.13933866 0.25246313 0.10085463 0.10237744 -0.12965383 -0.084684364 0.065672815 0.092890956 0.07567917 0.06061879 -0.053369146 -0.023257338 -0.11915896 0.011350201 -0.0011998881 0.040835146 -0.012260776 0.14835398 0.23251861 -0.29990464 0.27056804 -0.07498928 0.17458986 0.10376028 0.09812616 0.23205188 -0.029104335 0.29205534 -0.19675465 0.26389867 0.097223274 -0.017567214 0.22813503 -0.09008874 0.03527827 -0.16041137 0.22552504 0.016954418 0.09517119 0.16397153 0.04933838 0.25894108 0.04212195 0.013118352 -0.019172763
192 0.00883348 0.007499364 -0.019107852 -0.013998592 -0.2753683 0.12291451 -0.042688847 0.16903424 0.045611333 0.121302016 0.02313802 -0.060204607 -0.014125741 -0.12849624 -0.15490076 0.20705728 -0.11225263 -0.03577077 0.03579761 -0.068754114 0.14528987 0.005370436 0.0028526671 -0.008012278 -0.070678785 -0.06585764 -0.03016026 0.07887681 0.05116246 -0.09076192 0.11169594 -0.12165904 -0.021910263 0.06488553 0.038892016 0.1191863 0.3236704 0.16535984 -0.21947816 0.28002366 -0.20814903 0.24043664 0.11580322 0.044082597 0.15711024 -0.0063978713 0.15244544 -0.33095154 0.26296237 0.11719035 -0.020923687 0.26644015 -0.14586082 0.05374599 -0.23781013 0.10929034 0.2238182 0.04135217 0.032280747 -0.022776894 0.33365697 -0.07463598 0.035951104 -0.122376546
562 -0.044870384 -0.016458256 0.14486073 0.09748967 -0.16242066 0.1090656 -0.05342546 0.07743986 -0.20984149 0.14174026 -0.02660613 -0.07034897 0.0053124363 -0.15658577 -0.15585053 0.2877628 -0.10984552 -0.070696816 0.043106437 0.09778163 0.13294417 0.11756996 0.17623729 -0.078666076 -0.123882346 -0.06897959 -0.0011165078 -0.0085906 0.08561398 -0.08968782 -0.03810425 -0.1539085 0.0246431 0.03999035 0.004470741 -0.023392053 0.21296151 0.27925888 -0.18782525 0.2803746 -0.103069514 0.13174558 -0.083142996 -0.01591881 0.18361758 -0.055756688 0.2991319 -0.2461932 0.27452382 0.13874976 0.07174686 0.20944816 -0.022244792 0.08236508 -0.21591958 0.24507886 0.14152624 0.0072205984 0.07944993 0.06519349 0.13004346 -0.057981968 0.01968521 -0.13576177
174 0.04406116 -0.050852533 -0.04184752 0.08972934 -0.20677796 0.10546391 -0.056013126 0.117909916 -0.06827319 0.093034945 0.0327619 -0.06829407 0.2087494 0.024257218 -0.20520274 0.28296214 -0.046600223 0.019033996 0.00943112 -0.16506384 0.18088932 0.067826785 0.07744318 0.019752003 -0.08936649 0.0026335763 0.075646065 0.10856937 -0.0022222672 -0.062116817 0.004974964 -0.1637661 0.07700979 0.044143673 0.028071731 0.030442419 0.36744702 0.22542685 -0.27107376 0.2553946 -0.18622306 0.2718591 0.08913162 0.038687076 0.113367036 -0.03034183 0.17943187 -0.28690046 0.21655898 0.11054749 -0.0014248221 0.15950032 0.016429812 0.15352081 -0.15277314 0.16990416 0.21858703 0.019436942 0.11628069 0.14265847 0.24300425 -0.07465941 0.024026772 -0.06478344
573 -0.061929245 0.073497854 0.16721112 0.17065808 -0.25917265 -0.012294159 -0.2044808 0.084706135 -0.13476044 -0.0058172205 -0.04622724 -0.14404412 0.10709174 -0.037921682 -0.062181048 0.17639512 -0.009742946 0.06266014 0.08675709 -0.026900955 0.12735565 0.15958725 0.079861455 -0.1398688 -0.03839213 0.026099749 0.03456118 0.07934284 -0.024008958 -0.21086423 0.049917996 -0.07357336 0.011332724 -0.014445457 -0.004572889 0.0021813689 0.19186513 0.16176766 -0.1990759 0.25955752 -0.06960727 0.078473434 -0.0085612 -0.077529244 0.20909388 -0.027068514 0.31713063 -0.17599103 0.23325913 -0.10072701 0.16551872 0.34858918 -0.118647 0.053678907 -0.24154931 0.19431436 0.085814446 -0.0213296 -0.04434402 0.16472621 0.32104838 -0.018736538 0.06013202 -0.16541556
185 0.05743728 -0.033040922 0.1137473 0.012526797 -0.08426474 0.06587312 -0.08394976 0.091218896 -0.0104418835 0.080842674 -0.031769883 -0.051057596 0.096506804 -0.14409213 -0.077202484 0.3256194 -0.025039947 0.090694115 -0.030203816 -0.099460185 0.32331222 0.031003818 0.04870893 -0.021283712 -0.031936534 -0.02099552 -0.0080595715 0.003320934 0.03131746 0.05807685 0.06862458 -0.18607369 -0.025945935 0.040686574 0.12083272 0.055350054 0.25372663 0.11193292 -0.19896646 0.33468223 -0.077951595 0.21643049 0.08926104 0.13494872 0.15612544 -0.027169546 0.23331822 -0.25567263 0.3377444 0.1722745 -0.042458843 0.20623559 -0.18430082 0.0789868 -0.14809205 0.25500894 0.13172337 0.051904432 0.097805046 0.093628764 0.26747525 0.02014008 -0.15934455 -0.119232215
515 -0.049422987 -0.032591116 0.14478557 0.23344538 -0.13396181 0.05477475 -0.15517718 0.044874582 -0.07992096 0.08997542 0.044692274 -0.21931066 0.04755401 -0.03531881 -0.056392442 0.18049134 -0.029453516 0.066543445 0.0080607375 -0.018430049 0.17870648 0.14395826 0.11276348 -0.17323698 -0.02390032 -0.00065993733 -0.079865046 0.08510296 0.03098025 -0.14385171 0.019593734 -0.22108452 -0.040150583 0.036167696 0.019634344 0.08782979 0.14782524 0.25724685 -0.16518664 0.2630355 0.040517885 0.11380318 0.048413225 0.083484314 0.2562379 -0.0028152904 0.39466837 -0.22482944 0.18043025 0.0010202903 0.10067128 0.2998619 -0.043262877 0.07729998 -0.10240216 0.27052242 0.038788665 0.08584206 0.0023439669 0.112675555 0.27739778 -0.07617181 0.05787995 0.072170086
676 -0.11320789 -0.03546328 0.02990988 -0.028730161 -0.14148107 0.114176095 -0.21169892 -0.019291788 -0.06634873 0.10275629 -0.051903933 -0.089530505 -0.0070551345 -0.18794729 -0.16703388 0.24130474 -0.03589903 0.042569425 0.015421805 -0.01184116 0.2219292 0.07331431 0.16225632 -0.22719538 -0.026028397 0.037560653 0.0893747 0.103842616 0.08020958 -0.017613579 0.00977732 -0.17476827 0.020991353 0.02240089 0.02691274 -0.029562753 0.22985059 0.18905279 -0.33349916 0.2303822 -0.14383101 0.12552099 0.030801762 0.00906618 0.34430006 -0.05708189 0.13639212 -0.17483786 0.24132979 0.1268749 0.064747736 0.20417649 -0.010428052 0.078664236 -0.2767792 0.20093536 0.067568935 0.05374452 0.07616409 0.18319334 0.22679205 0.0075744526 -0.025112672 0.03055966
574 -0.0022965716 -0.10100653 0.056092586 0.23672688 -0.14185828 0.013922313 -0.067685835 0.012601303 -0.1371776 0.111792095 0.093628325 -0.10296401 0.12233346 -0.09512998 -0.038622133 0.30092913 0.02710477 0.017237948 0.041368738 0.004257092 0.100105606 0.051922094 0.07991682 -0.050312996 0.008991733 -0.03757448 -0.011903725 0.030552154 -0.05155739 -0.12406868 0.081890486 -0.20712145 0.032397002 0.14692879 0.12945722 0.064499915 0.24792297 0.24582964 -0.28784922 0.27193066 -0.0123946825 0.13502091 0.033023804 -0.03111796 0.22887103 -0.034926385 0.17993249 -0.21704857 0.30567884 0.050726514 0.11745096 0.26922998 -0.11493427 0.120873146 -0.21018386 0.2704501 0.034711476 0.07029458 -0.02332251 0.123668276 0.12879142 -0.081650816 -0.08965198 0.011002653
201 0.0066534635 -0.021201229 -0.07027487 0.0024020756 -0.14203247 0.1174883 -0.024510205 0.17419733 0.0013618098 0.01514704 -0.029232837 -0.11222235 -0.03116064 -0.12952077 -0.13717195 0.23370242 -0.01600383 0.08709183 0.004057553 -0.10494648 0.17197676 0.08453962 -0.079666145 -0.05153044 -0.12551372 -0.010511507 -0.03951211 0.023960669 0.08393258 -0.07646993 0.047507603 -0.19612925 -0.056581426 0.050875477 0.07225422 0.093503356 0.21014272 0.1030739 -0.14906338 0.26511732 -0.059337854 0.2866679 0.14230408 -0.113769665 0.13685748 -0.048774894 0.15363 -0.21965472 0.38884944 0.14437892 0.1614818 0.25032017 -0.006934535 -0.037298862 -0.24301161 0.18967196 0.062140156 0.010841701 0.08629221 0.06054557 0.34712064 -0.15517312 0.087501295 -0.25549337
619 -0.004659016 -0.011840747 0.21754417 0.08021836 -0.14399943 0.16415139 -0.19684473 0.02793934 -0.15335993 0.1069268 -0.032680556 -0.19233203 0.08100452 -0.03637323 -0.115713105 0.21774872 -0.09260492 0.14503881 -0.005888054 0.04854616 0.07453237 0.14577349 0.09160076 0.02167332 -0.0013634032 -0.045234926 -0.009436963 -0.018095423 -0.0708376 -0.030969625 -0.046030175 -0.10893016 -0.06371286 -0.0078096706 -0.052343864 -0.13127932 0.21245883 0.19141944 -0.22517982 0.23473373 -0.1200788 0.07552425 0.11599004 0.095305175 0.23302586 -0.07649761 0.22967876 -0.19814362 0.24316761 0.09780926 0.060168967 0.23086041 -0.1134038 0.07187132 -0.27039224 0.24062574 0.12634635 0.14387149 0.079502985 0.26017645 0.25081685 0.0035454622 0.1343025 -0.12133123
475 -0.11585997 -0.030943915 0.075544864 0.21744908 -0.17706391 0.13805775 -0.17539917 0.0607819 -0.1763774 0.025173122 -0.032688033 -0.15911676 0.07852912 0.009980984 -0.1757547 0.30043364 -0.08811314 -0.017030573 -0.022198277 0.0933961 0.1825796 0.20356749 0.06513658 -0.077423275 -0.1627944 0.0296585 0.012327653 0.084980264 -0.014405202 -0.1281494 -0.0034725831 -0.3411711 0.041612327 0.03933447 0.003981995 0.0019143727 0.16837585 0.3071713 -0.17696927 0.17282319 0.013776951 0.060978647 -0.007422252 0.042032704 0.18646687 -0.025179524 0.33080626 -0.13039653 0.25081196 0.009535037 0.10174093 0.23708752 0.020975593 0.06628952 -0.16848978 0.24412091 0.09339622 0.005724565 -0.015484026 0.114230625 0.21977575 -0.07719558 0.018772122 -0.08467992
420 -0.16789418 0.0029902488 0.0054428857 0.14203686 -0.041493103 0.007549015 -0.030923745 -0.014108913 0.034279045 -0.013606515 0.0063983686 -0.081287384 -0.06642567 -0.08280183 -0.08904664 0.17204075 -0.19583522 0.11707324 -0.08864226 -0.06684965 0.14703684 0.05261452 0.0415146 -0.15932244 0.1237684 -0.0050210254 -0.0557115 0.079842135 0.103594616 -0.16399918 -0.04179588 -0.22800666 -0.027411072 0.20866977 0.022956984 0.026956059 0.26567692 0.18325731 -0.18466593 0.089178614 -0.06960022 0.2802585 0.16115226 0.033732258 0.14359519 -0.028597225 0.11897952 -0.20092767 0.44646725 0.054216843 0.20226626 0.27526355 0.05237944 0.04675948 -0.3413196 0.23239909 0.17856799 0.14233923 0.22533418 0.11943713 0.12350476 -0.10605738 0.11220749 -0.11221507
774 0.037213165 -0.044071835 0.06526892 -0.039314184 -0.15523995 0.058467913 -0.107221335 0.066749066 -0.09721612 0.14678471 -0.0014696982 -0.059103806 -0.009400142 -0.19952993 -0.16186489 0.2092246 -0.0053552715 -0.069485016 -0.055615585 -0.015235315 0.17651454 0.037555136 0.058550194 0.102562636 -0.05456117 -0.030287212 -0.03744133 0.06098679 -0.029724175 -0.005396831 0.10589274 -0.108579054 0.030136093 0.089717284 0.041423265 -0.02447293 0.29668167 0.22252107 -0.20646156 0.29749706 -0.19845077 0.21819866 0.08082184 -0.06895461 0.093429945 -0.034236673 0.19628356 -0.27589655 0.22182563 0.095239125 -0.06204252 0.26043698 -0.071273096 0.033733528 -0.34931925 0.23080766 0.09492309 0.050785214 0.065093465 0.15312043 0.28925577 0.02305982 -0.052860286 -0.13632682
485 -0.11801374 -0.016514344 0.23037536 0.06816524 -0.19737984 0.04778014 -0.25151902 0.082922004 0.01300084 0.098111026 -0.06207062 -0.12582386 0.02547125 -0.03853906 -0.10228389 0.164257 -0.036293805 0.0003900186 0.043595683 -0.064861536 0.08836971 0.23597577 0.112447634 -0.17668113 0.017607179 0.0063117463 0.052176993 0.064049825 -0.06837341 -0.19820842 -0.030828862 -0.25320938 -0.061486173 -0.004199393 0.012251161 0.035246402 0.25484324 0.25459722 -0.19987068 0.20364375 -0.055365015 0.111165576 0.014499603 0.0040800814 0.26186472 -0.050093163 0.25049353 -0.1646377 0.24798174 0.08569981 0.052784104 0.2584964 -0.096363224 0.11563523 -0.13982554 0.26320246 0.1406952 -0.0046701427 -0.025178865 0.14588234 0.20850003 -0.03458944 0.009528615 -0.032096464
848 -0.066568226 -0.0102819605 0.12943155 0.1846888 -0.09693462 0.056522097 -0.14932974 0.24434887 -0.09616445 0.04560211 -0.10675055 -0.23521712 0.027355194 -0.12215527 -0.14321022 0.24714667 -0.050427184 0.028594725 0.029013848 0.024308056 0.13851713 0.13217399 0.017478473 -0.20365702 -0.01885737 0.01144982 -0.045215808 -0.02255859 0.048447587 -0.15476248 0.021147659 -0.26382408 -0.019574279 0.03128067 -0.055892948 0.0063102357 0.2931675 0.23281442 -0.14303449 0.14956981 -0.007843522 -0.004146906 0.004400367 -0.018785102 0.2709904 -0.15086219 0.31335658 -0.11069925 0.2486214 0.067405514 0.07617577 0.2006442 0.004678371 0.043002866 -0.21685888 0.30255985 0.12301764 0.004748998 0.06398796 0.19617994 0.23709984 -0.043139666 -0.07896318 -0.10397023
166 0.098952554 -0.0997775 0.029783288 0.0008241783 -0.16744605 0.07783656 -0.13475248 0.10863972 -0.045871295 0.17071638 -0.05623671 0.00037729274 0.06681425 -0.20770328 -0.08355772 0.29421243 -0.06593947 0.06250359 0.0023806784 -0.22051871 0.19139065 0.08223314 0.00022507274 -0.05094083 -0.04124628 0.07271279 0.014484031 0.010964964 0.034659706 -0.061339993 0.0876015 -0.061025016 0.06703091 0.025064113 0.07742758 -0.111346774 0.24844131 0.11015513 -0.26121885 0.28419426 -0.1433694 0.20610715 0.19020434 0.12224428 0.15104832 -0.057476882 0.19467117 -0.2447308 0.28403896 0.13263458 0.056720763 0.12379973 -0.01811093 0.0992577 -0.27822146 0.12859355 0.13136481 0.04459934 0.19795826 0.1567624 0.27959245 -0.12160314 0.015430692 -0.1658409
425 -0.16351433 -0.037483137 0.090728976 -0.015703985 -0.047472525 -0.0673464 -0.15860166 0.05590338 0.00505824 -0.012105494 -0.09820235 -0.20634319 -0.012438492 0.02973182 -0.09584186 0.22407009 0.06458271 0.0088363355 -0.18077075 -0.11920805 0.16341528 0.21217766 0.07222279 -0.17086978 -0.101203926 -0.02747909 -0.1295386 -0.0397069 0.07183492 -0.15077172 -0.014211703 -0.11570663 -0.087949224 0.12596233 0.027650801 0.070430405 0.23903969 0.16096707 -0.14371131 0.146595 -0.06600834 0.24791881 0.02047658 0.13210602 0.23441687 0.020182006 0.27212793 -0.18038346 0.42402786 0.011443153 0.25148162 0.17866947 -0.033045236 -0.00091391866 -0.32434964 0.14662576 0.12675348 0.04372398 0.059092756 0.02861141 0.24195965 -0.11002739 0.20255765 -0.1689764
681 -0.067200206 -0.09133637 0.042075817 0.14251618 -0.19932821 0.08532175 -0.18679538 0.09044554 -0.11237092 0.083789065 -0.0121194245 -0.084606975 0.1555111 -0.06756591 -0.042218562 0.3105394 -0.00543156 -0.00885714 0.005139454 -0.0019248852 0.23665668 0.062758945 0.11188764 -0.08399411 -0.065025814 0.055128146 0.022184223 0.034621455 0.027828347 -0.1511753 -0.056556817 -0.23830065 0.0446517 0.077356465 0.037065815 0.08795756 0.3363807 0.25482938 -0.10741381 0.20555937 -0.09172605 0.11363249 0.00038515322 -0.020666242 0.14383285 -0.03768061 0.25717643 -0.27692118 0.1752102 0.07764706 0.09071332 0.16282958 -0.15250865 0.019504035 -0.17060101 0.29612404 0.07514082 0.096174054 0.051685505 0.1643784 0.22883213 -0.03150712 0.003302952 0.03905489
632 -0.046598174 0.008831354 0.161176 0.17208554 -0.11849458 0.13303593 -0.17500374 0.044026963 -0.029101837 0.09003862 -0.08309103 -0.14272232 0.028213054 -0.07382179 -0.056031704 0.27165964 -0.06415385 0.03489561 0.10340518 0.04463198 0.18040596 0.03599022 0.06541642 -0.039368354 -0.056004927 0.021380618 0.019351227 0.0030811552 0.0632789 -0.088167414 0.0007690484 -0.16643634 -0.053702485 -0.057634465 0.0017973059 -0.0095919855 0.2522778 0.34296528 -0.25492132 0.17684817 -0.0798486 0.08514805 0.11192371 -0.08757806 0.19073555 -0.100832015 0.30039394 -0.1350415 0.21070063 -0.031038973 0.057662275 0.2516058 -0.11089803 0.1539193 -0.20958596 0.2508184 -0.0014374019 0.093153775 0.062573634 0.22343022 0.28913188 0.011142267 0.027111366 -0.0040559857
184 -0.015180632 -0.111436 0.03924641 -0.05758139 -0.013026139 0.11894622 0.06657126 0.13064958 -0.06781249 0.08483679 -1.0296626e-06 -0.18897143 -0.01858014 -0.056838717 -0.14199612 0.16745174 -0.07615035 -0.06422334 -0.04097726 -0.1533539 0.17753762 0.0010777623 -0.0151058445 0.00065128494 -0.105693705 -0.06016247 -0.09015283 -0.05014839 0.07287337 -0.115995 -0.07822669 -0.21355943 -0.033423252 0.124620214 0.023717746 0.14622596 0.24218595 0.13083601 -0.17246822 0.24861915 -0.077273905 0.22022666 0.10300848 -0.012012499 0.17739934 -0.031458173 0.25407544 -0.26995498 0.32371432 0.12827611 0.15530108 0.27176526 -0.027316336 -0.012678934 -0.27685535 0.23770048 0.12516053 -0.08424606 0.13207957 0.048325613 0.26019388 -0.19213821 0.034351747 -0.19810905
560 -0.17031991 -0.030579561 0.02498389 0.17996064 -0.075481735 0.08163418 -0.21460685 0.101410344 -0.013939791 0.010998893 -0.053638723 -0.06282251 0.031036053 -0.05122211 0.00041309893 0.28854135 -0.011349064 -0.07844551 -0.09184266 -0.0010284258 0.18939576 0.21227638 0.04052615 -0.20288323 -0.00012289849 0.055789027 -0.031735122 0.09285793 -0.08993695 -0.2734704 0.017379465 -0.24297304 0.033789698 0.065737545 -0.044870388 0.006565945 0.16837625 0.14499776 -0.14765394 0.15831764 0.0988148 0.07445273 -0.02091427 -0.0071241967 0.23093532 0.019779967 0.22462426 -0.2099417 0.18344416 -0.03493611 0.16133541 0.27588055 -0.11763267 0.10068133 -0.36774677 0.24539244 -0.014984464 0.098157525 0.014297502 0.26401186 0.3066029 0.018850062 0.0026708695 -0.09637129
441 -0.20305602 -0.0034049375 -0.031800106 0.11799564 -0.0747775 -0.030803239 -0.044885818 0.057779223 0.060576566 -0.14886022 -0.028250981 -0.17619628 0.037740942 -0.0062275985 -0.02498803 0.1839506 -0.09656435 -0.003620504 -0.069870315 -0.01464557 0.2331805 0.11766634 0.11271785 -0.10730897 -0.050804205 0.09534694 -0.02632202 -0.052156452 0.058462344 -0.24496484 0.09326291 -0.16092958 -0.008479937 0.17296106 -0.005059917 0.10002892 0.21702178 0.118218616 -0.17881343 0.08685163 -0.056278568 0.30539212 0.15438229 0.035369106 0.22858949 0.037958626 0.25709668 -0.17969078 0.3990008 0.02620725 0.15851656 0.3216078 -0.10773037 -0.07771642 -0.27664784 0.13549718 0.13208391 0.10730862 0.087600075 0.13898803 0.19028048 -0.091126665 -0.011345933 -0.28811124
173 0.055432342 -0.13873477 0.034251206 0.019316437 -0.14330395 0.11037244 -0.10385097 0.043776404 -0.037881337 0.028311606 0.053476423 -0.032948993 0.021179568 -0.10899891 -0.15195389 0.19534725 -0.005777977 -0.02154761 -0.005995824 0.0022939455 0.27078614 0.076701805 0.029970394 0.015441975 -0.08085285 -0.08736158 -0.060087137 0.07976589 0.060038257 -0.087352 0.1091393 -0.2156705 0.057144947 0.11115766 0.02001173 0.013192185 0.13260855 0.14839867 -0.09492583 0.26302654 -0.17917296 0.23174627 0.068364605 0.09717156 0.20382176 -0.07102288 0.1439547 -0.21861625 0.3079765 0.14999275 0.078512065 0.3254175 0.020666335 0.000762928 -0.17757532 0.19708896 0.16725141 -0.05119682 0.20878528 0.08107362 0.3708086 -0.042043768 0.14993915 -0.23923579
547 -0.14513198 0.0048400923 0.12562253 0.16413413 -0.22553763 0.057932366 -0.24878778 0.0017939403 -0.07123526 0.20727004 -0.08014041 -0.016282318 0.00096892763 0.043095253 0.027445842 0.30517343 -0.08717221 -0.02740445 0.00581959 -0.051587097 0.08523931 0.19019254 0.04867286 -0.18420485 0.02527709 0.02713049 0.06080245 0.0018884556 -0.086328514 -0.14846863 0.013411302 -0.24790199 0.013454236 0.06040817 0.016519213 0.026391033 0.22645445 0.17837434 -0.20954517 0.23548415 -0.0009202962 0.09755587 0.08944749 0.075507976 0.14889438 -0.17636836 0.28162673 -0.0940622 0.20769104 -0.0010700661 0.13069648 0.23938343 -0.16051292 0.121510014 -0.24068423 0.22441512 0.05863514 0.0532862 -0.035441846 0.13253349 0.2981144 -0.119639106 -0.0033831086 -0.06900423
418 -0.23550391 -0.028418541 0.04261718 0.16619705 -0.18005678 0.040600777 -0.13175721 0.03276608 -0.0463178 0.0090531735 -0.09326935 -0.092716396 -0.0010859519 -0.099640235 -0.009290017 0.16287392 -0.039264698 0.07944596 -0.04522526 -0.043007415 0.10288163 0.05715715 0.0151072405 0.027907398 -0.031222982 -0.018182313 0.067268364 0.064316116 0.045080006 -0.23159 -0.045697376 -0.15681405 -0.11787464 0.0832221 0.024706725 0.15718168 0.2715967 0.1173964 -0.17745659 0.0153411785 -0.00067084073 0.31468412 0.16087121 0.031811338 0.1513318 0.042016402 0.21165678 -0.17992084 0.37979952 0.1443013 0.1880196 0.3179564 -0.13120863 0.033332985 -0.285749 0.2792625 0.26539087 -0.020928975 0.024761695 0.02667435 0.19481847 0.0023176775 0.043130346 -0.20694971
189 -0.019287076 -0.027827226 0.07291695 -0.013837901 -0.1457898 0.21432579 -0.042690553 0.027173901 -0.08184506 0.15761067 0.071608655 -0.008303457 0.04414554 -0.19612314 -0.15405798 0.26946586 -0.07658866 0.08623042 -0.040662847 -0.035352934 0.33839983 -0.07443073 0.051744048 -0.006500871 -0.05487278 -0.037865218 0.12181734 0.09607477 0.07016235 -0.12708294 0.038171194 -0.11658101 0.102948986 0.089542784 0.008994869 -0.028648904 0.25213316 0.1769928 -0.27206373 0.34567466 -0.042124525 0.12000947 0.20732617 -0.09312237 0.20363778 -0.10276145 0.093922265 -0.22864284 0.22036605 0.12509316 0.05172985 0.3885275 0.06707642 0.08605033 -0.17158818 0.18179363 0.040913604 0.0063673607 0.113418266 0.010898231 0.3219349 0.04497624 -0.03667291 -0.03302292
544 -0.14301275 -0.023975458 0.08543308 0.26289484 -0.22874305 -0.010989772 -0.23239373 -0.023722557 -0.06608839 0.14052524 -0.037437778 -0.0796176 0.08378457 0.004493002 -0.058892887 0.20044172 -0.06549202 0.021326393 0.022633262 -0.07460456 0.21976228 0.19817196 0.028041229 -0.05784303 0.07028194 0.061197158 -0.057559833 -0.029742697 -0.04065209 -0.13506754 0.047210183 -0.17260344 0.06338041 0.017851966 0.030133441 0.030249191 0.17434034 0.26848742 -0.22940098 0.18978126 0.012394722 0.110802576 0.059303094 -0.004221573 0.13714956 -0.15240039 0.31931776 -0.15058215 0.27264455 0.006085817 0.1414768 0.34772956 -0.04444794 0.033703208 -0.2086631 0.1720705 0.034802563 0.053649597 -0.011532917 0.25670028 0.13458721 -0.08693305 0.10116301 -0.14585277
549 -0.10875055 0.020117082 0.17827854 0.12746395 -0.15981919 0.08197965 -0.18417132 0.09257488 -0.08465921 0.050604995 -0.042772893 -0.18697767 -0.06915851 -0.035715476 -0.027009428 0.1473879 0.008394037 -0.014063814 0.016296681 -0.05816631 0.30890203 0.21767068 0.044144284 -0.10664123 -0.005624908 0.0653771 -0.0736486 0.09866871 -0.023499446 -0.33564818 0.016718948 -0.18782313 -0.019167483 0.07726039 0.015202992 0.11873163 0.1588018 0.26575702 -0.09877457 0.19163702 0.062713884 0.062183525 0.064012475 0.03652042 0.114763945 -0.11302119 0.3595476 -0.07761949 0.2102617 -0.110754095 0.10354981 0.3981052 -0.008891055 0.021491656 -0.18239607 0.3193386 0.12572773 0.11699441 0.044401724 0.13409469 0.21636714 0.047160912 0.04535088 -0.10284393
559 -0.034355402 -0.119545035 0.13158609 0.16057132 -0.22423418 0.039803885 -0.21328287 0.11789942 -0.16155276 0.062433127 -0.007896666 -0.16855536 0.11022311 -0.06062682 -0.108648784 0.19633272 -0.091644526 0.09069996 -0.03298101 -0.03638983 0.11034421 0.17122953 -0.0341697 -0.100054264 0.061797284 0.13497348 -0.03864843 -0.007965063 -0.0041823103 -0.14045092 0.020003982 -0.2510132 0.02409602 -0.0046311636 0.046689183 0.07560476 0.21388309 0.16476876 -0.1476583 0.21132778 -0.08523868 0.113602005 0.023325434 0.064585224 0.20601574 0.020447534 0.2564913 -0.26391032 0.25546613 -0.008778045 0.15328363 0.20949939 -0.16347457 0.12989274 -0.15462326 0.25795075 0.05929079 0.1275652 0.002554732 0.106828466 0.25319445 -0.08693196 0.13412425 -0.07447304
431 -0.11036373 -0.017930401 0.03789339 0.1940121 0.027098456 -0.045969475 -0.066310376 0.16825475 -0.011534402 0.033568375 0.039109495 -0.18111198 0.01427122 -0.084695056 0.037404068 0.20909214 -0.007651836 0.026399184 -0.07598643 -0.21108109 0.27780688 0.09993988 0.04562449 -0.07496538 -0.032652047 -0.0119585665 -0.039162517 0.0126349805 0.0834558 -0.15222396 0.008440141 -0.25334704 0.011407206 0.16346146 -0.110195994 -0.016897228 0.30629647 0.049437054 -0.23135844 0.1379572 0.036590945 0.308124 0.07097879 -0.09322359 0.19052169 -0.0014931514 0.22883026 -0.13199428 0.33716673 0.1306639 0.2121275 0.22655423 -0.038788565 0.073112145 -0.3069918 0.25004455 0.20640667 0.054294515 0.056309287 0.07390786 0.1444424 0.021227317 0.13426007 -0.051909808
460 -0.22602461 -0.047219053 0.08588494 0.15825532 -0.0906099 0.009179765 -0.121086456 0.09986268 -0.08590028 -0.008343848 -0.01000877 -0.18231787 0.041056924 -0.051545702 -0.058473036 0.13592127 0.036515273 0.06338173 -0.12544845 -0.042893954 0.20688577 0.21402352 0.043947298 -0.058959026 -0.022395583 -0.021592377 -0.13004732 -0.020376846 0.06873759 -0.050046597 0.0316105 -0.21158962 0.06716831 0.0791506 -0.017939204 0.07385328 0.20847574 0.1260533 -0.19169419 0.14902443 0.05697361 0.3366578 0.1555677 0.11141253 0.24021588 0.06792955 0.12990722 -0.13551426 0.2989539 -0.041603714 0.16102113 0.3471562 -0.082907505 -0.021289842 -0.3528249 0.25841925 0.19062592 -0.06753505 0.14750066 0.089294545 0.13901895 -0.05823632 0.18225217 -0.1712033
634 -0.07840868 -0.022545459 0.31045225 0.06656087 -0.0634349 0.02752657 -0.15406555 0.057464022 -0.095912375 0.18904884 0.031706244 -0.12529036 0.10555075 -0.14179596 -0.12825201 0.15926571 -0.09891912 0.036456175 -0.0714368 -0.00039337555 0.1498522 0.03344225 0.09424876 -0.11172249 -0.072740346 -0.037949946 -0.04099219 0.07462694 0.026040519 -0.09508617 0.072720505 -0.053400088 -0.05467198 0.04415348 -0.03222008 -0.058313273 0.24147701 0.32272395 -0.33887896 0.21888669 -0.05967585 0.10463238 0.07063512 -0.0026073689 0.17453252 -0.046275917 0.26742753 -0.23584926 0.32595766 0.12548384 0.055623952 0.21663155 -0.01706332 0.11784019 -0.18980846 0.24429965 0.03419048 -0.016194746 0.0051540337 0.06484868 0.2181479 -0.061805416 0.03772162 -0.03506873
507 -0.20878077 -0.18238129 0.13314886 0.22090791 -0.18512048 0.02119708 -0.2732528 -0.001722427 -0.04055812 0.059202153 -0.024053797 -0.08276861 0.004582852 -0.048648633 -0.110202074 0.36800072 0.006480402 0.008897523 -0.14856848 -0.0922697 0.07749401 0.16102438 0.075501055 -0.11344577 0.08845087 0.062457647 -0.13426422 0.0032162128 -0.058077145 -0.20179434 0.029764738 -0.15083285 -0.0018843443 0.06981368 -0.08473754 0.0017534202 0.086852446 0.2017364 -0.16243802 0.20984247 -0.034303278 0.14111294 0.037284534 0.03628603 0.24434038 0.07419332 0.23924796 -0.1671535 0.12975273 -0.049700577 0.2778962 0.34328228 -0.08577667 0.017548535 -0.30990508 0.28394622 0.053206734 0.0362762 0.07852633 0.10399145 0.20301865 -0.05859799 0.0370776 -0.0660018
728 0.02966415 0.0031323056 0.1194135 0.036816478 -0.17644905 0.17640272 -0.054090735 0.12045086 -0.022841085 0.081007525 0.05702425 -0.04559332 0.083605565 -0.10227937 -0.18177713 0.31400552 0.007845565 0.08629491 0.05160269 -0.060546756 0.2841975 -0.009840857 0.08062713 -0.07491942 -0.16127893 0.041885976 -0.017221976 0.0012876345 -0.03585829 -0.058241017 -0.014111758 -0.079828806 -0.0142497355 0.16158545 0.022383377 -0.06333541 0.2777908 0.22975835 -0.20457001 0.32170016 -0.16076654 0.110316575 0.10454926 0.10003387 0.14888524 -0.10228781 0.14135525 -0.2524135 0.30811515 0.097363085 0.008499137 0.120521285 -0.16908027 0.18173239 -0.14762652 0.23982914 0.1572707 0.04300354 0.13464458 0.051715337 0.30806708 0.029217552 0.062377814 -0.05914652
834 -0.10301028 -0.03541023 0.19231261 0.15609777 -0.10873707 0.06653815 -0.30617943 0.10793852 -0.09861208 0.08693763 0.030700775 -0.15852764 0.09479949 -0.06489754 -0.12606807 0.12485241 -0.051905066 0.07468565 0.038400333 -0.0629264 0.12719613 0.102037124 0.06892002 -0.12773362 -0.07107754 0.05713704 0.04215867 0.014653443 -0.04678325 -0.14878272 0.0066318926 -0.026105694 0.103292786 0.0008318064 -0.13745661 -0.04356091 0.21551625 0.21786776 -0.2748152 0.21866558 -0.0005518161 0.076004766 0.10900667 0.14046437 0.17476618 -0.0068211355 0.28809407 -0.15731129 0.2493603 0.04740164 0.07751451 0.25237578 -0.14441301 0.18182622 -0.25700432 0.23238541 0.14622627 0.075190604 0.033760026 0.16971493 0.206576 -0.06742919 0.03343701 -0.06659747
435 -0.1267001 -0.012912516 0.10526376 0.078282356 -0.10461317 0.034322154 -0.065904 0.015219393 -0.062223654 0.14399332 -0.003728288 -0.15351123 -0.06630869 0.054667458 -0.067418225 0.06855842 0.114782505 0.15060598 -0.038172316 -0.15530126 0.110443234 0.043038223 -0.033194657 -0.043164816 0.0073067676 0.09465919 0.04154936 0.016101185 0.13322085 -0.17132203 -0.07492574 -0.25969225 -0.04544923 0.080619656 -0.090631425 0.029650608 0.31174812 0.14780177 -0.29003212 0.19752766 -0.018726232 0.26948217 0.15034492 -0.012671292 0.24571984 -0.011094393 0.1473277 -0.24346891 0.35877562 0.02455779 0.174638 0.29100174 -0.03946807 0.02999114 -0.2488867 0.11903373 0.19778347 0.05665206 0.06503536 0.05990688 0.1858268 -0.078137204 0.11953228 -0.23517953
506 -0.132854 -0.033208147 -0.034184158 0.21169332 -0.15404196 -0.051358286 -0.29136667 0.058649898 -0.11049391 0.039029647 0.034079548 -0.111022815 0.088812694 -0.017906219 -0.12034242 0.12768774 -0.018185647 0.08337531 0.089848876 -0.048432548 0.2151618 0.057842936 0.07463678 -0.03885337 0.00061055383 0.074944295 -0.024138752 0.13588086 -0.096611306 -0.22637002 0.012934544 -0.24573232 0.009671291 0.030908052 -0.008575331 0.002724979 0.23043875 0.15167071 -0.24265908 0.25498754 0.07787452 0.053081136 0.0022006433 0.043114662 0.18116298 -0.06801501 0.21111201 -0.27895686 0.24123058 -0.022517553 0.26918492 0.31721222 -0.0706904 0.14544281 -0.23612483 0.20802236 0.04774823 0.085024275 -0.040705077 0.16860761 0.17319255 -0.015282342 0.020928463 -0.062507205
486 -0.029736303 -0.03799843 0.23633805 0.1539383 -0.08555835 0.14954148 -0.11856425 0.06988584 -0.03263356 0.08292706 -0.029663773 -0.051121376 0.064673 -0.11204845 -0.11841792 0.28260347 -0.029080132 0.019213058 0.07968669 0.011850802 0.29229707 0.105655566 0.04623529 -0.04752351 0.009248416 -0.012354112 0.0026120266 -0.01013557 0.0124312835 -0.029772326 -0.02457102 -0.07046821 0.036098793 0.0007026101 0.019780088 0.06057275 0.14330362 0.30549172 -0.30175418 0.26818416 -0.24547698 0.11188633 0.1355359 -0.07209461 0.23194972 -0.19213098 0.1266901 -0.11896302 0.28697646 0.056915566 -0.0017778424 0.16814047 -0.008729427 0.10842937 -0.19837469 0.2820342 0.13319468 0.14138633 -0.0062604756 0.15072092 0.28365687 -0.043762058 0.00030120427 -0.15401593
846 -0.2551259 0.015131527 -0.022942258 0.12165091 -0.073112555 -0.046287965 -0.020712173 -0.015461665 -0.15585332 0.056263145 0.03371735 -0.15866797 0.011406922 0.023274593 0.06152904 0.08763928 0.03871472 -0.0022136176 -0.0018497222 -0.037709825 0.19708055 0.14358921 0.068471275 -0.04011074 0.0405284 0.012758898 0.033762474 -0.10081643 -0.010337586 -0.19847582 -0.021227203 -0.23503385 -0.0123179415 0.10974008 0.0638836 0.1627278 0.213651 0.17716059 -0.16711251 0.16581948 -0.12189888 0.31708518 0.084424764 0.10910829 0.21438612 -0.03220411 0.24166088 -0.120354556 0.26744327 -0.07456404 0.23193964 0.3011157 -0.118023045 0.10260235 -0.28915232 0.24502303 0.19924052 0.0794934 0.11478847 0.16105655 0.2362264 -0.1654335 0.079800434 -0.20492706
844 -0.15490079 -0.070114166 0.056005996 0.17225781 -0.13918371 -0.02825554 -0.12218967 0.072938964 -0.16981597 0.07079888 -0.107929595 -0.17727949 0.04260175 -0.044197455 -0.0011350652 0.1526767 -0.0110454885 0.064890474 -0.103353605 -0.08772595 0.035492074 0.083538845 0.089929916 -0.10813528 -0.0012627835 0.050325625 -0.111529775 -0.114416964 0.100032285 -0.31309432 -0.011581095 -0.14023101 -0.14158785 0.067752026 -0.08985656 0.051426668 0.20511648 0.15757993 -0.18033819 0.18813248 -0.046088345 0.22141753 0.10619289 0.08566098 0.27850348 0.04937833 0.21702491 -0.21822365 0.3302851 -0.04310019 0.17300825 0.29757178 -0.13796371 0.06460391 -0.28613645 0.234045 0.15876462 -0.076564066 0.005652381 -0.04285602 0.20527865 -0.06763766 0.14695682 -0.1595061
169 0.059635986 -0.1338271 0.1098412 0.11543002 -0.07195287 0.095780715 0.028664112 -0.009449487 0.003598502 0.08448794 -0.07049009 -0.12160109 -0.07135915 -0.03171766 -0.15481019 0.25315818 -0.07043064 0.017537657 -0.0014672956 -0.15848115 0.20161813 0.055849385 0.055485502 -0.021871392 -0.20037657 -0.07436945 0.09669472 0.095180914 -0.010797274 -0.16703975 0.13360085 -0.2123985 -0.010302591 0.04991882 0.1616083 0.09466046 0.2708905 0.21079323 -0.1161669 0.15854861 -0.057497617 0.18484592 0.14569943 -0.016752407 0.25137112 0.0852063 0.10414602 -0.24785036 0.3536442 0.07025424 0.09929813 0.31125373 0.024572844 -0.016258087 -0.20668492 0.1637867 0.1309873 -0.100947514 0.13352577 0.031254675 0.3378317 -0.03757978 0.09737343 -0.18502235
523 -0.15655614 -0.083987325 0.098354824 0.19845061 -0.15012708 0.12713031 -0.25785574 0.0300516 -0.06924399 0.17978331 -0.04970795 -0.1380317 0.038991116 -0.043254506 -0.14983457 0.27397576 0.06531454 0.0300409 0.10333897 -0.01856 0.1263957 0.17219822 -0.013638148 -0.171739 -0.13778374 0.0038627163 -0.09329144 0.017649854 -0.006461878 -0.11095037 -0.07012937 -0.1226815 0.023572449 -0.097850695 -0.026211089 0.0737108 0.1271104 0.26893112 -0.1595611 0.27756622 -0.036450837 0.108490825 -0.005226404 -0.09032688 0.1658988 -0.020462083 0.23203872 -0.23719415 0.24876072 -0.005577687 0.19728167 0.21270667 -0.09884556 0.08488079 -0.31320977 0.23616426 0.06880871 0.08433967 0.10153315 0.1807161 0.19136176 -0.13684408 0.031325966 -0.010338591
437 -0.10353124 -0.09262708 -0.012180442 0.13823573 -0.116070434 -0.030118238 -0.17797743 0.06294481 0.12653553 -0.023890182 -0.04758183 -0.03036062 0.060778268 0.020982917 0.042612616 0.2125007 -0.06342622 0.06571531 -0.0039833877 -0.09163633 0.23837094 -0.0027335123 0.033499718 -0.069393106 -0.0032366952 -0.0011366168 -0.14352518 -0.004569801 0.082568936 -0.20690602 0.01936305 -0.20091638 -0.004073838 0.0162767 -0.0880562 0.043724626 0.25155744 0.015625656 -0.12155075 0.16488504 -0.07719393 0.2345126 0.106135525 -0.015338359 0.26938963 0.043549787 0.2277133 -0.24784967 0.36183408 0.09320119 0.25539407 0.31007844 -0.02713006 -0.0021468292 -0.3245572 0.1711209 0.14421822 0.05005926 0.042599037 0.09227167 0.28406182 -0.08231607 0.11265635 -0.09876403
429 -0.081064805 0.011322504 0.11878327 0.10262035 -0.073525414 -0.004020316 -0.096780464 0.119800694 0.06437608 -0.0012952398 -0.11207774 -0.09470003 -0.045263544 0.048409995 -0.047794387 0.19048661 0.059855163 -0.032153565 -0.07239272 -0.047482215 0.13637915 0.04239524 0.05270328 -0.12430379 -0.07824587 0.09186145 -0.100908145 0.062279746 0.03266197 -0.08872282 -0.106989056 -0.31772813 0.059206937 0.2567038 0.068306565 0.15740754 0.19467624 0.14871773 -0.09001612 0.12634778 -0.08575885 0.3225959 0.12796502 0.10721153 0.28874302 0.13577007 0.24008133 -0.2207016 0.42766884 0.09910866 0.17984444 0.31852126 -0.06901145 0.094378196 -0.26133427 0.08479723 0.13484846 0.048154503 0.015473302 0.15286109 0.20285894 -0.13741921 0.11538114 -0.08981967
532 -0.1626566 -0.06213577 0.19589204 0.14785582 -0.12624075 -0.023378033 -0.1802933 0.089759834 -0.106779486 -0.030540606 -0.04565637 -0.22582576 -0.0056386017 0.03505609 -0.035355344 0.11725401 -0.035049774 -0.029706588 -0.032370586 0.01149273 0.1977216 0.11341068 -0.035225313 0.030030223 0.006717884 0.115129985 -0.15570372 0.033139523 0.013527518 -0.3522644 0.060969334 -0.30650756 0.051655248 0.15545146 0.05039135 0.1245366 0.07179154 0.17390232 -0.26765528 0.2809448 0.03450683 0.09095556 0.100168906 0.0366155 0.28121418 0.030314123 0.242484 -0.05974024 0.24194258 -0.0052145445 0.09715761 0.33024764 -0.009603668 0.08043786 -0.24774756 0.20242725 0.027582493 0.12574074 0.028341724 0.2458567 0.27450758 -0.082883894 -0.0659909 -0.106154986
860 -0.03914603 -0.084059045 0.06635506 0.22163875 -0.081499435 0.03353729 -0.15485302 0.1505721 -0.18642296 0.004318177 0.011701291 -0.089158244 -0.093789585 -0.15510741 -0.0925973 0.2720778 -0.13785435 -0.0402636 -0.028737409 0.11196389 0.19757283 0.27060342 0.11993563 -0.014691552 0.08132416 0.005202001 -0.0855266 -0.0425154 -0.089717634 -0.14268406 0.04155529 -0.15045753 -0.1453459 -0.055967845 -0.08319786 0.04558024 0.27623975 0.25935844 -0.27230278 0.15795277 -0.08815069 0.026826076 0.03527591 -0.07485678 0.14927691 -0.14932744 0.26657206 -0.18683302 0.2759499 -0.0003462381 0.07715418 0.34738457 -0.033037655 0.10016886 -0.09742326 0.21768631 0.1077645 0.06923971 0.037062213 0.112371 0.20685013 -0.17864782 -0.015643774 -0.22479722
194 0.03955641 -0.11776411 0.010092301 0.06301211 -0.16133474 0.08056167 -0.15715349 0.07494286 -0.029725116 0.1820284 -0.026432334 0.0343035 0.05315878 -0.14642425 -0.14715065 0.3369056 -0.026496846 0.019190503 -0.09033436 0.00028166987 0.22377878 0.046577238 0.008353034 -0.087922946 -0.14507379 0.0582759 0.076971106 0.07646304 -0.002377587 0.047811825 0.012032832 -0.067952454 0.056781963 0.056091 0.13402347 -0.06816995 0.33109385 0.17209178 -0.21169758 0.1963511 -0.15780924 0.1472798 0.120633215 -0.033686176 0.081813894 -0.095377594 0.1450155 -0.26523516 0.31351426 0.19342043 0.07338601 0.23673412 -0.028249342 -0.005448418 -0.2534446 0.20221072 0.11549683 0.0669241 0.192529 0.07646278 0.3436242 -0.053450704 -0.049841527 -0.08543775
571 -0.21226811 -0.05216978 0.14969364 0.17925635 -0.25945437 0.099341035 -0.23257434 0.06945278 0.044397306 0.087861024 -0.0040847147 -0.026571993 0.028091107 -0.035484403 -0.06552005 0.28679997 -0.034750983 0.023337793 0.068315946 -0.08633858 0.16814442 0.21034683 -0.057929453 -0.19612919 0.056347936 0.13423456 0.015478903 0.05004574 -0.029892262 -0.18360434 0.02425722 -0.23922339 0.08069491 0.033807337 0.051920626 0.10925098 0.1711659 0.23980883 -0.103397466 0.07914499 0.09756423 0.16350897 0.0803612 -0.0023851385 0.21255708 -0.09555834 0.23146205 -0.24769965 0.21840067 0.025584217 0.13860698 0.31288067 0.046904407 0.098769985 -0.28243467 0.16022445 0.09012137 0.08878649 -0.03132199 0.2973708 0.13540551 -0.08447182 -0.058158208 -0.19668971
454 -0.22176898 -0.0826328 0.0046911687 0.12600476 -0.09422973 -0.02745879 -0.059324216 0.073632725 -0.025948534 -0.013918565 -0.06230857 -0.14964598 0.06487813 -0.0340376 -0.02847331 0.1675096 -0.10293904 -0.03686024 -0.1120458 -0.049871616 0.19240212 0.13210337 0.051649913 -0.022495901 0.019794155 -0.010315138 -0.04155423 -0.029396666 0.10783983 -0.28789598 0.15936437 -0.23927614 -0.028029347 0.13996065 -0.017946295 0.031426255 0.13436045 0.18368769 -0.16458802 0.057469897 -0.07775467 0.2908035 0.06227875 0.015455266 0.16232552 0.0539029 0.26380926 -0.1970406 0.31303477 0.0019700436 0.2637991 0.2833038 -0.07195052 -0.010522068 -0.4130558 0.19654223 0.24058777 0.06373715 0.0984279 0.045294072 0.16194755 -0.07161554 0.14274208 -0.15738557
633 -0.01391171 -0.10982849 0.14230588 0.052933365 -0.118611574 0.018492915 -0.20856273 0.009818875 -0.20978487 0.14984123 -0.07246885 -0.090396605 0.14718506 -0.080408484 -0.045613747 0.23089598 -0.120985985 0.017209955 -0.006356691 -0.080803975 0.18950844 0.122979686 0.18490882 -0.015470103 -0.018163033 0.09674737 0.05206581 0.060865123 0.056848347 -0.24941468 0.03698511 -0.13628171 0.007238357 0.10434538 0.001199148 -0.04744688 0.34824073 0.36840156 -0.2750952 0.1844354 -0.090731025 0.1501948 -0.049575105 0.02261455 0.21304378 -0.00071293977 0.14741339 -0.2693804 0.14078751 0.0030728697 0.06502177 0.29084837 -0.116791524 0.086810805 -0.08587562 0.24578552 0.09813509 0.09531207 0.095939934 0.12928124 0.10297965 -0.009824168 -0.03477349 -0.14992996
493 -0.2875238 0.023006914 0.050955683 0.2607124 -0.1705078 0.004050626 -0.16273506 0.06617871 -0.07332278 0.07795311 0.11779775 -0.21211746 0.042056702 -0.032126676 -0.096719 0.17843086 -0.07444265 -0.004410967 -0.0040355963 -0.042274404 0.03163139 0.17360193 0.056688536 -0.07875763 -0.012337543 0.062734164 -0.031905618 -0.02382599 -0.040133335 -0.29000682 0.03136352 -0.26191264 -0.019076603 -0.0382213 -0.018730473 0.0025434576 0.15179354 0.33553532 -0.2401189 0.18547866 0.122271165 0.18089508 0.14911976 0.06744071 0.18933822 0.05440491 0.30692452 -0.16716278 0.27724245 -0.054452717 0.19324039 0.24554151 -0.0036632472 -0.003517915 -0.23297316 0.2527034 0.050427485 0.17549422 0.14456747 0.09509618 0.14757644 -0.039638005 -0.05653265 -0.05669888
175 0.04748385 -0.03794793 0.05013967 -0.018226434 -0.11744821 0.17261742 -0.1075131 0.1089789 -0.05872066 0.19412716 0.10516381 -0.012599068 0.13629071 -0.102319516 -0.15288535 0.2734663 -0.042664044 -0.043816794 -0.037238266 -0.11322727 0.29933822 -0.027630828 0.036571827 -0.10522116 -0.12734944 0.013049835 -0.08545639 0.0035117725 -0.030084748 -0.067641094 0.09107585 -0.08765694 -0.041482925 0.14223243 0.07473921 0.09043365 0.2800641 0.27572942 -0.12759814 0.34148082 -0.12775333 0.20194668 0.088345006 0.0072174254 0.23387296 -0.06925985 0.07191397 -0.24617267 0.28703555 0.1114275 0.038316086 0.13305403 -0.035958692 0.08450888 -0.15505403 0.22913946 0.123510376 0.0063842107 0.10963382 0.15912245 0.35903773 -0.1051029 -0.014750821 -0.01891549
463 -0.16522548 -0.076360755 0.053219233 0.27058655 -0.09220687 0.017153593 -0.07897995 -0.013551559 0.0040063458 0.0071963095 -0.0466008 -0.050660446 -0.0330711 -0.0780458 0.06258167 0.13769819 -0.0076573566 -0.03500872 -0.1909945 -0.065322444 0.11729079 0.053363536 -0.004808987 -0.10565693 -0.0060971864 -0.033890378 -0.009736277 0.0646624 0.035780553 -0.22916567 -0.052718356 -0.22285339 -0.08703927 0.11751544 0.022612737 0.04017314 0.09417124 0.18250431 -0.21061926 0.2375854 0.08351564 0.23903961 0.1322392 0.022639543 0.19832096 0.013899408 0.2181533 -0.102375194 0.4364864 0.11000864 0.15835638 0.23648706 -0.088721715 -0.002961877 -0.35944176 0.30983225 0.2547434 0.06209862 0.11664821 0.096393555 0.16268618 -0.011098588 0.118081726 -0.08551742
772 0.087119825 -0.045629676 0.09488829 -0.023825105 -0.17455728 0.15799303 -0.15165184 0.028388184 -0.17187686 0.053344395 0.05566256 -0.019364357 -0.017646933 -0.120325014 -0.15376188 0.36239627 0.068282045 -0.0111364545 0.08345292 -0.05988168 0.19897935 0.05339971 0.06630462 -0.17138389 -0.14147644 0.08441101 0.04663356 0.04378368 0.048758242 -0.035755396 0.104594745 -0.20455685 0.070392825 0.099682115 0.034342647 -0.012272754 0.26338524 0.14673527 -0.1720851 0.23110186 -0.11365896 0.15142225 0.10636213 0.11460828 0.02036838 -0.1077832 0.16605729 -0.19536784 0.35618907 0.121880546 -0.0055650882 0.24503632 0.049233068 0.029726114 -0.25674534 0.23327082 0.042587295 0.08992896 0.20894635 0.029448409 0.36808687 0.008917425 0.012395613 -0.029310564
773 0.12602437 0.0068622595 -0.032938182 -0.09373294 -0.1599228 0.17079759 -0.11274443 0.13556817 -0.047558546 0.12168806 0.06943918 -0.10747101 0.1357433 -0.035221294 -0.19290788 0.32352012 0.014796561 -0.05127249 0.02667146 -0.03356992 0.33263788 0.027112907 -0.024064904 -0.0028567929 -0.039124668 -0.049449325 -0.0367046 0.11452497 0.13758014 -0.080885686 -0.02737388 -0.114652045 0.044189133 0.025215859 0.17051698 0.12673967 0.33006707 0.12641804 -0.15971765 0.32682088 -0.1894936 0.080032706 0.21419607 0.1161261 0.17696935 -0.0111588705 0.2252963 -0.29299814 0.26773375 0.14990121 0.07716923 0.08428238 0.060109004 0.13765642 -0.22109358 0.16999267 0.14998479 0.1565038 0.13990878 -0.034644715 0.37990832 -0.058057275 0.033197653 -0.05865426
489 -0.0949279 0.00520715 0.17444792 0.2001987 -0.10106373 0.10632074 -0.20629562 0.13022164 -0.2124833 0.13635622 0.053975288 -0.10034664 0.014471961 -0.115746915 -0.1088947 0.17605628 0.085371345 0.017555133 0.014655618 0.041161716 0.07389841 0.189152 0.024017964 -0.16131054 0.02086818 -0.005716079 -0.04269665 0.07087155 -0.031760465 -0.2618755 0.05732746 -0.20938328 -0.08007549 0.09655803 -0.037805546 0.058834407 0.1718871 0.20279783 -0.21219406 0.14423531 0.014372412 0.14691378 0.1118416 0.08509039 0.22027715 -0.07169531 0.3380634 -0.12504613 0.20793578 0.0064558433 0.2812171 0.22486436 0.1386185 0.06679861 -0.19972654 0.1105683 0.054720897 0.16270733 0.060277708 0.3328457 0.2499462 -0.11083956 0.044079512 -0.15231244
768 0.113645755 -0.21622545 0.11330308 0.07377725 -0.10751476 0.099828444 -0.04298171 0.15073004 0.024937818 0.11828588 0.1693976 0.0027530226 0.10858515 -0.15005279 -0.15546006 0.36388743 -0.08610127 0.09479522 -0.054799225 -0.079838894 0.27860984 -0.033104032 0.05943563 0.07011041 -0.09335563 -0.011675613 -0.055282675 -0.12423075 0.02029799 0.032130346 -0.008912867 -0.08811428 0.046720255 0.16953261 0.1287256 0.00814011 0.32778922 0.15080324 -0.16720118 0.28573847 -0.20272647 0.18940936 0.13718237 0.046425313 0.09750145 0.0055832383 0.17716134 -0.27277485 0.32134718 0.15222365 0.07109015 0.25519276 0.009550297 0.05042326 -0.18979603 0.2644166 0.15920173 0.14267983 0.118580036 -0.057414792 0.2656434 -0.00043553155 -0.039288606 -0.07247122
432 -0.08984215 -0.05089154 0.0081400545 0.03518285 -0.057845894 -0.08059787 -0.101219885 -0.008894993 -0.18589564 0.046878155 -0.022326896 -0.13024943 -0.036791418 -0.10513393 -0.061208233 0.12185112 -0.047202636 -0.009638018 -0.15285468 -0.16661936 0.21800636 0.017502442 -0.008701142 -0.04460556 -0.102664426 0.13926005 -0.09750966 0.04233393 0.07021404 -0.106328554 0.11876123 -0.23816319 0.014346572 0.1142919 -0.09459237 0.024544435 0.29837143 0.095579825 -0.15211295 0.20306125 -0.046946827 0.2964633 0.13892303 0.13446523 0.24225293 0.0531702 0.12926577 -0.17836846 0.3850614 -0.090176806 0.2459463 0.2698774 -0.12777404 -0.013866119 -0.25073674 0.24089786 0.19250184 -0.05234452 0.02405089 0.1124522 0.24688749 -0.025056178 0.15207987 -0.14689133
805 0.097191915 -0.039703548 0.032718413 -0.020718006 -0.0893599 -0.027415128 -0.06930311 -0.057460558 -0.15089402 0.10482384 -0.014641825 0.05511377 0.023773875 -0.123247445 -0.21182472 0.39682224 -0.09207267 0.032367755 0.0038574003 -0.0979115 0.23365594 0.024028102 0.17274468 0.0066997153 -0.16106819 0.061185624 0.052139923 0.0790709 0.07801435 0.0295029 0.03835004 -0.26244044 0.064684615 0.20007156 0.136723 -0.06689192 0.22820929 0.29022783 -0.1790682 0.3069728 -0.16150641 0.2379644 0.12376128 -0.014815281 0.07021671 -0.13577782 0.118782856 -0.27942964 0.2612157 0.100868955 0.05807878 0.20117806 -0.053145874 0.08431056 -0.21977757 0.22175722 0.07008883 0.1452145 0.16851722 0.023900975 0.2736044 0.031359736 0.005398371 -0.07320167
853 0.020970987 -0.042524494 0.07020922 0.13725965 -0.09948526 0.047102053 -0.15346812 0.09311204 -0.06588267 0.15762451 -0.08176467 -0.14120875 -0.03573858 -0.13062094 -0.1376125 0.23555996 -0.111278474 0.16689919 0.05048255 -0.0046240925 0.1994247 0.17838994 -0.025161548 -0.20695749 0.04675086 0.087237135 -0.067603834 0.0070254444 -0.08784315 -0.19592015 0.07393305 -0.1877021 0.060758967 -0.06341356 0.02200396 -0.08842255 0.22903758 0.19968858 -0.2950716 0.06951989 -0.07702825 0.051468313 0.13545245 -0.03718698 0.18962781 -0.06305827 0.2636935 -0.27432874 0.25099292 0.03814005 0.046506256 0.34294176 -0.08793492 0.13906303 -0.26601058 0.19114426 -0.01954746 -0.056825098 -0.01660796 0.19452477 0.20070745 -0.13622397 -0.15265991 -0.1581452
729 0.17856152 -0.03494509 0.04878458 -0.065205805 -0.082179345 0.19827032 -0.0670947 0.110631034 -0.19739921 0.1316856 0.03876839 -0.093007125 0.1594316 -0.17151713 -0.07115548 0.29213214 0.025697004 0.15100491 -0.103121646 -0.010614701 0.24851148 0.15519321 0.048572388 0.070909165 -0.15682916 -0.0059462637 0.07532345 0.072154395 0.03883717 -0.05133328 -0.05008986 -0.10968162 0.06939783 -0.036317598 0.0013709676 0.029793166 0.28238618 0.20599765 -0.29527602 0.32560226 -0.09440555 0.23171102 0.1511986 0.030411644 0.10175619 0.031903118 0.18505545 -0.28087264 0.30389366 0.12517183 -0.046766162 0.2082519 -0.1278454 0.011832543 -0.2386239 0.13051255 0.14139047 0.062341183 0.11722176 0.05831529 0.2763871 0.09585979 -0.123701565 -0.15188321
187 -0.06736417 -0.00016253548 -0.0122062415 0.18321228 -0.0848177 0.07891721 0.016524056 -0.001615241 -0.018521111 0.10115176 0.13993004 -0.10931005 -0.022443892 -0.023012135 -0.093394645 0.15750602 -0.079002194 0.027045311 -0.049429376 -0.2012617 0.2394867 0.044124026 -0.09227032 0.07076785 -0.102237605 -0.0018453357 -0.023140835 0.06374563 0.07146491 -0.1332424 -0.034773808 -0.1430158 0.21009481 0.088024795 -0.07260941 0.058072537 0.35369918 0.14779277 -0.22781397 0.30200297 -0.11409745 0.32575956 0.17819878 0.06251493 0.16485399 -0.067864366 0.25237855 -0.24863358 0.24029417 0.11394114 0.10828246 0.31642953 0.032942146 0.052909542 -0.20526448 0.120770834 0.2701513 0.037042536 0.12214566 0.025942553 0.1618531 -0.14092733 0.1932292 -0.06107761
171 0.027253736 -0.16135287 0.019021127 -0.076118045 -0.042544097 -0.0030027148 -0.047657244 0.056459416 -0.022809688 0.062689126 0.032901436 -0.0752725 -0.022365352 -0.08189271 -0.11526709 0.23546024 0.03706145 0.04092091 0.047732692 -0.036292758 0.18123563 0.11683086 0.09408721 -0.03399227 -0.06531484 -0.11080928 -0.124420546 0.17844634 0.20506674 -0.04946109 -0.08829855 -0.23064375 -0.036072593 0.0370371 0.104156695 0.05470329 0.25871992 0.08133607 -0.14567289 0.28343344 -0.081762694 0.28625157 0.08199821 0.060169045 0.18139337 -0.07059272 0.11275117 -0.23697647 0.41424766 0.1742643 0.15555617 0.3380278 -0.017829495 -0.010343579 -0.14337574 0.21540594 0.19851652 0.035601716 0.11309163 0.06826804 0.25370282 -0.070359536 0.067819476 -0.21781483
577 -0.3198873 -0.07771678 0.10788684 0.20037927 -0.18516026 -0.12283568 -0.1291647 0.08760576 0.06814443 0.0437408 -0.050649136 -0.12541506 0.037157394 -0.059950955 -0.110300876 0.19865964 -0.089642435 0.09808363 -0.0654843 -0.13819864 0.1259389 0.3098666 0.04500283 0.004488433 0.13136587 0.14015914 0.0018876599 0.01834368 -0.080728866 -0.28642488 -0.028111516 -0.24970907 -0.05544338 0.08825361 0.0035378856 0.0455065 0.18176378 0.24710624 -0.27599314 0.13567646 -0.008892613 0.098473094 0.043534476 -0.108721554 0.24491009 0.016504489 0.21163523 -0.2019015 0.20165588 -0.14224857 0.12382567 0.22234233 -0.0027234945 0.05298467 -0.24195701 0.2114575 0.10429162 0.09193405 0.033733997 0.22096983 0.3298764 0.07510251 0.033097766 -0.17662401
399 0.052278362 -0.014053993 0.08359634 0.078251176 -0.18198295 0.14897256 -0.19045971 0.056813944 -0.17122751 0.13390812 -0.07928572 -0.1190258 -0.025039474 -0.2324167 -0.07589068 0.22191544 -0.004410666 -0.064271435 0.066284016 0.055239454 0.13607562 -0.07136456 0.17960915 -0.07289032 -0.18136568 0.008989714 0.003215826 0.022529876 0.07674979 -0.007967643 0.06553039 -0.21080874 0.12465876 0.081115015 0.020263039 -0.07867226 0.19507217 0.17376386 -0.33582222 0.29063782 -0.1467896 0.002492709 0.10301603 -0.0065376125 0.14891425 -0.17197089 0.1700381 -0.19347829 0.29835543 0.123889334 0.017133318 0.26419583 0.047961365 0.0093077095 -0.20717828 0.26959044 0.03374961 0.20845895 0.16144569 0.09767536 0.33988315 0.04878013 0.012060272 -0.04432488
797 0.060517132 -0.18275478 0.15052591 0.009693203 -0.13285455 0.11818929 -0.22517896 0.08225693 -0.020825814 0.11271896 0.13227168 0.033315524 0.05528386 -0.19515969 -0.29788977 0.27188542 -0.14189559 0.06900521 0.01744492 -0.13828196 0.26806542 -0.0059117223 0.024620682 0.11542017 -0.1459182 -0.07201548 -0.006452441 -0.00939414 0.046044055 -0.06740783 0.076323174 -0.17670783 -0.0043836096 0.043061696 -0.043080892 -0.010423319 0.26869845 0.25565162 -0.2608111 0.3410626 -0.03823096 0.16320927 0.06724193 0.111600876 0.075814106 -0.059693325 0.17433259 -0.19749607 0.27128905 0.17616537 0.0531686 0.1014831 0.069028825 -0.02191628 -0.27626652 0.15821952 0.12371883 0.1065505 0.15493675 0.08154604 0.2890253 -0.01827082 0.03412194 -0.06891697
516 -0.106417544 0.019205345 0.12878397 0.30615535 -0.060367823 -0.03540693 -0.2711221 0.11056581 -0.099296354 -0.061800975 -0.08532821 -0.11955906 -0.02600661 -0.046355456 -0.15372401 0.26176015 -0.11121317 0.032354496 -0.01686802 0.001887006 0.011465577 0.27868414 0.13150248 -0.06872857 0.026280407 0.050849065 -0.08713791 0.06294366 -0.056739736 -0.26387107 -0.0752273 -0.24645613 0.08591762 0.1320654 0.0037616738 0.048111558 0.11322131 0.26919147 -0.07200505 0.32961315 0.1291583 0.14954555 0.057750814 0.019859688 0.13528492 0.07356496 0.26046345 -0.2108962 0.2653369 -0.0780109 0.18782811 0.19536656 -0.017544439 0.15491615 -0.16336477 0.25628978 0.18617293 0.23001286 0.10852108 0.21173514 0.18823484 -0.042801447 0.16071486 -0.11468236
514 -0.25399682 -0.061270956 0.14490746 0.19761883 -0.18232521 0.027989805 -0.16453102 0.12466368 0.011175813 0.16250047 -0.04791199 -0.20016928 -0.077840514 -0.06400264 0.008938657 0.11532027 -0.028277056 0.08339659 0.09281145 -0.047856424 0.10184346 0.21134225 0.13303873 -0.04449495 0.117731236 0.10243185 -0.1040468 0.025378747 -0.11435723 -0.20098817 0.08385469 -0.30503318 0.017104143 0.04193234 0.08659762 0.0018889026 0.118376866 0.16491953 -0.18026064 0.21987703 -0.019112073 0.13124229 0.0698621 0.07950696 0.19468631 -0.02401581 0.3274922 -0.22290607 0.27403525 0.0020922893 0.25104588 0.28494668 -0.021563873 0.0037854663 -0.24701835 0.1326344 0.10877622 0.06914273 -0.04115688 0.19484302 0.21114476 -0.06472317 0.15413676 -0.090599306
458 -0.09268212 0.04748096 0.05059763 0.09018253 -0.111033715 0.08928691 -0.0007113082 0.09231377 -0.032845154 0.04103938 0.05467635 -0.09937785 -0.048505604 -0.124439284 -0.05991144 0.10976408 -0.022531033 -0.04232093 -0.057657808 -0.09817836 0.16084047 0.13991718 -0.01898986 -0.099964984 -0.16938664 0.033973884 0.043751664 -0.07029281 0.08738565 -0.209015 -0.054276943 -0.17395505 -0.15226312 0.1757766 -0.07080979 0.056088377 0.18692754 0.13957919 -0.16735741 0.21357542 0.039813787 0.36160287 0.08359895 0.06709263 0.15662956 -0.06651931 0.26976338 -0.22422175 0.350896 0.10820185 0.0860559 0.33280855 0.06133319 -0.083855845 -0.3407199 0.105918996 0.13130413 0.057278916 0.12573789 0.055060312 0.18467417 -0.03516955 0.16735741 -0.27194837
779 0.050528888 -0.11205029 0.043309458 -0.044324756 -0.20169827 0.17552312 -0.11986521 0.058301866 -0.1052807 0.11444531 -0.026390329 -0.022374375 -0.029586 -0.081904426 -0.18978624 0.32221222 0.04020565 0.041463926 0.117784016 -4.8487822e-05 0.31378976 0.0328401 0.04045887 -0.02208213 -0.24046052 0.064289264 0.10303944 -0.054043934 0.022277504 -0.11199278 0.08780651 -0.111679815 -0.006053917 0.10059689 0.09322874 -0.039030295 0.39181852 0.14476897 -0.16714655 0.3645333 -0.13507196 0.22795504 0.076646276 0.019782024 0.087301545 -0.12286454 0.16241929 -0.19676077 0.3066668 0.14563364 0.06750177 0.1431197 0.042535502 0.10993743 -0.16259538 0.12642233 0.15434055 0.042499382 0.11240575 0.12858295 0.22705552 -0.009925779 -0.00094736234 -0.17514439
719 0.13127922 -0.19045822 -0.04116032 0.070999786 -0.27915826 0.11401552 -0.10386885 0.024840659 -0.08852863 0.034761332 0.09683354 -0.0056647654 0.1250375 -0.05632771 -0.09835753 0.28430396 -0.00960694 -0.008610484 -0.017368957 -0.10215535 0.32695583 -0.027176596 -0.025737338 -0.06812892 -0.17360191 0.112545356 0.11840181 0.0010785916 -0.041182514 -0.116676874 0.12720324 -0.015717026 -0.041369304 0.055985868 0.09588316 0.052122604 0.34377423 0.20691276 -0.26277304 0.33580175 -0.10221334 0.17329249 0.08363449 -0.0049255188 0.067826174 -0.036322303 0.13096032 -0.3099172 0.3109043 0.1887911 -0.03519108 0.323439 -0.0073369425 0.0043333084 -0.18747701 0.16668212 0.16250974 0.116290204 0.12826927 0.10263114 0.13330162 -0.08983925 -0.06929551 -0.093461156
751 0.034691777 -0.0634357 0.09043971 -0.13364308 -0.055460636 0.097445555 -0.13410714 0.011859829 -0.08225074 0.054237586 0.057005975 -0.043048862 0.042593073 -0.11881659 -0.16870111 0.3559847 -0.073863395 0.001966057 0.112263784 -0.06249691 0.3470878 0.006411513 0.02405766 -0.10337579 -0.11709132 -0.07758665 0.13017827 -0.08313521 0.045869876 0.061265826 0.12674877 -0.0046706847 -0.0025134194 0.13375145 0.021825202 -0.014220056 0.39497608 0.22463098 -0.25757536 0.30180708 -0.120796844 0.1817332 0.10101591 0.113119 0.07836297 -0.029277604 0.16948359 -0.19872814 0.34092474 0.115939565 0.04054547 0.17379855 -0.050535686 0.11184316 -0.24719146 0.14044605 0.11860979 0.10962058 0.0764295 0.044029873 0.34236968 -0.04326766 0.046421666 -0.07791468
369 0.11542076 -0.1088217 0.2156341 0.04844134 -0.13335037 -0.0096806595 -0.25033322 0.20427804 -0.16831316 0.12526351 0.08430864 -0.08406929 0.091193385 -0.16203232 -0.11328768 0.23441285 0.08381442 0.022460429 0.015614857 -0.08976686 0.034500256 0.07959531 0.14725128 0.0016645495 -0.06896924 -0.0075880666 0.10880914 -0.027954275 0.0442319 -0.110933654 0.09233845 -0.04319683 0.049885053 0.08483445 0.069963835 -0.051217925 0.24946153 0.23659733 -0.31609553 0.18722412 -0.14937146 0.113128625 0.06232165 -0.05932546 0.1467415 -0.049081203 0.19915389 -0.31260645 0.3224534 0.1167076 0.04970301 0.28125933 -0.020263046 0.12889408 -0.27225226 0.19678919 0.052972607 0.06324704 0.08989442 0.008948392 0.23755819 0.077218585 -0.03473631 0.019263275
673 -0.0044375383 -0.07173052 0.18463229 0.12070471 -0.11607755 0.07525787 -0.28057697 0.07110696 -0.124616876 0.19435865 -0.05155854 -0.1673444 -0.0065479297 -0.053647462 -0.105883434 0.21005267 -0.06831556 -0.0040134094 -0.0043472485 0.05676498 0.23112543 0.21033503 0.10311226 -0.08838219 -0.0033656445 0.025137642 -0.06435064 -0.031640895 0.0971273 -0.1312364 -0.02613039 -0.16532694 0.0148580475 -0.052968614 -0.005751332 0.07713752 0.26678735 0.25144383 -0.18081935 0.20510137 -0.08719927 0.097147234 0.020117443 -0.034612246 0.18928331 0.04112477 0.22332083 -0.20454736 0.18018118 0.07695154 -0.05030812 0.2835551 -0.14480779 0.14750305 -0.19067706 0.3272437 0.07540441 0.019068368 0.02725875 0.119481534 0.25011888 -0.10842531 -0.025627505 -0.040077325
747 0.15301348 -0.22360222 0.10457144 -0.0073489593 -0.21055391 -0.07247736 -0.078815676 0.15935461 -0.060156927 0.042511012 0.06632148 0.018442053 0.08718376 -0.14071262 -0.31721792 0.2893574 -0.04207822 0.024732005 0.0052496903 -0.07541341 0.31230906 0.16424523 0.06202891 0.08257363 -0.23251124 0.045468774 0.0807052 -0.038140412 0.0037675663 -0.1402323 0.05193335 -0.03477784 0.0041466085 0.085407205 0.12143504 0.05627498 0.28443903 0.08784841 -0.22376914 0.33137706 -0.10136976 0.23123156 0.20256875 0.058213707 0.09228069 0.012411136 0.1921864 -0.19071615 0.17425027 0.12848037 0.028962148 0.16762175 -0.04599316 0.090583324 -0.30139822 0.19676186 0.11498924 0.008420913 0.17374907 0.03986307 0.37733987 0.043795798 0.072005294 -0.007941505
472 -0.113050595 0.0020504878 0.046014868 0.21275401 -0.039647214 0.010499999 -0.00682715 -0.022050135 -0.01164455 0.025027994 -0.065111466 -0.045373566 0.0029727363 -0.04427907 -0.06471869 0.19852959 0.028430983 0.1036865 -0.009950138 -0.09839179 0.14043073 0.17194483 0.056559023 -0.016196577 -0.09689016 0.03582186 0.03386519 0.09196902 -0.013572029 -0.16647956 -0.006237318 -0.12325206 -0.085763596 0.18430433 -0.00335412 0.011739765 0.19363508 0.08325699 -0.1953866 0.19754502 -0.02614252 0.2865124 0.115564816 0.031960532 0.21247163 -0.02361453 0.19061932 -0.30089507 0.43344826 0.12286157 0.16667277 0.31656724 0.07845477 0.045875173 -0.2793315 0.13923697 0.18193485 0.015512862 -0.03415687 0.1443163 0.17549494 -0.087132275 0.14878666 -0.17699811
631 0.004211517 -0.07866813 0.15807958 0.11664283 -0.06297764 0.046635948 -0.15394965 0.09015278 -0.05131756 0.17389697 -0.14008078 -0.15793163 0.039065357 -0.116925895 -0.07813223 0.25850955 -0.14347222 0.036226146 0.18433525 -0.05254508 0.24582532 0.23064868 0.11017156 -0.2636955 -0.024612764 -0.06666151 -0.030144222 0.14505619 -0.007692646 -0.17801543 0.031268854 -0.18779191 -0.00164475 0.040613133 -0.023156112 0.055779453 0.17693181 0.3506413 -0.31201047 0.23853554 0.061082136 0.08700544 0.03327332 0.020645496 0.20886697 -0.032028977 0.29742008 -0.16960594 0.19846116 0.08027001 0.07031214 0.32031906 -0.080186546 0.034554686 -0.14751104 0.18609436 0.013399835 0.18410133 -0.007378819 0.09051361 0.09102737 -0.054687507 0.00702121 0.013471688
677 -0.109888345 -0.008120094 0.09442386 0.14382792 -0.23225607 0.1588183 -0.3194474 0.1548895 -0.078781195 0.14784732 -0.033958845 -0.14106989 0.016952086 -0.07043152 -0.09930662 0.13497528 -0.07879879 0.083547205 0.13617837 0.09987461 0.238666 0.12964694 0.1325436 -0.16088933 0.029512556 -0.038956765 -0.095204934 0.042896163 -0.1544422 -0.26383525 0.13847788 -0.12992245 0.020155905 0.023776406 -0.061850954 -0.03408963 0.19961415 0.26180747 -0.18836999 0.23595631 -0.03842926 0.14212294 -0.030258477 -0.037455957 0.16649903 -0.14548403 0.2866825 -0.19600858 0.20787655 -0.033676628 0.12152194 0.29141673 -0.028952688 0.09100308 -0.1298192 0.14649515 0.09343486 -5.935986e-05 0.027202087 0.21059658 0.2683428 0.053712994 0.027360119 -0.027522758
551 0.024997622 -0.13549468 0.20269904 0.14773056 -0.16825986 0.030858904 -0.03961543 0.08781045 -0.19405626 0.10386127 0.032133944 -0.12157237 0.10778777 -0.16256459 -0.09939843 0.23654181 0.02817653 0.027337154 0.08797771 0.028800044 0.10186119 0.04164177 0.08759591 -0.074779876 0.009369968 0.020352183 0.015053024 0.116596326 0.041083068 -0.12524964 0.11350207 -0.22445403 -0.042979624 0.03466701 0.101560675 -0.05572806 0.29147467 0.21567284 -0.2563542 0.26860103 -0.0662915 0.08375106 0.112419136 -0.1081971 0.2008824 -0.16937938 0.3410767 -0.2093782 0.2629229 0.07627544 0.09182371 0.13098685 -0.04199844 0.10784659 -0.21838911 0.23526023 0.041055866 -0.051176272 0.041004106 0.055747833 0.27198306 -0.00844928 -0.029250516 0.0267028
838 -0.22201952 -0.058597073 0.060125012 0.11686809 -0.19738038 0.088630125 -0.13437203 0.054407377 -0.043405965 0.07811422 -0.116986305 -0.06917181 -0.028085606 -0.04289237 0.02009896 0.18955755 0.073962204 -0.15436631 -0.12260075 0.017499777 0.004301027 0.105175056 0.08129487 -0.11083368 -0.021372592 0.06526072 -0.1168399 0.023299444 0.15876862 -0.3146029 -0.027230402 -0.16933984 -0.103988186 0.20770194 -0.064402014 0.21495223 0.16698572 0.14766291 -0.18943672 0.104791336 0.035993725 0.19403476 0.07690919 0.15883186 0.21969636 0.023510383 0.20583606 -0.19123796 0.38024223 -0.04128172 0.13570933 0.3247156 -0.114656955 0.025327766 -0.35236493 0.14978851 0.2628834 -0.07838542 -0.03482883 0.059744217 0.29686058 -0.023495972 0.067979746 -0.1351468
450 -0.13750984 -0.028430428 -0.090100765 0.16732065 -0.006900347 -0.0560088 0.018484447 0.027727826 -0.036045194 0.030247204 -0.051183168 -0.04245761 0.005666431 -0.07747356 0.009933119 0.2081641 -0.07611867 0.04266354 0.025689436 -0.119926594 0.2630655 0.1813871 -0.09099843 -0.13851519 -0.2472067 -0.012840706 -0.008421119 0.010667837 0.05618134 -0.18339019 -0.12792286 -0.27736282 -0.058981825 0.14969635 -0.06250963 0.092269845 0.27363467 0.12478457 -0.2103824 0.17066106 -0.08164685 0.18579821 0.041506443 0.00060794957 0.21183762 0.022576034 0.09830619 -0.22601323 0.35642472 0.1264779 0.10819405 0.3133209 0.03251546 -0.056393094 -0.31090665 0.2402382 0.20146537 0.0504165 0.09733408 0.06728716 0.22109446 -0.08137015 0.12447653 -0.16022949
492 -0.16419843 -0.012620085 0.24090773 0.29213402 -0.062149704 -0.079623275 -0.13602673 0.20245586 0.098438606 0.032892168 -0.026333647 -0.16114734 0.071942784 0.05576076 -0.044842478 0.13174836 0.01782704 -0.025521081 -0.00034193322 -0.07056473 0.12119026 0.24337137 0.015892575 -0.08679556 0.010203226 0.050642192 -0.00036780728 0.106113814 -0.0037785757 -0.28762636 -0.01860318 -0.22381978 0.060390096 0.080905765 0.021382768 0.031160263 0.12100524 0.13703573 -0.30485517 0.28346193 0.16604623 0.061135683 0.10473299 0.021216327 0.26417693 0.08363219 0.265205 -0.09889958 0.35373127 0.055187356 0.28626013 0.2563008 -0.07391268 -0.012140001 -0.27760985 0.22835837 0.03100308 0.10220894 0.0182639 0.25511527 0.19248523 -0.12087346 -0.02733541 -0.0533597
842 -0.32170957 -0.08994014 0.047259632 0.15066686 -0.10050824 -0.063942276 -0.012066101 0.06749815 -2.0943547e-05 0.012785029 -0.06582849 -0.1330267 0.061567355 -0.11289103 0.059407327 0.09454355 -0.07075352 0.03834404 0.06972966 0.0035698249 0.1549683 0.0657866 0.081261896 -0.1265026 0.03350812 0.012464667 -0.000121159705 -0.034290653 0.14800698 -0.24048455 -0.09309421 -0.27242976 -0.077680945 0.06957682 -0.06394926 0.14196637 0.23376973 0.20155685 -0.20544359 0.17478606 -0.0005147926 0.2629952 0.08322606 0.09034654 0.37783286 0.019812599 0.28947 -0.17538673 0.26825047 -0.023631183 0.08876823 0.24812494 -0.054421626 -0.02334531 -0.34006682 0.00937206 0.1572871 0.01123387 0.071181394 0.15973233 0.296126 0.018502578 0.0995801 -0.18210131
809 0.089748286 -0.11024009 -0.00014039227 0.028244246 -0.11414033 0.02496135 -0.026003528 0.06544368 -0.05409876 0.055886626 0.12091724 -0.087428786 -0.04731062 -0.15201351 -0.17522195 0.32436055 0.08299641 -0.05103455 -0.018923415 -0.06990871 0.20744774 -0.032306634 0.14994027 -0.0015766585 -0.086778484 0.025294865 0.13409258 -0.0027161608 0.035841998 0.025256544 0.12604381 -0.08782155 0.118576415 0.065280154 0.018206486 -0.06193636 0.26373813 0.21802801 -0.33100054 0.4446724 -0.06553021 0.23750862 0.048891917 -0.087925926 0.25328335 -0.07335761 0.14066823 -0.20706633 0.16919413 0.086752325 -0.0147220185 0.31264082 0.0015602254 0.08115787 -0.17808321 0.17893755 0.15826285 0.06922567 0.119949505 0.005983557 0.37937543 0.015543416 -0.115485996 -0.119848505
442 -0.11451031 -0.072895244 -0.0106965825 0.16753964 -0.07426096 -0.058409594 -0.05233095 0.09465102 -0.07157213 -0.029387375 -0.00013806617 -0.090096004 0.04242764 -0.14377378 -0.048437368 0.21729739 0.027802585 -0.013257527 -0.022318227 -0.12656036 0.15716363 0.107023984 0.09544051 -0.11391763 -0.10184096 -0.015150072 -0.08566672 0.040355075 0.044155046 -0.115792364 -0.01700737 -0.24680652 -0.017890789 0.03621791 0.031687543 0.016686022 0.21075828 0.13216136 -0.088864274 0.2101201 0.01603078 0.294404 0.13514093 0.008849186 0.21829149 -0.010179774 0.1588907 -0.30092955 0.411875 0.10642959 0.13595568 0.25355408 -0.08822197 -0.05673472 -0.20819303 0.2147344 0.16573778 -0.00048543434 0.12331747 0.013391413 0.19070296 0.09996177 0.26882842 -0.23254094
801 0.07877198 -0.115574874 0.04257535 -0.053362645 -0.20817374 0.108397156 -0.14295207 0.1519533 -0.046952408 0.057372984 -0.056860834 0.022492673 0.03130057 -0.07360858 -0.18660946 0.31745496 -0.050292395 -0.009681708 -0.075920425 0.0014386884 0.25540376 0.037068143 0.025671553 0.054059487 -0.060515095 -0.018695954 -0.0063484693 0.028497776 0.09008572 0.0228183 -0.022164159 -0.027863491 0.04397109 0.06957266 0.0837826 -0.03828888 0.2744051 0.24405831 -0.22569504 0.38585448 -0.14534582 0.21369013 0.1919586 0.019567698 -0.018392025 -0.11539752 0.12042577 -0.29192334 0.33052438 0.2096119 0.038843393 0.23422742 -0.04987541 -0.115766115 -0.23321646 0.2030171 0.17870189 0.03560649 0.15724303 0.057781775 0.33184204 0.004591873 0.026278578 0.07130595
183 -0.023201395 -0.081012994 -0.04978642 0.1806628 0.017004931 0.14425038 -0.047330707 0.08965368 -0.08876085 0.10904777 -0.039156076 -0.0034614957 0.06495193 -0.1253682 -0.08768308 0.21226746 0.016556267 -0.019529017 -0.019824574 -0.14478932 0.056914505 -0.07107855 0.05795367 -0.12224749 -0.09136063 -0.029218556 -0.05748883 0.06528698 -0.09190519 -0.15210639 0.13355331 -0.17141725 -0.042537514 0.11093539 -0.0053645275 0.09865143 0.2725667 0.19375844 -0.10882556 0.20137307 -0.011171495 0.2931181 0.06291946 0.042133585 0.16462544 0.024202846 0.18991812 -0.23184486 0.5217844 0.15779102 0.16097772 0.22893327 -0.045224573 -0.17183073 -0.16553277 0.1967848 0.17714058 -0.09777807 0.12706167 0.15267979 0.2841181 -0.06311585 0.18913196 -0.17856175
468 -0.17505094 -0.10153005 0.076472595 0.08851569 -0.03519499 -0.10300505 -0.13239612 -0.0054777595 0.06645248 -0.0049671438 -0.12833114 -0.18643141 -0.014957592 -0.091963515 0.011837163 0.15055858 0.10525254 -0.030397695 -0.10059163 -0.10916319 0.22069618 0.13999324 0.0045350897 -0.12028816 -0.03675707 0.06859129 -0.059947442 0.06850967 0.06807548 -0.28126392 0.047483366 -0.25746867 -0.092214905 0.12855022 -0.04212933 0.16751556 0.10709119 0.13729131 -0.11221548 0.22802372 0.115898184 0.18333633 0.09301222 0.005150299 0.2787032 -0.04657847 0.25692376 -0.19880933 0.41879848 0.07438387 0.18051212 0.26630026 -0.16849355 0.04050084 -0.26069707 0.22391222 0.27095705 0.08625274 0.05292501 -0.023156663 0.19584559 -0.016004447 0.09902766 -0.18886822
372 0.141753 0.08603202 0.18525906 0.04211528 -0.091630235 0.17713723 -0.15657409 0.15233892 -0.0827292 0.075214274 0.059495118 -0.007736119 0.05378947 -0.06445136 -0.2111125 0.2641605 0.025574394 0.09630485 -0.08404372 0.009860002 0.24785729 0.078817524 0.04173099 -0.037820943 -0.10009003 0.066154875 0.04245494 0.15204412 0.07043852 -0.029985374 0.02903639 -0.17951319 0.05487503 0.06798371 0.18561961 -0.00988929 0.2846522 0.25332615 -0.27430704 0.23846324 -0.14383847 0.11957122 0.0771823 -0.02244168 0.20833664 -0.10193406 0.14555204 -0.15065117 0.20154406 0.13579018 -0.020783287 0.1607034 0.020692904 0.17930412 -0.24649967 0.30877396 0.002988329 0.22707812 0.12184213 0.16401763 0.28468096 0.043406192 0.03919392 -0.12294896
732 0.07928688 -0.012110094 -0.020664856 -0.028794594 -0.23000619 0.20492356 -0.11686928 0.1513706 -0.07195604 0.21580467 0.028948834 0.053129084 0.09628478 -0.13765311 -0.1655782 0.28738716 0.013984038 -0.0053963275 0.18801208 -0.13893121 0.1824614 0.08432404 0.14169618 -0.074438654 -0.05750578 -0.16594304 0.0047342437 -0.014385327 0.043911353 -0.04802791 -0.036146298 -0.043523755 -0.015955556 0.06502046 0.13450469 -0.06109699 0.31585222 0.07156813 -0.21819618 0.41418326 -0.15207987 0.31185055 0.065866165 0.040239554 0.11998197 -0.085662976 0.1399634 -0.13393854 0.18176882 0.10777599 0.007293817 0.26226994 -0.02122773 0.12694797 -0.24370806 0.20233758 0.19250602 -0.02033823 0.09475998 0.046751525 0.42172486 0.088653915 0.049784184 0.010672398
605 -0.052723505 -0.12716548 0.15350148 0.14911097 -0.17726734 0.14592212 -0.3035362 0.060287103 -0.17009363 0.09164561 -0.080814034 -0.21425346 0.17012583 -0.068990014 -0.0024658265 0.19332589 -0.0057989005 -0.005423697 0.08133544 -0.055878792 0.2105523 0.16328003 -0.012747834 -0.17954496 0.02145962 0.11064825 0.0020011123 0.098217025 -0.016050352 -0.17524815 0.008239489 -0.32232004 0.032054543 -0.02964209 0.001979171 0.033131517 0.158214 0.3049112 -0.19292983 0.22099659 -0.07350039 0.073712416 0.08539125 -0.051939365 0.19699931 -0.07487326 0.226845 -0.24443269 0.16751805 0.041679457 0.037908256 0.2019939 -0.12168831 0.1396259 -0.12404715 0.23927312 0.13581757 0.07120854 0.13256203 0.18963079 0.14937237 -0.05460433 -0.054819327 -0.098339096
179 -0.0949229 -0.03715811 0.03207722 0.081093326 -0.04816097 -0.04179786 -0.08384373 0.07242025 -0.04080547 -0.061053455 0.06485994 -0.039926037 0.028376242 -0.06351153 -0.031869505 0.26050574 -0.09492932 -0.030080743 -0.026900543 -0.04258643 0.13215545 0.036972895 0.0040371786 -0.02138942 -0.1271166 -0.033848517 0.02239132 0.070555985 0.11471665 -0.10923736 0.061111078 -0.16896953 -0.0021806024 -0.032169282 0.0032560814 0.050458502 0.22318278 0.24797101 -0.093224995 0.22230716 -0.13425672 0.398188 0.26181915 0.02658096 0.17132474 -0.0022885296 0.23494872 -0.25652254 0.30831322 0.10911946 0.13701656 0.2784599 -0.07067168 0.012075977 -0.20653991 0.12303592 0.17740002 0.04237535 0.1295034 0.0034048038 0.3439606 -0.14217977 0.07111797 -0.09758245
443 -0.1806322 -0.08594918 0.11640527 0.13564038 -0.08429088 0.062088963 0.07196935 0.044058163 -0.05674973 0.14840266 0.0139953 -0.036115505 0.005490219 -0.1322085 -0.07020528 0.21972966 0.04906775 -0.14710464 -0.061144907 -0.14369397 0.13152675 0.047212917 -0.058555212 -0.10401291 -0.10706218 -0.024596212 -0.061540786 0.025047028 0.13822575 -0.13785616 -0.010926527 -0.1465088 -0.1632185 -0.07641934 -0.08884051 0.037052155 0.3118813 0.018551778 -0.20265128 0.15132429 -0.044748183 0.29319906 0.12065409 -0.06263223 0.2406153 0.069484845 0.18905696 -0.32951057 0.35340384 0.19910169 0.12180974 0.28011724 -0.116685875 -0.06737883 -0.13457422 0.18958269 0.26386446 0.0027649654 0.09402223 0.07936498 0.28692773 0.014927843 0.12621203 -0.25167254
561 -0.25646928 -0.07600745 0.11543841 0.25399995 -0.055630445 -0.002498406 -0.18383445 0.10253956 -0.11778254 0.08468337 -0.06331435 -0.275271 0.12025941 -0.03510358 0.04845799 0.133724 0.016118107 0.053181104 -0.04200769 -0.04594609 0.18003845 0.21532759 0.039492086 -0.10781549 0.05760757 0.06467372 -0.026371162 -0.039994888 -0.12280417 -0.19158651 -0.04975701 -0.21109098 0.06938289 0.104760386 -0.0071692825 -0.018697707 0.08801449 0.3007473 -0.17611258 0.2332381 0.10634058 0.12870097 0.023807174 0.10094551 0.2997006 0.049999874 0.26632217 -0.11949066 0.29307652 0.022161797 0.14758869 0.31719482 0.101633176 -0.0015010899 -0.18130061 0.21869977 0.13271143 0.16958605 0.015955986 0.23748742 0.17949143 0.061081897 0.101099014 -0.14817034
473 -0.22219265 -0.11727847 0.06167249 0.15090224 -0.036775954 0.040553465 -0.036008652 0.11930003 0.055519465 0.053006783 -0.021524696 -0.03650963 0.054895986 -0.050573543 -0.046439223 0.278991 0.10600021 0.014538737 -0.059599515 -0.23122601 0.07144499 0.060058467 0.07057875 -0.107875295 -0.17569917 0.03672621 -0.073912516 0.020699132 0.08172769 -0.07316915 0.021793662 -0.22671051 -0.0320226 -0.0027484552 -0.13702501 0.12007062 0.2778365 0.11100171 -0.17336147 0.24562271 -0.09190351 0.32794032 0.043739095 0.0114355795 0.17650273 0.024832057 0.261709 -0.21124749 0.29815453 0.14735541 0.020538753 0.24341959 -0.06086584 -0.10263505 -0.23521622 0.246755 0.05158963 -0.028632373 0.1368486 0.02529647 0.28131518 -0.027198406 0.23170574 -0.25126368
813 0.0685887 -0.10903342 0.10293613 0.06514848 -0.1901938 0.1575311 -0.05605315 0.119096905 0.047735848 0.053243212 0.104632966 -0.0101741785 0.006778918 -0.15478663 -0.21257831 0.2933567 0.001750373 0.05740978 0.052344304 -0.015505138 0.30364686 -0.091543995 0.045708444 0.09905121 -0.08890095 -0.05837781 0.01266366 -0.09864266 0.018730283 0.016605906 0.014725716 -0.08900147 0.10326472 0.08371562 0.23557928 -0.018387033 0.23741496 0.27468324 -0.19458286 0.24983552 -0.0696405 0.17183532 0.20706227 0.019616704 0.11940034 -0.114886165 0.14869761 -0.32442784 0.3333643 0.122983634 0.012863401 0.14330555 -0.072226934 0.09190771 -0.22837855 0.18461429 0.18239465 0.08362026 0.22382365 0.04685961 0.338937 0.08258385 0.051487558 -0.23232473
191 -0.048962943 -0.112047695 0.080337085 0.10665586 -0.058498133 -0.007446886 -0.07584676 0.059308257 0.04363809 -0.10293268 -0.02370724 -0.04875038 -0.04683829 -0.007709556 -0.09193563 0.18260096 -0.006837859 -0.0416297 -0.036590688 -0.14809181 0.29470608 0.041056514 -0.026066065 -0.029111272 -0.0258004 0.016363379 -0.025676368 0.1133218 0.13303956 -0.09069305 0.13901542 -0.22190358 0.039913677 0.08476965 -0.025802374 0.11144523 0.25094685 0.13845797 -0.13732465 0.1815005 -0.08210414 0.40631682 0.1485261 0.03140773 0.051189966 -0.0060570696 0.21383622 -0.17038962 0.3666948 0.11129896 0.09042105 0.33895248 -0.12280082 -0.030990634 -0.16022752 0.24960196 0.20911072 -0.03820701 0.13143608 0.15863904 0.2673131 -0.10013999 0.19026108 -0.116364785
