883 64
744 0.058022074 0.11039633 -0.01553345 0.2338571 -0.22861858 -0.55098027 0.72041404 -0.2042406 -0.3349194 0.0724551 0.6195331 0.010029413 -0.9048855 -0.0023953663 -0.54937893 0.9640919 -0.37871113 0.73806095 -0.90751487 0.43545347 0.48118752 0.1807726 0.41289195 -0.80735874 -0.13154337 0.39432624 0.40443674 1.1971993 0.18435042 0.31136343 -0.30848858 -0.82391626 0.8728443 -0.03243591 0.20818686 -0.6635624 0.18127051 0.456024 0.16663064 -0.4014121 -0.09096784 -0.56662124 -1.2860888 -0.4578635 0.35431212 0.64806765 -0.8117222 0.21183392 0.14419651 1.1052692 0.08037926 1.075366 -0.08695393 0.29630864 -0.16204712 -0.048521124 0.84213203 0.121203065 0.8074033 0.72873336 -0.56123555 0.4194673 -0.22423482 -0.3597649
739 -0.6324939 -0.18589568 0.5762815 0.54941237 0.19852972 -0.27652296 0.2918897 0.5785543 0.15592594 0.18749249 0.7991725 -0.34091038 0.027805436 0.12818603 0.2487444 -0.07617136 -0.18599397 0.1832976 -0.19161335 0.8066281 0.17775472 0.32736194 0.41541854 -0.663687 0.034585893 -0.4354086 0.44538534 0.49571562 -0.038959164 -0.203686 0.17483176 -0.6081004 -0.11438259 -0.51835823 -0.10877769 -0.94569886 -0.09570652 0.14721884 0.86991143 -0.22488937 -0.052447006 -0.18721654 -1.2168839 0.34866002 0.44250345 0.5569012 -1.3512058 -0.17997237 0.02743556 1.0968099 0.08807572 0.24739736 -0.5699511 0.048735466 0.44214854 0.3490979 1.0617318 -0.82040304 0.90072864 0.7912272 -0.30382273 -0.60795045 -0.028902065 -0.09035151
241 -0.49115974 -0.29843324 0.40576032 0.5531184 0.24230634 -0.06040776 0.08935562 0.5480732 0.0680951 0.11745533 0.8283154 -0.3049309 -0.053067654 0.18039753 0.20217307 -0.27542448 -0.039804313 0.26901796 -0.17666991 0.7823414 -0.040278748 0.2742774 0.35679442 -0.72445935 0.0368287 -0.42076692 0.3443253 0.3858228 0.068386346 -0.31086996 0.21977164 -0.62356335 0.17833237 -0.6788919 -0.09732784 -1.0565723 -0.18042482 -0.031626232 0.95171875 -0.26396334 0.0065139583 -0.041383337 -0.9965269 0.3586561 0.3632397 0.61379725 -1.3982341 -0.30634522 0.21042168 1.1580172 0.08184171 0.33174312 -0.6128378 -0.0767069 0.2538605 0.3430126 0.99532217 -0.7520912 1.1424307 0.89109653 -0.06709056 -0.56926197 -0.13623847 -0.21739699
13 -0.5550299 -0.7513078 0.06508791 0.009294965 -0.07171516 0.1336444 0.27125224 0.64335895 -0.22907205 -0.07811967 0.10119415 -0.46446604 -0.09829175 -0.0010475906 0.077628195 -0.3696412 -0.10756168 0.55956584 -0.6361443 0.8138506 0.66576916 0.061359838 0.7685614 -0.34378397 0.8152173 0.42807326 0.073187426 0.45793593 0.7413029 -0.11502863 0.30431727 -0.88675135 0.5992417 -0.78661466 -0.3881194 -1.0136997 -0.16124573 -0.16264091 0.17003024 -0.14826703 0.16044857 -1.1687793 -0.80596787 -0.15347755 0.38154334 0.5809252 -0.6842912 -0.20104727 -0.6427041 1.0339913 -0.16211142 -0.32844654 0.56387925 0.25696766 0.28655186 -0.17622212 0.20991603 0.28936872 0.28009436 0.547448 -0.14646868 0.02223787 0.04729144 -0.1571422
398 -0.48827875 -0.49946922 0.65580505 0.41745305 0.08409948 -0.47930858 0.14257097 0.5840953 -0.45018628 -0.07753374 0.44700775 -0.23413467 -0.8315661 0.34872925 -0.55712503 0.116272174 -0.0804398 0.7467653 -0.85997593 0.36059552 0.37323543 0.23069848 0.649626 -0.7434952 0.4394727 -0.038232196 0.27951685 0.4160203 0.2333896 -0.3833589 0.07778073 -0.72362787 1.1126914 -0.98719573 0.062011205 -0.75269365 0.13170044 -0.61573803 0.559616 -0.18276112 -0.70491683 -0.22418475 -0.8512219 -0.17715216 0.56924736 0.17218156 -0.57923746 -0.27137318 -0.11507537 1.1583601 -0.24737187 -0.15094303 -0.46333915 0.16584748 0.3108039 0.43968397 0.370203 -0.82614434 0.69161063 1.1212689 -0.060693994 -0.09476359 -0.49623796 -0.016600816
220 -0.3243115 -0.29630542 0.1641233 0.6628386 -0.11543441 -0.4111201 0.17407465 -0.0748407 -0.01028587 0.12996612 -0.5873521 -0.23832273 -0.5718041 -0.000852597 -0.59743226 0.16619585 0.06856886 0.8688471 -0.8656104 0.15685911 0.11215087 -0.43487343 0.262134 -1.3698571 -0.6219358 0.1209409 0.73277843 0.7880915 0.12825637 -0.31232154 0.069072336 -1.1756308 0.84372514 -0.7233206 -0.091387145 -1.0633025 -0.64889306 -0.24465851 1.1204438 -0.6594472 -0.15358968 -0.4742256 -1.0571998 0.28840974 0.44233635 0.12249257 -0.59584206 -0.9419916 -0.4829812 0.93223053 -0.661345 0.17806771 0.15133712 -0.060249828 0.12295764 0.11699765 0.28918433 -0.35227394 0.7103318 -0.011597607 0.50242436 0.48135522 -0.4763936 -0.19024944
172 0.601655 -0.47430983 0.027060935 0.22850956 -0.29275215 0.1403451 0.09984449 0.44350117 -0.46240005 -0.23417822 -0.03972571 0.38429573 -0.5093242 0.17855057 -0.68141 0.092513084 -0.4354869 0.19314185 -1.2913276 0.5712379 0.38540143 0.46787176 -0.053772494 -0.8815087 -0.05651573 -0.30109015 -0.015148044 0.6584462 0.008207436 -0.16795504 0.326381 0.37078544 0.67770654 -1.1728377 -0.3948471 -1.1318635 -0.12308083 0.077281736 0.37710056 -0.11283221 -0.6956804 -0.66690433 -1.2058702 0.050280437 0.76129514 0.39224705 -0.03883799 -1.061915 0.12523794 0.92676 0.2262628 0.43076235 -0.030756015 0.74098104 0.35145578 0.36393243 0.35430244 0.08156924 0.7210837 0.6071726 -0.27941725 -0.36497346 -0.15072508 0.11817151
631 -0.2509606 0.30728585 -0.0834899 0.74365884 -0.49185458 -0.71814257 -0.07064108 0.31362477 0.028821075 0.17734459 -0.07342318 -0.6603322 0.12403031 0.5352519 -0.15310143 -0.6370958 -0.15568787 0.9001533 -0.7734742 0.74359274 1.0192331 0.09672404 0.81191605 -0.64619917 -0.26237002 0.18624502 -0.07665111 0.6893628 0.3057577 -0.4012789 0.22621763 0.065164536 1.3748467 -0.7699272 -0.2928159 -1.8922777 -0.4510831 -0.207395 0.3178453 -0.14288 -0.06261584 0.2031589 -1.3992068 -0.23765771 -0.034838967 -0.053065002 -0.05328268 0.15864308 0.02779778 0.78687584 0.031363014 0.12282466 -0.34846315 -0.08394202 0.7139104 -0.67594177 0.2561236 0.19527581 0.9514892 0.604202 -0.37299243 0.1947198 0.3137432 0.7154274
5 0.09065431 -0.12467969 -0.22024794 0.7616463 0.3887634 -0.060607657 0.2991385 0.6289762 -0.4658481 0.05313755 0.2803545 -0.37346625 -0.47596666 -0.22036806 0.026870502 -0.549705 0.37702945 0.5589401 -0.19308528 0.5088511 0.9380414 0.9822056 0.50157875 -0.6934532 -0.04654367 0.5644745 0.3314058 0.44626236 0.08810428 -0.043762922 0.14133823 -0.7861587 0.38345805 -0.5793236 0.13750575 -1.2137417 0.17994355 0.7915884 0.7471542 -0.38963434 -0.7150831 -0.62056994 -0.9541267 -0.18468887 0.5270047 -0.14235498 0.5930097 0.32558256 -0.32789302 1.2080686 0.43016484 0.4958143 -0.3955117 -0.29009727 0.36024565 0.60972667 0.8369454 0.377517 0.82545143 0.563771 0.09988477 0.15041688 -0.29847702 -0.27903098
77 -0.5872672 -0.24661809 0.49473172 0.7486994 0.041132875 -0.41693273 -0.4619337 0.12920356 -0.3462978 -0.5255286 -0.31083786 0.1405769 -0.74205023 -0.07983552 -0.24453302 -0.035111126 -0.26167142 0.24342506 -0.33153594 0.62733287 0.36116442 0.40680918 -0.038747605 0.21929444 0.03584816 0.64407295 0.39013407 0.61449677 0.22134058 -0.4532642 -0.048519634 -0.5476503 0.8506009 -0.53436804 -0.03395197 -1.5443041 0.31401545 0.49144042 0.7231953 -0.528066 -0.08079238 -0.79635006 -1.5579733 0.39145526 0.08490086 0.34752154 -0.18200922 -0.82534826 0.57547915 1.0890996 0.032933068 -0.10304393 0.077799946 -0.5448034 0.12463234 -0.18896359 0.38234192 -0.2834666 0.3795649 0.35773855 0.2498748 -0.34285375 0.7942436 -0.21603818
24 0.14096767 -0.53803146 0.57319087 0.43050367 0.64298475 0.27339503 1.2600024 0.81775445 -0.17878571 -0.26497805 -0.1831376 -0.55433416 0.043125853 -0.36092037 -0.6614309 0.4072236 0.1258968 0.7498591 -0.44273415 -0.12806724 0.4105458 0.62332237 0.5276853 -1.1329229 -0.017172974 0.50681406 0.42532435 0.1935574 -0.30721626 -0.2449995 0.20867798 -0.4656803 1.1828837 -0.8286659 -0.5068254 -1.0999985 0.22911273 -0.3424988 0.50977176 -0.100274384 -0.12125212 -0.22946066 -1.3442163 -0.23052886 -0.38911092 -0.19212666 -0.63631266 -0.5110144 0.07409187 0.76879406 0.49720472 0.56937647 -0.16630992 -0.088255934 0.18546146 -0.5506636 0.4348217 -0.09037171 0.6843731 0.5676476 0.110209435 -0.33124834 0.6221597 -0.24789701
270 -0.28773338 -0.3580423 0.17347851 0.18790637 0.5022876 -0.1728377 -0.18447289 0.26521492 -0.4697181 -0.19447064 -0.054802734 -0.3780537 -0.18005563 0.005013877 -0.81721693 -0.39665428 -0.09368138 0.26043802 -0.21128325 -0.05007012 0.35338366 0.29859343 1.2984987 -0.13367358 0.1703256 0.4648819 0.8644157 1.0782954 0.07335483 -0.45404804 -0.2924032 -0.34393677 0.35402682 -0.09731507 -0.61443526 -1.0221301 -0.0143796 -0.19650781 0.6717977 -0.16959053 0.114384785 -0.35619766 -0.89345074 0.21902014 0.142049 -0.3649807 -0.19126 -0.934218 0.1004778 1.2047688 -0.31294626 0.54230124 0.048578188 0.2797458 0.513391 -0.015841577 1.1355543 -0.07902429 0.407698 0.94804996 -0.540686 0.10746278 -0.52578855 0.61364824
619 -0.46140128 -0.81706285 0.3789095 0.15971507 -0.81747276 -0.18877979 0.05159386 0.36666453 -0.05882017 -0.49661258 -0.65918493 -0.32116047 -0.30788174 0.07790306 -0.25615448 0.14947745 0.09316207 0.36431706 -0.7115962 0.58054805 -0.29982868 0.818857 0.9583744 -0.44896072 0.54699767 0.34989083 0.12259961 0.21332033 -0.04583545 -0.6359387 -0.11430544 -0.5080866 1.4994422 -0.27705297 -0.19223474 -1.2293171 0.17832425 0.38922426 0.9183228 0.023585945 -0.3088459 0.21741685 -1.1106544 -0.40641314 0.7067877 0.1347957 -0.3115016 0.24261837 -0.19425501 0.5658725 -0.05737112 0.40318605 -0.17426355 0.27630103 0.5014315 0.39153537 0.7278007 -0.51996446 0.3527118 0.49066514 -0.0018803447 -0.11972526 -0.41521633 -0.14924413
275 -0.97267723 -0.091386974 0.16621749 0.062765956 0.28164294 -0.7085894 0.026887322 1.0316514 -0.041068804 -0.24011181 -0.16035487 -0.20025483 -0.26233226 -0.67922574 -0.5830693 -0.6063904 -0.27876168 1.1054559 -0.2967515 0.48568514 0.13056299 0.30788675 0.18565583 -0.45495635 0.022678977 0.51775384 0.3273643 0.11459934 -0.043942984 -0.41273838 1.0003595 0.05422767 0.27770668 -0.8803979 -0.19303668 -1.228274 -0.12299862 -0.13128032 0.75607055 -0.12871301 -0.64362055 -0.28220534 -0.923744 -0.054148503 0.26156572 -0.08704036 -0.024552852 -0.73249793 -0.46211627 0.7583411 0.057689242 0.09030583 -0.72014993 0.3928083 0.36794198 0.22712937 0.05339878 -0.59306693 -0.18488495 1.0885433 0.2950222 0.0067365747 0.051533077 -0.0029769158
417 -0.020118756 -0.17556998 0.40744814 -0.35342878 0.017949829 -0.56367606 0.21098101 0.025253538 -0.68034124 -0.63034564 0.7963076 -0.07929163 -1.1151841 0.39840943 -0.0791669 0.11251756 0.099481575 0.7482163 0.19407797 0.74043494 0.68903327 1.142051 0.15290494 -0.8865848 0.45530573 0.53038067 1.1317148 0.60623133 0.12263604 -0.87910765 0.17140654 -0.8654026 0.3872254 -0.64960337 -0.014650856 -1.1401784 0.21768767 0.69660276 0.19173598 -0.45756587 -0.31067336 -0.034985743 -1.3184946 -0.69131476 0.5451158 -0.2452162 -0.39096072 -0.8017151 -0.6036768 1.0338048 0.31558785 0.2520946 -0.49186578 0.24398981 0.39246777 -0.3507302 0.31983954 0.08650621 -0.28785557 0.8098164 -1.0758475 -0.79346114 0.4922146 -0.17520809
416 -0.47784516 -0.3203357 0.5645476 0.69142187 -0.09449261 -0.32347408 -0.428644 0.19846132 -0.28169757 -0.49106872 -0.081804134 0.16107975 -0.6946358 0.026738849 -0.3126625 -0.12113547 -0.03336888 0.3567046 -0.3435248 0.8361475 0.44908646 0.5214262 -0.12801881 0.23838773 -0.038032018 0.6842833 0.18951067 0.55961466 0.44018564 -0.3706228 -0.037504397 -0.49253097 1.0242764 -0.13805309 -0.01352662 -1.4388008 0.37193263 0.37747458 0.70696956 -0.19566149 -0.16988635 -0.8001353 -1.5186381 0.31702915 0.09770255 0.20253883 -0.13683395 -0.9035692 0.5695772 1.1465259 0.16857533 -0.12048679 0.10553214 -0.4522971 -0.08114889 -0.18399084 0.44579905 -0.25958788 0.3433491 0.55778736 0.22015028 -0.38836506 0.7350543 -0.40576398
317 -0.2102803 -0.77692145 0.15867226 0.80318886 -0.3476169 -0.12754904 0.058060076 0.20266347 -0.8868643 -0.40666485 0.06422456 0.11331296 0.09340865 0.038713172 -0.69792986 -0.26402625 -0.034833845 0.8040269 -0.6265663 -0.014440367 0.032571267 0.80334175 0.7498869 -0.46065974 0.34898892 0.2877526 0.16430403 0.71313244 0.059380647 -0.33726645 0.10249621 -0.30406323 0.8079563 -1.3827368 0.5043049 -1.435465 0.14118789 -0.7557671 0.6883829 -0.9376767 -0.91793305 -0.64166945 -1.1093047 0.70168924 0.57445425 -0.13632669 -0.32084957 0.28853413 -0.53893113 1.1886361 -0.41272488 -0.396577 -0.16326372 -0.7389073 1.2523913 0.07731584 0.14816777 -0.5876497 0.14593449 0.21162136 0.09916875 0.26284912 -0.012142842 0.92758054
19 -0.22570728 -0.5973259 0.1947957 0.551988 -0.19158274 -0.06526718 0.14896639 -0.29167292 -0.42414463 0.43306834 0.39628038 -0.20969123 0.12990125 0.42149836 0.022969725 -0.41117483 -0.7334209 0.16469468 -0.59163547 -0.28213367 1.1179751 0.5938238 0.34932292 0.060257733 0.26699516 0.06399686 0.7361043 -0.09152047 0.03474702 -0.58014846 0.005118686 -0.6116317 0.8222359 -0.6575702 -0.26478338 -1.228197 -0.09726971 -0.1345645 0.90199804 -0.3913816 -0.111049086 -0.3639815 -1.2808211 -0.33658102 0.16697039 0.35763204 -0.35188276 -0.6030377 -0.28021583 1.4494745 0.38876688 0.6269711 -0.42792088 0.17818533 0.547977 0.6546879 0.13267548 -0.42679226 -0.6731965 0.9241796 -0.1960634 0.16995032 -0.036612604 -0.8184588
752 -0.10424572 -0.23126715 0.34697473 0.1693737 0.42557046 -0.24460666 0.2922601 -0.47446287 0.23758283 0.07912757 0.19526498 -0.14002727 -0.28699866 -0.25770247 -0.43302962 -0.036429908 0.18765622 0.07908937 -1.485667 0.79662025 0.54808915 0.44852126 0.83265454 -0.7826917 0.18777134 0.359484 0.91347945 0.22892782 -0.010382182 -0.07204372 0.39698347 -0.473501 0.32820627 -0.049737457 0.1797917 -1.6472377 0.10326669 0.06859379 0.2610505 0.114586934 -0.8648941 -0.33198428 -0.98968434 -0.67177254 0.4713913 -0.0626908 -0.78552324 -0.24978007 0.41896388 0.87749547 -0.449984 -0.43525967 -0.20548525 0.404848 0.5328785 0.019175008 0.63112044 -0.18374422 -0.27171075 0.6650767 -0.14814688 -0.08724508 0.57722634 0.16945006
351 0.33003113 -0.39586475 -0.11939551 -0.18111765 0.09040768 -0.75267047 -0.11117859 -0.010533661 0.3243944 0.07838314 0.46785542 -0.032561645 -0.3579816 0.15840496 -0.42186585 0.15253082 -0.0066321124 0.77585834 -0.25854075 0.39745054 0.19708456 0.17739497 1.1405758 -1.4770386 0.39864403 0.051713105 0.19231129 0.40080452 0.08488067 -0.17247699 -0.14616442 -0.6799089 0.40723917 -0.98424137 -0.19397752 -1.0752496 -0.60962707 -0.6421854 0.3280382 -0.067057334 -0.15353397 -0.47856918 -1.1376872 -0.42929167 0.0024649152 -0.22315215 -0.34107465 0.00695807 -0.51636523 0.8533132 0.53252333 0.69674027 -0.5907269 0.06990196 0.35808408 0.8559961 0.43930358 -0.11901895 -0.2244691 0.48294124 -0.06927646 -0.37084255 -0.19653152 0.36412406
803 -0.32441303 0.10364879 -0.18206382 0.15674563 0.016248839 -0.21930616 0.19478422 0.63082016 -0.6915506 -0.6800023 -0.16833512 0.27222115 -0.3549108 0.6475096 -1.0842557 0.05895978 -0.4223689 1.0547706 -1.0054939 1.1908557 0.6698909 1.2036501 0.39009127 -0.92741024 0.10964675 0.8112519 0.37153205 -0.3062282 -0.20869197 -0.17799123 -0.5369387 -0.4370154 0.14764975 -0.29488373 -0.15276901 -1.1716299 -0.03641483 -0.2635664 0.3973276 -0.6835309 0.041826494 -0.59273326 -1.0487108 0.3275172 0.0815792 0.9293289 -0.7090728 -0.15214576 -0.1829203 1.1256385 0.17095618 0.3912849 0.057905745 -0.40727994 -0.076330185 0.38468832 0.8024421 -0.3126185 -0.07063538 1.1043903 0.24144764 0.18670332 -0.3068892 0.23432375
780 -0.66524 -0.36975405 0.34408206 -0.5745832 0.12663266 -0.63622636 -0.505093 0.25467262 -0.24738766 -0.20971002 0.80066216 -0.9737919 0.105956145 0.2245536 -0.706651 0.60817236 -0.22745566 0.4028437 -0.79864126 0.4766642 0.6434879 0.6367885 0.110633776 -0.673759 0.12864837 0.29539856 0.55893093 0.19067955 0.3149165 0.37536818 -0.04317802 -0.54840237 0.5414661 -0.6333992 -0.6565676 -1.4949998 0.30305088 0.062345676 0.15512669 0.092332765 -0.32431492 -0.30399808 -0.8813471 -0.041358937 0.57570714 -0.019222587 -0.25957695 -0.6029957 -0.116874166 1.1281965 -0.45622015 0.8844863 -0.35683945 -0.063973755 0.40260115 0.14534706 0.43358165 -0.24733174 0.556103 -0.05469047 0.24505958 -0.014316386 -0.13819844 -0.7229195
624 -0.3250631 -0.15777512 0.4997192 0.06666753 -0.19821662 -0.55611485 0.58185124 0.61993176 -0.3961645 0.046473783 0.86238897 -0.0036109737 -0.6663898 -0.031851005 0.30252513 0.38802317 -0.13145864 0.40166068 -1.1605538 0.6644912 0.53855383 0.109779455 -0.3691146 -0.49008864 0.121005535 -0.09606998 0.09741162 -0.30968213 0.3458092 -0.16742793 0.59141326 -0.75853455 1.1336982 -0.72370744 0.3903585 -1.1213049 0.0929275 0.13554668 0.311269 0.113089256 -0.79142994 -0.46648473 -1.6325316 -0.46629295 0.5417929 0.44363013 -0.4778438 0.69902796 -0.4549024 0.5535368 0.20124383 0.114857204 -0.8189761 -0.052161746 0.10624567 0.19470726 -0.008602822 -0.25125086 -0.103029035 0.07748513 0.002661499 -0.34093574 0.5043076 -0.38257587
581 -0.007936979 -0.5101907 0.5530224 0.31931347 0.14231105 -0.023150802 -0.17439659 0.17854224 -0.5322465 -0.4465433 0.7075791 -0.11593447 -0.69229585 0.6509382 -0.91838914 0.68906754 0.027286604 0.73633486 -0.71955824 0.11514923 1.301897 0.17678033 -0.14653984 -0.8585497 0.27885324 0.107337005 0.7633848 0.15193574 -0.16514315 0.119893946 -0.32983646 -0.83911604 1.3507359 -0.54089195 -0.3901278 -1.1052514 -0.06804367 -0.79503214 0.9354966 -0.40973753 -0.9737642 -0.054370426 -1.3459703 -1.0071889 -0.09496504 0.113138676 -1.3647794 -0.40235403 0.15513752 0.7173254 -0.28574783 -0.112863064 0.26779205 -0.15961996 -0.11320067 0.023711475 0.23077717 0.26633 -0.41457886 0.54133445 -0.21112831 -0.57266855 -0.73515767 -0.13236572
713 -0.4895032 -0.5506894 0.71261495 0.5167351 0.09805444 -0.4927277 0.17030449 0.59760153 -0.31770414 -0.14284155 0.2991405 -0.24743313 -0.8286422 0.3735317 -0.5984433 0.05544881 -0.0819532 0.74544126 -0.89288795 0.32933432 0.32248613 0.23826751 0.75590277 -0.73741394 0.5231824 -0.078524455 0.26422378 0.35182053 0.24153529 -0.46780547 0.07621145 -0.7542231 1.1835167 -1.0441313 0.057143003 -0.67962253 0.14696789 -0.6987431 0.55202484 -0.2107421 -0.72142315 -0.22471042 -0.90279526 -0.2234219 0.5775611 0.14467284 -0.6948463 -0.2638986 -0.1921643 1.2606686 -0.37083977 -0.21206851 -0.4915105 0.24138238 0.25555146 0.42012614 0.3022641 -0.94531083 0.7532579 1.2189878 -0.118939005 -0.009988197 -0.5705397 -0.0753254
506 -0.7519141 -0.20327294 -0.4393561 0.10058902 0.6252293 -0.6291163 -0.077768646 0.5482885 -0.8701405 -0.7469554 -0.24284258 -0.39136764 -0.30716667 -0.30080605 0.59635 0.2359789 -0.63580346 0.78479177 -0.29247195 0.49982285 0.5917877 -0.024601363 0.6377404 -0.48896068 0.398792 0.40189618 1.280217 0.21238884 -0.1576625 -0.19377679 -0.36374882 -0.8122939 0.23619732 -1.112164 0.20390369 -1.1423972 -0.074572034 -0.25430897 0.923679 -0.45096317 -0.4687339 -0.23506647 -1.086423 0.72543144 0.6985759 0.21904273 -1.1544083 -0.8244638 -0.46670392 1.5283234 0.4768996 0.7720694 -0.5866756 -0.2542882 0.61073655 0.23072772 0.27235386 0.26012608 0.014647314 -0.24319355 -0.03520036 -0.19824038 -0.38591096 0.34662202
661 -0.5213917 -0.5091978 0.65169454 0.46319875 0.107036 -0.4875729 0.14462033 0.5784786 -0.43717062 -0.104760796 0.41396967 -0.2865241 -0.81102854 0.32217535 -0.5585411 0.12247341 -0.15023679 0.7204623 -0.89215976 0.29790053 0.3246417 0.22968704 0.6714835 -0.7733071 0.42033425 -0.0019030332 0.3009581 0.45610535 0.21951716 -0.39165387 0.08517247 -0.66452026 1.0692163 -1.0386223 0.036043935 -0.7301878 0.09991904 -0.63673055 0.54879457 -0.23660778 -0.68898433 -0.25512102 -0.83790314 -0.10912032 0.5787623 0.11218416 -0.60505724 -0.29599172 -0.11012028 1.1828187 -0.29390272 -0.1702842 -0.49359816 0.22232299 0.2949439 0.41124952 0.3715394 -0.82127935 0.67215455 1.1198603 -0.10096314 -0.076609485 -0.4537109 -0.0348139
862 -0.5193902 -0.5310447 0.7058763 0.45501834 0.08751663 -0.4666861 0.16925898 0.57069004 -0.46251756 -0.070394166 0.42383316 -0.25884858 -0.80109876 0.32577458 -0.5465622 0.15669939 -0.13969958 0.7100553 -0.893954 0.33833265 0.3332407 0.21978475 0.7287695 -0.7359753 0.47784674 -0.014915411 0.29985893 0.4173753 0.20634621 -0.40843925 0.10701285 -0.7138689 1.0644349 -1.0589638 0.032393824 -0.7259862 0.12540747 -0.6314567 0.56531805 -0.19110554 -0.6847519 -0.26139125 -0.84249586 -0.12627532 0.6112745 0.1297346 -0.53678846 -0.25326028 -0.106673956 1.212412 -0.27009737 -0.16332167 -0.51648426 0.22872485 0.29289255 0.42692596 0.37174666 -0.833412 0.7417057 1.1660178 -0.08661096 -0.048196483 -0.46370563 -0.021176327
124 -0.5256435 0.3492274 0.4332545 0.33235046 0.9531627 -0.51763695 0.221951 0.30141345 -0.32847032 0.5852504 1.1086389 -0.18659703 -0.6401219 0.024331301 -0.037460543 0.010717839 -0.31480145 0.38216713 -0.71205026 0.27927056 1.0806491 -0.31492713 0.103256956 -0.5887672 -0.5734081 0.2454496 0.42290804 0.67569983 0.20702687 0.066264965 0.19920036 -0.86728364 0.1368382 -0.5701656 -0.3106307 -0.9431342 -0.30851692 -0.5987587 0.040130205 0.10291808 -0.2519005 -0.9191841 -1.4561627 0.26756433 0.25090563 -0.120650925 -0.32687044 -0.88836277 -0.19273522 1.0861491 0.08081694 0.14149182 -0.05650278 0.31269714 -0.36764058 -0.04673853 0.31094295 0.23465699 0.0007342192 0.495707 -0.20405829 0.18557386 0.16040218 0.34994248
372 -0.6503295 0.11611727 0.623524 0.4312725 0.13802376 -0.3094328 0.5943298 0.6917905 0.10372908 0.12404335 0.16150102 -0.49072015 0.31388852 0.09646637 -0.70455664 0.5717471 0.16072841 0.48856312 -0.97982085 0.4045291 0.88870114 0.35043094 0.0080936095 -0.77508724 0.16342425 0.5413426 0.29130024 0.7623068 0.11453129 -0.22972058 -0.4093377 -0.026659774 0.89615905 -0.60836715 0.04144575 -1.1962937 -0.36424702 0.29396158 0.7588621 -0.530598 0.12942123 -0.6663594 -1.1701005 0.031060603 0.55709416 -0.07232411 -0.06252311 0.18140963 -0.19037409 1.1917342 0.11928873 -0.28736094 0.15649185 0.15420285 -0.07334315 0.27733567 0.11130464 -1.0289738 -0.4137028 0.11825847 -0.79631585 -0.4135305 -0.26068634 0.27136222
546 0.056836836 0.06295674 -0.11312032 0.5235505 0.06629717 -0.73157847 0.26845485 0.69938886 0.23545961 -0.35001132 0.069205515 0.10536311 0.13516448 -0.52923167 -0.7813099 0.37646088 -0.758526 0.6057055 -1.4010723 0.48514 0.7158819 0.53408664 0.30358362 -0.45077297 0.8505051 0.20294006 -0.18329404 1.0380471 0.15764962 0.8043199 0.24082075 -0.44694504 0.89973605 -0.47767627 0.029642098 -0.6736313 0.56420493 -0.41816083 1.5313082 -0.564008 -0.69747424 0.053140447 -1.7509528 0.032508425 0.36479846 0.42265287 -0.81393296 -0.13548408 -0.06398488 0.8178589 -0.10139513 -0.026057662 -0.41678452 -0.28867844 -0.14933805 0.37330067 0.33785644 -0.4895698 0.592411 0.64719844 0.986757 -0.2811613 -0.3266528 -0.35222068
284 -0.53139466 -0.5688599 0.67713994 0.43230227 0.11735891 -0.48807052 0.16923277 0.5716273 -0.42701188 -0.106953114 0.3923828 -0.25729668 -0.87246907 0.3981947 -0.56559694 0.13542064 -0.1462589 0.7353281 -0.8651359 0.33615866 0.3455004 0.27181575 0.69490117 -0.7867597 0.4924877 -0.015582542 0.2847862 0.39012235 0.18879499 -0.40925226 0.13316877 -0.71033263 1.0984796 -1.037837 0.07025111 -0.70270044 0.114885576 -0.65880346 0.53348607 -0.21269017 -0.7435566 -0.23381123 -0.8747978 -0.13139017 0.5694364 0.09982677 -0.6123719 -0.302815 -0.1300388 1.2183563 -0.33467025 -0.1886855 -0.5268748 0.2437946 0.27803865 0.42900234 0.35243386 -0.8841068 0.7237857 1.2121209 -0.13369705 -0.10562378 -0.5254786 -0.03858187
366 0.024796817 -0.6246199 -0.17921679 0.26688164 -0.014048167 -0.49294847 0.033235617 -0.06749232 -1.0525556 0.8399714 0.12872818 -0.12648883 -0.5848806 -0.14102718 -0.12647144 -0.3111919 0.26298836 0.09976246 -0.26535258 0.9234795 0.30958757 0.5667939 0.14955151 -0.89362574 -0.41982907 0.45636624 -0.28883895 0.021148007 0.38204736 -0.7997539 -0.335477 -0.80449456 0.9422694 -1.2587386 -0.5473574 -1.8044459 0.13849777 -0.4346945 0.30515325 0.30423775 0.77546674 -0.18908334 -1.13423 0.260037 0.8162047 0.38099548 0.08690071 -0.60351974 -0.25194272 1.285318 -0.2458825 0.35823733 -0.03043323 0.1310792 0.10620304 -0.075507544 1.0542991 -0.22662246 0.19765383 0.9911265 0.5712982 0.13362515 -0.14924859 0.51801836
143 -0.30915955 -0.58045954 -0.19478893 0.5926169 -0.18366091 0.07560561 -0.011523351 0.06700609 -0.17855008 -0.5320595 0.30226922 -0.3550723 -0.2764433 -0.08434968 -0.47225335 -0.56141245 0.4956191 0.5885041 -1.0497528 0.83549196 0.5134222 0.34142238 0.32837772 -0.8055162 0.20401247 0.33936903 -0.11777917 0.12714444 0.79872316 0.037837043 -0.5124887 -0.2028945 1.452324 -0.70645 0.59473574 -1.178245 0.1349615 -0.9871731 0.86272925 -0.16067044 -0.76129115 -0.9850122 -0.3336248 -0.2341067 0.8291592 0.08313285 -0.3318485 -0.5049105 0.11367993 1.3146242 0.079666086 1.0409024 -0.7141476 -0.24642883 -0.2279777 -0.1055867 -0.15621656 -0.4919754 0.40307534 1.321508 0.34503704 0.17037192 0.086945236 -0.01439852
705 -0.5025169 -0.6518259 0.2976701 0.16521199 -0.76079494 -0.21544753 0.14818618 0.42958853 -0.07676077 -0.57616144 -0.7068995 -0.31874108 -0.3224031 -0.05343516 -0.052332122 0.25082576 -0.14405575 0.4832342 -0.62289846 0.692949 -0.1549326 0.7610638 0.9950705 -0.5239348 0.5552384 0.45729285 0.37424845 0.23940022 -0.2447096 -0.75612587 -0.108485915 -0.7566113 1.2596285 -0.25493443 -0.26235205 -1.0462672 0.22105327 0.50363064 0.90344197 -0.01516485 -0.26275703 0.28671953 -1.2519689 -0.20257975 0.6732295 0.21389407 -0.34260482 0.061839387 -0.15673277 0.5820421 -0.012622863 0.3887194 -0.13093922 0.33857444 0.6919396 0.6001042 0.6658193 -0.4318951 0.17567821 0.29749405 0.046876725 -0.19032617 -0.41529462 -0.13114008
614 0.11439809 -0.4541129 0.58872455 1.0587701 0.11112605 -0.72987515 -0.028819462 0.559352 -0.2944724 0.34557784 0.3647883 -0.08202193 -0.43346253 0.46850526 -0.42655522 -0.46339688 -0.41829115 0.50553775 -0.53102905 0.7974338 0.338578 0.2335722 0.20736773 -0.8210915 0.043984834 0.84012634 0.39944947 0.4269761 0.25381032 -0.10464144 0.511345 -0.79036427 0.93745434 -0.66989136 -0.809967 -0.7466238 0.4634138 0.05540881 0.4166707 -0.04820852 0.048011865 -0.68731594 -0.592163 -0.7059432 1.2082372 -0.54394543 -0.7452134 -0.097856775 0.32075024 0.8626414 0.39451286 0.4784157 -0.17212504 0.2665174 0.25030997 -0.14648537 0.16556212 -0.7587281 0.22509122 0.44868085 -0.40171173 0.33569747 0.08400835 0.04987617
826 -0.5590006 -0.5300156 0.6396692 0.44482175 0.098732986 -0.48214376 0.13547629 0.54236996 -0.40274426 -0.11020261 0.4299279 -0.23655184 -0.8181783 0.32187143 -0.5315883 0.116628736 -0.11162205 0.7403602 -0.85588825 0.29259112 0.29313052 0.27261683 0.67051315 -0.762828 0.48155692 0.013258745 0.2752756 0.41450447 0.16782227 -0.42007947 0.08573984 -0.71994674 1.125493 -1.0183245 0.049696077 -0.7251008 0.12560523 -0.6233157 0.5468661 -0.24099241 -0.6927343 -0.24204484 -0.85974115 -0.12281428 0.56706977 0.11020694 -0.5944908 -0.25236413 -0.11752461 1.220257 -0.3468987 -0.14637272 -0.48188573 0.24357706 0.27161783 0.43017504 0.32764333 -0.8316039 0.69661856 1.1916959 -0.11818354 -0.04226013 -0.48438567 -0.07105637
148 -0.16866536 -0.7901952 0.03880959 0.17515306 0.19118074 -0.073950686 0.20394307 0.29368186 -0.49883327 0.71914923 0.39579388 -0.85078 -0.67092556 0.5948883 -1.2741994 0.29625523 0.24120931 0.9686737 -0.35181564 0.3129645 0.08517637 -0.1554556 -0.096178405 -0.5183855 0.33776337 -0.16992815 0.32290038 0.6955438 0.8991099 -0.45168793 -0.20620173 -0.27261993 1.0206691 -0.5343011 -0.12599541 -1.301363 -0.55006284 0.22476025 0.4954889 -0.14220425 -0.8293527 -0.38761374 -1.1528676 -0.4573772 0.5241688 0.2914929 -0.24254085 -0.06459034 0.14566092 0.12602301 -0.18508591 0.07830967 -0.37139508 -0.04676749 0.5682928 -0.06466436 0.8257163 -0.58111054 0.26181847 1.3083085 -0.1163912 -0.10839004 0.3740598 -0.08632935
120 0.053875424 -0.4127844 0.048013303 0.21758698 0.19706061 -0.88359326 0.055128995 0.3089605 -0.49827355 -0.14708404 0.3797034 -0.050773833 -0.2749945 -0.44654095 -0.13433225 -0.6232791 -0.111194044 0.4133198 -0.87205404 -0.1133147 -0.34417892 1.2460628 0.26993263 -0.5699909 0.07610493 0.33363265 0.1924178 0.30951983 0.6779882 -0.055216596 -0.1809486 -1.188742 0.7467088 -0.15292966 0.08187321 -0.7918308 -0.5530615 0.018653879 0.38065267 -0.21725574 -0.5023012 -0.01407821 -1.538527 -0.18720672 0.3634072 0.20590098 -0.7693334 -0.54628193 -0.27886817 1.3949677 0.21778837 0.46042496 -0.2683366 0.23278295 0.76824635 -0.5082118 -0.46290427 0.13549206 0.747921 0.6788614 0.2650011 -0.2713572 0.13079232 0.34826142
710 0.23352139 -1.0117651 -0.26074973 0.086949855 0.49746895 -0.79044217 0.21259713 0.6867769 0.1306342 0.16074538 0.14615472 0.30294424 -0.1942885 -0.50586057 -0.3312497 0.047868982 -0.703751 0.35714322 -0.2001831 0.4896599 0.5923406 0.31947628 0.3254446 -1.1529491 0.20473206 0.49219018 0.5158076 -0.060492404 0.5159994 -0.799841 0.19730353 -0.093107775 0.91547745 0.35535777 0.27589926 -1.6729717 0.2987486 -0.042687055 0.6892801 -0.07589604 -0.15711859 -0.3988818 -1.3790493 -0.0746373 0.35448143 0.5346818 -0.45207864 -0.20412916 -0.17561541 0.9106973 -0.416763 0.1971967 -0.39268222 -0.19386888 -0.13619716 -0.30917472 0.3501293 -0.26851073 0.44914335 0.013396324 -0.73866737 0.35316825 -0.53129184 -0.33615202
433 -0.26851675 0.45016256 -0.09552276 0.7637186 -0.29433003 -0.77621156 0.0010013896 0.25771648 0.044163488 0.2701923 -0.09383721 -0.6514854 0.06778743 0.480792 -0.14480338 -0.5150202 -0.22421406 0.8951877 -0.7833164 0.74493784 0.98452777 -0.043579333 0.6434053 -0.47772837 -0.26909798 0.2489317 -0.13413878 0.85115474 0.23449191 -0.26788905 0.21752356 0.1251154 1.3646206 -0.93453395 -0.3976769 -1.7685004 -0.49407944 -0.32789558 0.31532738 -0.21995431 -0.09770822 0.15717173 -1.4596678 -0.28094122 -0.053538464 -0.12086492 -0.08472541 0.12289977 -0.012717098 0.9252668 0.022148544 0.104216434 -0.27599347 -0.034991097 0.86696196 -0.54441804 0.23140897 0.25312775 1.0138111 0.67399895 -0.26703113 0.18264714 0.3151888 0.78619033
799 -0.20470719 -0.8414703 0.44966152 0.02553258 -0.9365308 -0.17357498 0.059978392 0.39134553 0.0026580316 -0.79872054 -0.39817178 -0.19585359 -0.3522958 0.27444392 -0.21445552 0.11085836 0.2448757 0.6387103 -0.6635859 0.5878439 -0.25704142 1.000789 0.6790835 -0.5187228 0.6649121 0.46761838 0.19702953 0.22483139 -0.047044467 -0.6755033 -0.11134781 -0.4655038 1.6587447 -0.2938194 -0.12516275 -1.2466866 0.029507456 0.26066214 0.9670022 -0.068388425 -0.47243834 0.2966423 -1.0475982 -0.62143 0.60349375 0.17672327 -0.49544144 0.14535698 -0.18119654 0.52118564 -0.102389544 0.21508422 -0.0485851 0.34873512 0.36713007 0.23463893 0.6411818 -0.4705883 0.23785242 0.44294354 0.06480754 -0.13076189 -0.44530296 -0.19034295
166 -0.1410457 0.25456336 0.1463038 0.11947186 1.1478527 -0.3942885 0.10707409 0.3339477 -0.55915076 0.46422645 1.2693743 -0.12173139 -0.58286875 0.10349714 -0.25291377 -0.17311288 -0.36594304 0.43309098 -0.56641114 0.23082249 0.9489914 -0.046111505 -0.091822825 -0.47619045 -0.36937314 0.066930935 0.43429855 0.54465854 0.39140734 0.03992378 0.21728131 -0.5451503 0.13931128 -0.72305214 -0.03925644 -1.0922197 -0.17648904 -0.8060579 0.13209082 -0.28793156 -0.27901897 -0.8493102 -1.3258439 0.124948695 0.08373826 0.07685002 -0.3620458 -0.7934545 -0.032015495 1.1692052 0.09013327 0.026996972 -0.31459507 -0.19057551 -0.12844725 -0.20269746 0.24953479 0.14023884 -0.01035046 0.5408746 -0.27941835 0.034427516 0.34800026 0.38578978
76 -0.7924226 -0.42469472 0.49033937 -0.6066782 0.24691604 -0.7774799 -0.4100731 0.38299906 -0.25657523 0.14427356 0.93664217 -0.76490515 -0.064412475 0.31071678 -0.8485271 0.2648889 -0.4737808 0.29379496 -0.80290127 0.52228343 0.7399389 0.93447644 0.49999073 -0.60694623 0.14460672 0.3451979 0.26933676 0.20266314 0.21385187 -0.08896642 0.098754294 -0.3697916 0.7992718 -0.46416923 -0.43172216 -1.2645377 0.41619423 0.115177736 0.62167406 -0.26059493 -0.097352244 -0.2891919 -0.60090584 0.17989741 0.649758 0.1643405 -0.2150244 -0.24469513 -0.05212323 1.1436441 -0.28357986 0.83893436 -0.3523361 0.38652182 0.16865319 0.25441495 0.42779994 0.33897558 0.41192278 -0.015412677 0.47186473 -0.5597701 0.40964806 -0.21191573
332 0.22133756 -0.30242372 0.08717314 -0.03495598 0.40801662 -0.33621964 -0.090084575 1.0616878 -0.7917563 -0.6101863 0.007818395 -0.63809127 -0.67095923 0.58557045 0.2547748 0.24259168 -0.57593614 -0.047918912 -1.1165982 -0.026158476 0.51602834 0.16184038 0.8533889 -0.64406383 -0.3646101 1.038468 0.65676147 0.35335198 1.1242123 -0.21810985 0.32877442 -0.5757481 0.6423407 -0.069667235 -0.28576058 -0.9646197 -0.4173755 0.015816122 0.65392005 -0.46956486 -0.22623713 -0.07689557 -1.0836132 -0.18512702 0.4364906 0.21858901 -0.521917 -0.41374093 -0.3049126 0.62832814 -0.16966884 0.02494374 -0.61353767 0.039628968 0.27851278 0.5492234 0.40168566 -0.6030348 -0.251333 0.44007444 -0.18874082 -0.11828867 0.58796245 -0.029861594
821 0.06775491 0.23752797 -0.15523742 0.15626 1.1954879 -0.43618214 0.1517208 0.37230483 -0.41875818 0.44119236 1.1709546 -0.13802455 -0.47209403 -0.0018663347 -0.37913594 -0.19687253 -0.52544725 0.6304215 -0.6139258 0.3138019 1.0830247 0.077352285 -0.10205273 -0.46110827 -0.2643512 0.19236837 0.33307752 0.46203792 0.49928927 -0.02649284 0.12179283 -0.33611926 0.07702628 -0.6186123 0.20096047 -1.0113684 0.031133609 -0.70922923 0.12817697 -0.49866766 -0.26530263 -0.9615525 -1.2716961 0.23031233 0.20977469 0.1161426 -0.3250323 -0.7702709 -0.01219773 1.2513958 0.24260657 0.18799931 -0.32099307 -0.28698313 -0.11481258 -0.12852731 0.22668341 -0.06020724 0.20117281 0.6746263 -0.2833063 0.05755172 0.37489745 0.28804496
462 -0.43013278 -0.28026152 0.437675 -0.3206022 -0.098619916 -0.61715525 0.052090883 -0.040593076 -0.04731577 -0.26985747 0.18186994 0.0443452 -0.1390857 -0.085480064 -0.40640247 0.5959649 -0.6596499 0.7193928 -0.9014976 0.54601955 -0.08497934 -0.4561064 0.42867017 -0.23198895 0.041665565 0.11526877 0.10847005 0.28419232 0.25675806 -0.6622625 -0.16198975 -0.30567685 1.2460934 -0.49774387 -0.30588585 -0.7607471 0.14080705 -1.1589884 0.2626047 -0.0018594225 0.11872452 -0.0044124736 -1.4166015 0.35871643 0.52438575 0.36928847 -1.163227 -0.904856 0.15977634 1.0153105 -0.17201535 0.3376107 -0.118683666 0.32326475 0.34742653 -0.34635773 0.30070502 -0.6547612 -0.4051344 0.68961126 -0.1733176 -0.14430965 0.24869849 0.28745788
402 -0.4935937 -0.61630625 0.6300181 0.69959366 -0.6753295 -0.13689889 0.03527268 0.25474834 -1.0705211 -0.4458601 1.0730939 -0.13856182 -0.7126722 0.06585748 -0.7365967 0.055647705 -0.10642981 0.16064635 -0.73504084 0.10056099 0.13645233 0.50227803 0.30276856 -0.86893976 0.32498327 0.52351475 0.19769807 0.32475218 -0.14089726 -0.88097197 0.44872078 -0.61989695 0.600462 -0.27175528 -0.19618902 -1.6830513 -0.71182597 -0.26157376 0.046982978 0.018204313 0.2501314 -0.16432677 -1.1921204 0.062642775 0.04362206 0.10985101 -0.70002943 0.34295395 0.30881327 1.1953125 -0.44963455 0.33533883 -0.14495143 0.07558983 -0.29327285 0.22112581 0.15814973 0.34922755 0.11503433 0.79112834 -0.66076493 0.4923467 0.42423904 0.2804307
712 -0.30705595 -0.11399479 0.057179622 0.42796725 0.6291614 -0.5682242 -0.13225521 0.6809532 -0.15376642 -0.3446514 0.5615427 -0.20984536 -0.35691068 0.8190326 -0.17981873 0.023552237 0.6818463 0.11806016 -0.9400082 0.49007952 -0.19070768 0.171022 0.54457504 -0.9388558 -0.190306 0.066927746 0.1928417 0.7923265 -0.041604128 -0.40134612 0.18099996 -0.08932094 0.9871718 -0.4317674 -0.15097068 -1.0346609 0.8164116 -0.27367923 0.60881156 -0.6574985 -0.41504824 -0.44018686 -1.5125046 0.22058697 0.06057158 0.18476401 -0.4543046 0.11674346 -0.22576335 0.7418392 -0.1492105 0.2845098 0.08597877 0.18227333 0.5877352 0.034718826 -0.15280148 0.27938917 -0.25169903 0.9367922 -0.24970198 0.33915505 -0.14367306 -0.76895726
181 -0.30053657 0.30452 0.3879134 0.21346803 1.104442 -0.62270445 0.17014529 0.36419407 -0.5022835 0.40905082 1.236509 -0.10154007 -0.62547576 -0.046561114 -0.05647748 -0.13846356 -0.25449085 0.36965716 -0.6855894 0.1588335 1.2025187 -0.12107208 0.053039644 -0.47902068 -0.3555751 0.24759904 0.4639027 0.54834044 0.28496683 0.015489241 0.2221423 -0.6607443 0.016769154 -0.6907566 -0.13502972 -0.97387594 -0.19035573 -0.49853978 -0.018036984 -0.23284017 -0.2574411 -0.87357354 -1.2993337 0.31036785 0.24998866 -0.1114299 -0.22213075 -0.6083987 -0.19030096 1.1524001 0.15322769 0.17621242 -0.2272206 0.107555546 -0.20704818 -0.22297516 0.33274478 0.17939453 0.00017928387 0.6493548 -0.38661388 0.14915858 0.34509736 0.37368783
323 -0.20135178 -0.13812679 0.2343871 0.16726753 0.47995308 -0.10848527 0.1936393 -0.5840827 0.22214308 0.08194151 0.25208524 -0.21479036 -0.24623625 -0.1597108 -0.24379638 -0.09852417 0.2292655 0.23049572 -1.5628943 0.90754116 0.41208988 0.602875 0.67115796 -0.7884828 0.218874 0.49758935 0.70266044 0.39790973 -0.025858246 -0.010069383 0.3379896 -0.46627006 0.51124674 -0.12218393 0.27011994 -1.4876641 0.06571419 -0.02192352 0.23501351 0.29153427 -0.92244864 -0.18340686 -0.9437551 -0.6439189 0.4503111 -0.06991805 -0.6981468 -0.3337829 0.49546218 1.1088662 -0.41070133 -0.40316415 -0.11238025 0.45602044 0.26782966 0.24933517 0.5972547 -0.18048805 -0.35998672 0.7368633 -0.113926694 -0.24361278 0.52564394 0.2218453
248 0.014033656 -0.28160164 -0.26934534 -0.06177352 0.34002483 -0.19779734 0.40211177 -0.028964901 -0.08388667 -0.2587967 -0.004279347 -0.43012744 -1.0939139 0.7423136 -0.16735297 0.28264782 0.002663675 0.66838264 -0.5293519 0.017548148 0.27199838 0.59059674 0.35505745 -0.048899326 0.29732293 0.2673892 0.25085056 0.3233568 -0.10197992 -0.038360648 0.77489126 -0.8361837 0.84570336 -0.47073892 -0.32180804 -1.2585962 -0.20927146 -0.11907078 0.84461015 0.12620875 -0.5836878 -0.8294864 -1.0092611 0.8046696 0.21833909 -0.07047084 -0.52391994 0.28396827 0.037735917 1.4442289 -0.2445992 0.33569038 -0.77152675 0.6691399 -0.0026134264 -0.5688292 0.24247578 -0.6483493 0.30637863 0.18203515 -0.33269042 0.15147753 -0.10424862 0.14610156
699 -0.036522977 -1.1503313 0.48041144 0.50774103 -0.098641835 -0.64489424 0.0006975632 0.670735 0.045700617 -0.17920399 0.22962622 -0.1895903 0.2421 0.13301091 0.031313457 0.19791664 -0.054536235 0.6223686 -0.5811592 0.1984166 0.63397956 -0.05698476 -0.05896841 -0.47509852 -0.64405614 0.94570935 -0.4501935 0.7357906 -0.15245704 0.20321256 0.27498192 -0.7000468 0.7124788 -0.28765327 -0.28157192 -1.0951732 -0.27996162 -0.5418832 0.20647904 -0.32624516 -1.1672662 -0.12194428 -1.0480083 0.008288341 0.44173992 0.33571383 -0.23270257 0.21291846 -0.010311015 1.250922 -0.2976688 0.45049068 0.3967282 0.3170792 -0.33209002 0.20570648 1.2674359 -0.37332803 0.19144048 1.397197 0.13803573 -0.17726433 0.04380143 0.22088563
474 -1.0121788 -0.34905925 0.10696087 0.2748371 0.4677854 -0.30143583 -0.13025497 0.3719486 -0.017622806 0.30391726 -0.21179344 0.027550565 -0.61874974 -0.5435048 -0.71737224 0.34178475 -0.24465379 -0.25198123 -0.5749561 -0.00141865 0.58911127 -0.15632088 0.73264325 -0.504073 -0.17248936 0.3077208 0.1273254 -0.25264302 -0.1655731 0.15209067 -0.20503889 -0.6108384 1.0160959 -1.3020766 -0.39731944 -1.0619477 0.038647734 -0.4673152 0.67152464 -0.8871759 -0.3015415 -0.46509522 -1.157178 -0.2074609 1.2770176 0.27622247 -0.3590475 0.050279718 0.29884484 0.73867536 0.19410127 0.14352657 -0.65821755 -0.5244489 0.2871926 -0.03220109 0.86778516 0.2180628 0.34824854 0.9010292 -0.4609935 0.07112635 -0.22396994 -0.1722348
652 -0.44834277 -0.30030397 -0.0060485373 0.363383 0.70700604 -0.48862776 -0.05960637 0.6320919 -0.16142981 -0.23365441 0.36043268 -0.1829488 -0.16090673 0.8320252 -0.26183274 0.0474388 0.6516247 -0.02007794 -0.96140236 0.63023925 -0.21911037 0.07596364 0.50855845 -0.9199668 -0.33930755 0.0027675661 0.16473173 0.8159268 -0.14434277 -0.49831897 0.30785134 -0.32464427 0.8813756 -0.29450876 -0.2786493 -1.2295547 0.6981869 -0.19363318 0.5717867 -0.40681276 -0.26135653 -0.5675033 -1.4564292 0.48822135 0.20028372 0.15090285 -0.37599134 0.04274569 -0.3888366 0.6104334 0.06973119 0.3893892 0.052040834 -0.0344554 0.7389184 0.2277887 0.024787141 0.218906 -0.28309754 0.89046806 -0.30722046 0.44659185 0.06296737 -0.58577245
678 -0.781761 -0.16726239 0.29814282 0.11962617 -0.022109753 -0.41955757 0.3035715 -0.1959682 -0.0990558 0.34900174 0.8771085 0.30063677 -0.30328017 -0.48694876 -0.8236166 -0.33942273 0.31323785 0.88294035 -0.5176194 0.588319 0.41480225 0.59124607 0.14116928 -0.20596226 0.7646275 -0.85244596 0.39386475 0.31040776 -0.58216935 -0.32777637 -0.125 -0.44228095 1.137298 -0.87302554 0.39089864 -1.328722 0.31412184 -0.10114004 0.5368726 0.13588548 -0.20674112 -0.6690859 -1.258304 0.082745984 -0.007830996 -0.20942444 -0.0884087 -0.15205579 -0.009435628 0.89206475 0.23108791 0.41264394 -0.0051323604 0.16110495 0.30646405 -0.48990637 0.52395684 0.21849205 0.4378101 0.6349194 -0.06893407 0.08660551 -0.6153536 0.05236507
674 -0.6063623 -0.21327974 -0.1146735 -0.20067759 -0.122102305 -0.50769556 0.4012759 0.24200262 -0.2613867 -0.4730119 0.38214508 0.043910526 -0.44966522 0.32366252 0.026665047 -0.09087753 0.498127 0.509549 -0.317056 0.38296494 0.6633848 0.2218795 -0.2146754 -0.55586827 -0.24604017 0.49283722 0.8979283 0.348253 0.41779235 -0.42141643 0.70991033 -0.14300221 0.47597343 -0.2026255 0.41107112 -1.2650437 -0.5466622 -0.5078279 0.7583712 -0.21201934 0.27431825 -0.53618306 -1.4046583 -0.5157611 0.6696816 0.41167435 -0.44474986 -0.20621014 0.40302405 0.9299818 0.33983496 0.87269187 0.5620741 0.3261414 0.79813474 0.17988092 0.8563303 -0.2788442 0.12428785 0.0791779 0.11933502 0.14370514 -0.049708035 0.41488793
513 0.36294776 -1.0112325 -0.4605344 0.18441767 0.5484697 -0.7049511 0.15975095 0.65801007 0.014099064 0.4572091 0.15574841 0.09932238 -0.13781695 -0.37946558 -0.44166353 0.08431474 -0.8859006 0.46700224 -0.17022055 0.46724555 0.43908438 0.31856993 0.20445174 -1.0952942 0.20439698 0.38609874 0.5135604 0.13890846 0.5257214 -0.7472338 0.21437141 -0.049313184 0.7483737 0.17463998 0.39036104 -1.6898341 0.38066727 -0.17468713 0.6131482 -0.140194 -0.23253663 -0.393552 -1.3863686 0.07754143 0.22254261 0.57915056 -0.37717217 -0.2850355 -0.13552107 1.0146945 -0.4496393 0.13577756 -0.36004046 -0.36870626 0.08741341 -0.21183452 0.40430382 -0.37494686 0.4383315 0.0032072042 -0.62267125 0.31516105 -0.29588932 -0.14943053
812 -0.24889567 -0.5351528 0.30469853 0.5299594 -0.1599392 -0.14090566 -0.009142982 -0.2804474 -0.3646074 0.36462313 0.40944818 -0.3116947 0.12369327 0.63225627 -0.09883141 -0.53113 -0.7321026 0.126425 -0.799107 -0.29385492 1.1177543 0.8387985 0.45246968 0.0112850545 0.34114775 -0.057994872 0.56125295 -0.05180078 0.05823821 -0.6328308 0.041040204 -0.4431327 0.8359909 -0.60358936 -0.13873589 -1.2868097 -0.12593958 -0.07969107 0.7669952 -0.57027185 -0.08471371 -0.5001784 -1.2171906 -0.36423355 0.1354046 0.36327177 -0.24690351 -0.5214927 -0.32631263 1.3212715 0.53944343 0.6146018 -0.3210484 0.1629859 0.40371603 0.5386569 0.12563543 -0.6093971 -0.59477496 1.1583802 -0.1404859 0.22486956 -0.004379641 -0.7377313
242 0.06095958 -0.37221792 0.2926763 -0.37287557 -0.030157499 -0.90946656 0.25479355 0.36523283 -0.32119235 -0.59240365 0.34414214 0.24230802 -0.053084504 -0.19822575 -0.48561725 0.34387186 -0.45577595 0.77153033 -1.0344085 0.4748087 0.49683303 -0.023946999 0.28751045 0.2130685 0.6872854 0.17676666 0.36698943 0.21255788 0.43029988 -0.57331157 -0.18269831 -0.05736568 0.9621648 -0.57255614 -0.12548138 -0.9352341 0.25904068 -0.4031239 0.046800498 -0.4486023 0.043882933 0.022236867 -1.1322811 0.5503834 0.44662488 0.09447015 -0.9683209 -0.18099304 -0.07735364 0.6812284 0.2234686 0.6212263 -0.33728668 0.4170321 0.7730056 -0.47750995 0.53749996 -0.69809455 -0.036642052 0.99561656 -0.52749854 -0.04467833 0.6432366 0.17428093
484 -0.5987125 -0.21434379 0.6152142 0.7374426 -0.09439333 -0.39169115 -0.27946547 0.1794142 -0.33464247 -0.31717223 -0.08141939 0.13260454 -0.6979218 -0.14494345 -0.14317316 -0.09712904 -0.080726005 0.24054126 -0.47505796 0.8722334 0.31392366 0.23300052 0.0053580743 0.33346424 -0.23088 0.65491986 0.2686979 0.71417814 0.63443065 -0.18746597 0.049041227 -0.48139474 1.1162256 -0.007292895 0.0810174 -1.3899992 0.4748744 0.49348423 0.614246 0.1168724 -0.18535061 -0.82969314 -1.4980626 0.36602014 0.04989547 0.22409979 -0.11739335 -0.7324889 0.4995137 1.3675069 0.13330978 0.070809245 -0.09593494 -0.3027714 0.011385679 -0.24584213 0.5006993 -0.26262942 0.47168025 0.4866946 0.22965375 -0.3121066 0.6580751 -0.56373173
429 -0.7670492 -0.48503265 0.38991502 -0.4011754 0.15594678 -0.68985796 -0.51090807 0.20288338 -0.33269277 -0.059359144 0.7670291 -0.952755 0.10740418 0.25264218 -0.7951019 0.5965674 -0.25062013 0.43858582 -0.66386503 0.6039004 0.75715053 0.58723307 0.1376436 -0.7752764 -0.018178504 0.41757563 0.39200714 0.113704085 0.28426075 0.13827306 -0.029189795 -0.5433465 0.6459423 -0.4352506 -0.54118437 -1.492408 0.24567404 0.051625896 0.3076338 -0.010246461 -0.2289164 -0.28778103 -0.7202256 0.042661175 0.5798839 0.028136656 -0.29192886 -0.59373116 -0.14935517 1.1857736 -0.42946944 0.91782093 -0.25974098 0.2970258 0.37440452 0.2813445 0.41333643 -0.01067676 0.5630382 -0.120334044 0.35748097 -0.17114675 0.039591826 -0.5580567
819 -0.6732196 -0.41387862 0.39401808 -0.5278578 0.26437113 -0.7399389 -0.4064956 0.22278836 -0.24586797 -0.09274971 0.88235664 -0.7982878 0.051789142 0.2504784 -0.8031309 0.42713183 -0.3928641 0.4728393 -0.7727439 0.51026475 0.7450737 0.88511425 0.20512514 -0.7475553 0.095710345 0.5159447 0.32427046 0.20516199 0.07367592 0.016343012 0.117198415 -0.5966822 0.6590465 -0.60791403 -0.5915392 -1.3928272 0.35829142 0.0232309 0.61139256 -0.3058732 -0.021151321 -0.24342011 -0.63966066 0.19856709 0.6048556 0.22121668 -0.22613774 -0.51515585 0.0035485057 0.9951947 -0.44462377 0.7969893 -0.29469416 0.27947924 0.41913605 0.27003014 0.3980348 0.17883778 0.48534122 -0.13615009 0.48750624 -0.33717412 0.24376206 -0.3650482
167 0.30456528 -0.1818847 -0.2011031 -0.0507718 0.4420038 -0.26357386 -0.06234445 0.9834367 -0.7522515 -0.58588123 -0.18883356 -0.5646419 -0.6045198 0.31195557 -0.06245945 0.3786559 -0.68769 0.013425124 -1.1922541 -0.14203972 0.58082163 0.19035947 0.8408874 -0.3806804 -0.34338272 1.0846072 0.55484724 0.25255612 1.1665647 0.024031058 0.20638168 -0.44982132 0.9047195 -0.16720897 -0.3606898 -0.9231611 -0.21011323 -0.04571763 0.7986309 -0.5841904 -0.47280803 -0.33402637 -0.9928443 -0.30813307 0.5633875 0.13883701 -0.36941868 -0.35647547 -0.41388735 0.69306827 0.04475199 0.07937253 -0.52640396 -0.15620907 0.23988329 0.65196687 0.5618814 -0.5641576 -0.16714573 0.44789237 -0.028059985 -0.022863606 0.55499816 0.017186927
801 0.117692836 -0.48798728 -0.1565348 -0.02728784 -0.19061226 -0.33983284 0.017981974 -0.023830201 -0.6821534 -0.23504965 0.33504003 -0.7164785 -0.061788816 -0.34074718 -0.8441375 -1.0739207 0.5546777 -0.00047495117 -0.6651183 0.48369095 -0.03911839 -0.22798932 0.74305874 -0.43541566 -0.14266236 0.15927678 0.17081177 0.34169954 0.27806494 0.0045264713 0.43628386 -0.50666404 1.2439852 -0.81352437 0.25781322 -1.1317755 0.1429461 0.047332555 0.20282939 -0.51734865 -0.44137165 -0.19425663 -1.6824448 0.21396728 0.08180071 0.3046231 -0.7139043 -0.27604964 -0.3569301 1.1390976 0.39487514 0.099517696 -0.7166877 0.15327394 -0.13167378 0.06856414 1.3874327 -0.29372507 0.04641536 -0.31198812 -0.10361091 0.31405658 0.17619798 -0.06201213
512 -0.12339403 -0.48414692 0.54148096 -0.06932108 0.6224163 -0.67721516 -0.08715791 0.4867715 -0.19726263 -0.12144588 0.45550075 -0.123636715 -0.64614624 -0.051514532 0.4563608 -0.011120795 -0.4439465 1.0665296 -0.37951156 0.4683065 0.50070274 0.97956413 0.015688177 -0.14902188 0.89547646 0.9945066 0.1189633 -0.19017749 -0.48840603 -0.83077884 0.012896561 -0.3520933 0.5993152 -0.7253992 -0.3838965 -1.5033674 0.21832791 -0.6236319 0.38007325 -0.66410613 -0.3409207 -0.12988977 -1.7199272 0.023247475 0.87533313 -0.03379848 0.019156348 0.16393718 0.42283168 1.2616956 0.46910775 -0.33080578 0.4060437 0.16601378 0.29508835 0.38871008 0.3874798 0.2963437 -0.19087249 0.5209839 -0.38008904 0.22876403 -0.3278467 0.6465294
382 0.037694454 0.4033229 0.538139 -0.21247946 -0.091789775 -0.03786538 0.14610027 0.18702479 -0.08765024 -0.31137037 0.07163532 -0.27103624 -0.5272294 -0.2956569 -0.42890444 0.4712388 0.4992483 0.036319684 -0.57097656 0.0874277 0.29070243 0.5628214 0.069309965 -0.6907161 0.08462965 -0.023222309 0.84958863 0.5581132 0.42258093 -0.7396693 -0.5370713 -0.4347598 0.28415057 -0.16263257 0.04395259 -1.7157209 0.008202498 -0.6558451 0.99490213 -0.48781806 -0.8217992 0.27531132 -1.3952085 0.38215762 0.47250175 0.6179926 -0.0015171678 -0.34981564 -0.44707462 0.7614938 0.2894732 0.65004086 -1.0896127 -0.033350233 -0.28456455 0.10224342 0.62394524 0.040857267 0.2917545 0.644896 0.032656096 0.13955034 0.29005972 0.2152057
721 -0.45301834 -0.5518728 0.67288053 -0.28446478 -0.04001161 -0.7116091 -0.0127484305 0.4181 -0.26390442 0.12708682 0.17290616 0.15513729 -1.1921812 0.4026178 -0.41457972 -0.053925417 0.29522195 0.6244116 -1.1918442 -0.20113274 1.0346073 -0.16831665 0.13423088 -0.8668315 0.7552195 0.0329537 -0.46056724 0.82889193 0.13960426 0.028055618 0.3096037 -0.5842408 0.58818954 -0.08347615 0.14288057 -1.1087773 0.32968205 0.14571424 0.72170824 -0.051342476 0.10125749 0.36645335 -1.0105366 -0.76629996 0.2474651 -0.029560106 -0.33725718 -0.71566373 -0.5549297 1.491327 -0.057178177 -0.11136401 -0.43973324 0.01363121 0.08244473 -0.09295501 0.50727665 -0.3771306 0.59467095 0.60416806 -0.2602803 0.33624887 -0.0011710605 0.33618292
37 -0.81363475 -0.6233953 0.16481346 -0.18612063 0.442044 0.15181239 0.2236261 0.3833495 -0.16510993 -0.52800566 0.94225717 0.5983964 -0.053975202 0.21097483 -0.5689136 0.15477312 -0.109858 0.4573594 -0.62754893 0.3136706 0.8064451 0.7424274 0.76372904 -0.40612802 0.48714224 0.7457227 0.45813105 0.40758562 0.5149068 -0.2268612 0.14101213 -0.44463578 0.69103926 -0.7649965 -0.274399 -0.6003913 0.44639748 0.211796 0.7595721 -0.49174473 -0.7495433 -0.49640828 -1.7186441 -0.5762 0.3615175 0.045332514 0.18216504 -0.0110330945 0.1387737 0.35486138 0.10132114 0.33736837 -0.30644807 0.4989905 -0.4489488 -0.09845542 0.098707154 -0.6381978 0.7380482 0.92927825 -0.30664533 0.7415029 0.2608929 0.58238155
742 -0.1232177 -0.232969 -0.1847922 -0.2304313 0.41944522 -0.20012395 0.32214373 -0.22274065 -0.03583738 -0.36581486 -0.11822501 -0.39484954 -1.2041787 0.73173636 -0.18994077 0.2089352 -0.1224732 0.60595715 -0.57385796 0.010794395 0.18561563 0.5984379 0.5794019 -0.2128533 0.27774265 0.24788511 0.20126377 0.22550346 -0.18608737 -0.14953195 0.72839904 -0.8034838 0.9046903 -0.6519036 -0.2889291 -1.2544115 -0.2339033 -0.05041537 0.801768 -0.07363634 -0.5440954 -1.0257388 -0.82671744 0.73934805 0.32802185 0.032430932 -0.40984553 0.27240592 0.021219444 1.4507412 -0.14823794 0.4712694 -0.97703403 0.26199967 -0.080712005 -0.75034255 0.36213395 -0.6412907 0.31543922 0.30469394 -0.43020996 0.1629042 -0.0503818 0.2334828
439 -0.62580013 -0.49123073 0.044356193 0.8004802 0.49612957 -0.53743595 0.4008891 -0.33561102 -0.37873107 -0.53742903 0.06396632 -0.55150056 -0.4183448 0.2882943 -0.16246071 0.3051288 -0.40168142 0.82205003 -0.5901595 0.37893844 0.5228007 0.6975247 0.22877327 -0.6361391 0.14376336 0.6589814 -0.2861009 0.5503171 0.82466453 -0.29436964 0.14076564 0.087671526 0.30117315 -0.9250755 0.31532878 -0.96869403 -0.047894094 -0.2497363 0.80414575 0.30053383 -0.058642115 0.11047551 -1.4794645 0.1145952 1.0220501 -0.6525381 -0.80628306 -0.4466164 -0.29159683 0.45908597 0.17682068 0.2355438 -0.0729662 0.1964366 -0.2974001 0.30045506 0.8828863 0.3907074 0.44002894 0.8480523 -0.19480823 0.0927928 0.024975935 -0.21300836
59 -0.36373794 -0.33568358 -0.0153180575 0.06072725 0.45292768 -0.39328572 0.18322626 0.3893033 -0.45291302 0.6310216 0.49765176 -1.1388417 -0.97724205 0.63245064 -0.44647655 -0.038214445 -0.25034782 1.2494817 -0.8400373 0.72019464 0.061918356 0.17864475 0.115026124 -0.7394583 0.74590904 0.2568491 0.3215493 0.5507634 0.33578902 -1.106507 -0.3110526 -0.54063225 0.79258215 -0.092824735 -0.19707064 -1.054318 -0.6602498 0.58702105 0.18309665 -0.19721998 -0.22500768 -0.37840706 -1.5415645 -0.07893135 0.2365228 0.2442542 0.1111411 -0.60155857 0.46127126 0.28790393 0.053765774 0.31544825 0.14390986 0.5264574 0.3002793 0.18285441 0.16760093 -0.54023266 0.23395394 1.0287862 0.23527035 0.20921382 0.25364777 0.14165348
463 -0.051569983 0.3488851 0.36017138 -0.037165105 0.20917866 -0.41046387 0.06624349 0.9335856 -0.30701432 -0.44376007 0.12750113 -0.24066721 -0.86126053 -0.4960994 -0.54350203 0.35424832 0.41662106 0.46493566 -0.42396098 1.1623192 -0.23142503 0.2732189 0.30574837 -1.036543 0.13403806 0.45615792 0.32841957 0.9116847 0.3566546 -0.36983556 -0.111154 -0.62890226 0.32704943 -0.33565843 -0.21605402 -1.2020105 0.41876546 -0.49011216 0.31890014 -0.28096923 -0.57277524 -0.09016201 -1.0721055 0.25884908 1.0591446 0.0050071087 -0.20830388 0.099911615 -0.045092255 0.6445208 0.10046934 0.16465698 -0.53400487 -0.21755493 0.07382399 -0.2376805 0.5848592 -0.13274619 0.7617797 0.073297344 -0.10962377 -0.12765016 0.40570855 1.057792
58 -0.5735744 -0.32493034 -0.015135048 -0.11233937 -0.018111864 -0.38896698 0.31490895 0.39709923 -0.26197502 -0.31702268 0.24286337 0.034357358 -0.5309949 0.24220157 0.06969425 -0.20882939 0.50858194 0.53227496 -0.4341835 0.22722727 0.6788697 0.33580655 -0.10003098 -0.70449233 -0.23243381 0.45183605 0.94931453 0.31923866 0.47525018 -0.36933067 0.8947637 -0.24083203 0.65629315 -0.28025326 0.2904906 -1.0996975 -0.41128853 -0.54143465 0.60281616 0.12526084 0.27332544 -0.41616896 -1.4059756 -0.27523074 0.4871226 0.5387463 -0.44273514 -0.31224903 0.40875658 0.8469985 0.514312 1.0648766 0.63165486 0.34126547 0.7357931 0.17815223 0.91557246 -0.297174 0.2527301 0.02916115 0.14393508 0.21929853 0.12203442 0.3770741
791 -0.73162615 0.16402322 0.51096916 0.2799744 0.14026077 -0.13967597 0.4314394 0.6586322 -0.09632014 0.07969366 0.2381067 -0.40110567 0.28779274 0.26012182 -0.58965147 0.491491 0.06921993 0.47717962 -0.8922679 0.27432057 0.5650554 0.4296089 0.011041215 -0.82327443 0.16090052 0.52174765 0.34681606 0.9543814 0.13617964 0.012793098 -0.42578873 -0.049680334 1.0983015 -0.77725774 0.07348373 -1.1434386 -0.48920476 0.087480605 0.8113316 -0.37257457 0.035515387 -0.38910443 -1.1248128 0.0098076435 0.37595403 0.01131586 -0.053472392 -0.02436079 -0.2691565 1.3127886 0.08666812 -0.38180834 0.12636814 0.17509864 -0.23243894 0.25708836 0.3216441 -0.9767372 -0.4558137 0.012023004 -0.8538323 -0.37456435 -0.20529479 0.20656832
828 -0.23779623 -0.36851364 0.31080312 0.44610453 -0.1901677 -0.40178975 0.56328636 0.3550599 -0.2706364 0.13994986 0.42399287 -0.16496088 -0.62293017 -0.081866845 0.24627134 0.46037933 -0.03936147 0.6538394 -1.0553675 0.9733685 0.7130089 -0.066754356 -0.4296991 -0.8844941 -0.27924007 0.15925296 -0.22586985 -0.43018422 0.16683038 -0.39928725 0.50784475 -0.9352684 1.0387454 -0.9961972 0.15276548 -1.3887283 -0.13486262 0.120990664 0.37533197 -0.079329774 -0.5447641 -0.28556943 -1.3653793 -0.09872403 0.69638383 0.4673621 -0.76209533 0.21591754 -0.28475258 0.4446396 0.35978064 0.20736693 -0.36577114 -0.16697204 -0.038324807 0.39076227 -0.23641491 -0.19485644 -0.0023339093 0.13017564 0.578564 -0.2077926 0.46812168 -0.25809723
758 -0.1823299 -0.34093022 0.35921147 0.18897258 -0.36448216 -0.25928476 0.4348375 0.3398868 -0.34991762 0.07490572 0.06995315 -0.1266744 -0.4919849 -0.83442765 -0.52402675 0.26907268 -1.0092499 0.90374196 -0.42146266 0.18422638 1.3392605 0.5975569 0.10944082 -0.13983284 0.47281373 0.6018636 0.65735096 0.12005196 0.12793428 -0.1987183 -0.13477589 -1.1357803 0.4955012 -0.5089892 -0.18488158 -1.2176713 -0.94834256 -0.13755882 0.5152448 0.0847176 -0.03162703 -0.13308899 -1.0158525 -0.4526576 0.6243951 0.15644856 -0.666999 -0.76735806 0.17128468 0.5486066 -0.08124953 -0.024222525 -0.16310395 0.29074058 -0.35544908 0.31482083 0.9345217 -0.6466131 0.6009373 0.18507805 0.13326494 -0.16498137 0.044151347 0.8656483
272 -0.1993411 -0.2533416 0.2532129 0.6534489 0.40451834 0.183086 0.033797305 0.79314715 -0.5583599 0.31136918 0.42413852 -0.43165538 -0.77722394 0.28629974 -0.10056973 -0.44626075 0.40607163 0.11397817 -0.3223236 0.2402396 0.64710873 1.0076382 0.26976183 -0.81252563 -0.06516042 0.31313366 0.65843934 0.51651996 0.03793242 0.12887856 0.42827827 -0.96484363 0.53767973 -0.4418772 -0.16452645 -1.594752 -0.31728584 0.5543657 1.0642422 -0.01552451 -0.707405 -0.5686818 -1.1320001 -0.68275446 0.20523372 -0.033057947 0.30387947 0.04481532 -0.24520487 0.6805785 -0.037767608 -0.1788091 -0.13167039 -0.15700309 -0.0714818 0.7482922 0.70109695 0.4273855 0.5332041 0.044850525 0.016891185 0.120982714 -0.550392 -0.097920574
760 -0.4938025 -0.648902 -0.030600738 0.36737296 0.28664538 0.06973782 0.32378545 -0.111774065 -0.5056035 -0.21536398 0.29485893 -0.2329461 -0.74519044 -0.40412956 0.07113198 -0.16331717 -0.16976298 0.9997975 -0.64359653 0.6020404 0.7966727 0.46186978 0.46590966 -0.7112984 -0.38455006 -0.012132026 -0.24635358 1.0609279 0.35615903 -0.47889102 -0.7107665 -0.29018307 0.9512862 -0.1872924 -1.2214699 -1.2805388 -0.42891526 -0.30302837 0.6460277 -0.2918113 -0.6668437 -0.4316523 -0.98804986 0.33060312 0.26418993 0.7242537 -0.8090053 0.1461925 0.59378105 0.9823261 0.08014707 0.24726719 -0.27353296 -0.33535996 0.6487639 0.5386695 0.6460938 0.024863286 -0.29444733 -0.21835236 -0.17941324 0.43681574 -0.049655367 0.10257384
796 -0.3420237 -0.47490302 0.70775986 0.20007542 -0.22718903 -0.6892538 0.16215546 1.267237 -0.8902884 -0.2012999 0.5148967 -0.36776516 -0.684316 0.4570412 -0.16802156 0.13480596 -0.43000638 0.57123905 0.100611895 -0.14011532 0.47529024 0.0717465 0.3984292 0.070059046 -0.11862517 -0.12571086 -0.17789358 0.29466972 0.3661788 -0.6369026 -0.043490063 -0.3796727 0.8740097 -0.5910638 -0.4783328 -0.91316706 -0.122515224 -0.4118169 0.8249556 -0.38117737 0.21137623 -0.7458868 -1.6494365 0.20338 0.2443027 0.21244892 -0.09500119 -0.05714863 -0.8142784 0.56285197 0.28433725 0.73931706 -0.34183607 -0.3872018 0.30042592 -0.112375885 0.24851246 -0.12950405 0.62230736 0.32033625 0.070816375 -0.0062774597 -0.7554949 0.25278875
688 0.21913312 -0.45857805 0.05182357 0.1031642 0.22784097 0.12061 -0.20022906 0.6267013 -0.3770888 -0.48153466 0.4812707 -0.34338433 -0.089786425 0.74440604 -0.75813395 -0.52218753 0.076753214 0.7844394 -0.15993422 0.28069815 0.26855996 0.77822 0.9067212 -0.0947405 0.11767018 0.3745254 0.7489137 1.1160147 0.3563067 -0.48764455 -0.48804593 0.025621096 0.75572574 -0.0023877912 -0.29901344 -1.1726899 -0.24665783 -0.6762839 0.5114642 -0.060966745 -0.5066464 -0.2288955 -0.8954624 -0.1004867 -0.18075693 -0.6160111 -0.57354987 -1.1984202 -0.21757208 1.4709078 -0.26233453 0.18313845 0.38227737 0.44692796 0.271833 -0.0042818654 0.96274096 -0.29278207 0.3294816 0.57864666 -0.16286053 0.23404612 -0.2996702 0.20074292
14 -0.26094455 -0.48406497 -0.2514721 0.027825203 0.18017055 -0.294101 0.004961736 0.7070316 -0.15005304 -0.14396463 0.0040741726 0.3027562 0.356261 0.49560612 -0.592947 0.42586264 0.56222683 0.5577076 -0.85086966 0.24931788 -0.006040813 0.043636955 -0.119112514 -0.60079193 -0.36205623 0.1171793 0.2939257 0.9672797 -0.03869503 -0.026584748 0.092316814 -0.76501995 1.1056888 -0.0574701 0.11244403 -1.03 0.5736669 -0.031469382 1.145388 0.45272124 -0.9690484 -0.8797743 -0.94667 0.06744967 0.5822722 -0.06376488 -1.1963866 -0.30628055 -0.50572485 1.1089764 0.65690446 0.21974437 -0.5358461 -0.38143608 0.8919539 0.3537303 0.49123603 0.27031803 -0.05071207 0.587375 -0.15542574 0.30916026 0.13740006 -0.15169114
820 -0.20688523 -0.24400681 0.22378741 0.6255582 0.41419142 0.117664434 0.06236207 0.71889496 -0.674496 0.37716845 0.35028443 -0.47174907 -0.81484866 0.09931346 -0.02973366 -0.5643896 0.36943948 0.085320264 -0.3894304 0.25517246 0.7512527 1.0228488 0.45827296 -0.77158326 -0.023485592 0.3203506 0.55864835 0.4240179 0.09872768 0.009353205 0.41049054 -0.8928649 0.4175941 -0.5153146 -0.0473444 -1.6518569 -0.32979286 0.7945488 0.89902866 -0.16273561 -0.52991813 -0.5540337 -1.05949 -0.53455454 0.24298137 -0.018857246 0.44075775 0.09491268 -0.24974178 0.7980098 0.03165942 -0.03035047 -0.24091987 -0.22365332 0.012906159 0.6939537 0.5889171 0.28164494 0.69206494 0.09551998 0.08046345 0.092186496 -0.5053803 0.05125316
757 -0.37872025 -0.65172046 0.705092 0.29634392 -0.35278338 -0.5917936 0.18897778 1.3498739 -0.8375711 -0.11090546 0.4711397 -0.42265677 -0.48327658 0.50411445 -0.30601218 0.13429491 -0.46395564 0.61086947 0.08425376 -0.18678193 0.46178982 -0.0054481584 0.2373105 0.13079868 -0.24153428 -0.016097195 -0.245744 0.31616914 0.3169531 -0.6237153 -0.054471433 -0.5521692 0.8331629 -0.5494701 -0.6985586 -0.8722807 -0.14919141 -0.4274652 0.8497715 -0.19585285 0.12139365 -0.731318 -1.7660847 0.3011064 0.3247977 0.10703781 -0.34254748 -0.23782809 -0.87706244 0.5747239 0.39263684 0.6109292 -0.29017106 -0.26568997 0.21979295 0.0741886 0.44213 -0.16713858 0.6421937 0.03665784 0.07786722 0.23635864 -0.55233955 0.36008886
447 -0.7768971 -0.7332934 0.10194648 -0.082759075 0.43005368 0.34220386 0.08617294 0.29129288 -0.30324936 -0.4625164 0.9841989 0.5669287 0.04907632 0.25692025 -0.5044271 0.29653883 -0.05788237 0.55574083 -0.5595041 0.49714392 0.84911865 0.5656845 0.8479102 -0.4389896 0.40053198 0.6045245 0.45408306 0.122852206 0.5675049 -0.3436704 0.12960382 -0.5086147 0.54407686 -0.79473346 -0.37291592 -0.44756582 0.40116337 0.26563793 0.9448629 -0.38725898 -0.82494867 -0.26022983 -1.8155093 -0.34849998 0.2309828 0.18203755 0.037357043 -0.06840434 0.22411342 0.60229087 0.077601835 0.27970004 -0.2148695 0.25000396 -0.25133842 0.09461438 -0.012985472 -0.605411 0.5499691 0.7730925 -0.20132975 0.41035938 0.18348987 0.58420885
658 -0.6411164 -0.5018692 0.23939398 0.6955727 0.38707408 -0.5761412 0.45405114 -0.4503744 -0.5174061 -0.50228155 0.15911786 -0.43365702 -0.45517737 0.27252933 -0.012369398 0.19724339 -0.31019902 0.65529096 -0.5420721 0.23552267 0.36133605 0.511986 0.33513767 -0.5870204 0.007509162 0.5052644 -0.21442413 0.6573305 1.0365683 -0.17818041 0.25507978 0.09732602 0.47776285 -0.9727014 0.3825357 -1.0136083 0.04372655 -0.20669809 0.75433105 0.63015693 -0.20630905 0.045143943 -1.3013846 0.16920315 0.96360743 -0.61458117 -0.734748 -0.25608364 -0.49529508 0.6504162 0.10430023 0.32519382 -0.4051738 0.04153786 -0.1472847 0.14375576 1.0898802 0.433948 0.37606013 0.66684383 -0.4630146 -0.015673049 0.020535208 -0.22243047
230 0.04598662 -0.08289831 -0.09238778 0.4549249 0.91624105 -0.4916198 0.033592753 0.023862889 -0.41229403 -0.12466367 0.40017766 -0.12004511 -0.354676 -0.34969375 0.19545838 0.15738776 0.20305347 0.76713645 -0.5830141 0.5369264 -0.09538696 0.19096912 -0.37946838 -0.14673679 0.6214736 0.19487299 0.32945067 0.6025652 -0.37683153 -0.27882937 0.20714918 -0.26352704 1.1738732 -0.61037433 -0.80212706 -0.8061103 -0.111205496 -0.03046939 1.0508786 -0.279617 -0.3813973 -0.40759453 -1.3443576 -0.9320389 0.58503544 0.24618746 -0.54346395 -0.4834669 -0.7274586 1.0894321 -0.8632417 1.0730398 -0.16129513 -0.23426114 -0.02353124 0.09286466 0.85074794 -0.05527618 0.25220963 0.4533839 -0.10365493 -0.09242361 0.34599653 0.27176684
584 -0.44440988 -0.056218028 0.635329 -0.085112214 0.43599695 0.70920116 0.3280742 0.119622946 0.2586581 0.14514679 0.33216903 0.36162645 -0.56505656 -0.041930877 -0.6382071 0.062460836 -0.5480647 0.17351209 -0.49781826 0.4208865 0.4484126 0.11805957 -0.09813219 -0.6279983 0.27106035 0.61963195 0.3328536 0.64900506 0.648433 -0.29392788 0.5964273 -0.60505044 1.0249093 0.12589046 -0.34999633 -1.0179082 -0.26210237 0.16956097 0.013437243 -0.686359 -0.319146 -0.23390858 -1.4866043 0.20448475 0.43086028 -0.6161166 -0.6654379 -0.024265876 -0.8227383 0.95874316 0.11565681 0.49196282 -0.34699032 -0.02266941 0.68538094 0.18811165 0.85711175 -0.22701861 0.25259754 0.52220845 0.3039716 -0.09683563 -0.37544468 -0.14706966
811 0.04483977 -0.30459002 0.15319312 -0.09318771 0.5027581 -0.22142072 -0.21231115 1.0035582 -0.6700263 -0.609083 0.09679218 -0.5940679 -0.7656553 0.6896101 0.22665255 0.2830431 -0.49049097 -0.18149255 -1.0331221 -0.016204841 0.39984545 0.0975473 0.83131105 -0.75418127 -0.45797303 0.96448433 0.6074952 0.17808379 1.0569451 -0.2286012 0.30613485 -0.57323515 0.7105484 -0.21897377 -0.44547108 -0.978267 -0.5838293 -0.06022374 0.8335609 -0.6326094 -0.19615325 0.037092198 -1.0499328 -0.43303353 0.47030488 0.3575549 -0.7756711 -0.57320267 -0.15281011 0.6569717 -0.13966502 -0.003987241 -0.56277555 -0.110482454 0.09846755 0.48273674 0.49723426 -0.58677286 -0.134127 0.557084 -0.22740875 -0.28566027 0.4392934 -0.020867296
325 -0.64052755 -0.48145598 0.4648819 -0.75352234 0.24673454 -0.80995595 -0.18397646 0.43752092 -0.20393232 0.2692458 1.1386325 -0.5295725 -0.117552124 0.24646477 -0.77112305 0.2518912 -0.46202824 0.34896588 -0.675327 0.2994319 0.5125447 0.99123126 0.37558016 -0.42917666 0.09163017 0.45083734 0.3071644 0.31032288 0.2184482 -0.15895791 0.26242206 -0.33338058 0.9655771 -0.46004555 -0.561508 -1.2754891 0.46927157 0.0146694295 0.8436354 -0.17548576 -0.014234499 -0.23959132 -0.7020985 0.12487206 0.6963242 0.23911315 -0.19888882 -0.18425196 0.03927274 1.1190141 -0.45907298 0.56109244 -0.33997878 0.51081 0.3010928 0.32350212 0.63312554 0.49075714 0.37377945 -0.065733664 0.35657692 -0.5754877 0.48668894 -0.14306867
410 -0.3838107 0.30001006 0.4141959 -0.29974693 0.33402163 -0.47072443 0.54302466 0.73951274 -0.731308 0.23939009 0.37889728 0.41264707 -0.7849553 0.26613694 -0.28524032 -0.087165095 0.21821705 -0.1856264 -1.2084156 0.79540974 0.42514032 0.4061517 -0.0987747 -0.49141267 0.0124500375 0.41768092 0.39766765 -0.37801248 0.6706511 -0.0072154165 -0.35568362 -0.4989877 1.0645567 -0.67966455 0.15419558 -0.66586214 0.3708177 -0.05390451 0.41686308 0.85586023 -0.50425667 -0.87885845 -1.3961928 -0.41282344 0.10328311 0.47087273 -0.41923475 0.5752181 -0.7643503 1.0170921 -0.34975526 0.21531591 -1.114066 0.30470055 0.13883474 -0.05955725 0.97986215 -0.38722527 0.22340028 1.0155773 -0.12775315 -0.35081333 -0.08492425 -0.2918236
197 -0.5771918 -0.4951999 0.22173871 0.53208286 0.46499836 -0.55031574 0.3765768 -0.34703094 -0.6703062 -0.4790991 0.22301914 -0.36431468 -0.42426145 0.14334145 0.17738716 0.1399491 -0.37863076 0.6191865 -0.56529087 0.2559465 0.26241133 0.6719187 0.44294706 -0.4211748 0.18169597 0.42154905 -0.37779924 0.5757402 1.0524822 -0.066214174 0.36205304 0.24361964 0.5369051 -0.84931916 0.39892805 -1.0437186 0.11585699 -0.49733612 0.7528539 0.70429695 -0.20125397 0.13035029 -1.4901282 0.19580851 0.99236417 -0.49944574 -0.58788496 -0.13643937 -0.3310343 0.91880804 0.1678142 0.20937677 -0.5273454 -0.07187655 -0.014666211 0.27173775 1.0550135 0.5592131 0.33031264 0.6483945 -0.52138263 -0.17757024 -0.031727556 -0.13110106
727 0.10191185 -0.98399395 0.32035634 0.76928926 0.21989755 -0.40882334 -0.47522563 0.53804314 -0.64367217 -0.20415589 0.40829587 -0.35189265 -0.33205262 0.27453375 -0.6154352 0.2411477 -0.10440141 0.7256049 -1.2987322 0.97500914 0.09209381 0.1491308 0.25425243 -0.4191528 -0.14784527 -0.1996351 0.6966721 -0.1347771 0.3582654 -0.5635544 0.32085907 -0.48733416 0.7452169 -0.67218345 0.03547431 -1.0671264 -0.2888758 -0.13231902 1.088843 -0.40051773 -0.3776116 0.43653846 -0.86602885 0.19993941 -0.15964893 -0.22688675 0.1729901 -0.21314639 0.6054143 1.426734 0.5676286 0.651138 -0.5957659 -0.5135987 0.45628202 -0.1971464 0.57795703 -0.12949835 -0.29486537 0.3096661 0.39919072 0.08838792 -0.5390944 0.3857517
43 -0.6472378 -0.39138955 0.7292597 -0.3930322 0.33104917 0.15473124 0.46717766 -0.039105963 -0.17160654 0.09555162 0.015702507 0.434454 -0.4166233 0.37772742 -0.6376267 -0.2278609 -0.75427127 0.2508383 -0.69427234 0.6767378 0.38378185 0.5389248 -0.20073295 -0.693214 0.27356082 0.3150542 0.42745453 0.63170946 0.39203072 -0.3984128 0.7314929 -0.87186855 0.89202446 0.32395115 -0.4831442 -1.1235718 -0.45203903 -0.38213193 0.11408138 -0.6343038 -0.50885355 -0.07979726 -1.5511184 0.26659232 0.22689888 -0.63983226 -0.4787238 -0.06842119 -0.63884896 0.73597485 0.18142802 0.16517569 -0.022385892 -0.4161925 0.43421134 0.4171752 0.5601319 -0.18099175 0.15296867 0.43837106 0.049798936 -0.44217932 -0.24222334 0.09122098
261 -0.75784755 0.4077852 0.43684518 0.27820462 1.0891331 -0.70691895 0.3262455 0.29233783 -0.38401723 0.52823657 0.9375297 -0.24974266 -0.6204196 -0.143247 0.24787006 -0.007932127 -0.47444755 0.18689533 -0.8835546 0.34226125 0.9737443 -0.27196968 0.25444007 -0.5662586 -0.39137018 0.34589744 0.30868372 0.7286358 -0.021886379 0.073209636 0.32505527 -0.8512735 0.17216003 -0.53656226 -0.39110407 -0.948639 -0.23937958 -0.54154307 0.03687188 0.0902189 -0.077647924 -0.9042087 -1.6219144 0.2889849 0.2617887 -0.07517246 -0.07871932 -0.6179037 -0.12909852 1.0671972 0.11160236 0.29711616 -0.14667673 0.41097677 -0.37336224 0.00031745143 0.2770259 0.18725336 0.0059052138 0.51250684 -0.06642589 0.2547261 0.16391887 0.5198783
212 0.20723085 -0.07045379 -0.4668663 0.85032064 0.33227143 0.03016011 0.2901798 0.7452165 -0.2566559 0.07849965 0.22026014 -0.49638587 -0.4047442 -0.22820058 -0.12682809 -0.43132046 0.44709772 0.78595394 -0.25609726 0.5221835 1.0270896 0.87384355 0.4596553 -0.70631254 -0.15003909 0.607351 0.40741485 0.4151069 0.20881556 -0.21099202 -0.07531168 -0.7935963 0.3331863 -0.61438966 0.17181523 -1.0903383 0.07933457 0.8909283 0.8081822 -0.61748475 -0.72975147 -0.6589684 -0.99714756 -0.10611331 0.59334606 -0.12710509 0.47746772 0.060200647 -0.26196435 1.2032217 0.33757055 0.4827113 -0.21878639 -0.1453114 0.39506778 0.68847764 0.744365 0.19374804 0.88773465 0.5934726 0.24210489 0.18283303 -0.3148205 -0.423404
605 -0.311489 -0.71026695 0.12537096 -0.10464625 -0.30407736 0.16588135 0.1817121 0.41419712 -0.31889614 0.063598566 0.077074 -0.46327102 -0.014607009 -0.1087905 0.18939586 -0.0024340814 0.20295362 0.7160077 -0.88889724 0.9033626 0.6531569 0.18935218 0.73858744 -0.40253413 0.80256885 0.41510493 0.27048668 0.6859354 0.8575751 -0.6600032 0.45640087 -0.7547668 0.37723318 -0.6806759 -0.26805112 -0.8132682 -0.24699754 -0.3991118 0.36250398 -0.36602384 0.12527063 -1.0287153 -0.8440292 -0.025786806 0.18633124 0.6923891 -0.37083355 -0.23676078 -0.5840536 1.0905459 0.12620232 -0.49100187 0.07739401 0.10679009 0.105938636 -0.35129243 0.44070685 0.47759098 0.24605249 0.66564345 -0.01611074 -0.0839978 -0.10218916 -0.29849994
399 -1.0187676 0.09316041 0.39987347 0.32809433 -0.046195194 -0.5746533 0.16331176 0.9970753 -0.0560471 -0.688845 0.24244636 0.1461398 -0.384093 -0.7661147 -0.39681208 -0.53703547 0.052261937 0.97435004 -0.28363058 0.4645459 0.7466495 0.5837671 0.404518 -0.4560856 -0.29191804 0.41356027 0.1951097 0.25807336 0.23237033 -0.23773818 0.7021296 0.0061669545 0.5469279 -0.45922944 -0.89099103 -1.125767 -0.39490548 -0.31865752 0.7434315 0.031750157 -0.9236889 -0.11827403 -0.8550826 -0.084471926 0.07529988 0.19925588 -0.6607014 -0.5320113 -0.29795405 1.0150166 -0.09091966 -0.029278269 -0.8340982 0.258879 0.40213236 0.3117522 0.18818142 -0.049118526 -0.46992925 0.43055934 -0.18902467 0.10232908 -0.15380129 -0.24719748
635 0.19442219 -0.45611697 0.5654833 0.7558362 0.113971725 -0.6431635 -0.07371718 0.71448034 -0.72303814 0.3828574 0.699417 -0.0074935183 -0.42971072 0.5103799 -0.35652384 -0.6468194 -0.23726465 0.32783008 -0.38419682 0.6556018 -0.0072207875 0.27986723 0.33256987 -0.30325276 0.09644578 0.5487989 0.29373094 0.61428565 0.52057576 0.10699042 0.56497866 -0.56821865 1.1547792 -0.6864411 -0.6277416 -0.88402367 0.5557519 -0.34593594 0.28627267 0.11387559 -0.031464983 -0.5460263 -0.60342014 -0.94118214 1.2278376 -0.5697789 -0.53791565 0.18041731 0.2413326 1.2678847 0.45358598 0.35959274 -0.42642784 0.24720089 0.4795305 -0.14597897 0.4064913 -0.68688744 0.1467489 0.47640544 -0.66831374 0.15406072 0.104059726 0.04537232
649 0.4711367 0.24255295 0.5352557 0.47735134 0.03493952 -0.8966088 0.16198693 0.7305383 -0.20753987 0.17161562 -0.09436874 -0.8778736 -0.9037177 -0.16019715 -0.34163368 -0.111202136 -0.48223093 0.6263272 -0.8955319 0.24193254 0.112015136 0.5125935 -0.1378967 -0.3784938 0.25404456 0.17907111 0.1609994 0.5290071 -0.45749328 -0.14277151 -0.24257128 -0.6034179 0.9818746 -0.18296579 -0.032103475 -1.5773457 -0.2561575 -0.27604136 0.08670281 -0.19376773 -0.04863661 -0.4074005 -0.5411531 0.18582954 0.41147092 -0.1241941 -0.8829002 -0.3569642 -0.44395444 0.8611943 -0.030648628 -0.07579836 -0.35324404 -0.027762126 0.28905416 0.16523059 0.9645986 0.39363557 -0.07165805 0.73354965 -0.29932812 -0.35092938 -0.1947992 -0.61013293
825 -0.597805 -0.34961218 -0.28681308 0.021026453 0.49580476 -0.5453937 -0.11961831 0.93130577 -0.024010431 -0.3261908 0.1595509 0.11685518 0.20686609 0.63290143 -0.5099292 0.3718427 0.41535455 0.2968015 -0.98905313 0.10053488 0.0033249843 0.088103935 0.027157566 -0.87563545 -0.21561511 0.21138862 0.1899373 0.8694935 -0.34519777 -0.5356917 0.057464585 -0.6537768 0.7733059 0.0064664558 0.051369265 -0.82169616 0.4636768 0.13935184 0.8077473 0.031759065 -0.6749379 -0.9264538 -1.4314852 0.19816439 0.49629912 -0.191067 -0.86983925 -0.28339335 -0.42868885 0.9645812 0.5395795 0.23331064 -0.22884472 0.066758096 0.6587426 0.17961925 0.28647608 0.46746516 0.014820894 0.78512454 -0.34368262 0.64357466 0.19572073 -0.2999803
753 0.05223413 -0.2836001 -0.47073287 0.067419484 0.21245009 -0.14088845 0.21962708 -0.0060674106 -0.1237222 -0.33642343 -0.02218797 -0.4521214 -1.0809224 0.6710299 -0.25752664 0.25567073 0.07186497 0.65945596 -0.38418382 0.29049525 0.5884632 0.7476677 0.46464235 -0.24671054 0.27807882 0.20520505 0.17565025 0.22171882 -0.19056474 -0.20358422 0.76433545 -0.94848293 0.69680107 -0.36665118 -0.31204212 -1.1712617 -0.30429202 -0.17313567 0.81934243 0.02852018 -0.49841917 -0.7250086 -1.0838466 0.94461733 0.32179525 -0.10177094 -0.47384992 0.09795421 -0.017022725 1.4192666 -0.09738009 0.29008713 -0.631444 0.638204 -0.007002541 -0.5825364 0.0504135 -0.7554542 0.093131684 0.24628435 -0.17495862 -0.068167016 -0.07717811 0.11813437
854 -0.37260866 -0.17107886 0.3192899 -0.07676126 0.6170937 -0.5488672 -0.027687253 1.225847 -0.4139959 -0.6420132 0.5232674 -0.06049828 -0.91829497 -0.28396317 -0.6413497 0.36288086 0.40814453 0.7567636 -0.8046847 0.9345965 0.04394936 0.044586726 0.54159606 -0.72444385 -0.17558415 0.3298602 0.06609292 0.5157641 0.14506078 -0.02075936 0.12732777 -0.5241507 0.9121612 -0.35225785 0.023609137 -1.2279108 -0.061480176 -0.08848432 0.12494171 0.15761404 -0.4927355 -0.119419284 -1.2209048 0.36830783 0.38698307 -0.36797908 -0.48182896 0.074858874 0.19021676 0.22481483 -0.4671945 -0.24740003 0.16781655 -0.039447162 0.2230768 -0.13153745 0.7289137 -0.1843489 0.76494586 -0.16881706 -0.037747998 -0.27008063 -0.15956062 0.9816747
802 -0.42947593 -0.47704926 0.34044656 -0.12883446 -0.46522117 -0.13383244 0.37144417 0.92946374 0.0020946248 0.024639152 0.34505722 -0.22776352 -0.43297386 0.46789852 -0.785963 -0.21315339 -0.4386768 0.4838625 -0.7536463 0.054265555 0.6955495 0.4632388 0.61283755 -0.46043846 -0.22499903 0.47766444 0.23983164 0.17067724 0.8140538 0.08960149 -0.13090275 -0.7072598 0.6658116 -0.47131214 0.64161086 -1.3520577 0.35515225 -0.67481 0.31835458 -0.14569408 -0.49183458 -0.11261869 -1.114625 0.3802264 0.22021236 -0.04528282 -0.4391056 0.0940704 0.96025276 0.8744963 0.7562293 -0.6733423 -0.3128878 0.47455525 0.5546908 0.45596284 0.17892845 -0.14225644 0.52435505 0.67415637 -0.013514502 0.030539537 -0.5298797 -0.36170006
592 -0.59763455 0.38536295 0.61807144 0.09225228 -0.0824128 0.35372126 0.11025487 0.17139807 -0.7990606 -0.4203713 0.5327187 -0.49504584 -0.6319958 0.3730166 -0.25045264 0.032579724 0.630233 0.7295563 -1.0243238 0.34966186 0.08008787 0.29395196 0.49603432 0.406841 -0.06242948 0.15399823 0.1441085 0.5272419 -0.012024857 0.24883147 -0.025579084 -0.9379523 0.9206191 -1.228486 -0.5622263 -0.7158878 -0.36469844 -0.3166097 0.47977775 -0.29523036 -0.3061835 -0.2451127 -1.008163 -0.051664148 0.4785079 -0.2471541 -0.4538343 -0.19274491 0.10379919 1.0005325 0.4637407 0.34847963 -0.028955303 0.2594548 0.5056115 0.75802034 0.50789493 0.042377446 0.10040684 1.0254072 0.5444635 -0.1586458 0.34513906 0.30952725
816 0.4659791 0.21402456 0.18168856 0.360085 -0.20888357 -0.33477992 -0.027898127 0.4668219 -0.2598234 -0.18365046 0.33500087 0.18125391 0.18301336 0.57769483 -0.22311816 0.5423608 -0.15622872 -0.09432998 -0.7637637 0.44389835 0.44391125 0.38194776 0.5935781 -0.013073264 0.29627302 0.60646355 0.8863262 -0.19949517 -0.1848907 0.013766234 0.60544795 -1.0231756 0.86606055 -0.77449316 0.65897024 -1.1373936 0.48056075 -0.34016845 0.478496 -0.26708075 0.18179408 -0.023694484 -1.4655614 0.014629475 0.44946942 -0.20072816 -0.32194337 -0.2934273 -0.67246425 1.284915 -0.1521431 0.28631675 0.077667534 -0.23389351 0.022231532 0.19709498 0.5054943 0.29607368 0.8065459 0.5542464 -0.45500568 -0.327692 -0.09588553 0.46819934
522 -0.566041 0.43853423 -0.040253177 0.21921529 0.11816524 -0.022701168 0.23168021 -0.008573796 -0.44008294 0.06850964 0.527142 0.086610466 -0.8051844 -0.0739919 -1.1276803 -0.21503602 -0.11173315 0.6442301 -0.8036363 0.7486815 0.14837943 0.83248466 0.7243066 -0.418514 0.72986954 -0.56987506 0.86724824 0.20596625 0.388567 -0.25045818 -0.1539996 -0.28162766 1.0889864 -0.68080807 0.101781726 -1.0088154 0.30356774 -0.25138912 1.0920973 0.04735353 0.30082524 -0.7067141 -1.226419 -0.2196317 0.5048485 -0.21534784 -0.5389017 -0.6824851 -0.34125838 0.45569468 0.45148554 -0.004370038 -0.4515915 -0.27651465 0.525547 -0.17912582 0.020166526 -0.14638194 0.23987496 -0.16105364 -0.16162415 0.20305729 -0.30263716 -0.18903176
726 -0.08312069 -0.5735651 -0.034618154 -0.20384412 0.056447458 -0.8944112 0.8946335 0.3014714 -0.9189074 -0.42914894 0.35983026 0.04555284 0.098322466 0.25458652 -0.385516 -0.089111656 -0.124537 0.3929141 -0.7202831 1.0586994 0.16336206 -0.12738395 0.4953102 0.031424034 -0.24872127 -0.048115656 0.052428704 0.47851327 -0.092422955 -0.18392617 -0.47933143 -0.76514083 0.5437863 -0.46954834 -0.38199142 -1.7627567 -0.30369344 -0.17567688 1.1790394 -0.3344733 -0.2988774 -0.24284227 -0.97782767 -0.49028468 0.3621359 -0.41523355 -0.25316295 -0.33001798 0.031518947 0.90919554 -0.20640366 -0.3123451 -0.5863717 0.23923923 -0.45309764 0.16125421 -0.01578617 -0.021980356 0.52038616 0.6637982 -0.2765132 -0.11811634 0.020917984 -0.23144749
863 -0.59237254 -0.37601015 -0.16268991 0.00038344887 0.67833906 -0.7357876 -0.1382715 0.88966155 -0.13900746 -0.26881084 0.1809398 0.085944325 0.107305564 0.7478543 -0.28161687 0.32327697 0.51022357 0.26713106 -0.90120685 0.2600472 0.05703858 0.26785636 0.046474602 -0.78086036 -0.10551711 0.26111826 0.21418342 0.88530356 -0.52758116 -0.48838022 0.10918106 -0.61044186 0.7114918 -0.11500077 -0.115809835 -0.9811338 0.5609751 0.14280185 0.7255246 -0.17887278 -0.556122 -0.6983717 -1.4550489 0.21172394 0.42568332 -0.09398424 -0.8052231 -0.17701824 -0.40488535 0.7716963 0.615117 0.21490632 -0.12436214 0.002308625 0.766646 0.15487358 0.18019092 0.5573754 -0.23541917 0.8932491 -0.36150116 0.54296273 0.11208444 -0.15441094
159 -0.5934536 0.33892083 0.597391 -0.28039947 0.15500079 0.3956899 0.0011868975 0.17599754 -0.90267766 -0.33525628 0.64150494 -0.57623565 -0.7374171 0.22487767 0.047398955 -0.118824154 0.64781296 0.4600063 -0.803501 0.24741463 -0.1675697 0.34953994 0.67798847 0.5214546 -0.03452061 -0.06723157 0.043487813 0.3732227 0.18164976 -0.11931146 0.010985353 -0.86102694 1.109099 -1.0796429 -0.33338985 -1.0031476 -0.24720497 -0.54812086 0.32718086 -0.14355893 -0.14863823 -0.3429358 -1.2134628 -0.14649306 0.54424685 -0.20357107 -0.06077742 -0.18988615 0.08601891 1.2574283 0.2876859 0.08848928 -0.26998028 0.13762127 0.8597293 0.7574388 0.50480354 -0.07407146 0.043916266 0.96693516 0.29655147 -0.44740602 0.40275636 0.35501656
609 -0.051042564 -0.26353788 0.28783092 0.12089475 -0.5724995 0.0023669594 0.40002787 0.026225396 -0.41393307 0.297933 0.21261875 -0.14959984 -0.4631253 -0.6431364 -0.5789317 0.17920788 -0.83374405 1.0804051 -0.371479 0.29942808 0.90971893 0.3859747 0.14450493 0.094071634 0.16129957 0.4694701 0.52751327 0.18816099 0.46976635 0.17285226 -0.1684319 -0.9270028 0.6743933 -0.5748287 0.004550632 -1.0206113 -0.6366115 -0.19934338 0.63958144 0.4061572 -0.53210735 -0.29746634 -0.8175375 -0.55488855 0.6183427 0.08274643 -0.50693494 -0.81548125 -0.028085163 1.2354124 0.13177226 0.16971098 -0.45810822 -0.021372315 -0.21237622 0.2890481 1.1124431 -0.65722805 0.53199846 0.0035319976 0.16915238 -0.44440097 -0.12513067 0.70510536
155 -0.0556946 -0.38530728 0.6936773 0.81510824 0.053342752 -0.66385347 0.022181544 0.49320948 -0.41940466 0.41883397 0.46797416 -0.10164229 -0.4543815 0.6078974 -0.32341346 -0.5214439 -0.42938006 0.4264539 -0.552889 0.83110636 0.036560107 0.2500466 0.30516636 -0.5711017 -0.003202124 0.6980145 0.2837397 0.5394287 0.35400224 -0.0013373126 0.5345998 -0.76703435 1.0638584 -0.59725314 -0.7986509 -0.6874131 0.49536186 -0.24222302 0.2996254 0.17545798 -0.02177259 -0.61823356 -0.68119717 -0.8655212 1.2246505 -0.5819176 -0.5951094 -0.015099972 0.2887457 1.1152557 0.4423257 0.3936761 -0.28387162 0.2431066 0.29534876 0.021347338 0.25362647 -0.7325793 0.106455065 0.4081667 -0.5113352 0.14334296 0.04730587 0.11571484
750 0.124812566 -0.39397272 0.21038906 -0.18666291 0.050295774 -0.69512355 0.20667997 0.5418044 -0.24848904 -0.575575 0.32306835 0.31227583 0.08008311 -0.298104 -0.527245 0.2915463 -0.16807035 0.73324865 -1.0481294 0.3649713 0.62507236 -0.1540667 0.39380926 0.37560457 0.542055 0.08942168 0.30433896 0.029802449 0.60810673 -0.47749993 -0.23670116 0.022574918 1.0506715 -0.674069 -0.1730493 -0.9815067 0.23532623 -0.3553542 0.28136498 -0.52895415 -0.14797282 0.03139785 -0.9938873 0.73100364 0.5671664 0.08514892 -1.2027229 -0.046596244 -0.12865089 0.8242486 0.18575932 0.65446466 -0.2325174 0.33846495 0.7886711 -0.25234908 0.5557714 -0.7049986 0.14953811 0.91154075 -0.36929923 -0.03911189 0.53252536 -0.06477388
532 0.05230016 -0.40058026 0.54280466 0.39985874 0.8041716 0.3420826 1.0656229 0.8342129 -0.2626683 -0.40160838 -0.17647693 -0.5322614 -0.036239773 -0.35791898 -0.5089691 0.2993742 0.045333926 0.70674074 -0.6338588 0.019949628 0.5609176 0.57102054 0.82384527 -1.2000101 0.011808825 0.49332148 0.3913967 -0.047983766 -0.41791007 -0.34552464 0.15218759 -0.42793223 1.1540098 -0.74265736 -0.48660353 -1.030704 0.01999664 -0.38795832 0.53084254 -0.26512906 -0.0017242453 -0.28296566 -1.3652042 -0.016943736 -0.40503725 -0.11776724 -0.5671809 -0.6744003 0.06882005 0.8738064 0.7692853 0.57902277 -0.06261176 -0.27942428 0.08554168 -0.64162666 0.3012334 -0.06450275 0.5157105 0.49920186 0.19655745 -0.3052431 0.56709415 -0.1305467
881 -0.32753175 0.028566336 0.4947415 -0.077272534 -0.07235328 -0.5188158 0.48200732 0.6609614 -0.31523272 -0.05299677 0.84215575 0.04773458 -0.7380371 -0.06541983 0.22178498 0.24846722 -0.11897268 0.34614888 -1.270775 0.67371243 0.48561227 0.30657312 -0.25096536 -0.5244397 0.23569089 -0.05820463 -0.062096693 -0.47675753 0.332997 -0.1588554 0.4867682 -0.6845946 1.2078367 -0.63422596 0.44170818 -1.049003 0.12747489 0.09536365 0.25397924 0.081819355 -0.7771059 -0.66921556 -1.5674734 -0.54253197 0.6783397 0.5111749 -0.35673904 0.72633713 -0.51727176 0.60362184 0.35236153 0.12810603 -0.8992816 -0.0890854 -0.11029024 0.13442609 0.080328755 -0.3052119 0.063881055 0.29674974 -0.034875523 -0.33814892 0.50840324 -0.39097482
75 0.010525719 -0.3218174 0.29830882 0.32680914 0.43023807 -0.12556924 0.3602489 -0.539316 0.18414168 0.03315518 0.22093602 -0.25137046 -0.26009685 -0.27873462 -0.3830633 -0.047156014 0.3459755 0.21602522 -1.3786705 0.75370777 0.579863 0.46077958 0.94738305 -0.48081616 0.109733686 0.4094826 0.5734366 -0.07082724 0.03158414 -0.24486108 0.2856247 -0.18574531 0.22594334 -0.13410872 0.14535294 -1.6676682 0.16989149 0.011797705 0.276655 -0.030377723 -0.9537837 -0.44752356 -0.96852833 -0.6020695 0.57736725 -0.24017462 -0.7546283 -0.093740344 0.35626367 1.1431122 -0.4459843 -0.3167159 -0.11138708 0.16084483 0.76540315 0.07140941 0.6028336 -0.10896818 -0.093588 0.73512113 0.038396776 -0.079316735 0.59940547 0.23130877
364 -0.08904096 -0.39827317 0.26444298 -0.036380403 -0.30526927 -0.7770483 0.31711257 0.41717198 -0.4692673 -0.25536063 0.4415307 -0.9647174 -0.33683884 0.1259943 -0.7948341 -0.6339388 -0.13123731 0.38778636 -0.1833815 0.20199232 0.330616 0.05797445 0.2891225 -0.18165582 -0.03105787 0.40367687 -0.05907731 0.11790346 -0.10703003 -0.4812298 0.25819242 -0.55973345 0.6397981 -0.7359277 -0.33805954 -0.6816564 0.22856127 0.28183556 0.17410037 -0.8812979 -0.2953075 -0.48657972 -2.2661204 0.016826477 0.26753443 0.20138285 -0.55503863 -0.44280213 -0.61141676 0.6786875 0.52438134 0.20787688 -0.34157753 0.34971818 -0.25100982 0.07939089 1.1612934 -0.16312695 0.24115634 -0.31943533 -0.30641365 0.4304915 -0.15139183 0.20119637
798 -0.03671177 0.3698722 0.45050806 -0.12775889 0.024372175 -0.46967772 0.4829862 0.2911304 -0.98041075 0.06804729 0.597145 0.12963355 -0.3045183 0.21600048 -0.23420995 -0.33048648 -0.2995972 0.6224653 -0.022374932 0.013096122 0.50053674 -0.09788434 0.7314741 -0.7840774 0.8210146 0.9807812 0.41546732 0.38438386 -0.25406176 0.49567544 -0.11807817 -0.2593122 0.72405803 -0.083626814 -0.14490439 -1.3922596 -0.07253343 0.052478407 0.86283666 0.26974252 -0.96377146 -0.3472001 -1.5300268 0.40955454 0.9629874 0.5101047 -0.493108 -0.21282758 -0.28481442 0.40751883 0.124212556 0.21203864 0.19442876 0.10331168 0.47725397 0.024912065 0.38027275 -0.25280473 0.15947106 0.6041158 -0.08795653 -0.14981343 0.16213511 -0.2532938
766 -0.53786427 0.51810396 0.6110014 0.012475538 -0.04791784 0.20015553 0.15713659 0.20674609 -0.5622142 -0.7027366 0.464134 -0.49726382 -0.5520507 0.46388537 -0.27504596 -0.038645435 0.44936785 0.7991021 -1.0388536 0.28233588 0.23887767 0.35399365 0.3448724 0.19617218 0.05807537 0.18385737 0.27537137 0.6511641 -0.13218284 0.2736259 -0.05386291 -1.0439111 0.7532726 -1.3511175 -0.37975824 -0.44875646 -0.3190117 -0.22964065 0.6524931 -0.49355504 -0.36375403 -0.2740945 -1.0170695 -0.08255871 0.50335217 -0.27271205 -0.34754264 -0.32969356 0.05688927 0.7581292 0.51009053 0.3283455 -0.18946908 0.27424055 0.55734193 0.53556806 0.6264343 -0.049919397 0.08738947 1.1575925 0.58539766 -0.35089815 0.34673816 0.20108949
156 -0.6193445 0.073743425 0.47188208 0.15278578 0.30122024 -0.04104626 0.32475775 0.69370604 -0.32420385 0.12165107 0.30721697 -0.22487232 0.27977967 0.07303881 -0.49157315 0.45131952 0.35219756 0.4877911 -0.747264 0.27719206 0.575953 0.322671 -0.18278664 -0.7079508 0.22312678 0.511815 0.33440214 0.7972022 0.31386542 -0.032216594 -0.3763349 -0.16211973 1.2624214 -0.95842934 -0.029700927 -1.2703924 -0.49167833 0.10074009 0.86760026 -0.32773536 0.16067171 -0.15736589 -0.94093704 0.20180346 0.4939886 0.07702954 -0.037295014 0.08141779 -0.2088633 1.3804055 0.13761312 -0.2220837 0.08460695 0.07253354 -0.13177407 0.3425721 0.23991753 -0.8309807 -0.4465703 0.17981985 -0.9996358 -0.47813654 -0.2427762 0.19674335
62 -0.50044805 -0.24073973 0.45866024 -0.30166736 -0.18264306 -0.67990404 0.111255825 0.02148466 -0.09402162 -0.30831078 0.22289975 0.10679321 -0.21255128 -0.041718427 -0.48828408 0.49465698 -0.49587685 0.56202996 -1.0999304 0.6527809 0.21777797 -0.42736274 0.5402833 -0.2614358 0.0659074 0.14998794 0.15327372 0.13827126 0.33160424 -0.69857985 -0.34927955 -0.31261072 1.1161925 -0.43595967 -0.27212644 -0.6602369 0.061332636 -0.86515516 0.092552416 0.0005559464 0.16571292 -0.115811504 -1.3114971 0.42020065 0.5009926 0.2527616 -1.1499277 -0.76250887 -0.06531061 0.85905594 0.025212804 0.52594185 -0.2081206 0.39078695 0.3013224 -0.5305834 0.38365042 -0.7759674 -0.34876898 0.87403613 -0.21594754 -0.16065928 0.3803758 0.2050577
761 0.5448712 0.23978902 0.4147467 0.5364825 0.17163321 -0.7535829 0.029569464 0.7434027 -0.1342411 0.36574867 -0.20748627 -1.0150455 -0.7643406 -0.19515087 -0.29907253 -0.09592784 -0.5727147 0.688576 -0.91729957 0.37517974 0.19027555 0.48214072 0.039112665 -0.2708736 0.27199307 -0.0032757984 0.090455115 0.553169 -0.4082215 -0.14865457 -0.42843977 -0.66164136 1.028427 -0.33992317 -0.0012411723 -1.3899307 0.049008623 -0.2767294 0.11436978 -0.2592804 -0.3110036 -0.395396 -0.6128079 0.37110826 0.42171934 -0.12985851 -0.7690754 -0.48922402 -0.5870275 0.90203655 0.047328006 -0.1542529 -0.39475837 -0.13175046 0.42177477 0.26198405 0.8408165 0.16341738 -0.08360458 0.6822173 -0.13727367 -0.5624753 -0.20441373 -0.5542256
290 0.19841638 -0.4567743 0.13339652 -0.13013452 -0.038051356 -0.67621726 0.3093604 0.45859066 -0.3342232 -0.4999313 0.38761696 0.2466857 -0.036631763 -0.3129121 -0.39727193 0.13403055 0.13352057 0.7538967 -0.81273246 0.50883925 0.7288734 -0.055499658 0.2973518 0.21494293 0.35878116 0.34402066 0.21853392 -0.12352456 0.5918428 -0.76127434 -0.36273995 -0.15695633 0.98619455 -0.83312076 -0.2465956 -1.0950358 0.20325188 -0.10967386 0.16759332 -0.46642378 -0.021486383 0.048562687 -0.874518 0.88405675 0.61739194 -0.024248222 -0.9745216 -0.024665494 -0.080758065 0.95098376 0.0950899 0.7296876 -0.28768933 0.23616491 0.9885509 -0.27668127 0.6283993 -0.56056416 0.2131734 0.96604866 -0.4364887 0.13669308 0.5945599 -0.080803126
724 -0.08496382 -0.29949912 0.51008844 -0.43041125 -0.092525974 -0.8459482 0.16543297 0.32756925 -0.11642219 -0.5935083 0.45909593 0.26729712 -0.05105991 -0.14455436 -0.5758517 0.40878215 -0.40083912 0.7003233 -1.0169151 0.41504234 0.4683285 -0.17181991 0.47871017 0.11920138 0.42385003 0.09002541 0.29837278 0.14922963 0.4949396 -0.5192617 -0.20464379 -0.024662582 1.0523593 -0.41771406 -0.07291232 -0.7578471 0.13495551 -0.602475 0.08943884 -0.30069736 -0.041228123 -0.10873456 -1.1275543 0.39557147 0.59011567 0.101941295 -1.0706363 -0.3313954 -0.15032208 0.8237248 0.21503557 0.52940834 -0.2726627 0.48998144 0.44075257 -0.6642269 0.5629808 -0.78596 -0.10210437 1.0333041 -0.56239784 -0.07248285 0.48116654 0.07330776
505 -0.15797926 -0.32252175 -0.33200428 0.34121332 -0.1922487 -0.29315746 0.3360199 0.38200152 -0.3588158 -0.58069324 0.20999338 -0.41345933 -0.44657165 -0.21597324 0.3996382 0.014920234 -0.023767708 0.18821333 -0.9331104 0.25182506 0.24369642 0.12847243 0.052868865 -0.5579639 0.40357292 -0.039066512 0.7516581 0.28030103 0.19772232 0.17800514 0.009422662 -0.40771562 0.62190163 -0.5742449 -0.65072775 -1.3913692 -0.07056102 -0.076679714 -0.16914523 0.22470783 -0.26042363 -0.37582916 -1.6593796 -0.024702203 0.23596635 -0.29724044 -0.3356379 -0.40495542 0.036492217 0.75172865 0.3829947 -0.1850657 -0.051165365 -0.869632 0.13645504 0.0815229 0.43994 -1.0414908 0.29690647 1.1618782 -0.100607 0.69731456 -0.61672956 0.25096825
321 -0.5376215 -0.34619293 0.3901215 -0.18908666 -0.47072694 -0.13052712 0.36529338 0.7793707 0.034008346 0.05229631 0.30924025 -0.15774466 -0.6465286 0.38075748 -0.8108643 -0.046272155 -0.4449232 0.41572848 -0.6227641 -0.08438706 0.5840937 0.2015437 0.746205 -0.53402334 -0.4583821 0.54859257 0.39105573 0.08011374 0.7303652 0.06870433 -0.16144948 -0.81203085 0.5954876 -0.59096473 0.5333811 -1.2533019 0.23949313 -0.5129699 0.29853553 -0.16423164 -0.47891155 -0.2012335 -1.1446291 0.33044818 0.3591846 -0.09234275 -0.29143006 -0.01615714 0.8628318 1.0723385 0.71326107 -0.607319 -0.30465028 0.49135703 0.5566461 0.15966126 0.35814446 0.032438118 0.46446693 0.60971075 -0.2202062 0.18103793 -0.6030548 -0.48229903
146 0.15964755 0.17147705 0.42529348 0.06541309 0.27938107 -0.8899974 0.10718132 0.87018555 -0.10120231 0.049168624 -0.07441407 -0.7064336 -0.830603 -0.11609994 -0.0052572098 -0.58633536 -0.16127011 0.24897422 -1.2979478 0.4633606 0.1650264 0.46291482 0.073671654 -0.32332787 0.22707586 0.1909348 0.03771049 0.3344 -0.27387357 0.054552462 0.0058412123 -0.23295343 1.2291956 0.115561225 0.24049768 -1.7627635 -0.64987886 -0.5927246 0.34479454 -0.2450583 0.4726235 -0.75520635 -0.58558303 0.16524096 0.58405894 -0.06186931 -0.6020905 -0.36161748 -0.18810791 0.7005874 0.40287897 0.3334726 -0.31442812 0.039038308 0.15799895 -0.00080699107 1.0153785 0.13745178 0.20746452 0.68915766 0.14545974 -0.13330725 -0.23056188 -0.443009
411 -0.2436282 0.49859738 0.052763917 -0.22930704 -0.11586549 -0.12875411 -0.00056766695 0.7177722 -0.6377303 0.56177896 0.13589814 -0.13429488 -0.35529464 -0.5411947 -0.03467082 0.082201794 -0.20268072 0.22335328 -0.93486404 0.48646203 0.0599564 0.030885966 0.6188839 -0.46672675 -0.07212859 0.18841209 -0.46149614 0.49155617 0.75321704 -0.41433853 0.41370705 -1.2069919 0.37611187 -0.8436353 0.06701489 -1.5457922 0.11565254 -0.1004478 1.4401318 -0.18041375 -0.51069564 -0.5492252 -1.1340116 0.08189057 -0.24927789 -0.42463988 -0.7176958 -0.3265076 0.2100953 0.7283512 -0.20939994 1.3473963 0.106194034 0.05750161 0.4344115 -0.10968998 0.8694262 -0.13961655 -0.11755657 0.17041506 -0.34111652 -0.1651034 -0.032976773 -0.2647422
700 -0.074887775 -0.4762151 0.5205502 -0.10505758 0.6503369 -0.4949175 -0.058249347 0.51485384 0.29702207 -0.3200513 -0.024311801 -0.16474372 0.21896446 0.14873171 0.50634074 -0.73301446 -0.15903044 0.16681202 -0.74857295 0.09128979 0.75312597 0.02606592 0.23222919 -0.6531898 0.3189887 0.025590166 0.34511077 0.3049209 0.33048013 -0.3760221 -0.1356529 -0.75281614 0.9450515 -0.9133524 0.040993825 -0.989032 0.36423066 -0.46709788 1.109466 -0.00583411 -0.61216253 -0.5763614 -1.3097757 0.14244421 0.7678734 -0.5565854 0.34923315 -0.4397067 -0.23521529 0.5376501 0.0072087236 -0.15154848 -0.53353596 0.3637057 0.6204033 -0.49164563 0.76536196 -0.6119956 0.23810518 0.06562749 0.36369306 -0.47299471 -0.028200544 0.16168806
303 -0.028789768 -0.7929769 0.542257 0.5015047 0.14598691 -0.5462251 -0.0061521614 0.5293749 -0.027928473 -0.28116614 0.5017211 -0.33301288 -0.32955635 -0.07532358 -0.4194036 0.65118074 -0.23742454 0.91216666 -1.3229839 0.9343562 0.17912096 0.18094794 0.087005064 -0.46389985 0.16720201 0.123705596 0.8475415 0.15155615 0.48865375 -0.26088008 0.50837946 -0.8974401 0.26870072 -0.39424366 -0.2643391 -0.33959803 -0.4784972 0.019255312 1.1953664 -0.3434733 -0.045344267 -0.1040295 -1.134069 0.040356632 0.07320523 0.055069506 0.27084553 -0.15171768 0.16229203 1.1972684 0.38898772 0.06548958 -0.5372065 -0.12204291 0.25251034 -0.6054638 1.2290484 0.4733395 -0.35641834 0.4428702 -0.1549285 0.23170984 -0.36887625 -0.008620814
57 -0.23477085 -0.3049279 0.39661247 0.57178146 0.71310043 -0.45564553 0.578309 0.67345303 0.5872218 -0.690084 0.65062946 -0.2830589 -0.7875569 0.19635952 -0.9116329 -0.24191716 -0.6790822 0.30271566 -0.54840875 0.27789798 0.23723625 0.62311506 -0.1844564 -0.20535986 -0.12802865 -0.061915793 0.45874333 -0.1853723 0.2524892 0.5857639 -0.46378174 -1.1149962 0.85902286 -0.3127953 -0.068097055 -1.4188597 0.103831984 0.24796253 0.85640985 0.1245495 -0.41683814 0.064539425 -1.4271028 0.010081694 0.6219354 0.085101046 -0.049359716 -0.4774069 -0.241569 0.5948061 -0.06853564 0.8272892 0.06945122 0.34640032 0.655733 0.51704794 0.41148072 -0.31123167 -0.47521502 0.7312535 -0.66475993 0.24344698 0.15113758 0.6387388
598 0.030959412 -0.3524557 0.4270871 1.0579679 0.030714357 -0.7750433 0.0055139516 0.4666554 -0.25334674 0.14704767 0.27888665 -0.11273368 -0.33681998 0.50975144 -0.36037406 -0.46763197 -0.71183306 0.5375842 -0.44870394 0.9093265 0.2347244 0.30453187 0.23886526 -1.0496756 -0.032603726 0.8963853 0.40222582 0.62755954 -0.060811423 -0.12370637 0.53893596 -0.91911525 0.86464673 -0.616693 -0.72958624 -0.7439863 0.40401706 -0.15835835 0.5653791 -0.12187243 0.13492736 -0.686266 -0.6736838 -0.7578345 1.1510682 -0.44555494 -0.7491805 -0.2983292 0.41457173 0.9058076 0.32809353 0.435414 -0.19200824 0.16609374 0.15465249 -0.17568146 0.11700919 -0.74158067 0.07614174 0.31231368 -0.16298203 0.3448938 -0.032957744 0.1240498
409 0.21571752 -0.3906451 0.27167276 0.11712998 -0.646604 0.05616556 0.45392692 -0.025359629 -0.4302593 0.13751988 0.1637763 -0.063504994 -0.30523035 -0.6496689 -0.5987744 0.10749936 -0.6803519 1.1940277 -0.28144702 0.34043208 0.86890787 0.4880679 0.15972058 0.118541844 0.15624453 0.48675725 0.4922473 0.18680465 0.5721326 0.1570227 -0.1256667 -0.83206266 0.724225 -0.7309145 0.06573355 -1.1075909 -0.45809898 -0.14959566 0.70524365 0.23939455 -0.5398243 -0.28769225 -0.5964741 -0.42832118 0.7141519 0.08025273 -0.49455464 -0.6559837 -0.09436821 1.2695053 0.08886833 0.20158467 -0.6093145 -0.24494058 0.12725316 0.21211977 1.109217 -0.81071764 0.5735937 0.058445208 0.121785596 -0.42181695 0.024030112 0.70529425
640 0.14047697 -0.42942634 0.43192166 -0.29624677 -0.24980038 -0.21527582 -0.10950464 1.0645367 0.03640805 0.38244095 0.48900247 0.13654839 -0.15651633 -0.22329658 -0.21504565 -0.12286346 0.22724704 0.32872462 -0.43399084 0.45445478 0.37393308 -0.19248664 0.2061301 -0.38342336 -0.34610605 0.30605137 0.56618655 0.2636609 -0.6609441 -0.38455993 -0.036828995 -1.3207394 1.0938234 -0.10175362 -0.6422278 -1.3123809 -0.105882004 -0.071830474 0.040729087 -0.69457114 -0.7839701 -0.634338 -0.8658694 -0.22775407 -0.061370756 0.72573555 0.033238783 -0.13372807 0.26479208 1.4906337 -0.17146194 0.4872716 0.07455615 0.2785448 0.30799568 0.02231773 0.3753889 -0.6419742 0.09642403 0.6936175 0.08603774 -0.06916029 -0.08419185 0.37501284
473 0.4333701 0.30145797 0.5133875 0.27194336 0.036236875 -0.94934416 0.14828582 0.7043116 -0.019217446 0.11113907 -0.08825387 -0.8565369 -0.86999017 -0.18511488 -0.12277377 -0.28719267 -0.33908245 0.5630599 -0.9197144 0.4147032 0.23637152 0.4274141 0.046806384 -0.5269856 0.11083573 0.16335294 0.13958915 0.38896036 -0.37860477 -0.1624602 -0.22114143 -0.5100241 1.0564549 0.012224844 0.21696061 -1.493334 -0.33622313 -0.30352378 0.12726887 -0.17013904 0.07156489 -0.62093365 -0.5481853 0.15116945 0.6046528 -0.21892896 -0.6703524 -0.50099325 -0.49583393 0.9539498 0.21153769 0.11648361 -0.3596827 0.0092423605 0.23773001 -0.08499271 1.0646975 0.30569354 -0.047936384 0.71527344 -0.16985998 -0.40885547 -0.3421483 -0.6932336
660 -0.6164635 0.22315305 0.7697826 0.64512575 -0.6906975 -0.27968657 0.20958328 0.43926418 -0.5857939 -0.7663749 0.36351192 -0.45481056 -0.39646205 0.50355786 -0.6310776 -0.1356349 0.26387846 0.30648705 -1.2194993 0.4381352 0.8337576 0.02075103 0.62398857 -0.31906214 0.020930355 0.033490922 0.68487936 0.8806189 0.062105384 0.1852655 -0.005636018 -1.0529885 0.47465685 -0.6856293 0.049703456 -0.6518305 -0.4602336 0.13978082 0.391167 0.0051292847 -0.5583018 -0.5597386 -0.8669233 0.06444143 0.08370964 -0.6112805 -0.4837336 -0.12677757 -0.5247563 0.4573263 0.46455723 0.6229984 -0.15580256 0.50322366 0.33274814 0.056865297 0.58843017 -0.33886364 0.21579508 0.76155835 0.65598685 -0.2562587 0.4325206 0.03820787
569 -0.43149227 -0.3324381 0.4498444 0.37626332 -0.16311583 -1.0175469 -0.08582626 0.46375418 -0.41773105 0.16859463 -0.067537226 -0.6135858 -0.87927145 0.10924721 -0.24676184 0.015560249 0.6474459 0.94129974 -0.8583863 -0.1637954 0.60792416 0.84616494 0.5844158 -0.6228574 -0.20432755 -0.05498413 0.8455544 0.013469796 0.12937565 -0.3254839 0.2749554 -0.45951816 0.64285666 -0.76602304 0.046630822 -0.7316381 0.13808206 -0.46724516 0.368735 0.43724513 -0.35957852 -0.5329545 -0.90569097 -0.023521103 0.47592717 1.0330672 -0.34586722 -0.33448297 0.05954011 0.8994021 0.23931868 0.55868 0.63936704 -0.24757613 0.32618463 0.29433012 0.73337907 -0.3571884 0.17963931 0.3028299 -0.9083846 -0.036992222 0.45268586 0.28507337
771 0.12502532 -0.48464912 -0.21527506 -0.13934208 0.07262784 -0.48121166 0.10829215 0.37608567 -0.87860674 -0.239461 -0.3063667 -0.23815878 -0.7545512 -0.100920014 -0.65947944 0.2571398 -0.22257017 0.4656464 -1.1928257 -0.23734309 0.88025033 0.06815053 0.53915215 -0.1928472 -0.20604868 1.113131 0.328239 0.3726984 0.6091567 -0.34077895 0.05358436 -0.47954988 1.4722472 -0.4448971 -0.1706805 -1.3547573 -0.056860056 -0.17231555 0.2549764 -0.054813273 -0.4962361 -0.4562267 -1.1206301 -0.3191738 0.48117772 -0.4444451 0.5126343 -0.24604125 -0.4760523 0.5991199 -0.16491054 0.383228 0.10601356 0.010438001 0.08649457 0.086969525 0.13799101 0.30131015 -0.72443026 0.26158455 0.16338435 0.4553961 0.2951847 0.22611274
