228 64
100 -0.04515883 -0.39789778 0.3393296 0.043253265 -0.018791752 -0.11186411 -0.11874761 0.052391075 -0.004310783 -0.09407355 -0.030282719 -0.17038205 0.062034454 -0.13962704 0.14491034 0.22256187 0.14737795 0.0047442066 0.009681416 -0.1361199 0.20070186 -0.12703507 -0.030134449 0.1064644 0.16513607 -0.12708694 0.031015018 -0.21603249 -0.19876526 0.19766048 0.0854827 -0.0072837407 0.0155470865 0.0437109 0.06675141 -0.059453543 0.22152528 -0.36149466 -0.017221453 0.07778013 -0.43247628 -0.076826826 0.18703404 -0.0732799 0.10480302 0.099162 -0.12633745 -0.15089114 0.041029785 0.12817031 0.07306512 -0.22940087 -0.052829217 -0.21157986 -0.3830026 0.28667194 -0.04622126 -0.15684181 0.19116285 -0.10838739 0.044973668 -0.19914494 0.037059717 -0.15450378
83 -0.104991734 -0.44548693 0.30482265 0.17659213 -0.025006529 -0.1226406 -0.071326084 0.049334444 0.043582965 -0.054116648 -0.009707927 -0.23291844 0.10063382 -0.15538979 0.15066929 0.17387511 0.111932784 0.04289161 0.07940318 -0.09158311 0.2806724 -0.16192232 -0.030771846 0.1257285 0.08404283 -0.22281532 -0.0016844748 -0.21294434 -0.3165656 0.14453582 0.1260615 0.112076335 0.07261189 0.03127743 6.89991e-05 0.07589191 0.1635216 -0.38385698 0.004292592 0.15806006 -0.44008413 -0.09860592 0.17240763 -0.100718826 0.22934288 0.106556505 -0.06699374 -0.14932546 0.14708039 0.05052711 0.02743932 -0.20711592 -0.042289544 -0.18734656 -0.38178673 0.23028071 -0.115587525 -0.13130385 0.22845209 -0.06415306 0.053510107 -0.09909742 0.033510942 -0.07781215
107 -0.15218553 -0.42094716 0.310246 0.11785536 0.097116195 -0.14793068 -0.11040865 0.004194584 -0.04352332 -0.10165326 -0.088881634 -0.16434592 0.07688467 -0.114670016 0.09961886 0.28394753 0.13133918 0.030594865 0.1206065 -0.0791717 0.09362132 -0.13349928 -0.0055240854 0.103328004 0.09358758 -0.1992919 0.036559086 -0.19559605 -0.16655938 0.18977128 0.1453902 0.000559432 0.07752223 0.009123866 0.094513975 -0.057766978 0.2381738 -0.3844178 -0.031260863 0.15995012 -0.33105198 -0.1295622 0.11173353 0.013592807 0.17029293 0.15292147 -0.18137065 -0.22259957 0.15541102 0.09859686 0.12534088 -0.19992442 -0.04358779 -0.19424716 -0.38767168 0.16500606 -0.020621223 -0.18042766 0.2030957 -0.074517824 0.0807408 -0.25127956 0.14455849 -0.1244502
102 -0.13834159 -0.46719486 0.38313428 0.177705 0.031172773 -0.15469924 -0.107876 0.07233966 0.04364913 -0.0877552 -0.035119843 -0.18576896 0.10437496 -0.18539752 0.13959573 0.16043746 0.092958085 0.1059506 0.10395804 -0.23755936 0.18338116 -0.15309687 0.04215091 0.13118725 0.058761943 -0.07382362 -0.010895624 -0.20529096 -0.19471858 0.14454484 0.21820192 -0.0069323266 -0.06653168 0.02911249 -0.014920473 -0.02623987 0.29219043 -0.36663577 -0.0071310494 0.15632772 -0.41797507 -0.1318151 0.08604249 -0.0762987 0.22344327 0.23010133 -0.0968288 -0.25934306 0.1678253 0.10195333 0.11849229 -0.12867337 0.009195243 -0.32439405 -0.33869132 0.19378877 -0.15663053 -0.32361507 0.2239348 -0.028503183 0.017617553 -0.15619749 0.042420316 -0.09511892
22 -0.09280137 -0.4759056 0.3377193 0.20512077 0.18009162 -0.08768186 -0.14997236 -0.08303941 -0.0020644383 -0.06456229 0.08101392 -0.09103691 0.08756968 -0.12722789 0.317253 0.20349352 0.18554685 0.07434659 0.06750794 -0.16130777 0.17361487 -0.17132378 -0.13257696 0.07724614 0.088701114 -0.11057561 0.06544852 -0.27780676 -0.21366265 0.27028164 0.112620056 0.046778332 0.010642626 -0.069604926 -0.11890386 0.034666944 0.26596847 -0.46793252 -0.026257547 0.21758586 -0.41121382 -0.13848688 0.077672474 0.0073900805 0.10644867 0.17734921 -0.13304591 -0.22288664 0.081654675 0.06628628 0.039680377 -0.31120023 -0.07015269 -0.21050578 -0.43965265 0.1892033 -0.06510247 -0.3102369 0.1578309 0.007761377 0.021658259 -0.13431664 -0.03349745 -0.012343451
63 -0.09583672 -0.5818614 0.20260888 0.16407101 0.14309743 -0.04842203 -0.28136498 -0.053451873 0.02348006 -0.0806373 0.029139997 -0.09011125 0.16805786 -0.21418467 0.25291798 0.2086006 0.027017092 0.044851165 0.056827255 -0.2173668 0.15402529 -0.18199778 -0.096286945 0.03798124 0.06651482 -0.1366292 0.09705134 -0.12782404 -0.2156703 0.29482958 0.22513661 0.07836572 0.078418575 -0.06274226 0.0023613288 -0.06876872 0.13384166 -0.41506633 0.043060843 0.18321829 -0.3638752 -0.18047903 0.029642677 -0.15866049 0.1428608 0.11388502 -0.078078 -0.21279132 0.058218148 0.061787397 0.070915334 -0.21066108 -0.06568496 -0.15285595 -0.4221869 0.18118311 -0.10584076 -0.23160544 0.21372353 0.067416154 0.0204216 -0.17579567 0.06417135 -0.08405852
87 -0.19680242 -0.37795395 0.35766914 0.049593322 0.06808734 -0.13430558 -0.18534282 0.06686547 0.012146122 0.028154694 -0.08774832 -0.14150572 0.060769457 -0.11235348 0.16424036 0.16708347 0.036810994 0.06907417 0.021356788 -0.08846427 0.2359639 -0.16900407 0.0012427863 0.16945839 -0.0075286026 -0.16555203 -0.029502498 -0.1750487 -0.291434 0.012604637 0.07556857 0.025798522 0.045810968 0.07458322 -0.0040566847 -0.040359598 0.24328 -0.22939454 0.07993782 0.09073283 -0.3654571 -0.11132508 0.123701245 -0.03294832 0.09322842 0.25413626 -0.11967808 -0.18173523 0.14694053 0.08419668 0.09430152 -0.09061235 -0.09824493 -0.23093991 -0.4714159 0.21671359 -0.103615135 -0.13461548 0.17304727 -0.0012988404 0.07952841 -0.2113698 0.09913916 -0.036673587
104 -0.2312004 -0.49150696 0.27593026 0.11374887 0.042681485 -0.098082624 -0.17398097 0.07038332 -0.019947868 -0.12443231 -0.041586448 -0.12410512 0.08527461 -0.13879628 0.2767166 0.09770981 0.18752134 0.087882295 0.1551173 -0.20307402 0.14783706 -0.06843219 -0.09836911 0.16745715 0.055672582 -0.1883067 -0.01135897 -0.17389177 -0.18257098 0.14834319 0.17119202 0.15428592 -0.100328624 -0.08553547 0.022781273 0.04291176 0.26911786 -0.4004471 0.017051574 0.16430342 -0.44451174 -0.06663647 0.09063093 -0.08789373 0.16528086 0.118362956 -0.12028134 -0.26826826 0.095752485 0.13891128 0.12306346 -0.18638897 0.111166 -0.20303659 -0.4814393 0.22332434 -0.05360419 -0.31437036 0.07949318 -0.02559349 0.082925655 -0.22084747 0.09050795 -0.07889917
90 -0.13481992 -0.43552023 0.2440426 0.2329316 0.071776986 -0.10080251 -0.15861964 0.047462936 0.03493952 -0.016990798 -0.09619456 -0.21754216 0.11580156 -0.100649476 0.21403699 0.13304576 0.18230174 0.08411837 0.042335175 -0.11744114 0.14828235 -0.12852117 -0.032953836 0.06873909 0.14642666 -0.12920606 0.04099516 -0.18519914 -0.28503194 0.2424145 0.122211605 -0.03414577 0.014350573 0.061031178 0.07317195 0.042277638 0.2783177 -0.44300318 -0.017197827 0.23053734 -0.4008334 -0.14914845 0.21293452 0.011576302 0.21173793 0.08663725 -0.15403311 -0.2714805 0.19414584 0.025908573 0.06228924 -0.13495572 -0.009875054 -0.25331163 -0.41257328 0.2504091 -0.11099782 -0.25026283 0.19963664 -0.05664306 0.016439186 -0.23638482 0.084615245 -0.07414447
67 -0.10375518 -0.54638654 0.32462072 0.109287396 0.10660554 4.3975433e-05 -0.16372415 -0.066936575 -0.03072632 0.030566035 0.011036552 -0.22005156 0.106963426 -0.16536076 0.2951708 0.101077035 0.08990949 0.002964278 -0.023262126 -0.1288226 0.1373708 -0.05278779 -0.092433274 0.16952485 0.14018698 -0.093981996 0.19167471 -0.24518223 -0.12556891 0.19952092 0.1720164 0.16946596 0.08081938 -0.0014181734 0.011196706 -0.06931509 0.22069752 -0.40605074 0.0097443415 0.16872954 -0.37655646 -0.051710688 0.015440177 -0.2678521 0.12916036 0.16896646 -0.05660869 -0.27358168 0.08076433 0.11172149 0.08154801 -0.25981006 -0.029166898 -0.27846155 -0.35372233 0.22398779 -0.0928394 -0.24992026 0.20078677 0.06638766 -0.07097969 -0.11614127 0.09194775 -0.06852385
69 -0.010346965 -0.48812422 0.22129567 0.15367657 0.166062 -0.0218789 -0.16643207 -0.091875166 -0.036892235 -0.06383933 -0.005510356 -0.16991292 0.029369526 -0.135475 0.28762242 0.2990897 0.06479513 0.09551008 0.14133343 -0.093825385 0.02728717 -0.13825493 -0.07262071 0.16934712 0.08732522 -0.19995272 0.11010643 -0.20725192 -0.14087963 0.25140697 0.12785302 0.02217937 0.059382673 0.05398099 -0.010611886 -0.0012770267 0.22214657 -0.42625725 0.034605194 0.23028934 -0.4129436 -0.005931711 -0.008231939 -0.2140235 0.21688655 0.12213716 -0.19349548 -0.24880633 0.085865796 0.16570064 0.06689939 -0.19981408 -0.03381302 -0.22313294 -0.3335327 0.19710042 -0.12392816 -0.21299775 0.15552783 0.06356342 0.12784284 -0.18403485 0.06697526 -0.10212273
24 -0.08427101 -0.49700788 0.33192062 0.1301214 0.077703945 0.0120622525 -0.22320384 -0.015570694 -0.008915894 -0.044973575 0.053776838 -0.19545564 0.12586172 -0.17365707 0.33128604 0.12716931 0.09879027 0.1371393 0.0076318067 -0.22045597 0.16336213 -0.1521394 -0.088948116 0.19345395 0.112900734 -0.07988154 0.12564947 -0.1876 -0.19472425 0.22136275 0.13192873 0.116696104 0.03923569 0.013328224 -0.009178876 -0.020324765 0.177001 -0.33968875 0.072567366 0.17040974 -0.43960807 -0.14077468 0.10996573 -0.067233846 0.1953732 0.1656466 -0.038680676 -0.36003268 0.12236873 0.15543734 0.09471615 -0.19618739 -0.040082715 -0.21670851 -0.40964672 0.17586796 -0.040894855 -0.2834604 0.24040744 0.07606895 -0.013288992 -0.22537436 0.059569374 -0.028496407
18 -0.06996464 -0.4940409 0.27742484 0.17706959 0.12649466 -0.05599793 -0.283764 -0.09050222 0.06220446 0.022138944 -0.032323 -0.2547914 0.13187395 -0.17693608 0.32721275 0.11774948 0.014518493 0.05903467 0.05590428 -0.24487993 0.20129181 -0.07767546 -0.06256601 0.12726076 0.13938493 -0.07962276 0.060162038 -0.21382111 -0.14500628 0.16720156 0.14340205 -0.025158472 0.12216113 0.014524432 -0.013111992 0.009629782 0.18752834 -0.39766338 0.015927296 0.23177998 -0.44140157 -0.18077493 0.054712866 -0.115713514 0.23782039 0.16528836 -0.0058526685 -0.2850429 0.1201901 0.17276861 0.08158763 -0.26527718 -0.07188962 -0.18894567 -0.42548895 0.11604571 -0.10428565 -0.33314693 0.19710274 0.16022761 -0.023613157 -0.12875257 0.11213905 -0.045157827
47 -0.17142671 -0.4458261 0.24600036 0.21867149 0.11148451 0.0051698145 -0.16760527 -0.022928564 -0.06806908 -0.082894124 -0.07558786 -0.18678224 0.055361006 -0.15425004 0.259564 0.15490662 0.08998577 0.17250216 0.08624576 -0.18406427 0.11553492 -0.25347355 -0.11428403 0.07338205 0.0726643 -0.15698667 0.101020195 -0.24052471 -0.13189097 0.20888336 0.13571532 0.051249977 0.12338143 0.051199812 0.007612621 -0.01997878 0.21931624 -0.43806455 0.13173969 0.15760641 -0.39148206 -0.12983087 0.14239208 -0.12704107 0.23523982 0.26208848 -0.101078756 -0.24121867 0.12727061 0.11271755 0.08105454 -0.17246553 -0.033325125 -0.25808227 -0.39073747 0.08297905 -0.09482782 -0.2993724 0.21513405 0.089213945 -0.01862591 -0.21852991 0.10491582 -0.08945549
54 0.013822756 -0.39033332 0.2870221 0.04634554 0.15061887 0.030626712 -0.11292401 0.031642552 0.04410834 0.059476823 -0.059429757 -0.21909966 0.108691834 -0.20063867 0.23045108 0.31811807 0.100968875 0.090781175 0.094855085 -0.112160474 0.18535206 -0.0788987 -0.14841565 0.19415349 0.118497334 -0.2048787 0.052009676 -0.2509891 -0.13432725 0.2248614 0.20040205 0.099552 0.11406457 -0.07227736 -0.046607062 0.083744995 0.08877975 -0.3482295 0.01526336 0.24241419 -0.4145112 -0.04082951 0.032921664 -0.1672937 0.08658135 0.07116066 -0.091174684 -0.14349645 0.0038600492 0.09195459 0.003599462 -0.20236026 -0.11672148 -0.16439922 -0.30057174 0.13954875 -0.017002566 -0.16442807 0.15507933 -0.015042456 0.00067567447 -0.20471703 0.03863845 -0.083557144
48 -0.09644749 -0.5048976 0.26881668 0.10141626 0.1015311 -0.02850009 -0.32811347 -0.010245415 -0.05977181 -0.14110604 0.074629314 -0.08884024 0.079342574 -0.1671755 0.2764772 0.13336214 0.12870748 0.0078112646 0.029681433 -0.16854043 0.14584419 -0.21665034 -0.18065472 0.07188021 0.049299017 -0.064767756 0.116732605 -0.28884768 -0.23226391 0.17736651 0.21486825 -0.002621229 0.08783145 0.020640615 -0.029242245 -0.013250897 0.2310065 -0.47365278 0.021523252 0.14443162 -0.41832915 -0.13110337 0.14706458 -0.06493665 0.20722027 0.18468787 -0.12813346 -0.28606004 0.023456952 0.036363356 0.06710792 -0.279004 -0.11340309 -0.19982432 -0.39492878 0.19006178 0.029110068 -0.25842288 0.17090927 0.0054244716 -0.05632402 -0.07133403 0.0905912 -0.07350314
26 -0.119459026 -0.55184025 0.34286702 0.23186927 0.14449099 0.0071284296 -0.18305446 0.006701075 0.14050929 -0.058426198 0.066520356 -0.20844175 0.088207945 -0.15937611 0.29725236 0.107464544 0.061955962 0.033509906 0.04917497 -0.119706035 0.1941777 -0.08499884 -0.09490272 0.09359956 0.16481806 -0.09382597 0.0114213545 -0.18931243 -0.21867764 0.18983616 0.14958782 0.107383974 -0.008009192 0.08326943 -0.0077394405 0.04067001 0.24898756 -0.38607746 0.030733764 0.15122008 -0.40770712 -0.10437365 0.07307155 -0.023027956 0.26495317 0.2338201 -0.1525068 -0.35138515 0.07509526 0.046784785 0.13062918 -0.28298187 0.010951725 -0.1452112 -0.39211762 0.23113167 -0.019078031 -0.25364366 0.18593396 0.09378737 0.100087 -0.27423805 0.10538405 -0.08619514
99 -0.06032562 -0.3069286 0.35276192 0.22488862 0.013565137 -0.1037317 -0.18982807 0.06579612 -0.006549289 -0.035676654 -0.07569662 -0.19956718 0.01859932 -0.069459975 0.19664751 0.24099256 0.0648109 -0.010786599 -0.01631915 -0.09552375 0.13064294 -0.21991317 -0.025617963 0.16113646 -0.0059519443 -0.26672024 -0.034050826 -0.06497413 -0.20935003 0.11295622 0.11485986 1.9647772e-05 0.08715139 0.020046862 0.10635245 0.04317091 0.22865357 -0.20333944 0.096741155 0.21078014 -0.3915121 -0.16036044 0.17023884 -0.14272434 0.12070785 0.1198308 -0.1855839 -0.083874084 0.13167624 0.101837024 0.019626832 -0.23885277 0.045678865 -0.30581674 -0.41829568 0.27340102 0.03592215 -0.06935416 0.15209799 -0.06523721 0.11667023 -0.12906268 0.10387422 -0.027831864
41 -0.016499361 -0.5201946 0.2814925 0.19657928 0.12889107 0.01552351 -0.21395144 0.08405151 -0.034233153 -0.00989776 -0.012714596 -0.17559974 0.08294254 -0.13016552 0.20655172 0.0277085 0.1301093 0.079414815 0.09323896 -0.2501537 0.25265205 -0.13749067 -0.11498465 0.16412729 0.036240064 -0.124214076 0.16985221 -0.21267605 -0.12909716 0.25053024 0.064116694 0.14824429 0.06754595 0.004319837 -0.063011415 0.059290953 0.2603365 -0.37268385 0.02626004 0.18123811 -0.45776856 -0.14387128 0.0697025 -0.119361125 0.17653781 0.122514725 -0.15294486 -0.24022184 0.16396476 0.042173613 0.08364161 -0.26722053 0.017135499 -0.20544186 -0.48707628 0.12378701 -0.12954523 -0.24880132 0.25349614 0.12893632 -0.007849337 -0.12837218 0.16920681 -0.03326742
66 0.004889747 -0.4430692 0.22881377 0.11257419 0.15255368 -0.10225334 -0.16202751 -0.05850141 -0.058670174 0.026059188 -0.01303914 -0.15470721 0.24361892 -0.14673667 0.27524328 0.27399448 0.0832726 0.06241514 0.024723683 -0.17449105 0.18070649 -0.04628563 -0.12679367 0.21877632 0.016359875 -0.016504932 -0.014443971 -0.25290537 -0.12615442 0.11762419 0.14946593 0.0488117 0.15718488 -0.0039493535 -0.0250538 0.055281684 0.11199596 -0.33762518 0.023946458 0.20023006 -0.34399438 -0.04089047 0.08077451 -0.18772747 0.11600647 0.15419725 -0.12140811 -0.09288685 0.15362939 0.11802437 -0.020297807 -0.33868447 -0.046024777 -0.2441776 -0.3075333 0.1076985 -0.08863916 -0.15468538 0.16721512 -0.028270843 0.033811156 -0.2014442 -0.038824327 -0.09868926
74 -0.16408901 -0.4927669 0.35255873 0.23329636 0.12388113 -0.17299893 -0.14616106 -0.062497254 0.024690956 -0.050236955 -0.039004326 -0.2487446 0.15603769 -0.10935161 0.18718609 0.07389308 0.17422758 0.056593563 0.005024499 -0.13094586 0.23810238 -0.1182107 -0.080609165 0.12668248 0.112935245 -0.16856739 0.022856561 -0.17590082 -0.22628905 0.15284431 0.11563527 0.12643832 -0.02372757 0.074149124 -0.027883701 0.05582528 0.2374523 -0.38792348 -0.067397736 0.16514207 -0.4248468 -0.23371673 0.104420274 -0.049290538 0.18848333 0.15789805 -0.14690197 -0.2847306 0.09312426 0.14036424 0.14918405 -0.18012676 -0.045078497 -0.25354174 -0.45263252 0.08342949 -0.08132309 -0.27687648 0.19258821 -0.043434776 -0.054143157 -0.29651502 0.13588889 -0.042103305
33 -0.08495214 -0.54023385 0.22840098 0.15953414 0.11001958 -0.0024762268 -0.2634576 -0.12031472 0.031766094 0.0008130764 0.0071794223 -0.2078436 0.11099291 -0.077086166 0.33693644 0.11185542 0.030895222 0.13863973 0.07625617 -0.28160045 0.092006125 -0.15962726 -0.21661347 -0.0043144496 0.12702404 -0.15911923 0.15946653 -0.122743964 -0.18103841 0.29078156 0.28831053 -0.042545088 0.11033631 -0.059913203 -0.09318361 -0.060473006 0.22311045 -0.35028186 0.026752401 0.2567732 -0.4069581 -0.0795166 0.039787397 -0.21710278 0.16829954 0.11692982 -0.047955725 -0.26776502 0.018221648 0.16275835 0.082256265 -0.24621704 -0.12182664 -0.13238358 -0.43587402 0.20714693 -0.0023649987 -0.24623437 0.21752872 0.138414 0.0833764 -0.20480153 0.12615559 -0.061088365
95 -0.11148849 -0.41112414 0.31954136 0.07876362 0.041140754 -0.13104022 -0.04900137 0.093245305 0.026444774 -0.044363316 -0.15468119 -0.18620403 0.0513686 -0.10479981 0.045056194 0.22333114 0.16186376 0.029460303 0.07593607 -0.09104476 0.2001322 -0.09486468 -0.024821544 0.16564009 0.07109296 -0.18865177 -0.006300332 -0.19563067 -0.2742195 0.13596246 0.079961404 0.0020466621 0.03062596 0.052744236 0.049382932 -0.002122852 0.22503118 -0.17078207 0.05836161 0.06764659 -0.36946157 -0.126581 0.06727025 -0.07925451 0.05174708 0.13684273 -0.10909595 -0.22469069 0.100562334 0.058545552 0.0125683 -0.25237975 -0.080711775 -0.18874726 -0.33211985 0.16699676 -0.068160005 -0.099511154 0.08696795 -0.06309553 0.117045596 -0.18582276 0.13822164 -0.056296635
25 -0.09350744 -0.46198446 0.22423004 0.1521471 0.06987535 0.07749578 -0.26979145 -0.04199507 -0.07752127 -0.106404185 -0.0517969 -0.16519378 0.2068811 -0.16805115 0.29824388 0.065661624 0.13255419 0.045491345 0.06622904 -0.22715482 0.21727835 -0.122870974 -0.12078887 0.14723052 0.1455034 -0.082947016 0.08455987 -0.24590234 -0.16054186 0.2709785 0.11612025 0.117683984 0.09137693 0.11141548 -0.019535152 -0.04222292 0.2509759 -0.34524825 0.119846694 0.19408478 -0.4579172 -0.10838841 0.027907636 -0.08397261 0.19181842 0.2951091 -0.14271462 -0.35605967 0.115548514 0.13761382 0.055555075 -0.22573474 0.08123773 -0.1595358 -0.45913672 0.22733963 -0.0241078 -0.2955314 0.18139412 -0.0017855517 0.06658724 -0.11826718 0.12044153 0.026837297
77 -0.17727631 -0.39283255 0.33690122 0.12104318 0.052029997 -0.1670688 -0.097226284 0.12523122 0.0028597938 0.13366847 -0.04275319 -0.20307529 0.092237756 -0.12444007 0.13438913 0.27653646 0.08511695 0.013410937 0.004230924 -0.083526686 0.11234744 -0.08177898 -0.13243055 0.16535242 -0.0064582326 -0.17692506 0.004391857 -0.1358437 -0.2343128 0.12017488 0.010058126 0.02404613 0.024232727 0.04000402 0.033158332 0.013877474 0.10282065 -0.18105417 0.05424331 0.034667686 -0.34447408 0.02353431 0.19459814 -0.014752188 0.09972532 0.2076414 -0.038256276 -0.04564976 0.13776404 0.113208614 0.0351238 -0.21703513 -0.084956974 -0.15204139 -0.29443446 0.15826295 -0.040677294 -0.17016384 0.067949995 -0.11650422 0.055385496 -0.11990232 0.10989336 0.029503888
81 -0.18196009 -0.28870463 0.28570825 0.089315 0.16214035 -0.1918203 -0.14885846 0.06283095 -0.10088497 0.016640823 -0.12718055 -0.29700014 0.09055293 -0.14740366 0.21457157 0.15572853 0.07371483 -0.03220108 0.08127049 -0.16160595 0.20434265 -0.13220763 0.017482894 0.07364574 0.169802 -0.27326512 -0.061047297 -0.14527747 -0.32865992 0.13199094 0.0637097 -0.015619941 0.12748234 0.040126983 0.14766982 0.08622064 0.28527287 -0.2536525 0.051939487 0.11088241 -0.25812957 -0.047924686 0.13024358 -0.11061666 0.16753243 0.14028697 -0.15398225 -0.069120675 0.120566994 0.18384619 0.21102229 -0.15589637 0.027826 -0.3074368 -0.35073137 0.24308044 0.0034983288 -0.17150894 0.19126676 -0.06255906 0.12465001 -0.08251326 0.115516394 -0.065581515
57 -0.11657675 -0.3292556 0.2541606 -0.002098579 0.16842256 0.020869898 -0.06915171 0.03589246 -0.06624863 0.11158401 -0.031337805 -0.14107658 0.15603691 -0.19130138 0.18840453 0.28319117 0.11239243 0.11619629 0.18732327 -0.15682617 0.09294664 -0.076849625 -0.19700722 0.13319165 0.053867996 -0.24192661 0.052814305 -0.19580325 -0.14977166 0.1513365 0.06296281 -0.10118739 -0.015187783 0.11402204 0.0036524395 0.06675938 0.18729346 -0.270717 0.116285026 0.20209572 -0.26945546 -0.050086103 0.113685444 -0.15766577 0.038945597 0.1211491 -0.046569474 -0.07345484 -0.0013764501 0.022663092 -0.035481058 -0.14130919 -0.14769201 -0.09592319 -0.3433784 0.086354606 -0.09900513 -0.20861706 0.23112035 -0.06251107 0.043412227 -0.17918347 0.05457463 -0.10809939
85 -0.11951432 -0.35471416 0.24445608 0.057733413 0.05437478 -0.06603078 -0.03865627 0.085303195 -0.04320687 0.09151179 -0.04516848 -0.3116467 0.09129496 -0.030413775 0.04502399 0.30996427 0.031027317 0.017612088 0.038976178 -0.106315054 0.18733585 -0.10403725 0.011311724 0.057542216 0.030945089 -0.15857774 -0.15121438 -0.16838992 -0.23032671 0.15267093 0.061161447 -0.006554766 -0.060990103 0.01333799 0.12669447 -0.054636177 0.09058894 -0.20652953 0.107962586 0.0988305 -0.33685568 -0.057636026 0.048974097 -0.029418701 0.06897604 0.15932673 -0.072284795 -0.1065696 0.19987153 0.10406514 0.054972235 -0.22972289 -0.05215488 -0.09146838 -0.3228331 0.24829073 -0.053164646 -0.12208112 -0.0033074517 -0.15099503 0.12969473 -0.08814484 -0.015729453 -0.10281482
145 -0.04012025 -0.2853396 0.31442773 -0.047467828 0.18321101 0.038269162 -0.060892988 0.053329863 -0.07742426 0.08112683 -0.12513386 -0.05225323 0.14093359 -0.114979275 0.18101798 0.31229198 0.1083006 0.11382665 0.021529708 -0.039132528 0.08205725 -0.021295156 -0.11376203 0.14361586 -0.04407097 -0.04931693 0.022645073 -0.18311726 -0.13510408 0.10612181 0.08058144 -0.0047344477 0.060978763 0.022821568 0.06888355 -0.028730096 0.19641313 -0.29676244 0.0031698425 0.15626149 -0.32981825 0.05066367 0.13325441 -0.10611232 0.17566264 -0.0021157735 -0.052580547 -0.15579484 0.07807144 0.074840076 -0.0032887938 -0.19037747 -0.049488474 -0.1817787 -0.39104432 0.2210916 -0.03966822 -0.20124796 0.110306464 -0.07615564 -0.009463136 -0.11129112 -0.08420194 -0.24564496
39 -0.018404141 -0.41120768 0.26024535 0.19543879 0.12666331 0.0272595 -0.24008217 -0.12116534 0.027379844 -0.015758933 0.010706791 -0.11560255 0.08935622 -0.1408107 0.19893622 0.26392466 0.04554163 0.10544798 0.030022316 -0.13832597 0.19697072 -0.00303648 -0.12362181 0.0024729867 -0.030169502 -0.108751 0.2383782 -0.18272492 -0.17670445 0.2519819 0.108834006 0.10721907 0.06570557 -0.045175247 -0.03056379 -0.06575981 0.18986893 -0.44470072 -0.008783304 0.2983536 -0.35539833 -0.09296385 -0.04229414 -0.23560163 0.2961257 0.14853705 -0.030002318 -0.32082483 -0.004475679 0.16065167 0.17530005 -0.22392058 -0.14168306 -0.3181061 -0.48005942 0.042342957 -0.14283417 -0.28650886 0.2620447 0.08644575 0.025946695 -0.08934078 0.103902064 0.01040728
142 -0.17456645 -0.23287581 0.32099727 -0.06878227 0.1467873 0.03621063 -0.12892392 -0.0333317 0.007683437 0.054087397 -0.09778377 -0.16798367 0.17739756 -0.06277514 0.15845472 0.2629344 0.14541788 0.053745277 0.13357869 -0.11548915 0.17853029 0.0018519664 -0.12119616 0.26365227 -0.009487528 -0.162306 0.0013658407 -0.17449565 -0.11388024 0.09278638 0.021735357 0.02101792 0.066216394 0.062402315 -0.03127735 0.044779357 0.2337815 -0.20715214 0.026151478 0.18358302 -0.33480996 -0.04264123 0.10370613 -0.19115832 0.07406441 0.083131336 -0.04355691 -0.1529244 0.09980357 0.077802315 0.066813625 -0.27182648 -0.048616007 -0.021857062 -0.38050735 0.14939937 -0.15628134 -0.185434 0.09125068 -0.049899347 0.056942776 -0.1850016 0.12717226 -0.13326018
34 -0.08745962 -0.48668802 0.25397888 0.17441708 0.13948292 -0.059850354 -0.28166005 -0.22339764 0.051623072 0.0043132715 0.05323368 -0.095575124 0.13297391 -0.18937515 0.30671847 0.1778856 0.10170467 -0.11782332 0.06090877 -0.15833594 0.15080002 -0.10475115 0.02732729 0.11522138 0.07272236 -0.006275233 0.17042804 -0.26364565 -0.1004129 0.26346546 0.059678014 0.04839401 0.11823173 0.00027208863 -0.12851697 -0.013018229 0.18038218 -0.47090274 0.22254592 0.33729604 -0.329742 -0.043908566 0.0026224717 -0.31255692 0.17055319 0.08451168 0.0057532485 -0.21336177 0.01950929 0.14906783 0.074291684 -0.15900448 -0.07269419 -0.12840793 -0.48042265 0.12758768 -0.031536516 -0.27934882 0.19046348 0.1265124 0.09475556 -0.14126356 0.06666146 -0.0061006234
37 -0.033512622 -0.40187246 0.11742234 0.12577865 0.1370979 -0.023286691 -0.107555404 -0.08749833 0.054251052 -0.0130716665 0.020464785 -0.13102643 0.15634197 -0.08723446 0.2042163 0.2610998 0.12750486 -0.0010593839 0.06284563 -0.2742531 0.13120441 -0.09198443 -0.07080472 0.0129068475 -0.004115076 -0.0032207125 0.21684715 -0.20318525 -0.19562712 0.3371688 0.11434247 0.028680958 0.09083381 -0.052802905 -0.16102648 -0.008281934 0.17170194 -0.38523856 0.033062316 0.24192387 -0.36971492 -0.058627844 0.07619649 -0.23080084 0.3213212 0.21319799 -0.054550078 -0.32450637 0.08202955 0.18262061 0.13024032 -0.24479745 0.008861034 -0.24750774 -0.56102043 0.09317905 -0.102205545 -0.32718533 0.22767612 0.04688821 0.07294233 -0.15315054 0.0999758 -0.03336934
9 0.016361255 -0.5198562 0.23010091 0.15106156 0.2155514 -0.08225579 -0.31324223 -0.10746364 0.11287591 -0.027561754 0.027347628 -0.09582084 0.24404591 -0.09046788 0.34687907 0.15090813 0.021445798 -0.08562986 0.013623891 -0.18650457 0.15635824 -0.039976448 -0.0024290588 0.09563077 0.09326733 -0.03235475 0.27393743 -0.23864283 -0.14039123 0.23456158 0.14702263 0.054124676 0.12448405 -0.025632055 -0.13740636 -0.07399071 0.19292949 -0.43377888 0.20430852 0.23647864 -0.34859753 -0.120789126 0.03440428 -0.27623966 0.22204271 0.015820462 -0.08336726 -0.27336618 -0.035833538 0.19481105 0.18000875 -0.17379369 -0.08486616 -0.16562125 -0.4418151 0.024867503 -0.054868903 -0.21391138 0.24126399 0.087931946 0.11609934 -0.033156116 0.13391171 -0.07037076
96 -0.15733951 -0.23653078 0.36168635 0.069875814 0.016217379 -0.09107893 -0.017640647 0.11093631 0.020625634 0.07224843 -0.07224309 -0.2403765 0.07844508 -0.13673356 0.034925234 0.26448372 0.017933544 -0.03180251 0.053953916 -0.02296234 0.14451486 -0.14639696 -0.12315383 0.11641975 0.036565673 -0.08171064 -0.100850895 -0.08682311 -0.26741007 0.11846144 0.112218186 -0.05407279 0.0021916255 -0.112536065 0.11457363 0.022639915 0.1887561 -0.13274935 0.10422085 0.07296684 -0.32546926 -0.045587376 0.08760771 -0.0013060985 0.14556633 0.13941628 -0.10879451 -0.10079957 0.07166425 0.07059557 -0.02061002 -0.2851792 -0.07743297 -0.1722383 -0.3406806 0.22085284 0.0010501682 -0.117925376 0.0039029229 -0.13299188 0.10921014 -0.07900868 -0.008051069 -0.07937686
146 -0.14792384 -0.32602394 0.33172515 -0.037613723 0.022232454 0.08185558 -0.12596862 0.009223408 0.008312291 0.14140023 -0.19467068 -0.09688968 0.21620053 -0.10257858 0.2590932 0.18000762 0.12965983 0.1164638 -0.006124972 -0.04882265 0.044792634 -0.042189255 -0.13118522 0.16261952 -0.003871355 -0.06397699 0.05336473 -0.2220111 -0.24728785 0.15576357 0.047752805 0.056587964 0.01915522 0.04752485 0.011003491 0.0120552005 0.18928449 -0.22218029 0.08653123 0.17432548 -0.28203267 0.015879426 0.065860026 -0.13361143 0.15007223 0.15392478 -0.04324159 -0.019152775 0.04147092 0.09637131 0.08049654 -0.179995 -0.047898337 -0.22045662 -0.3104251 0.14600739 -0.094962716 -0.24337813 0.14605 -0.14857636 -0.024106925 -0.18327208 0.08016788 -0.15214063
31 -0.04539382 -0.47576496 0.16146354 0.23285246 0.17634451 -0.020408481 -0.24897772 -0.16660056 0.07887046 -0.008465748 0.005775837 -0.06852742 0.14741766 -0.13290472 0.3492149 0.07676598 0.06106501 -0.010258582 0.028046666 -0.30546704 0.14238882 -0.11374869 -0.096064806 0.07384995 0.07573999 0.020686388 0.19771115 -0.26728067 -0.23203264 0.25806546 0.15385556 -0.040542677 0.08206354 -0.05992944 -0.011729648 0.0648057 0.22360131 -0.3952542 0.14187357 0.2662895 -0.35605255 -0.08187653 -0.033578426 -0.32613963 0.30447468 -0.035871908 0.03674459 -0.19393599 -0.0087908935 0.17960699 0.18171856 -0.2065533 -0.027502459 -0.15160067 -0.3988511 0.0421902 -0.06328764 -0.13282734 0.26144797 0.052653003 0.11827122 -0.19836222 0.15256077 -0.11081024
6 -0.007193233 -0.5145594 0.23208302 0.20425697 0.25341308 -0.038002517 -0.08914814 -0.11835241 0.007426632 -0.08176485 0.0225121 -0.12977014 0.11880275 -0.016302891 0.35633156 0.19280174 0.1632808 0.010842295 0.14265323 -0.36526135 0.29827562 -0.14630029 -0.07920457 0.022434732 -0.05674065 0.025224611 0.22839805 -0.20920047 -0.18304178 0.16664271 0.06304296 0.12783305 0.13381785 -0.010224347 -0.009525446 0.095404245 0.2581349 -0.51789284 0.08321195 0.26381496 -0.38258177 -0.031221796 0.072193734 -0.16774346 0.174838 0.1049165 -0.038089737 -0.24484377 -0.022995176 0.008389247 0.11197589 -0.22041123 -0.12295522 -0.15565443 -0.5025851 0.13526195 0.046099413 -0.30129862 0.23146245 0.10915849 0.059072584 -0.15807882 0.10003376 -0.0024280092
84 -0.11658693 -0.239363 0.33088747 0.10205348 -0.15002784 -0.03712138 0.07673529 0.02010555 0.05316384 0.08731284 -0.16852088 -0.14575866 0.069734335 -0.06277626 0.09656504 0.2755957 0.12909564 -0.06815244 -0.009737416 -0.029681686 0.18909188 -0.12889788 0.01398908 0.18944229 -0.1220257 -0.16859508 -0.11017733 -0.16726269 -0.22143984 0.038839515 0.20617098 0.007634677 -0.0055591767 0.010113318 0.16854863 -0.10823233 0.08517341 -0.22246252 0.023435948 0.115237415 -0.28113148 -0.038600948 0.09523 0.061515808 -0.063216776 0.019209009 0.065263346 -0.11791673 0.0816089 0.02092515 0.028987503 -0.22103563 -0.09956149 -0.17708182 -0.2597864 0.09822009 -0.021537494 -0.09303569 0.13612461 -0.16490422 0.08217564 -0.12925483 0.111174464 -0.010010903
91 -0.14133112 -0.45949152 0.32906464 0.2849882 0.061656818 0.002336802 -0.21417803 -0.046266142 0.004949377 -0.013932965 0.04501038 -0.24013811 -0.028886346 -0.11671401 0.3058217 0.034970343 0.09756657 0.030198826 0.09102555 -0.16221374 0.18162908 -0.15829282 -0.061936073 0.09040962 0.08054764 -0.018762717 0.039526984 -0.18941927 -0.19591606 0.14708692 0.21563709 0.12685297 0.106224254 0.04858972 -0.11855297 0.105788246 0.21438773 -0.45679215 0.020591898 0.20355423 -0.47294253 -0.17448775 0.19989307 -0.035773713 0.17578971 0.21244283 -0.15703769 -0.28063086 0.14470543 0.082118884 0.18369289 -0.17049062 -0.08410005 -0.25673518 -0.47352508 0.2113733 0.07686717 -0.31718743 0.29801568 -0.0051861503 0.032738928 -0.23209013 0.026351359 -0.017728709
10 -0.12044759 -0.4142065 0.16645354 0.16471694 0.2310831 -0.051544745 -0.28451905 -0.08738797 0.040728323 0.013146561 -0.011948241 -0.03426235 0.2900958 -0.19927877 0.27141285 0.12452284 0.093183555 0.09012696 0.09489388 -0.24581033 0.11192224 -0.056989163 -0.0030748514 0.07001655 0.15417282 0.02574866 0.3305005 -0.25251314 -0.17021918 0.23286864 0.14930856 0.059866596 0.06215043 0.12845227 -0.091423005 -0.036722902 0.18390149 -0.3725507 0.09359464 0.27105865 -0.31427154 -0.11582308 -0.10327793 -0.273526 0.25255105 -0.047762156 0.1251733 -0.25292036 0.0041817534 0.14321566 0.03373625 -0.10170872 -0.07512986 -0.1702117 -0.45836386 -0.023161056 -0.09958393 -0.10268543 0.37285823 0.07477878 0.087287895 0.011604207 0.05715387 -0.067055985
30 -0.11604435 -0.42762578 0.27772295 0.20468585 0.22776887 -0.019959595 -0.20889628 -0.14586414 0.074092664 -0.030050464 0.052431796 -0.0015204358 0.14499137 -0.13950744 0.3683896 0.20495465 0.015354294 -0.044846512 0.05927387 -0.22779672 0.23377001 -0.07456122 -0.084263854 0.022405893 0.13865922 0.090913266 0.3278718 -0.2227052 -0.1470444 0.2784362 0.1179969 0.097654164 0.0065156254 0.017811343 -0.098416 -0.0051559075 0.16407095 -0.29204223 0.06372851 0.3345732 -0.3451935 -0.15855755 -0.11348822 -0.223702 0.27474564 -0.016101291 0.12979482 -0.2804582 -0.029567538 0.12226949 0.11304472 -0.14931238 -0.09703476 -0.14306433 -0.55183494 0.058313895 -0.108333185 -0.092575625 0.3341501 0.05090693 0.06872472 -0.092448756 0.07102632 -0.03340457
148 0.01651705 -0.2670014 0.25229827 0.069958694 0.26470017 0.024259904 -0.16145068 -0.013506888 -0.10476271 0.046671074 -0.01044248 -0.0168238 0.19375563 -0.15809235 0.17002569 0.31976795 0.13082287 0.07589877 0.022862082 -0.031738687 -0.009820122 0.032929953 0.0029917518 0.11174782 -0.028920067 -0.00799045 0.11568166 -0.1309832 -0.12051948 0.07633889 0.066039965 0.045058444 0.10324394 0.03481596 0.021061892 0.02685276 0.25129315 -0.21155195 0.037199732 0.23828737 -0.3787677 0.027627835 -0.068122976 -0.23448254 0.100433156 0.041548826 -0.12419124 -0.081901185 -0.003627513 0.03186949 -0.13425232 -0.28467417 0.08354296 -0.10051823 -0.3214548 0.09010916 -0.039996564 -0.15946613 0.31810796 -0.042816613 0.0010778152 -0.07718565 -0.06196454 -0.053755853
14 -0.054260205 -0.46633944 0.16820031 0.24027991 0.32831034 -0.016190046 -0.28649497 -0.23034771 -0.030274896 -0.065997526 -0.01403254 -0.013895543 0.1371843 -0.14439507 0.25715116 0.10820007 0.014580588 -0.068718284 0.05334881 -0.20551863 0.0004233323 -0.097289935 -0.025934447 0.062255356 0.07164879 -0.043177985 0.294155 -0.30346274 -0.13783802 0.2728702 0.1085636 -0.13015454 -0.00079602405 0.078793034 -0.027201109 -0.034543265 0.22954725 -0.27661946 0.15048943 0.37235126 -0.3320651 -0.08620145 -0.13775797 -0.27906877 0.24271177 0.0018297078 0.06091787 -0.16498037 -0.00883021 0.15468347 0.20880416 -0.15802594 -0.035151437 -0.12470044 -0.429007 0.03571339 -0.09180101 -0.17354621 0.36675972 0.054780353 0.17746662 -0.10445977 -0.0048378287 -0.012913096
80 -0.06577131 -0.5791899 0.3051981 0.20769824 0.14484785 -0.0030676979 -0.20669515 -0.031746283 -0.018806145 -0.06512174 -0.081634365 -0.19458096 0.061503984 -0.015857676 0.29306558 0.041325547 0.0609297 0.024163082 -0.004124756 -0.2241393 0.25717086 -0.16278818 -0.09424674 0.05129319 0.07132323 -0.17854689 0.021546368 -0.18463555 -0.15918411 0.20674016 0.30951765 0.055780303 -0.018106464 0.036145974 -0.03583841 0.13041091 0.2269936 -0.43560976 0.09365881 0.06673269 -0.44813585 -0.2437175 0.24009433 -0.07430285 0.22766428 0.20084597 -0.14209493 -0.3358288 0.2035058 0.15180963 0.23930234 -0.18475278 -0.02280976 -0.21319322 -0.38352224 0.16892992 -0.0043982216 -0.28884408 0.23959419 -0.048604894 0.028773451 -0.15315828 -0.15003933 -0.0959351
101 -0.057150356 -0.5624633 0.35519955 0.33870745 0.082194164 -0.020465825 -0.27117187 -0.027936311 -0.06253685 -0.21099113 -0.05478373 -0.30523166 0.07390648 -0.09019885 0.18296576 0.0705806 0.082857765 -0.018085234 0.041545667 -0.17036775 0.27036142 -0.08802397 -0.14127238 0.019943692 0.12829725 -0.10457347 0.0039159963 -0.25708848 -0.16521817 0.23457827 0.16351788 -0.0017943714 0.026337245 0.15231048 0.02270943 0.13040873 0.24062407 -0.4717626 0.01374972 0.20281948 -0.5029812 -0.0646499 0.25167343 -0.05641761 0.22532192 0.22014758 -0.16803429 -0.35663256 0.05314034 -0.011381876 0.26560047 -0.10959905 -0.047955666 -0.20474489 -0.3561259 0.098437406 0.08070984 -0.2597477 0.25996402 -0.00871545 0.09228963 -0.14903697 -0.043691732 -0.07400812
46 -0.13764505 -0.4041644 0.18142554 0.21839407 0.0713977 -0.063282706 -0.2290031 -0.072775126 0.016477266 -0.06543591 0.059025094 -0.11501939 0.20681183 -0.0063926997 0.3049598 0.14221378 0.122038685 -0.09831451 0.15667681 -0.16390456 0.119399406 -0.17997494 -0.17068174 0.05526295 0.06878181 0.16779786 0.2398791 -0.32223204 -0.09076387 0.3975391 0.14136246 -0.010705387 0.109885156 -0.005263285 -0.015277705 -0.050883163 0.23233202 -0.39164925 0.15423812 0.107572496 -0.39603552 -0.050643936 -0.18312849 -0.25387672 0.34024194 -0.010801138 0.07396674 -0.17236792 -0.006740494 0.0917981 0.23082446 -0.17964567 -0.0049153194 -0.24246627 -0.51676434 -0.025941182 -0.15043351 -0.16683306 0.4094487 0.1937531 0.10446732 -0.15521826 -0.015363716 -0.015733447
92 -0.10198322 -0.045852736 0.33382943 -0.069324344 -0.035815112 -0.010383969 0.08715723 0.17874737 -0.107136875 0.06393066 -0.10311863 -0.08376609 0.067520514 -0.11870318 0.040428165 0.21082833 -0.0329843 -0.023423117 -0.0630991 -0.10979752 0.29739588 0.021360405 -0.00038590917 0.007066914 -0.12780094 -0.036876924 -0.12999888 -0.09398464 -0.08937375 -0.010582155 0.074693665 -0.0671916 -0.011754424 0.08065016 0.093882404 -0.06787553 0.0722951 -0.14626788 0.10751647 0.054132663 -0.3773685 -0.050210465 0.0469543 0.01330013 -0.0050700004 -0.06307393 -0.055069026 -0.07083077 0.1945559 0.106782705 0.043202385 -0.17667824 -0.016722174 -0.13823418 -0.07334383 0.14058693 -0.005514673 0.0067664576 0.030839318 -0.1293344 0.13480395 -0.12224693 0.24559487 -0.14117569
32 -0.16587149 -0.3630166 0.17755379 0.21108316 0.11242116 0.018672006 -0.28498214 -0.17854843 0.17647788 -0.09940557 0.0017538846 -0.03069619 0.20625366 0.023937285 0.2513055 0.16416653 0.031411067 -0.09123297 0.038926218 -0.26309305 0.14361963 -0.20928404 -0.12891385 0.26178765 0.06764246 0.08252721 0.24132675 -0.22573751 -0.12423898 0.32331404 0.20169058 -0.018392809 0.07261753 -0.003069951 -0.07942017 -0.061736513 0.21072753 -0.39828005 0.24237913 0.117933005 -0.3184843 -0.15456763 -0.12445385 -0.34261522 0.39635938 0.090093814 0.07228696 -0.14294824 -0.029447347 0.06648723 0.16377655 -0.24558565 -0.031652812 -0.23019245 -0.42511383 0.10628734 -0.08583239 -0.1112528 0.33435225 0.11257825 0.12077749 -0.076990165 0.010152471 -0.0047721444
29 -0.13835402 -0.37060902 0.1453426 0.2652776 0.16949338 0.021509558 -0.3122874 -0.24537009 0.04722007 0.019503083 -0.021717476 -0.05076437 0.1814709 -0.13083583 0.3121161 0.12406333 0.050927512 0.035559412 0.20377454 -0.12797195 0.16841479 -0.25239205 -0.014736667 0.05593575 0.018657329 0.039165497 0.29727587 -0.32781717 -0.076492116 0.33325183 0.04964693 0.06960264 0.041706745 -0.017632283 -0.06332645 -0.028270213 0.17134228 -0.374117 0.18596737 0.3529115 -0.36982515 -0.051946785 -0.10708307 -0.20823526 0.3339196 0.008062263 0.042686332 -0.23430146 -0.0048801727 0.15055637 0.15638597 -0.09617525 -0.06684972 -0.16868757 -0.47826037 0.041283574 -0.055743 -0.07577124 0.28259525 0.14637405 0.0745463 -0.092511736 0.053021077 -0.11197804
5 -0.12624612 -0.5055188 0.23486716 0.16686033 0.13701907 -0.08688139 -0.26972252 -0.059761833 0.000989035 -0.14247753 -0.02402717 -0.1701881 -0.036266297 -0.097151674 0.36430117 0.12863407 0.11076649 0.09505208 -0.031871244 -0.26995417 0.181132 -0.071446605 -0.1847453 0.07676362 -0.03010242 0.010231619 0.07885335 -0.08818684 -0.16095532 0.17622283 0.18514533 0.044539753 0.11404565 0.050671283 -0.06420893 -0.046772573 0.19924356 -0.5440255 0.09580308 0.30882117 -0.39321396 -0.11442873 -0.018320689 -0.084886044 0.28588283 0.09198366 -0.093800545 -0.33546394 0.1121185 0.073628776 0.11180147 -0.14429113 0.038714424 -0.15922335 -0.4739384 0.12290726 0.04939023 -0.37374786 0.27592257 0.11579181 0.042051546 -0.1483555 0.014107711 -0.004960098
20 -0.14859746 -0.33695003 0.2138721 0.2117763 0.21844593 0.025279295 -0.28038743 -0.1538322 0.09368019 -0.04616957 0.004710401 -0.0580307 0.1367074 -0.058396272 0.3453492 0.2151526 0.09225643 0.0463573 0.07501335 -0.24364954 0.13001749 -0.15074857 -0.023922808 0.08275279 0.13087492 0.035360258 0.40356687 -0.33337808 -0.046814673 0.32863337 0.1207366 -0.04796731 0.092009194 -0.048005953 -0.0134278815 0.022670818 0.15586604 -0.37062138 0.103184015 0.22564629 -0.31291115 -0.09890983 -0.22329335 -0.267623 0.28581363 0.09497701 0.08080508 -0.19742139 -0.081640296 0.22934085 0.18813433 -0.13250771 0.003580891 -0.21898207 -0.5530269 0.042367708 0.017411372 -0.13946423 0.2694539 0.1188126 0.09154916 -0.13146171 0.07694239 -0.07788553
218 -0.30189496 -0.07558621 0.26636943 -0.039553605 -0.0062159174 0.05998432 -0.051771987 0.11943203 -0.11153144 0.18077295 -0.08636571 -0.019464226 -0.058637157 -0.15549648 -0.038870603 0.105870195 0.043219082 -0.008774773 -0.1803468 -0.09805586 0.20323032 -0.04510319 0.0020710018 0.17073204 -0.15009761 -0.05764463 -0.035848975 -0.05209259 -0.114591435 0.03014458 -0.03147886 -0.055436302 0.030199386 0.032385558 0.12466274 -0.04995953 0.0076037846 -0.082837604 0.15576117 -0.042073485 -0.22615094 0.063142054 -0.016387764 0.1027399 0.014463413 -0.07653893 -0.06469839 0.037490487 -0.0030805727 0.15824178 -0.15736718 -0.15795657 -0.07208593 -0.03882084 0.046269964 -0.010843562 0.030296933 -0.14504875 0.031450454 -0.043301433 0.16279146 -0.07701031 0.072071925 -0.12374983
65 -0.061006356 -0.21362557 0.16761635 0.041194238 0.19484943 0.167676 -0.088868625 -0.027215896 0.025279999 0.03863069 -0.07879015 -0.10246296 0.15521361 -0.084507935 0.032174736 0.30995432 0.10865596 0.06694678 0.1006999 -0.13726707 0.06883227 0.031365458 -0.17533873 0.07883104 -0.095206186 0.006112881 0.007211071 -0.05191364 -0.102793425 0.1604586 0.10223247 -0.096287675 -0.022117583 0.020548755 0.08823704 -0.042274285 0.25640586 -0.16339648 0.07062174 0.082409464 -0.29605395 0.067762114 -0.06098599 -0.28715348 -0.034586653 0.037721224 -0.031552415 0.013606061 0.14287826 0.11333346 -0.13787039 -0.26899192 0.08832845 -0.05972187 -0.2642227 0.14442296 0.018382942 -0.10285186 0.24103855 -0.07440558 -0.11154093 -0.13075897 0.1007859 -0.08938824
58 0.03871501 -0.3095425 0.24664406 -0.031088153 0.12451716 0.10978134 -0.06798897 -0.042377945 0.0034810798 0.10382238 -0.10008879 -0.10053946 0.090429194 -0.103430524 0.22393683 0.3371315 0.054203577 0.061861094 0.011781258 0.01003132 0.063331865 -0.054147404 -0.026556091 0.14774624 -0.021917228 -0.122546405 0.033611286 -0.072801754 -0.14164275 0.14766748 -0.013926109 -0.13608749 0.033991735 0.15697321 0.036969066 -0.10660243 0.15609632 -0.19182178 0.1138946 0.095387384 -0.3818019 0.040591523 -0.09753125 -0.20068198 -0.025739048 0.08315868 -0.07612205 0.09868718 0.056847584 0.088601105 -0.03363327 -0.1923141 0.026294246 0.019666133 -0.24018443 0.095762074 -0.020998228 -0.08936849 0.24776466 -0.04790329 -0.18376909 -0.1535444 -0.013878427 0.019067915
94 -0.17406759 -0.13390419 0.26697138 0.026040638 -0.106486715 0.08079729 0.10315306 0.18847512 -0.13812076 0.044029348 -0.16435283 -0.08533741 0.06999032 -0.06813007 -0.097908124 0.23319028 0.03121364 -0.13835269 -0.022220202 0.023453727 0.21022375 -0.01399321 0.0063111396 0.024314946 -0.035695285 -0.043005336 -0.07670848 0.044041578 -0.1363489 0.12954022 0.029755753 -0.066458546 -0.03474555 -0.066190965 0.06822371 -0.04395032 0.094500884 -0.27239525 0.21347284 0.031569503 -0.27098325 0.009367445 -0.03605651 0.12062591 -0.09396763 -0.105348445 -0.09496619 0.03664874 0.117765814 0.050051987 0.012389452 -0.17482711 -0.0975222 -0.15589096 -0.036996722 0.04707264 0.041542716 -0.029317934 -0.0037206644 -0.13880277 0.23246813 -0.009821665 0.14374965 -0.011693804
75 -0.07819853 -0.4890962 0.35934561 0.32732186 0.11968723 -0.16567218 -0.2920084 -0.087602705 -0.07225073 -0.10239036 -0.033956744 -0.22956869 -0.08471887 -0.1070168 0.21260072 -0.04168001 0.23544608 0.04503811 0.12255186 -0.11380721 0.16908902 -0.05913374 -0.16469309 0.121811286 0.029560344 -0.14632572 0.061475463 -0.16389252 -0.17112225 0.23823892 0.2867555 0.10610164 0.030262392 0.14361447 -0.014628366 0.050801978 0.21652272 -0.4138213 0.044057216 0.11312557 -0.3952991 -0.2553377 0.15176722 -0.08888762 0.25675207 0.18731067 -0.15782818 -0.30412298 0.057715107 0.114308946 0.13151413 -0.2781534 -0.11620973 -0.10146261 -0.49731448 0.18551895 0.048758715 -0.3574856 0.20260516 -0.032584157 0.0030607954 -0.13906454 0.12984358 -0.19117296
97 -0.09289423 -0.5658677 0.18605356 0.21567337 0.121677674 -0.08457468 -0.23469618 -0.04872158 -0.05053144 -0.13875201 0.08405016 -0.23994814 0.009302679 -0.073443115 0.20050012 0.067860864 0.16763575 0.13976681 0.08531144 -0.23637785 0.1947088 -3.2021137e-05 -0.086571224 0.07830397 0.06452431 -0.06364262 0.06985528 -0.16339153 -0.12635349 0.24914496 0.23620833 0.057294495 -0.001493703 0.043647066 0.030457625 0.03178402 0.23459531 -0.4811685 0.12389182 0.10073186 -0.5162527 -0.19850458 0.21233016 0.10054058 0.21069627 0.14958291 -0.13149823 -0.21143723 0.16161403 0.03443419 0.18006827 -0.15744206 -0.044216447 -0.2933396 -0.54892045 0.2019961 0.081291445 -0.3387578 0.13907875 -0.022172991 -0.040594943 -0.052165426 -0.011400862 -0.17615096
93 -0.053140804 -0.5195501 0.38014016 0.34002456 0.10788281 -0.059783462 -0.17444985 0.034305707 -0.027834684 -0.085812636 0.071176045 -0.25395533 -0.028684843 -0.084345005 0.25994802 0.13024527 0.15520138 0.051232465 -0.051532272 -0.18938573 0.13831669 -0.1603653 -0.040342364 -0.08446921 0.05775746 -0.16911367 0.03978049 -0.19933593 -0.18341745 0.20768361 0.28553134 0.16678669 0.10256551 0.074314184 -0.03796471 0.01795901 0.2568623 -0.47368428 0.1607339 0.19252652 -0.37525427 -0.19960295 0.1412868 0.01391231 0.25070244 0.17752053 -0.21508896 -0.26181477 0.07331352 0.12466924 0.109612435 -0.22361077 -0.0010856946 -0.15506013 -0.42760783 0.21635072 -0.039339572 -0.37024277 0.21206824 0.006681993 0.020833774 -0.14795646 -0.031870633 -0.10175919
3 -0.08458994 -0.4315908 0.12183097 0.15192474 0.3512562 -0.05369939 -0.2912477 -0.1893049 -0.05205218 -0.13019124 0.027722867 -0.05160903 0.13137089 -0.17137375 0.23812293 0.15829822 -0.025400601 0.02196029 0.062525846 -0.027523007 0.13573202 -0.016020037 -0.046300326 0.14772472 0.08536725 0.09803563 0.44708702 -0.31254935 -0.13838 0.34220615 0.07703894 0.027325895 0.0748546 0.022597777 -0.10494631 -0.043593258 0.1456678 -0.3095938 0.09328499 0.31019622 -0.28098863 -0.041099537 -0.120319106 -0.39699546 0.28543887 0.08532134 0.011089132 -0.1421564 -0.0034930618 0.13583301 0.07702058 -0.15071292 -0.043317188 -0.19266285 -0.41395515 0.046990562 -0.15943103 0.05787796 0.32369936 0.24647006 0.18759732 -0.023068838 -0.08045285 -0.020746473
89 -0.25457153 -0.09818473 0.32695714 -0.062998414 -0.04314246 -0.056602884 0.11894021 0.044379734 -0.11898642 0.20485412 -0.12010431 -0.058108997 0.010832907 0.009781105 -0.10753516 0.13341348 -0.0030536084 0.040787186 -0.06849708 -0.12124617 0.29126543 -0.042740468 0.015273814 0.099850655 -0.17430985 -0.013941727 -0.057763208 -0.08377138 -0.07855719 0.05376748 -0.02217686 -0.05985048 -0.025879351 -0.030137694 0.1082452 0.03460228 0.0384226 -0.14579234 0.1170358 0.052794114 -0.34338582 0.016728068 -0.007537228 0.10587985 -0.019057995 -0.12174939 -0.06627727 0.025683379 0.13331428 0.090964854 0.0064652157 -0.20773129 -0.07053332 -0.049492825 0.08582067 0.1011432 0.042590443 -0.06656819 -0.04013796 -0.026256219 0.16859564 0.015545901 0.045009438 -0.0316324
86 -0.22458316 -0.060770087 0.3135321 -0.027288929 -0.07669954 0.014019382 0.018968368 0.19585791 -0.0985392 0.16219653 -0.12547977 -0.010160007 0.029410806 -0.019015813 -0.060590718 0.19213292 -0.021322986 -0.06505707 -0.15052484 -0.028638382 0.20369747 -0.07254492 0.02360988 0.067561455 -0.17714594 0.015570148 -0.09776403 0.07574509 -0.049879424 0.14154126 -0.035106234 -0.08388065 -0.0687578 0.008339832 0.067637004 -0.07795192 0.03915947 -0.021786517 0.110755496 0.020377211 -0.31859264 0.025174513 0.0882453 0.08656441 0.09617004 -0.070491575 -0.10658113 -0.09191277 0.023797614 0.16363102 -0.08519025 -0.16839239 0.011417029 0.008940794 -0.06727322 0.07866418 0.0773299 -0.074304104 -0.00699163 -0.03397583 0.17756824 0.0029200674 0.14125443 -0.00016317803
76 -0.07887644 -0.44482684 0.37145296 0.31164762 -0.004396567 -0.14241067 -0.2099771 -0.07769392 -0.02116721 -0.05312148 0.07314951 -0.25569284 0.15204443 -0.09058985 0.14946553 0.020276794 0.058623973 0.094069324 0.034285974 -0.20295265 0.27972183 -0.07959934 -0.12748662 -0.0012947593 -0.058398057 -0.16500463 0.092478424 -0.1410909 -0.15452017 0.13035363 0.09932068 0.13669056 0.12175148 -0.0022476206 -0.035053972 0.10287765 0.28419617 -0.5045425 0.059601046 0.110874005 -0.3837871 -0.22592887 0.13635142 0.011941569 0.15634692 0.19015974 -0.27322546 -0.3486548 0.11291051 0.17647631 0.20300889 -0.29471582 -0.017720118 -0.22716396 -0.4685612 0.11999443 -0.014460964 -0.3535824 0.30342612 0.10756111 0.049608476 -0.2291939 -0.08200055 -0.09512388
51 -0.41235593 0.027958484 0.11629684 -0.029246092 0.14636949 0.17346317 0.18286547 0.022113526 -0.0039667212 0.10756323 -0.042454578 -0.021465586 0.13865203 -0.083450995 0.022626624 0.17699838 0.0838339 -0.19661163 -0.05769309 -0.083779715 0.07596468 0.08725865 0.01360879 0.037882194 -0.1499489 0.036938038 -0.018980904 0.009029538 -0.10693234 0.01851796 -0.011708209 -0.07738198 0.0110489465 -0.004779571 0.05990769 0.025117401 -0.09968661 -0.041671008 0.08864727 -0.07503929 -0.19679828 -0.028669216 0.106328726 0.014880571 -0.07668944 -0.14665042 -0.121588096 0.035266742 -0.04481354 0.076490454 -0.08811314 -0.15794961 -0.058526456 0.11018214 0.066216335 -0.062602885 0.10279227 0.0072575803 0.13978532 0.14015526 -0.16266291 -0.12889895 0.0978884 -0.15082283
35 -0.106873564 -0.32323316 0.11913357 0.28544396 0.22113462 -0.12441423 -0.2969315 -0.21985273 0.09819508 0.077294216 0.10039388 -0.13197674 0.17298728 -0.1122799 0.36034098 0.22670957 0.05416877 -0.07753166 0.09516643 -0.15316322 0.23049662 -0.14313526 -0.07143394 0.07476611 0.053619295 0.13842314 0.4156795 -0.31697124 -0.06935351 0.3292394 0.17206928 0.12056367 0.09791886 0.017715381 -0.013226485 -0.012155236 0.12778565 -0.3974518 0.14603907 0.2870713 -0.33715668 -0.100302234 -0.1858366 -0.29912052 0.3655157 -0.03512472 0.1032308 -0.12657288 -0.011370595 0.12380716 0.1261976 -0.18284279 0.02090879 -0.2715708 -0.43980855 -0.017571466 0.0031059159 -0.06008282 0.2568322 0.17808093 0.13307211 -0.012971561 0.005217401 -0.069913805
143 -0.044940695 -0.40054765 0.1657224 0.11972072 0.35271585 0.17460445 -0.101051375 -0.038468797 0.01574099 -0.015789134 -0.0074648 -0.0925115 0.20964195 -0.24285619 0.2990478 0.18764797 0.009199235 0.102189824 0.0044688974 -0.12268033 -0.020451488 -0.024269348 -0.0031066886 0.0033825838 0.12669192 0.05606431 0.21792346 -0.15442793 -0.0044132895 0.22365919 0.23883289 -0.058130793 0.041924875 0.02879915 -0.12521264 0.032632742 0.27070644 -0.1256345 0.034271773 0.19393423 -0.27590832 0.08493027 -0.04615498 -0.37962463 0.1081937 -3.1916195e-05 -0.039330207 -0.06679981 -0.104805544 -0.0054231146 -0.009946585 -0.2770987 -0.032901373 -0.06325731 -0.25318247 0.05000045 -0.05378209 -0.17279457 0.37641355 -0.016611004 -0.038329788 -0.15278319 0.03238956 -0.04919732
72 -0.17593038 -0.012870981 0.1526616 -0.009725571 0.18687263 0.16226105 0.21054155 -0.11393405 -0.066004165 0.15600234 -0.14572236 -0.1417652 0.03277974 -0.15583058 -0.04390861 0.1953292 0.08114845 -0.0710205 -0.0024588057 -0.10019092 0.012128685 0.17269464 0.024883335 0.09345885 -0.24148695 0.11964992 0.009285825 0.041619796 -0.13309465 0.052779734 0.006230644 -0.16453183 -0.038940456 0.08518401 0.015795104 0.006957518 -0.1360058 -0.03889057 0.0771981 0.03278747 -0.12548344 -0.10688889 -0.0050841765 0.056472998 -0.07322146 -0.031513702 -0.12545674 0.026012188 -0.043787587 0.120652966 -0.14021531 -0.19986415 -0.04728362 -0.010209948 0.0131281745 -0.08203785 0.15116988 -0.08587061 0.095744774 0.14544363 0.00031419424 -0.034160573 0.03413944 -0.15336084
68 -0.0965524 -0.14385343 0.122602 0.037351895 0.27144137 0.16227342 -0.053502962 -8.752013e-07 0.07459015 0.23988223 -0.09545753 0.021613227 0.18794389 -0.12767912 0.09968898 0.2866426 0.1293287 0.009431941 0.0050576213 0.04722768 0.19935705 0.12884548 -0.19650383 0.09280761 -0.17146528 -0.08653916 0.058938004 -0.12083502 -0.015227341 0.04474733 0.14962432 -0.10837159 0.018117586 0.14775534 0.044611868 -0.043779366 0.19025573 -0.1718355 0.005072733 0.083349414 -0.24428055 0.026627516 -0.04392025 -0.18691653 -0.061342653 0.018085111 -0.045520395 0.026243228 -0.014011028 0.04206882 -0.049722053 -0.17132206 0.06285675 -0.04612943 -0.12598865 0.13194771 -0.070752285 -0.11139334 0.25291574 -0.031419255 -0.057349827 0.023691628 0.087346554 -0.13337745
215 -0.33004567 0.020388998 0.09934031 0.007630523 0.07835247 0.16161305 0.18065673 -0.00044607255 -0.032995425 0.07363957 -0.17648463 -0.107734814 0.08724744 -0.07500707 0.020261828 0.19984114 0.15323119 -0.14972888 0.0027486822 0.036382902 0.11921621 0.11285795 -0.035929605 0.15846221 -0.22200893 0.01453418 -0.033666655 0.11906457 -0.107066385 0.03130549 -0.056179672 -0.16408886 -0.02114303 0.09499147 0.029638797 -0.023099644 -0.02072762 -0.017428664 0.13825463 -0.06944803 -0.23139113 -0.08157163 -0.0016473714 -0.04323183 -0.041046638 -0.049510963 -0.07404648 -0.05634093 0.044113472 0.060329698 -0.08605124 -0.09205626 -0.06961292 -0.066943005 -0.01429077 -0.07622564 0.040797498 -0.05446942 0.13355942 0.17376125 -0.0397656 -0.0033733775 0.04671418 -0.15368037
60 -0.23814915 -0.012548843 0.12629636 -0.06869118 0.09009199 0.20049523 0.092245564 -0.044297703 -0.10577704 0.23024395 -0.051699284 -0.084598675 0.030358568 -0.17020252 0.04461635 0.11631275 -0.117483325 -0.055437267 -0.00502667 -0.020725816 0.006295549 0.08994039 -0.050350644 -0.0337569 -0.25864807 0.020849131 0.04677691 0.020138923 -0.2064651 0.15807407 -0.014954341 0.040195547 -0.062768765 -0.045707934 0.037189465 0.055459112 -0.15204376 0.0028067979 0.25034812 -0.046413034 -0.27752835 -0.08630713 0.12650678 -0.080939464 -0.28233135 -0.065436415 -0.10925957 -0.053202167 -0.10386055 -0.038554046 -0.041808687 -0.067401655 -0.024558892 -0.054622836 0.013849742 -0.06419469 -0.09935211 -0.09086859 0.17615032 0.08021528 0.11307662 0.07384689 0.13869298 -0.22078021
49 -0.1293128 -0.5470657 0.3032359 0.2657204 0.036460146 -0.14256795 -0.16756803 0.13607925 -0.04792172 -0.03737182 -0.0103694685 -0.3094208 -0.109301805 -0.015735477 0.24707831 0.049224067 0.11475372 0.04794535 0.05535264 -0.087632485 0.27101097 -0.20005958 -0.041664723 -0.017783094 0.093460314 -0.10782911 -0.0035725355 -0.23388752 -0.31630647 0.092885636 0.2283106 0.0646422 -0.053744223 0.034040205 0.004323146 0.010120009 0.3190857 -0.4839909 -0.057530265 0.009552459 -0.5237747 -0.19567144 0.24776459 -0.041230403 0.16571619 0.2118967 -0.26776904 -0.35123062 -0.022836734 0.013886291 0.14691506 -0.17332743 0.058275986 -0.22588603 -0.45664394 0.17023298 -0.05530385 -0.19423154 0.1634738 -0.011456821 0.0005787131 -0.20564297 -0.05520723 0.05188425
61 -0.273151 -0.07702411 0.17848054 0.077185735 0.1258047 0.11529526 0.04687172 -0.03126945 -0.023550732 -0.009225749 -0.16665943 -0.089526616 0.007494628 -0.011833151 0.072766446 0.20302908 -0.03049299 -0.1656323 -0.13009301 0.061529007 0.14499196 0.105966724 -0.1368806 0.095447406 -0.18110721 0.07286282 -0.048160978 0.10242338 -0.22080216 0.18228124 -0.00033675515 -0.14639954 0.044536375 0.088221245 -0.048515446 0.07030546 -0.016421385 0.08676179 0.09955623 -0.028069042 -0.28893837 0.09164493 -0.0279409 -0.020776337 -0.16043162 -0.04310788 0.013763285 0.0502892 0.020130755 0.019515976 -0.13854347 -0.1248923 0.01547623 -0.07957527 0.083118945 -0.11559277 -0.12170532 -0.1747166 0.2458851 0.05497682 0.1310143 -0.027471911 -0.025162855 -0.106078215
59 -0.38531733 0.10640254 0.17811707 0.05103736 0.097317785 0.14169785 0.022585632 0.04773063 -0.032407086 0.029418973 -0.12065133 -0.016575342 -0.0002181796 -0.11876723 0.12034759 0.2149073 0.098713204 -0.028565463 0.01971292 0.004465529 0.06986938 0.08406702 -0.042858075 0.04469836 -0.15427008 0.104868844 -0.003484357 0.23251668 -0.0936548 0.07427183 -0.007586659 -0.10557526 -0.037385315 -0.01011649 0.00080132944 0.036230054 -0.028823212 0.0052888254 -0.005118382 0.042296987 -0.24175648 -0.051234957 0.044895574 -0.019393494 -0.11501047 -0.028751532 -0.10569889 0.09883104 -0.10771188 0.05655667 -0.094287835 -0.112079024 0.031041192 -0.045330822 0.058469966 -0.069937885 -0.017879933 -0.085650675 0.23587646 0.11863884 0.11791067 -0.00010393863 0.123053454 -0.20701265
78 -0.09963302 -0.5348175 0.36685663 0.2910462 0.012020096 -0.034468345 -0.1798911 0.061188713 -0.028535955 -0.19148763 0.09223736 -0.07324903 -0.06647931 -0.08845942 0.26045293 -0.017791355 0.18851669 0.060940165 0.094571285 -0.26087418 0.20182931 -0.12184811 -0.04446633 0.031668413 0.13838877 0.003536145 -0.027500466 -0.13569888 -0.37473255 0.008930052 0.21426328 0.09526263 -0.08245502 0.059663218 -0.13723171 0.11099651 0.31906456 -0.55957764 -0.041637816 0.16087438 -0.57567364 -0.13300689 0.13074721 -0.16658884 0.18588959 0.22132735 -0.14591704 -0.24532735 0.11766302 0.2622246 0.17515396 -0.13247445 -0.12443408 -0.18026687 -0.4780539 0.1749834 0.07856416 -0.2651307 0.30414352 -0.014312435 0.011618298 -0.18264729 0.03508104 -0.08308708
64 -0.27592438 0.011467575 0.19480827 0.04571363 0.08544467 0.19979477 0.074170366 -0.0016472288 -0.049238566 0.06671745 -0.07808083 -0.049694978 0.075104244 -0.08238244 -0.042726904 0.16864164 0.07949836 -0.07375005 -0.05423602 -0.003132043 0.115837775 0.21644449 -0.03427878 0.07509464 -0.0726526 0.008683109 0.020923646 0.033966396 -0.17578685 0.046573628 0.089722976 -0.17874207 -0.014138159 -0.02525465 0.08801412 -0.0037863476 -0.10724437 -0.03256431 0.13142736 0.10052637 -0.19755858 -0.04883098 0.015363472 0.015766935 -0.19044055 -0.062182173 -0.123347245 0.08814215 -0.04360314 0.07855613 -0.08181071 -0.12154172 -0.0033895331 -0.02642686 0.0021595487 -0.079068735 -0.09113896 -0.20777853 0.12093906 0.095091216 0.05740658 0.025727177 0.082159825 -0.13152279
62 -0.36526757 -0.03563151 0.046037517 -0.02208054 0.06617629 0.22903831 0.20008007 0.11511965 -0.11877187 0.10954322 -0.011808391 0.03783892 0.06361752 0.012683354 -0.01966605 -0.10520688 0.18652387 -0.075723246 -0.039824292 -0.06978804 0.100679845 0.08464046 0.08829964 0.15470761 -0.26556206 0.08841967 0.060665425 0.1619211 -0.048318952 0.17747596 -0.007404514 -0.25004137 0.07773457 -0.029866658 0.06730428 0.085359514 -0.24989165 0.084316425 0.062669724 -0.030375699 -0.23077723 0.021900835 0.018852562 0.1090057 -0.058281563 -0.18572278 -0.17755462 -0.009203347 -0.0040618307 0.049671806 0.01457244 -0.18222132 -0.16831368 0.0014846879 0.008904388 -0.014977984 0.15698302 0.08864193 0.024066295 0.015796568 -0.071596205 0.00072501914 0.0029302167 -0.16267237
70 -0.40246877 -0.096311934 0.07309432 0.053974982 0.13099156 0.19718722 0.19192207 0.20741606 -0.045626353 0.046834107 -0.053056695 0.048530936 -0.02352249 -0.011756462 0.07585778 -0.12791772 0.069313504 -0.08463757 -0.16423057 -0.12650253 0.18136951 0.08619732 0.089586094 0.07768429 -0.30513245 -0.033296265 0.03193161 0.04141688 -0.024585865 0.20750086 -0.095137164 -0.24685071 -0.07012417 0.016523236 0.0009072066 -0.08240451 -0.15442282 -0.045209642 -0.061813366 0.013676871 -0.003778897 0.15941438 -0.0137416925 0.024645481 -0.20863318 -0.06569373 -0.19379012 0.052858755 -0.12675938 0.010960203 -0.083346725 -0.20284557 -0.11587973 -0.13594677 0.101349525 -0.06577112 0.094796754 -0.045755558 0.0015369874 0.07746313 -0.0019906927 -0.052458305 0.06399099 -0.1835685
82 -0.18075086 -0.4118591 0.34203804 0.32968563 0.01693732 -0.106745996 -0.21032526 0.03472476 0.07938476 -0.13325804 0.054464184 -0.20871638 -0.050460357 -0.0074656243 0.31056762 0.09438081 0.09665302 0.09908717 0.050562747 -0.2050735 0.30386457 -0.05376547 -0.117918774 0.038232915 0.20626613 -0.20356706 0.0501881 -0.21043807 -0.24797538 0.2723871 0.1714068 0.124051824 0.025394 0.1645102 -0.023292983 0.10293812 0.25098312 -0.50538546 -0.019307645 0.15066192 -0.41456926 -0.122545026 0.1985809 0.01252432 0.1723501 0.21512806 -0.18941733 -0.34749264 0.0060794894 0.15235704 0.1954921 -0.17333244 -0.0012865239 -0.19834755 -0.5030064 0.1250411 0.033173807 -0.40033594 0.28978378 0.1233859 -0.017610827 -0.11065058 0.034169786 -0.050984517
52 -0.22363879 -0.0014994183 0.17268823 0.009774502 0.014730203 0.24654518 0.20165853 0.055333428 -0.049244594 -0.06920725 -0.12209273 -0.07104987 0.07250859 -0.059321396 0.048972405 0.09477392 0.0050197258 -0.039962303 -0.085285276 0.0041120895 0.15976232 0.12286459 -0.00894115 0.05332749 -0.13985309 0.080227405 0.13762139 0.10245705 -0.31962836 0.112841144 -0.005393253 -0.21012504 -0.09451022 0.06595466 0.057686344 0.017027399 -0.2085965 -0.039288145 0.15553088 -0.05698778 -0.22500437 -0.017066557 0.025536165 -0.20854242 -0.07564329 0.02039313 -0.09858177 0.046656143 -0.032416925 -0.0070809447 -0.10707295 -0.07138932 0.12667531 0.045341574 0.019340748 0.03698787 -0.012455655 -0.07577287 0.11919685 0.011266204 -0.018910257 0.038231734 0.14057676 -0.21649747
106 -0.13478336 -0.51828194 0.44127637 0.3156746 0.035381813 -0.1306028 -0.2320724 -0.12383071 -0.07891743 -0.13573802 0.027530845 -0.23765989 -0.03381007 -0.045508288 0.1804105 0.12952672 0.10573944 0.08902842 0.106076136 -0.18520418 0.3520516 -0.08375887 -0.17206688 -0.09796942 0.1758148 -0.14602174 -0.054155167 -0.22282055 -0.03658684 0.24670918 0.15044738 0.06686227 0.08497342 -0.082153715 -0.08042228 0.026785819 0.2747088 -0.51570636 -0.01005261 0.07084391 -0.4169401 -0.09284495 0.20930949 -0.09231161 0.1814679 0.13193342 -0.20594785 -0.3868257 0.01732922 0.2901569 0.072070405 -0.18349148 -0.034200888 -0.26790437 -0.481134 0.21008965 0.04376596 -0.21487254 0.31872517 0.06036823 -0.060033597 -0.05757445 0.04136884 -0.038961563
53 -0.3875797 -0.040357824 0.11397099 -0.080395356 0.010837447 0.16848023 0.18077438 0.17021456 -0.12455849 0.13101862 -0.050808895 0.033068877 0.022556243 -0.050970063 0.073504984 0.01830068 0.0549769 -0.11612987 -0.019676767 -0.09371936 0.16198951 0.060273018 -0.017358325 0.028298369 -0.24375165 0.0118988305 -0.09802246 0.11747567 0.0108684655 0.17759871 -0.032179516 -0.20586653 0.026526012 -0.0392633 -0.043893427 0.023718482 -0.30441025 0.011884612 0.09971005 0.08508603 -0.13182135 -0.0141769545 -0.039014705 0.04878824 -0.05442188 -0.09640342 -0.20819746 0.110910326 -0.16636795 0.24300803 0.10980667 -0.15019558 -0.096637785 0.012061192 0.113337815 -0.1800227 0.036311977 0.015707407 0.0381125 -0.0037178136 -0.11160912 0.03132336 -0.0073900516 -0.05062384
141 -0.0882416 -0.3176931 0.027772656 0.10306892 0.3192486 0.19901915 -0.14717735 -0.21288206 0.07468874 -0.07566667 -0.024378426 0.034332667 0.1985275 -0.1388946 0.26466364 0.214254 -0.10537586 0.014109787 0.07152903 0.017985158 -0.114524245 0.059013404 0.07114568 0.07962968 0.023154682 0.09371449 0.30778077 -0.14320977 -0.025106518 0.23240095 0.26944768 -0.100659885 0.02781992 0.08134004 0.0135842 0.03554694 0.35085124 -0.18328218 0.16872075 0.28463763 -0.22923207 -0.01638485 0.0015333019 -0.36817172 0.12585926 -0.052274898 -0.078035034 -0.05398668 -0.086036384 0.08400889 -0.14704885 -0.26764897 0.030221652 -0.026042243 -0.40204677 0.022598749 -0.16402856 -0.092830986 0.29273826 0.09741297 -0.04663743 0.018196069 -0.08773998 -0.05407212
197 -0.25450265 -0.2021327 0.27124852 0.03588244 -0.026409017 -0.03677277 -0.035785194 0.1815659 -0.01369214 0.20990779 -0.018527126 -0.102214344 0.05057423 -0.0716605 -0.18136321 0.20412496 -0.041336827 -0.05510555 -0.120810844 -0.13946782 0.1771298 0.018765735 0.042562623 0.12897897 -0.13247226 -0.07550039 -0.06919457 -0.011755068 -0.07601106 0.13923611 -0.08710177 -0.077885985 -0.14367527 0.032447454 0.16847928 -0.040080313 -0.0073847733 -0.10947774 0.12815452 0.13654782 -0.20869581 -0.0007239306 0.037986815 0.13117808 -0.027714083 -0.08677521 -0.08692492 -0.058377903 0.03493696 0.17695743 0.035733577 -0.08263972 -0.026677292 -0.112655066 -0.04564187 0.17105785 0.21501158 -0.046077542 -0.07455998 -0.1196858 0.21100248 0.057596598 0.20860052 0.013159373
36 -0.17212358 -0.33512428 0.08841415 0.32186657 0.29005024 -0.12200761 -0.34028378 -0.048039675 0.14874403 0.019304538 -0.02407562 -0.012227976 0.20376869 -0.20914996 0.32516897 0.108271495 0.079162404 -0.006332713 0.033952873 -0.27688873 0.14414677 -0.1433961 -0.06432742 -0.09370235 0.087347336 0.030465158 0.38725603 -0.27090052 -0.1525081 0.3403249 0.13989317 0.008812684 0.07150291 -0.026287133 0.024592996 0.035491627 0.24807823 -0.261072 0.2599561 0.38837025 -0.3689868 -0.11505436 -0.21448112 -0.44278133 0.361494 -0.09710649 0.00915295 -0.11633086 -0.009394979 0.093768165 0.20530523 -0.14833277 -0.020268196 -0.1799288 -0.4792148 -0.059457965 -0.086833715 -0.044295665 0.2047494 0.20636913 0.1668166 -0.027675927 -0.05491138 0.05363589
153 -0.2530744 -0.1356491 0.28649047 0.094726846 -0.11194463 -0.08669087 0.11524266 0.14567901 -0.121326506 0.1889315 0.07268401 -0.0049009076 -0.07679789 -0.06889994 -0.013309958 0.2577667 -0.061012536 0.0025111635 -0.016393006 -0.10956738 0.17778829 -0.10787237 0.038002606 0.2635044 -0.13605607 -0.16159642 -0.032472253 -0.14437555 -0.051786438 0.08441228 0.107858524 -0.036511164 -0.09703521 0.089873396 0.19571204 0.0338733 0.10743898 -0.12193415 0.2128469 0.022655942 -0.2597051 0.00068957283 0.10268594 0.1837285 0.085398145 0.02428656 -0.057261247 -0.11701366 -0.035384554 0.09510225 -0.05360656 -0.15276526 -0.03027631 -0.10557896 0.10404867 0.15813023 0.062331136 0.01570235 -0.055903938 -0.06582235 0.264652 0.0074385977 0.34717757 -0.039661147
56 -0.36515427 -0.08098355 0.03259288 -0.024852691 0.10954781 0.18716525 0.17959702 -0.010060684 -0.15244697 0.13674381 -0.1486121 0.038416024 0.0042479853 0.005632865 -0.055249855 -0.032945003 0.011438497 -0.100592494 -0.13951077 -0.21546422 0.17280819 0.15570652 0.084631264 0.08049546 -0.24258536 -0.029756017 0.037527528 0.12504147 0.01414858 0.09904199 0.087744795 -0.2238974 0.1309757 0.06927812 0.10690794 -0.026235024 -0.15247843 -0.047213614 0.14127235 -0.04847635 -0.17979127 -0.02716723 0.04746771 -0.10610301 -0.15177388 0.01525458 -0.23222369 0.12662444 -0.07310198 0.0038127059 -0.19530459 -0.034566373 -0.15380356 -0.08349707 0.12077085 -0.02457795 0.087607384 0.11144593 0.040274795 0.106351584 0.06342861 -0.033827003 0.04382064 -0.09300161
208 -0.2797631 -0.14184478 0.29190075 0.037383307 -0.1745753 -0.13440186 -0.03925897 0.14528236 -0.10069793 0.1554592 -0.07457765 -0.10901239 0.013554019 -0.10081608 -0.13867308 0.136236 -0.047493685 0.0037366434 -0.073791906 -0.0174296 0.20677426 -0.04768625 0.001389938 0.23948474 -0.2674061 -0.03783907 -0.06494754 0.03012341 -0.041690696 0.12383238 0.005432298 -0.07781119 0.0034721976 0.043775313 0.078577526 -0.07055024 -0.017860869 -0.16332428 0.10570806 0.0048962436 -0.2530971 0.06340292 -0.1034842 0.146573 -0.006099802 0.027677804 -0.05052042 0.03587578 0.01027907 0.1472162 -0.041154753 -0.18667716 -0.074126095 -0.052728705 -0.053834256 0.0682728 0.08537673 -0.11530163 -0.1268324 -0.07293032 0.27199295 0.02261843 0.16505456 -0.058207713
88 -0.1852154 -0.52559006 0.32535043 0.33193925 -0.03724737 -0.09856413 -0.30608824 -0.012271313 -0.03537894 -0.1151988 0.011359412 -0.12655301 -0.0129526565 -0.011323834 0.2966308 0.0519529 0.05933563 0.04958803 0.06542898 -0.26276264 0.3065864 0.024000578 -0.14762305 0.1071195 0.119357534 -0.13001756 0.016037675 -0.18615015 -0.26486215 0.21442088 0.20364209 0.16891415 0.12928681 0.11791944 0.029996248 0.16324073 0.2796692 -0.531403 -0.009350562 0.12287273 -0.37519333 -0.16387914 0.20123911 0.022872562 0.18166609 0.14512262 -0.14556813 -0.28926808 0.066957094 0.09051659 0.16630946 -0.22888719 -0.10147119 -0.19485743 -0.5072968 0.18960823 0.057838295 -0.26635304 0.24790537 0.11632874 -0.07809759 -0.15331319 -0.0061979233 -0.09690157
164 -0.23865609 -0.1851721 0.29600066 0.035650447 -0.08981406 -0.10208127 0.10039402 0.15749787 -0.088585 0.20902437 -0.09647014 -0.05089534 0.030675754 0.10044712 -0.076596715 0.19151159 -0.07247905 -0.064541616 -0.10588456 -0.098210394 0.14665432 -0.09233761 0.08564851 0.082113504 -0.11158492 -0.04024064 -0.012673293 0.0034614934 -0.09289914 0.15048632 0.0020103557 -0.036372047 -0.018079357 -0.018830659 0.0177914 -0.113924675 -0.07175217 -0.22058435 0.10584154 -0.066248775 -0.2813067 0.03747551 -0.0061953124 0.16113047 0.068395324 0.0021050205 -0.1224384 0.01787816 0.1261288 0.1540167 -0.10972803 -0.21528687 -0.04368997 0.11794338 0.00039086273 0.117280625 0.17210247 -0.0023240452 -0.05650648 -0.004507751 0.2668963 0.08541105 0.15060608 -0.028075784
217 -0.33692038 0.10661465 -0.050470468 0.063073784 0.15256259 0.23823166 0.026755007 -0.011937446 -0.1274251 0.046709985 -0.017441068 0.012034894 -0.017383058 -0.053573534 0.115928106 0.16913538 0.06621593 -0.120628476 -0.052815046 0.00476769 0.058316763 0.10190058 0.08910193 0.021816047 -0.24278024 0.0074777915 0.048072718 -0.0015553337 -0.10646684 0.08824409 0.13453017 -0.19545344 -0.042382874 0.04710992 -0.051415976 -0.015193659 -0.07523733 0.016543472 0.12059113 0.028326418 -0.1384028 0.13985379 -0.037842102 -0.1295324 -0.27103832 -0.055708848 -0.12588541 0.21643879 -0.089696914 -0.0051835184 -0.023207134 -0.09384385 0.0010923999 -0.015212466 -0.0762052 -0.046757463 0.02017534 0.0008680749 0.2451776 0.1792533 -0.13536157 0.01655989 0.014592525 -0.18125568
223 -0.29951027 -0.07676976 0.33955276 0.0561799 -0.011626255 -0.08560326 0.10769852 0.15934694 -0.02013651 0.16883886 0.012972782 -0.12056231 -0.016133504 -0.0060908953 -0.055667732 0.15759075 -0.194705 -0.06654577 -0.1177011 -0.0852789 0.2562335 -0.08115823 0.1293641 0.19390997 -0.04328314 -0.115556285 -0.14186007 -0.014410013 -0.11680512 0.10612871 0.042867992 -0.11099942 0.022125285 -0.033144373 0.13351786 -0.124930024 -0.04289893 -0.07061221 0.042845357 0.12827204 -0.17157115 -0.016140953 0.10314933 0.09912442 0.014781211 0.017584447 0.008116321 -0.067511104 0.07483574 0.08218496 0.023711326 -0.27560943 -0.13772324 0.07015444 -0.07811 0.20146595 0.10558512 0.014380371 0.0132975355 -0.055499446 0.3267184 0.015193744 0.21897058 -0.1319146
79 -0.13363856 -0.569062 0.3136226 0.21523279 0.0018879953 -0.11736348 -0.18002865 -0.07359696 -0.0048790183 -0.15354228 0.08086122 -0.28028834 -0.107962064 -0.0076665743 0.30190787 0.08902566 0.12381916 0.043053403 -0.0578083 -0.24967928 0.27238703 -0.039647635 -0.19798833 0.18957151 0.07736182 -0.13574138 -0.023044107 -0.32894772 -0.12746143 0.20222366 0.20997286 0.17334943 0.015706118 0.17169963 0.067982115 0.083512165 0.20553403 -0.42706135 0.09280171 0.24343495 -0.3745234 -0.3232627 0.24642216 0.013477444 0.19625148 0.20616034 -0.19141723 -0.2897927 -0.04441713 0.25650102 0.13054408 -0.18599418 0.051038668 -0.19669439 -0.5200956 0.10114772 0.1489515 -0.29996765 0.27529877 -0.034357984 -0.0508178 -0.17505626 -0.08071962 -0.0873723
55 -0.44695482 -0.016142806 0.07092537 -0.13172954 0.13854833 0.21471398 0.20630023 -0.037114024 -0.090501525 0.12506609 0.0024439234 0.018607985 -0.032355662 -0.01915475 -0.06806253 -0.16766809 0.05504179 -0.1404262 -0.04965322 -0.12966692 0.10299808 0.040044867 0.1779012 -0.0604473 -0.3264088 0.109885685 -0.13642049 0.099745005 -0.1013626 0.18606177 -0.10851426 -0.12292322 0.028517798 0.051145516 0.01282001 -0.0916654 -0.28848934 -0.09769056 0.082197934 0.051041704 -0.1440772 0.042525742 -0.068487965 0.13930736 -0.034234907 -0.027511815 -0.15772237 0.093937896 -0.23266865 0.040960915 -0.06620031 -0.19059056 -0.08084011 -0.035716336 0.11604426 -0.05249017 0.040953487 0.13174346 -0.009624613 0.028193956 -0.070235334 -0.08730613 -0.10466327 -0.0916503
71 -0.43249005 -0.010848514 0.15012561 -0.087922744 0.057606656 0.2032122 0.138374 -0.0048349076 -0.08175275 0.07442399 0.011938071 0.14685436 -0.01977369 -0.059763387 0.043600548 -0.17189492 0.13046047 -0.032808878 -0.054389887 -0.15348053 0.11312242 0.09738834 0.115927905 -0.01145444 -0.32396817 0.027660469 -0.081970505 0.19111481 -0.13944134 0.14656772 -0.031841036 -0.15380634 -0.008591654 0.05065232 0.09326328 -0.015307564 -0.2286333 -0.037149772 0.12644711 0.08706208 -0.0889924 0.07784735 -0.12700775 0.096686356 -0.014258933 -0.07419048 -0.21758835 0.08294275 -0.11039611 0.17956017 -0.10386196 -0.22148034 -0.037808888 0.022333914 0.18610771 -0.1649766 0.030151134 0.1780582 -0.0149383275 -0.116993286 -0.065154776 -0.08506771 -0.08138516 -0.14271228
195 -0.21159935 -0.07075987 0.1494004 0.06819165 -0.06643725 -0.0046456573 0.07080493 0.22187117 -0.05096841 0.18307845 -0.0905625 -0.06717593 -0.06516669 -0.056676347 -0.16144837 0.14732897 -0.021249913 -0.120655864 -0.08861974 -0.10952214 0.2518511 -0.06755627 0.098245606 0.08114502 -0.26874718 0.033412766 -0.20420432 -0.019251673 -0.112556845 0.08938025 0.08758203 -0.029918848 -0.016744327 0.020811599 0.16759583 -0.11155874 -0.07885117 -0.23807698 0.1019374 -0.05335324 -0.28068992 0.032299664 -0.05263996 0.12781616 0.08569776 -0.0894006 0.025509037 -0.08502869 0.04260247 0.25170866 -0.018137874 -0.1302229 -0.20927846 0.0897124 0.0050225523 0.07603475 0.17749189 -0.08435727 0.03600741 -0.029737098 0.19141725 0.023075297 0.15470272 -0.060556408
155 -0.32492286 -0.076384485 0.25849771 -0.0921582 -0.09355729 -0.06852681 -0.0034530114 0.20086396 -0.16857032 0.060413517 -0.009082315 -0.0018247501 -0.08650532 -0.042669352 -0.11612838 0.2589099 -0.012743479 -0.062954284 -0.089495555 -0.20095678 0.24238154 -0.16007125 0.016089631 0.11032731 -0.24975802 0.045861956 -0.057780493 -0.006969305 -0.1771083 0.1663182 0.011597255 -0.07175312 0.02224172 0.06123227 -0.012200473 -0.099798605 0.04356892 -0.20443258 0.026797934 0.013446314 -0.18506262 0.020758895 0.10343653 0.06587207 -0.0333611 -0.026358934 -0.07349872 0.023633454 -0.016230483 0.120063215 -0.08133071 -0.17292435 -0.12958752 -0.04797679 0.13051605 0.120039396 0.20634715 0.004817483 -0.0557295 -0.064987205 0.16506231 0.077753544 0.1534616 0.08316368
170 -0.2087972 -0.17633079 0.21770312 0.030416522 -0.029264722 -0.14323406 -0.10285352 0.2619373 -0.15770915 0.06442855 -0.16445202 -0.014586449 -0.041388143 -0.13662788 0.005792163 0.24407507 -0.08691025 -0.0031648045 -0.11336806 0.0010543406 0.21884294 -0.22756493 -0.14062315 0.111340955 -0.16871747 -0.07871912 -0.026594207 -0.07743515 -0.21806452 0.07825678 -0.050399706 -0.098545104 -0.16344604 0.15292199 0.19493975 0.015638113 0.032282054 -0.17655225 0.06137517 -0.063154005 -0.23168986 -0.050948955 0.080222465 0.17565149 0.01414926 0.014646293 -0.066819765 -0.076702684 0.04009259 0.16759154 0.1687239 -0.2662356 -0.08287186 -0.13064045 -0.14434582 0.23500328 0.1122652 -0.040766038 -0.08579917 -0.13627483 0.27787316 0.008226368 0.2185937 0.19314732
222 -0.30289912 -0.024973389 0.024250513 0.13694343 0.32290256 0.30380344 0.07374884 -0.032211807 -0.07245924 -0.058395218 -0.1839023 -0.07441266 -0.026349857 -0.08252274 0.117108814 0.066564195 0.11334111 -0.11340566 -0.056161236 0.04426384 -0.03635598 0.1941972 0.024514822 -0.059474748 -0.24225597 0.11663216 0.009548587 0.08176958 -0.10397841 0.17683928 0.054373607 -0.09493113 6.426517e-05 0.076145865 -0.11724052 0.020025222 -0.01970568 0.101456665 0.18278657 -0.012095841 -0.123149745 0.07024033 0.0879298 -0.16984522 -0.2123884 -0.16975993 -0.008162715 0.091978654 -0.072062306 0.12210824 -0.058460332 -0.12823923 -0.040046733 -0.066114835 0.022772431 -0.023044039 0.0019838265 0.22612283 0.09927262 0.20914957 -0.1481449 0.10390675 -0.028416496 -0.16218603
225 -0.18681689 -0.13343132 0.34793606 0.05779239 -0.046946507 -0.1956114 0.08466887 0.13768297 -0.1087444 0.2113204 -0.019490743 -0.094010584 -0.015065066 0.0107314885 -0.075978376 0.17157796 -0.057608753 -0.030349089 -0.10791804 -0.09457202 0.20185181 -0.07358352 -0.095624246 0.17870443 -0.1902535 -0.12039413 -0.063749075 -0.11670934 -0.004389873 0.086436085 0.09875737 -0.038274985 -0.09112912 0.11812266 0.044602264 -0.18966235 0.052573293 -0.14151305 0.035467863 0.062855385 -0.34404305 0.08430846 0.110607944 0.21185909 0.062345795 -0.004531229 -0.11048876 -0.06331722 0.10846871 0.09794007 0.067739256 -0.22564083 -0.10633647 0.002216172 -0.0149899125 0.121621534 0.21298102 0.050710157 -0.070218064 -0.031103216 0.19358435 0.053476896 0.30388242 0.09501552
12 -0.24813205 -0.30508652 0.01096868 0.078630425 0.45290112 0.060982008 -0.19536057 -0.22050712 -0.013891039 -0.18177274 -0.066927895 0.0071021994 0.33359715 -0.2369276 0.123756416 0.071996935 -0.03930066 0.029692391 0.030296236 0.060061216 0.013900246 -0.06910991 0.08766832 0.08873776 0.02698957 0.044656508 0.63810325 -0.19409661 -0.046423998 0.18779029 0.17300099 0.11291472 0.035740986 0.013181277 -0.11008873 0.02047041 0.21937442 -0.32992697 0.1807473 0.29150212 -0.27141368 -0.11491402 -0.17896676 -0.49104884 0.27491963 -0.114914834 0.09743499 -0.09238174 -0.15974513 0.06355883 0.0749739 -0.11506679 0.1283863 0.017985193 -0.46469453 0.010904415 -0.103883885 0.029716248 0.34439754 0.15205824 0.044027478 0.0850939 -0.09002241 0.037828244
219 -0.3309399 0.0964811 0.02683018 0.02158768 0.21088184 0.34971458 0.010366881 0.023849431 -0.04056174 0.017495671 -0.028157143 -0.09768252 0.06948874 -0.08128256 0.08825699 0.12763344 -0.007936374 -0.0988952 -0.12331599 0.078457676 -0.10422519 0.19681184 0.032877132 -0.027438965 -0.2185869 0.139522 0.16668905 0.10009799 -0.04663869 0.14980909 0.11582015 -0.16237558 -0.0993545 0.13418403 -0.09638345 -0.13855484 0.012229741 0.008264132 0.057885166 -0.03038956 -0.1170394 0.055120476 -0.034943342 -0.11209132 -0.14596377 -0.08203623 -0.05819631 0.082598455 -0.040792692 0.13321593 -0.017393865 -0.15346709 -0.07349485 -0.00066727423 0.0010023799 -0.11763767 -0.0056540766 0.06660648 0.11451521 0.21016893 -0.23439083 -0.07696825 -0.015485943 -0.15748654
207 -0.1683523 -0.2050416 0.3583127 0.016402118 0.0026966918 -0.1925423 0.09803092 0.22490707 -0.061143093 0.0458374 -0.21542911 -0.06676298 -0.042899925 -0.11770989 -0.014410482 0.19398911 -0.22388843 0.106333524 -0.09128066 -0.069919646 0.2917951 -0.06059394 -0.03199738 0.0020113217 -0.08062784 -0.10529208 -0.096009575 -0.10126713 -0.036250915 0.09971137 0.16672936 0.069893524 -0.06326538 0.061352722 0.16682895 -0.012664741 0.008950437 -0.06963782 0.15560235 -0.052706145 -0.2960448 -0.10131971 0.026899524 0.22869633 0.114649445 0.055430576 -0.061113354 -0.10778799 0.15898587 0.10375446 0.015315546 -0.30203906 -0.12602112 -0.13881233 -0.19371195 0.11040591 0.11713843 0.080952324 -0.10357445 -0.05637361 0.25965405 -0.006360417 0.2383652 0.042617016
151 -0.28554967 -0.23699717 0.5584247 0.07085371 -0.06324755 -0.4396796 0.009492356 0.23956305 0.017726358 0.043354888 -0.065307386 -0.27660975 0.05550096 -0.14607649 0.1162335 0.043694615 0.028560147 0.15863366 0.12844886 -0.02667838 0.12757382 -0.11279186 -0.2298301 0.0250824 0.044799767 -0.2815062 -0.027379233 -0.21778305 -0.11666563 0.12332781 0.218607 -0.059161056 -0.191661 0.10692309 0.050713554 -0.09079694 0.013833969 -0.4124533 0.024692623 -0.084707886 -0.24180882 -0.068900175 0.12909453 0.036753334 0.17714638 0.04728194 -0.08519112 -0.26749456 0.2534728 0.13175745 -0.023022775 -0.2295724 -0.084548034 -0.1356051 -0.31501138 0.32551146 -0.03783196 0.0017103713 -0.048496902 -0.033188853 0.3063044 -0.07801274 -0.01288538 0.08086297
23 -0.11487784 -0.32702953 0.055119876 0.3330133 0.20379126 -0.06589911 -0.3443805 -0.2242706 0.21035342 0.013065247 -0.02430229 -0.14578159 0.1291981 -0.10280829 0.35335165 0.11930714 0.11206323 -0.10750716 0.04186681 -0.23327896 0.24814789 -0.07652136 -0.11112822 0.05052834 0.09642491 0.22413002 0.50041837 -0.35612854 -0.09593908 0.37321955 0.1002386 0.07984693 -0.104055345 0.024460616 -0.06964536 0.006731193 0.15138076 -0.38783342 0.2593208 0.37174606 -0.28284398 -0.10249563 -0.31796506 -0.39494318 0.36675945 -0.14134312 0.16136152 -0.21104182 -0.12214914 0.14200342 0.20276296 -0.22159518 0.039459426 -0.17404704 -0.42545813 -0.04307112 -0.02589536 0.11991529 0.1578777 0.10769747 0.13998917 -0.028354388 0.012215528 -0.14449206
168 -0.19872902 -0.2643087 0.47044528 0.18550102 -0.13633981 -0.33855766 -0.08194509 0.06792543 -0.012300505 -0.053100698 -0.20331576 -0.2763837 0.08385295 -0.08358612 0.119149104 0.11054595 -0.08266278 0.16977625 0.06931997 -0.0701487 0.19774838 -0.25302526 0.06363725 0.1641527 0.023843057 -0.25345898 -0.050697573 -0.18031384 -0.21066691 0.05870078 0.21662675 -0.04780483 -0.29252246 0.10271656 0.14992087 -0.06742421 0.09297919 -0.33793098 -0.06290895 -0.051234234 -0.42349195 -0.13671686 0.28176853 0.090788975 0.2036394 0.035296667 -0.055138186 -0.07177529 0.007908259 0.13891666 0.06724102 -0.112639606 -0.07716733 -0.15295438 -0.3498916 0.30390644 -0.041857526 -0.14417335 -0.09187993 -0.12633651 0.25568956 -0.15829575 0.011919536 0.08902712
204 -0.20847541 -0.18875678 0.3498756 -0.011470277 -0.11552686 -0.19615506 -0.0036444315 0.27843508 0.0631155 0.11549445 -0.1312494 -0.071549006 0.02699287 0.049301405 -0.057471145 0.1376899 -0.14369968 -0.036780626 -0.024141518 -0.03820799 0.2811763 -0.1725017 -0.054403793 0.1257201 -0.03249446 -0.13112858 -0.0074425493 -0.11044563 -0.10238713 0.040977277 0.02092459 -0.07398868 -0.18320513 0.069411896 0.19017999 -0.07610038 0.053859845 -0.23401472 0.047418017 -0.02523096 -0.22933562 0.022903398 0.19205931 0.1274429 0.10694246 -0.09331935 -0.03369901 0.017648658 0.022744816 0.20186923 -0.0097246375 -0.3687088 -0.072915405 -0.13641618 -0.095623896 0.29614866 0.07651411 -0.078775495 0.0067778267 -0.19310988 0.19197303 -0.032930616 0.20880236 -0.00049614103
2 0.0136070745 -0.32922012 0.17347085 0.13163503 0.5456974 0.06760476 -0.23868103 -0.2391982 0.09216299 -0.0797964 0.07623172 0.0070482115 0.11728453 -0.1039022 0.3013608 0.11027907 -0.05691395 -0.030085485 0.110218525 0.05607666 0.0089951195 -0.00629147 0.027170056 0.02399828 0.05618976 0.13791111 0.5512927 -0.3104328 -0.1440781 0.24845059 0.15697457 -0.0513426 -0.058757138 -0.031168627 -0.17339921 -0.07850832 0.22212172 -0.25331005 0.25477013 0.30529046 -0.18263473 -0.07544486 -0.15479642 -0.29617804 0.2745544 -0.07161665 0.1527334 -0.1297541 -0.116031915 0.2795698 0.014564124 -0.23642126 0.08739504 -0.078849524 -0.30310148 -0.097442634 -0.16966164 0.17398322 0.5001907 0.23680826 -0.0035976411 0.18486254 -0.04593541 -0.0015386398
73 -0.40673655 -0.03196821 -0.06226973 -0.09749591 -0.038343344 0.28255567 0.18999958 0.042075668 -0.1266403 0.06507276 0.062266856 0.12316499 -0.0050561884 -0.059816282 -0.14393516 -0.10128101 0.09363499 -0.13892852 0.047336444 -0.09076624 0.16212672 0.115352325 0.059727684 -0.023854682 -0.2678066 0.057029486 -0.07331432 0.29385743 -0.1295081 0.10321284 0.00016691328 -0.13726513 0.098150924 0.10179723 0.025868617 -0.03533589 -0.21503294 -0.0045452556 0.14190878 0.029409373 -0.20967491 0.029033793 -0.031188272 0.11359444 0.10925699 -0.097930886 -0.31191793 0.085253045 -0.21981679 0.14438462 -0.056332853 -0.26977524 -0.05092189 -0.16691796 0.16787325 -0.066010915 0.07920288 0.15170725 -0.02269384 0.13722381 -0.063713655 0.004259719 -0.08817702 -0.06317893
152 -0.26170143 -0.38280785 0.37843117 0.15412925 -0.09166627 -0.2868724 -0.02023812 0.1488382 -0.03905328 -0.090640634 -0.22373234 -0.25754133 0.081848636 -0.21961527 0.1719052 0.13519879 -0.08410379 0.026119668 0.08488491 -0.025943719 0.24667165 -0.14926192 -0.04082935 0.042759743 -0.05536951 -0.33663002 -0.013655117 -0.114675485 -0.19797829 0.04906575 0.16285229 0.14404997 -0.13648744 0.05782399 0.00037231043 -0.059655204 0.21300888 -0.33057368 0.03512841 -0.12657452 -0.3253919 -0.1600779 0.096078694 0.100336745 0.18425092 0.12493162 0.00042876022 -0.27806884 0.08729808 0.1489218 0.06093158 -0.19425732 -0.06695857 -0.103523016 -0.21035798 0.41327548 0.031568266 -0.027197892 -0.0030955977 -0.31562123 0.21873239 -0.2792791 0.0025955802 -0.0008336836
206 -0.2225815 -0.20996648 0.15988737 -0.030300643 0.001329779 -0.11580856 0.064705014 0.25562686 -0.10039211 0.15687896 -0.050080545 0.005567028 0.014650997 -0.04427775 -0.034639727 0.1357342 -0.036193438 -0.03810405 -0.17238984 -0.029641697 0.32537133 -0.029331706 0.12932134 0.06572063 -0.26357943 -0.07037692 -0.13815434 0.02521406 -0.0075922166 0.22762258 -0.06854502 -0.10647823 -0.046637982 -0.020024193 0.12420411 -0.14765589 -0.09617257 -0.12363946 0.112175 -0.01724903 -0.18946914 0.07692308 0.11974238 0.13455804 0.047598675 -0.05165785 -0.04167596 -0.06717201 -0.13892281 0.15847522 -0.026654154 -0.1287031 -0.037188232 0.008209106 0.010747978 0.095671 0.29353622 0.016337657 -0.044181973 0.0501056 0.13557848 0.09326897 0.14842027 0.043097746
182 -0.22536336 -0.2031946 0.38579434 0.13519555 -0.01489938 -0.32499117 -0.07260811 0.2075659 -0.014136907 -0.065309554 -0.16234617 -0.24880055 0.17796682 -0.12068724 0.16067454 0.18254341 -0.027240662 0.04503711 0.16475731 -0.040433064 0.3432648 -0.20696403 -0.029771112 0.07719215 -0.076658115 -0.2663348 0.009405116 -0.20785595 -0.2247012 0.108099215 0.2038147 0.052462876 -0.22684658 0.05126589 0.08374813 -0.08465775 0.17789036 -0.3712114 -0.063169174 0.11490353 -0.27620772 -0.26037392 0.32407746 0.28362742 0.17820638 0.2818447 -0.07589941 -0.21923076 0.16019589 0.1011527 0.1532787 -0.09283883 0.0104824165 -0.21948566 -0.30311912 0.40255487 -0.10194612 0.007082859 0.02042186 -0.16316324 0.20298776 -0.14928414 0.016740527 0.08278067
169 -0.14868069 -0.277231 0.39086208 0.11522091 -0.03991881 -0.3510307 0.0015992994 0.31131038 -0.020564914 -0.029867366 -0.29233134 -0.25623655 -0.023885805 -0.1484859 -0.014650847 0.10084114 -0.08544871 0.027866794 0.16315773 -0.03228017 0.21677262 -0.112918474 -0.049897816 0.11951389 -0.07588115 -0.16674057 0.07138802 -0.2071928 -0.07763261 0.086848944 0.178257 -0.05998825 -0.07708394 0.11216161 0.09895236 -0.052773308 0.08290308 -0.2850833 0.08386248 -0.09776753 -0.29790747 0.0072494834 0.184059 0.212963 -0.008211295 0.04535662 0.039926775 -0.0026360326 0.05428719 0.039781265 0.101400435 -0.19905041 -0.10056616 -0.22167397 -0.22024716 0.30893445 0.020584797 -0.06657354 -0.06617705 -0.19572589 0.18163595 -0.102230385 0.18125242 0.033051375
154 -0.19690324 -0.24747553 0.39753076 0.12298305 0.026871461 -0.37320262 -0.062332556 0.17614107 -0.09796895 -0.030539764 -0.122964144 -0.16855045 0.057417817 -0.077922374 0.20509188 0.14388335 -0.098800994 0.055634294 0.16319688 -0.08130602 0.0666857 -0.009212472 -0.05802453 0.2789549 -0.0047270935 -0.25736347 -0.029680042 -0.09051402 -0.30845416 0.04457941 0.05689321 0.03199659 -0.26489145 0.14049385 0.1410109 -0.18535618 0.24418093 -0.44431505 -0.11859657 -0.13266686 -0.36278275 -0.13661264 0.27096003 0.090344235 0.24887058 0.017174168 -0.049208153 -0.21175115 0.19236676 0.059871055 0.05934435 -0.22571753 -0.11604201 -0.30125937 -0.24943909 0.30803433 -0.03086024 0.024139822 0.007473225 -0.1950712 0.23614733 -0.011141088 0.07247743 0.1134376
166 -0.28623927 -0.20030649 0.43977818 0.24431789 -0.121258155 -0.23153698 -0.11276382 0.2828705 -0.029792285 0.041909393 -0.2253067 -0.23646732 0.07214627 -0.120765865 -0.038564183 0.06934968 -0.15432458 -0.045837868 0.04414189 0.036799822 0.16758052 -0.16116913 -0.026999002 0.15408567 -0.006321913 -0.25144947 0.002247469 -0.19808494 -0.10373109 0.0016644762 0.12640598 -0.010700455 -0.06133791 0.13800551 0.046780378 -0.044026796 0.04835587 -0.26255077 -0.0038005412 -0.068204015 -0.29751837 -0.010362897 0.10177578 0.09489746 0.07919449 0.039584137 0.023485769 -0.16150512 0.18107006 0.15903215 0.050683115 -0.17023912 -0.04056407 -0.15316552 -0.30125874 0.2861068 0.07723511 -0.01306627 0.0030078758 -0.23746778 0.1360949 -0.13051468 0.25458756 0.06166035
194 -0.24462023 -0.33180103 0.3303245 0.21242385 -0.058586925 -0.29506934 -0.046139687 0.2546364 -0.026837181 -0.068425246 -0.16545585 -0.298011 0.07178307 -0.15456267 0.11740499 0.1391922 -0.1824713 0.024661373 0.07648905 -0.034368202 0.24917924 -0.14005555 -0.0627204 0.11225068 0.016825983 -0.24372137 -0.0069527524 -0.17409898 -0.20546792 0.03862583 0.18229993 0.009280948 -0.20400952 0.034363907 0.0956128 -0.020151723 0.1512174 -0.34383386 -0.1418333 -0.08898828 -0.4030395 -0.119525805 0.17322674 0.11555858 0.20316291 0.12115704 -0.016423512 -0.12454738 0.049423892 0.22003058 0.02567047 -0.10461132 -0.079077736 -0.17824095 -0.35951233 0.33856586 -0.022703584 -0.036097556 -0.017585661 -0.19710505 0.15397243 -0.21840946 -0.023854323 0.07138353
224 -0.34302828 0.14942537 0.038806647 0.16850641 0.3148992 0.18632644 -0.030667905 -0.19530438 -0.21670772 -0.0524192 -0.102020636 0.019620843 0.19019845 -0.036953457 0.031675335 0.17103219 0.008243638 -0.039818145 -0.016251622 -0.009238066 0.0039004239 0.23217452 0.14557248 -0.11018891 -0.100100115 0.15394418 0.10953453 -0.013254189 0.07251742 0.25223956 -0.018255427 -0.13319273 -0.07042011 0.15232839 -0.1691144 -0.050633736 -0.10571396 0.22913559 0.07927649 0.026292458 -0.08909568 0.17121053 -0.13285893 -0.10988202 -0.14667104 0.011376868 -0.15273902 0.06607928 -0.12751646 0.14866881 0.10611931 -0.2282283 0.06270003 -0.08132829 0.18945093 -0.049290773 0.029530637 -0.01477935 0.21750294 0.18237698 -0.08152525 0.019553414 -0.09431245 -0.29211545
167 -0.42824504 0.15727675 0.04713611 -0.03363103 0.16924576 0.231269 0.17792997 0.048944168 -0.044140697 0.18130827 -0.060235366 0.12108815 -0.08483726 -0.00086303055 -0.067715585 -0.17155798 0.21053635 -0.24061598 -0.011206622 -0.20027283 0.073818155 0.07533008 0.10647707 -0.062184505 -0.17810269 0.047868006 -0.08781548 0.2500431 -0.054252665 0.1803303 0.06656591 -0.22764982 -0.055687852 0.07230795 -0.0844236 -0.03990564 -0.35735616 -0.009777486 0.12756304 0.0048891935 -0.17732108 0.11761449 -0.014618281 0.102848984 0.016671909 -0.107351825 -0.30477643 0.027369447 -0.24081667 0.092003204 -0.07622019 -0.14563298 -0.052399978 -0.10084656 0.1512473 -0.19628748 -0.11398889 0.29187474 0.04455517 0.004062665 -0.14928414 0.03538725 -0.034277987 -0.09702151
185 -0.46487725 0.12871361 -0.039049543 -0.063421845 0.27771193 0.27801287 0.15480903 0.02315385 -0.03296894 0.24151987 0.013616775 0.12149312 0.010421251 -0.050220285 -0.04826346 -0.20630963 0.11508277 -0.20806853 0.04592765 -0.102266155 -0.062035587 0.116417706 0.23376198 -0.043059416 -0.20945403 0.15891762 -0.014914591 0.34274042 -0.075583495 0.12634708 0.1272053 -0.089236565 -0.008548252 0.17012738 -0.032155488 0.033649538 -0.40696308 -0.112931006 0.12955691 0.09338014 -0.05122064 0.20063668 -0.07586825 0.22756134 -0.00022955766 -0.078295894 -0.3214371 0.08078377 -0.3222452 0.20421231 -0.06036284 -0.11745799 -0.021372756 -0.1076661 0.12216255 -0.049673487 0.01598303 0.1700571 0.04215118 0.008699091 -0.08871281 -0.059019405 -0.11668422 0.03726987
178 -0.31359488 -0.2478269 0.3093163 0.0644129 -0.17540066 -0.2349773 -0.03201522 0.2270917 -0.18707383 -0.046885014 -0.22709358 -0.15996832 0.005645516 -0.051663082 0.01152246 0.1627364 -0.06698809 -0.0057145534 0.035375927 -0.091243155 0.17652424 -0.17212577 -0.04980582 0.06346365 0.037871484 -0.2988003 0.059542928 -0.21468528 -0.19439922 0.086328655 0.07693905 0.019351177 -0.0690492 0.18305267 0.13670935 -0.093350925 0.18647535 -0.26016703 -0.049402256 0.023693807 -0.41382378 -0.08746197 0.1151196 0.19582577 -0.010915547 -0.031642087 0.041447397 -0.09722809 0.12742716 0.14062427 0.100536 -0.16848768 -0.035918746 -0.03356099 -0.16660942 0.2655471 0.010335918 0.05513488 -0.019770028 -0.28178826 0.19543846 0.008313841 0.16934744 0.053276364
227 -0.28897485 0.14502285 0.08080232 0.06067018 0.3136889 0.34395206 0.02515155 -0.06764489 -0.04579247 0.11796409 0.027027395 0.034477834 0.19698304 -0.026159745 0.064207904 0.0059800693 0.16060482 -0.044918172 0.020916592 0.0132618565 0.09424014 0.06812751 0.22506705 -0.06163832 -0.27356958 0.119303055 0.20644066 0.034055408 -0.07354457 0.19832025 0.14617164 -0.22088982 -0.0016987391 0.22230628 -0.05057925 0.029036673 0.0154127525 0.07228851 0.04679357 -0.060880303 -0.15154186 0.091723934 -0.06961023 -0.09946159 -0.35533205 -0.08282763 0.0064137806 0.10758419 -0.02716671 0.12876807 0.21035515 -0.19079316 0.12648046 0.10501215 0.06934697 -0.037355322 -0.15076679 0.023868678 0.09551407 0.20895675 -0.16879578 0.08559047 -0.195888 -0.006216761
172 -0.13325721 -0.23943803 0.44418144 0.17628947 -0.20724256 -0.31271532 -0.016446834 0.17884552 -0.15022324 -0.047920436 -0.14694382 -0.22829573 0.13757621 -0.23444107 0.11397968 0.1355208 -0.11142965 0.057933863 0.08489018 -0.01052094 0.118416235 -0.22409509 0.040998843 0.08282461 -0.091147564 -0.19947785 0.13322891 -0.13016526 -0.10675104 0.011802441 0.11188711 -0.061317775 -0.048877526 0.104692385 0.21267663 0.009102276 0.014623274 -0.27931115 0.046013534 -0.10502346 -0.27679986 -0.07444001 0.20156129 0.07913159 -0.031138705 0.018941779 -0.13657281 -0.13493815 0.162331 0.23751128 -0.023515277 -0.20874862 -0.04155436 -0.21924399 -0.2296841 0.19915284 0.065929584 -0.037873 -0.04637059 -0.3068249 0.21845587 -0.08964734 0.16476585 0.1309048
189 -0.25017148 -0.30836532 0.40812132 0.17442486 -0.13017319 -0.32491794 -0.10752515 0.16030931 -0.029191196 0.038393546 -0.14882407 -0.29390222 0.17033283 -0.09946487 0.06471713 0.10304044 -0.1357129 0.022436582 0.0992881 -0.1394284 0.22324143 -0.05235439 0.012673548 0.0352072 0.047947366 -0.3041411 0.037144415 -0.22377159 -0.23235874 0.087498315 0.18196808 -0.0015745348 -0.094983034 -0.009297389 0.049489394 0.056795847 0.22788206 -0.27710456 -0.037404325 -0.11667742 -0.3945226 -0.15115982 0.3278209 0.22163247 0.2604708 0.14973517 -0.037407093 -0.31840384 0.03415338 0.07657738 0.09013947 -0.15909684 -0.03770693 -0.19190592 -0.37963808 0.4570051 0.03194498 0.043362316 0.03911737 -0.17114808 0.08700205 -0.30226433 -0.024512574 -0.021103052
50 -0.1806893 -0.22159337 0.0018348986 0.31718287 0.18132873 -0.14285302 -0.4001295 -0.1256285 0.103317246 0.062461294 0.031349037 -0.07625612 0.15873311 -0.09828672 0.3670432 0.16984168 0.012630947 -0.16634145 0.104124434 -0.27066055 0.23663476 -0.07667118 -0.023203129 0.007464029 0.084151946 0.16140485 0.5192897 -0.3644229 -0.070470914 0.32771862 0.04843612 -0.06477109 0.030156234 0.0350009 -0.068488985 -0.00517415 0.1555712 -0.35213336 0.2954555 0.4112596 -0.30649835 -0.18483284 -0.22620504 -0.4963809 0.3666614 -0.1037177 -0.03921438 -0.16462108 -0.056460693 0.119971834 0.157103 -0.06954621 -0.18338135 -0.20349537 -0.49156088 -0.07004639 -0.12921415 -0.079449795 0.3316888 0.03707594 0.19065914 -0.044084303 -0.07613067 0.051877737
175 -0.31496716 -0.005540023 0.1902718 -0.030346133 -0.00705203 0.07312115 0.13204001 0.21815343 -0.10398456 0.08097211 0.052076768 -0.1981323 -0.10339774 0.0017925939 -0.065441646 0.027103234 -0.003988609 -0.13917421 -0.21759316 -0.0044859215 0.22293572 -0.13689631 0.05640423 0.089151375 -0.32577762 -0.08264155 -0.030708952 0.05024795 -0.06099893 0.25265336 0.0077744676 -0.037914246 -0.049284056 0.0013020243 0.14402881 -0.06514183 -0.042823046 -0.13913542 0.032538664 0.1247403 -0.27710876 -0.0063797934 -0.025678221 0.21421218 0.10099819 -0.09352276 -0.019222394 -0.0029452133 0.105929546 0.069587596 0.009311432 -0.1651889 -0.10514693 0.12112911 0.083381385 0.030036738 0.18849498 -0.04304621 -0.023565063 -0.007527588 0.18004888 0.034301493 0.16903932 -0.073479675
188 -0.43076834 0.09660374 0.020089047 -0.12725629 0.25335696 0.17586404 0.23554374 0.014899731 -0.12662256 0.1905319 0.015145016 0.21265797 0.050326537 -0.13958345 -0.029353423 -0.18833508 0.12964502 -0.3139523 -0.009592167 -0.116132066 0.12481745 0.124187335 0.092107505 -0.05935424 -0.25897157 0.02146218 -0.07783879 0.30761987 -0.1408759 -0.041242655 0.14294147 -0.19799161 -0.046547297 0.12910473 0.008216073 -0.0018164855 -0.41705564 -0.020947542 0.16089456 0.1473116 -0.09265898 0.14552939 0.042873763 0.11755692 0.064436965 0.02934028 -0.2834095 0.011196662 -0.22517543 0.059154667 0.029630966 -0.1384426 0.019826543 -0.112536155 0.14225093 -0.23267262 0.033708714 0.17220967 0.10352144 0.016268015 -0.0639345 0.051673785 -0.10775358 -0.09413103
200 -0.2764924 -0.19832602 0.31614468 0.015847234 -0.0965983 -0.26029393 0.11923914 0.095485166 0.0017692497 0.15617104 -0.14986044 -0.20634793 0.021548351 -0.0578136 0.089687996 0.18298799 -0.11963319 -0.05609112 -0.04400812 -0.026966706 0.23330005 -0.26052147 0.15230383 0.041600335 -0.12282005 -0.18272975 -0.0032940179 -0.16036814 -0.10535032 0.07103228 0.0753691 -0.034615863 -0.14635992 0.14820363 0.10393664 -0.11751816 0.056353394 -0.2506465 0.06127122 -0.044651996 -0.21339396 -0.0034951912 0.07124195 0.19397996 0.13703209 0.023553861 -0.07308531 -0.0015661981 0.2074439 0.16229506 0.067326754 -0.07216662 -0.04384196 -0.12342836 -0.14358544 0.14241275 0.20389487 -0.077094644 0.05031224 -0.29849827 0.16773678 0.058810566 0.253981 -0.023658045
163 -0.32639548 -0.063835114 0.15970674 -0.10551707 -0.07519985 -0.057746187 0.13787133 0.263339 -0.081947826 0.119921744 0.020665351 -0.006433627 -0.020118946 -0.041925035 0.038902115 0.043924067 0.061887883 -0.087298326 -0.07160683 -0.025850799 0.19564125 -0.116397284 0.13181598 -0.00467267 -0.31327748 -0.124494985 -0.030225653 0.025574954 -0.19718641 0.15637305 -0.04153043 -0.112001255 0.040879846 0.024529831 0.110847846 -0.040722296 -0.0937924 -0.116297506 0.091688976 0.119019374 -0.18883055 0.036812548 0.029884703 0.20921615 0.121631205 0.032654986 0.05325111 0.025733717 0.0465391 0.2818973 -0.102705315 -0.15462688 -0.2086218 -0.013063915 0.04848029 0.05612949 0.27418947 -0.0133778155 0.029661855 -0.04067487 0.23210655 0.20612009 0.038684025 -0.058353964
186 -0.24861696 -0.06112251 0.2120319 -0.11264413 -0.059070453 0.0016266822 0.0865872 0.21294834 -0.061824277 0.0790555 -0.0118244635 0.052150715 -0.022526542 -0.0048306785 -0.102559716 0.018147852 0.12682666 -0.05849521 -0.083255604 -0.15823102 0.13295723 -0.06542412 0.057642285 0.09183429 -0.22764999 -0.011945138 -0.08520976 0.16625063 -0.081544444 0.29093274 -0.0055759805 -0.19457068 -0.09378979 0.027090685 0.1135347 -0.042574055 -0.13152367 -0.035602026 0.082746185 0.020928537 -0.23730983 -0.11670976 0.0029392217 0.06581513 -0.058313042 -0.102520026 0.007850618 -0.06867792 -0.101539776 0.19107309 -0.10366799 -0.22093049 -0.08346799 -0.059722077 0.08952272 -0.037836604 0.3888389 0.053547647 0.047278184 0.07271784 0.2605143 0.041943055 0.07513996 -0.025201505
220 -0.33578044 0.10226267 -0.106676675 0.07119998 0.27922866 0.25678286 0.014931565 -0.107048996 -0.038679592 0.1532097 -0.056216758 0.054023728 -0.079414986 -0.21518213 0.049778704 0.14578818 -0.053770225 0.1507672 -0.03446051 -0.042601258 -0.03780299 0.30134407 0.21112898 -0.07576149 -0.23093854 0.19367786 0.15313551 -0.029177126 -0.10224181 0.12337358 0.0926928 -0.21569328 0.044541158 0.12630716 -0.16073647 0.07524703 -0.12707137 0.0515654 0.07853186 0.059195343 -0.14013109 0.10410972 0.037175395 -0.19617575 -0.044112954 -0.2778546 -0.09941855 0.09807485 -0.22544199 0.008890243 0.13211584 -0.17717588 0.20152201 0.08265839 0.053267404 -0.13615276 -0.12973113 0.122688174 0.1224158 0.22993088 -0.22345947 -0.026030844 -0.036660574 -0.11892431
201 -0.17747855 -0.31931663 0.3956127 0.2907913 -0.0866493 -0.32851753 -0.17901412 0.26788577 -0.19480897 -0.08419901 -0.046726186 -0.31801772 0.02316839 -0.10855058 0.16114372 0.16832107 -0.028556837 -0.018339226 0.22755934 0.0141401 0.24274223 -0.07391633 0.031346977 0.13482812 -0.031842154 -0.40287337 0.079683416 -0.17491671 -0.2820827 -0.0105911065 0.14354198 -4.976391e-07 -0.20943648 0.12043083 0.0075162924 0.027356222 0.15030321 -0.3597075 -0.05183166 -0.10921082 -0.3835401 -0.20554025 0.041754104 0.1882217 0.22093779 0.111082464 -0.12829879 -0.24450718 0.0323471 0.09485645 0.07178868 -0.10832233 -0.034346852 -0.18745458 -0.43083462 0.4593143 0.05139564 -0.102128 0.012901693 -0.11124454 0.18294314 -0.38697737 -0.0408986 0.09587814
173 -0.4986909 0.120429896 -0.08278098 -0.13783637 0.15996303 0.20748106 0.11457674 0.002438944 -0.023377042 0.10829203 0.058368467 0.1686211 -0.01402469 -0.06992448 0.0039345603 -0.20405172 -0.00038801247 -0.20287861 0.12501441 -0.16644092 0.006746716 0.20003527 0.18254893 0.10548959 -0.20436509 0.119259745 0.015975537 0.46251032 -0.14042753 0.17525223 0.031363487 -0.10036891 -0.055276144 0.059766803 -0.059145696 -0.10451048 -0.44946942 -0.022539748 0.099945076 0.1903728 -0.17682546 0.1732419 -0.0015955352 0.0950209 -0.15014191 -0.09464345 -0.2302198 -0.069896325 -0.19559191 0.14365396 -0.03608807 -0.2332707 0.058072224 -0.12976587 0.15173554 -0.1660187 0.051562894 0.22751355 -0.040522173 0.05057291 -0.2157896 0.037297174 -0.053321045 -0.034315147
193 -0.3421094 0.11045624 -0.18253046 -0.0952061 0.23497252 0.26931426 0.12319877 -0.06299351 -0.11806548 0.1861031 -0.07185424 -0.020476604 0.0025251273 0.0035151 0.023340762 -0.1900028 0.13577093 -0.23303933 0.0027197783 -0.12866081 0.06289436 0.09163891 0.15468559 0.103806205 -0.27626893 -0.0013646355 0.027396472 0.3568559 -0.08511968 0.080510795 0.050894294 -0.15169069 -0.09338669 0.18517731 -0.103305206 -0.012361653 -0.4115598 -0.13487539 0.03477659 0.03613593 -0.23158246 0.1636565 0.004902988 0.14504568 -0.1119195 -0.14182822 -0.32824346 -0.012767032 -0.28540453 0.21002384 -0.006170613 -0.14406563 -0.04328356 -0.06104389 0.17894465 -0.18775812 -0.07656861 0.19551523 -0.06144825 0.010973371 -0.13546993 0.015112881 -0.11191502 -0.035613444
