307 64
104 0.2737138 -0.036555227 0.15011214 -0.21114175 0.32621112 0.0057738125 0.17390339 0.022185616 -0.20419401 -0.42488626 -0.03871778 0.052211408 -0.32315347 0.03468363 0.19060092 -0.2796338 0.22155164 0.5676069 0.06647695 0.17030147 -0.89024866 -0.4716983 -0.15146844 0.345838 0.3255737 -0.18284276 -0.010374139 0.3203489 -0.017075894 0.11276868 -0.25099677 0.20119622 0.12015623 0.2689697 -0.04913668 0.11004739 -0.52769953 0.9086091 -0.2035596 -0.2903488 0.29377526 0.13936694 0.14792214 -0.095264025 0.14394838 -0.19373871 -0.33929682 -0.26762486 -0.49693996 -0.2884957 -0.74917203 -0.6731501 0.041558523 -0.6858837 0.13082187 -0.6050055 -0.53509176 -0.9293694 -1.1894189 0.38064152 -0.8476114 1.4845833 -0.4562375 -0.77814627
91 0.32230178 0.077554315 -0.29976767 0.3147983 0.16020802 -0.30119145 0.10368432 -0.14183334 0.28768274 -0.15792638 0.036353223 -0.113539256 -0.20100287 -0.190579 0.12882483 -0.30672657 -0.10372988 0.030213661 -0.6512526 0.13779968 0.15464598 0.5608331 0.13696533 0.036260284 0.07699358 -0.08452171 0.12732708 0.25913343 0.021001143 -0.12971091 0.24646023 0.3501259 0.17575563 0.60390145 -0.14097749 0.14770617 0.26642174 0.35944974 -0.42694658 -0.24534242 -0.38633183 0.12635832 -0.12191604 -0.27876848 0.44138092 -0.3045427 -0.3512968 -0.167771 0.4512895 0.15645991 -0.7423842 -0.22693017 -0.77871865 -0.6414279 0.49272206 -0.1548907 -0.36199245 -1.218552 -1.3350805 0.47140595 -0.4716053 1.5531483 -0.16725986 -0.122862585
70 0.33969793 -0.13965297 0.6619714 -0.40494552 -0.256159 -0.13115685 -0.13956878 -0.0074993013 -0.101866916 -0.30085 -0.19260366 -0.31792685 0.08365476 0.1963265 -0.2667959 0.16668673 -0.106359884 -0.14902146 -0.36271212 0.06880465 0.07910403 0.6275561 -0.41248822 0.15735711 0.03243664 -0.13911664 -0.359352 -0.01921615 -0.32414803 -0.2702337 -0.10431096 -0.08606256 0.26439002 -0.42585942 -0.03329428 0.100598045 -0.02185965 -0.41357604 -0.45339227 -0.22255136 0.07602909 0.5256936 -0.15390489 -0.18478762 0.6898135 0.10657707 0.10214844 -0.05329548 -0.367387 -0.14624184 -0.46263212 0.068529755 -0.120427296 0.041079424 -0.1671916 -0.6310123 -0.40025404 -1.0369846 -0.9136556 -0.022474054 -1.0325671 1.084669 -1.0204519 -0.72170407
265 -0.65386397 0.07841735 -0.6874148 0.58918357 0.4315602 -0.58046484 -0.1663035 -0.039489225 -0.21285439 0.16531107 0.3643826 -0.63185245 -0.32891932 -0.09846593 0.28385615 0.032631546 -0.16581522 0.20041811 0.018267004 -0.14644594 -0.20612364 0.14255716 -0.07453097 0.08718441 -0.12862584 -0.56458265 -0.10883702 -0.00094675925 -0.29297954 0.26579836 -0.2236275 0.114259146 -0.35096663 -0.09934528 0.17984515 0.08503359 -0.19752781 -0.42637414 0.018121902 -0.019902157 0.12674087 0.037786745 -0.10635275 -0.0004783712 0.19581936 -0.063801974 0.23426808 -0.46102342 -0.03521839 -0.11678315 -0.12701663 -0.1614677 -0.457381 -0.17830439 0.30322045 -1.3118131 -0.48638725 -0.7597879 -0.8578017 0.085130595 -0.80177003 1.014014 -0.5010193 -0.63308203
98 0.24187076 -0.10444894 0.5980141 -0.43334654 -0.30263755 -0.2780476 -0.2616381 -0.004165488 -0.28307703 -0.041338746 -0.1943901 -0.45962703 -0.1387196 0.06280487 -0.08849782 0.44171283 -0.26747677 -0.17351104 -0.06449002 -0.124053404 -0.25772473 0.7891712 -0.26210448 0.4348658 -0.0017857469 0.06763774 -0.043281246 -0.15485817 0.17608249 -0.14426205 -0.23655353 -0.45734236 -0.1948914 -0.35201475 0.017023765 -0.031566817 0.05470907 -0.35763326 -0.30812988 -0.5491801 0.035670128 0.508033 -0.18524233 -0.3971999 0.5684155 -0.044648524 0.0041390387 0.0061291377 -0.06740489 0.092085876 -0.47332013 -0.14047748 -0.17939551 -0.044975467 -0.39009565 -0.58267826 -0.01776798 -1.1265128 -0.94388556 0.31289962 -1.2600425 1.1424825 -0.6089642 -0.6781543
46 0.3181656 -0.13450798 0.44054115 -0.49074048 -0.38881466 -0.14710794 -0.1517629 -0.08871615 -0.36767438 -0.07502128 -0.16939518 -0.31616163 -0.022761755 -0.11940669 -0.2461285 0.3368044 -0.30906752 -0.10216581 -0.11774611 -0.17124248 -0.10442555 0.6319077 -0.39004496 0.38700384 0.07827038 0.08961282 0.059433643 -0.16643329 0.11319205 -0.098552614 -0.08208374 -0.17413299 -0.15832315 -0.37198922 0.13708745 0.010469037 0.29614255 -0.37647337 -0.3881008 -0.3901201 0.02346862 0.4939748 -0.2219948 -0.43856367 0.4693906 -0.09618748 -0.19796559 0.02736863 -0.027402472 0.12250737 -0.35820794 -0.07473478 0.103278235 -0.027373044 -0.36116323 -0.5643586 -0.34245604 -0.9590587 -1.0292298 0.20806178 -1.3806477 1.0310547 -0.64935863 -0.9522107
116 -0.5520813 0.09317884 -0.8960408 0.5086661 0.42667782 -0.29824144 -0.26052606 -0.033799022 -0.2531992 0.19158813 0.23039119 -0.6149275 -0.02424812 -0.040557798 0.14374387 0.057705306 -0.13634686 0.19095343 0.06412598 -0.25548688 -0.33018133 0.07619336 -0.093789876 0.22625768 -0.21296418 -0.5667768 -0.26341856 -0.14355707 -0.32351956 0.41557637 -0.13718075 0.1663341 -0.17305961 -0.0076537384 0.20685509 0.050360683 -0.24891302 -0.4301276 -0.14206861 0.03846413 0.3256387 0.19576009 -0.082571 -0.06310162 0.23397465 0.032969967 0.042754762 -0.22496548 0.026612071 -0.07676511 -0.22003059 -0.08707581 -0.34062773 -0.15553856 0.39827445 -1.220932 -0.4735115 -0.97597367 -0.9152308 -0.15710849 -0.74860716 0.9966535 -0.45137808 -0.6116106
240 0.08852875 0.024857549 -0.36205256 0.30791017 0.13801658 -0.18742764 0.11568021 -0.086678214 0.3067795 -0.12857096 0.10293507 -0.03966362 -0.27663487 -0.122576356 0.14456017 -0.058598716 -0.20164524 0.007229612 -0.562509 0.06663437 0.1549474 0.5569192 0.11784666 0.24310769 0.27391964 0.0515075 0.06929372 0.29561147 0.27322513 -0.20423253 0.2005427 0.3628123 0.26910862 0.63837755 -0.18203647 0.04343667 -0.014706243 0.57623726 -0.23229285 -0.49786326 -0.30970803 0.1905467 -0.059938204 -0.36466488 0.51407474 -0.37871763 -0.27051723 -0.1113732 0.25461063 0.023911228 -0.7472542 -0.3588422 -0.62340254 -0.55898714 0.49797788 -0.1677303 -0.4332721 -1.1652389 -1.1896787 0.4676286 -0.39985022 1.7341022 -0.31937492 -0.053861883
252 0.39223528 -0.124453224 0.6812268 -0.225043 -0.35017696 -0.2382298 -0.12775469 0.053988773 0.04827436 -0.355935 -0.0648847 -0.19292471 -0.07455143 0.06907072 -0.19608569 0.06878736 -0.35739738 0.038712546 -0.35896385 0.09432978 0.08820199 0.66793436 -0.5767415 0.28832164 -0.045033105 0.020309763 -0.091833204 0.08546703 -0.27473915 -0.3108545 -0.14681076 -0.08597126 0.19028738 -0.52570695 0.02474217 0.17185847 0.27893323 -0.4284574 -0.45522326 -0.14119205 -0.009161153 0.31187418 -0.048787728 -0.02603575 0.4902333 0.037040636 0.021682277 -0.14491303 -0.18939844 -0.03860035 -0.38586432 -0.059044678 -0.08472138 0.17712559 -0.25816953 -0.6666934 -0.42997125 -1.1359228 -1.0069495 -0.06366077 -1.0871433 0.96684617 -0.78873694 -1.0345861
269 0.17458361 -0.14298701 -0.62866986 -0.5649544 0.5206134 0.14836058 -0.10947742 -0.020529797 0.22244707 -0.019524274 0.39567688 0.11047276 0.23258826 0.40799168 0.10627023 -0.85405034 -0.002915454 -0.16582896 0.30410555 0.40944895 0.36196592 0.808603 0.35131013 0.2370386 0.5383555 -0.43346348 0.25583798 0.19577076 0.031960547 0.30426702 -0.27738482 -0.3057732 -0.28935224 -0.62364817 -0.051382344 0.20973112 -0.2654952 0.41997638 -0.22758314 -0.21540841 0.045024186 0.040226113 0.45930606 -0.103655875 0.5091886 -0.07164034 -0.09433036 0.0874393 0.35044295 -0.67254627 -0.23407298 -0.0481739 -0.34317395 0.0026276896 -0.12349428 -1.0068655 -0.41602093 -1.0145632 -1.216946 0.48097244 -1.2447884 1.1830994 -0.16185229 -0.4801324
28 0.21247742 -0.51173437 0.40890348 0.21036406 0.3812635 -0.01584544 -0.26326808 -0.41148385 -0.006818513 0.114444576 -0.053709924 0.016557071 0.9500671 0.16986603 0.15619035 0.31369376 -0.069091044 -0.2579806 -0.32213742 0.013802155 0.06329623 -0.2585894 -0.3270927 0.43200943 0.38726476 -0.2211882 0.08864969 -0.31079578 0.23322971 0.37622258 -0.03327567 -0.07355088 -0.09276756 -0.313515 0.2855733 0.6189882 -0.8608579 0.2666802 0.24920069 -0.11903409 -0.20920335 -0.023436178 -0.15908982 -0.51464164 0.5720882 0.09373285 -0.06709627 -0.18146147 0.33037966 -0.096461974 0.31955573 -0.5099069 -0.70680124 -0.8133079 0.3132974 -0.86126345 -0.278992 -0.9610655 -1.6975381 0.25233048 -0.5474513 0.9823644 -0.7523718 -0.6543114
133 0.07418701 -0.1657786 -0.62774056 -0.6336977 0.54131 0.112456776 -0.2994594 -0.11275508 0.075344026 0.0031234713 0.46703696 0.29368088 0.21543515 0.33376625 0.16762754 -0.9500635 -0.01528533 -0.2520107 0.2636643 0.49326873 0.2952422 0.8636534 0.24160638 0.1809111 0.4508852 -0.46546942 0.3162268 0.06341181 -0.031223929 0.27078518 -0.335139 -0.18303695 -0.26759782 -0.66312724 -0.21969262 0.25296444 -0.29393366 0.29189765 -0.16440399 -0.23807493 0.036703773 -0.05089649 0.33447954 -0.18378995 0.5776482 -0.08717256 -0.109837756 0.06875806 0.3608197 -0.6099253 -0.13843091 -0.15725423 -0.2710745 -0.055239126 -0.16892324 -0.9759245 -0.31373748 -1.0257215 -1.2584423 0.5842453 -1.1437187 1.1902544 -0.11633701 -0.47544852
276 0.03239997 -0.041379996 0.34307823 -0.5090778 0.28614637 0.4865661 0.36286953 -0.4243358 -0.072700776 0.25006214 -0.191844 0.7768218 -0.2672057 0.29509658 0.43796638 0.16445723 -0.28277406 -0.23327234 -0.38600928 0.056582607 -0.19086838 -0.048701394 0.044292055 -0.06344415 0.5817945 -0.3570336 -0.062030513 0.22393605 -0.6083384 0.95345384 0.0153417215 0.34402946 -0.2753149 0.12556869 0.04125038 -0.34048566 -0.072332464 -0.25116888 0.16372143 -0.28266925 0.20627017 0.16637929 0.1019576 -0.18301888 0.42087358 -0.07982664 0.33742902 -0.22992465 0.5583291 -0.15550709 -0.638371 -0.2419574 -0.65719074 0.29616013 0.90273726 -0.7505685 -0.22715041 -1.3252017 -1.2969111 0.3052475 -1.0128561 0.8648806 -0.51257986 -0.8766655
137 0.26672202 0.03159168 -0.23268932 0.41108644 0.11977803 -0.30957738 -0.08046966 -0.15800017 0.38583645 -0.10346616 0.05247821 -0.056227088 -0.034490045 -0.25639206 0.05676044 -0.36429527 0.01851032 -0.04116049 -0.5586934 -0.089963496 0.24770458 0.64107347 0.30579394 0.0850454 0.11609218 -0.012399294 0.05391449 0.076105416 -0.14942105 0.009280582 0.22269373 0.54611975 0.1419612 0.49028632 -0.03337253 -0.021940315 0.12019364 0.335793 -0.30968693 -0.39767507 -0.4657274 0.1923998 -0.082494974 -0.41120377 0.49794772 -0.34193146 -0.35673052 -0.062322155 0.33785266 0.21696162 -0.8295936 -0.15074536 -0.7797146 -0.6321715 0.48301366 -0.11621013 -0.3472534 -1.1188811 -1.4167724 0.46125418 -0.57507604 1.5319645 -0.26408398 -0.022193152
135 -0.48494038 0.32563484 -0.90660006 0.46704143 0.38022947 -0.35573435 -0.32273465 -0.07183863 -0.18589638 0.35062057 0.3155193 -0.6013844 -0.13436869 -0.17696784 0.34418985 0.042360492 -0.13903318 0.32076123 0.020764012 -0.06102615 -0.34029433 0.1682833 -0.22957851 0.20008108 -0.26602232 -0.590256 -0.12610617 -0.09811307 -0.3955679 0.41625986 -0.20279327 0.21311188 -0.24995929 -0.1593452 0.082185306 0.16200164 -0.1670974 -0.41081938 -0.08631874 -0.0910042 0.136936 0.039638437 -0.17224522 -0.068474896 0.25418428 0.009413886 0.18984689 -0.3457232 -0.052809082 -0.174951 -0.031330135 -0.08481648 -0.2981983 -0.21709868 0.4257085 -1.1585813 -0.42756903 -1.1778357 -0.8598241 -0.010731739 -0.67330116 0.8654412 -0.5560278 -0.653477
99 -0.7978902 1.3038969 0.6763477 0.31749827 -0.18827266 0.16988625 -0.07046774 -0.37537482 -0.04301738 -0.10382695 0.22945812 0.350332 0.31972122 0.3478123 -0.24951997 -0.7846427 0.30224016 -0.12592582 -0.5078317 -0.14410712 -0.41916138 0.050891407 -0.109244555 0.25263458 0.17931816 -0.24600987 -0.17970905 0.20120376 0.12564802 0.105319075 -0.15141733 -0.20186655 0.19669381 -0.041149367 0.21039025 0.5180249 0.13616933 0.059870552 -0.27969772 -0.47824225 0.39021614 -0.038033474 -0.17253119 -0.15894021 0.14668052 -0.25680137 0.029284053 -0.07446686 0.35336247 -0.2992218 0.3069474 -0.04465605 -0.47134337 -0.05703263 0.3686595 -0.9387261 -0.4664945 -1.086207 -1.4588325 0.8109445 -1.2997202 1.2359701 -0.36545715 -0.32155284
164 0.35788387 0.01061033 0.7711138 -0.32445496 -0.17722261 -0.1798945 -0.09092631 -0.09090184 -0.057480235 -0.40447402 -0.12949853 -0.3279327 -0.11038416 0.13034573 -0.2604321 0.05026663 -0.0730872 -0.1916247 -0.2759419 0.30534807 0.08689421 0.71605396 -0.4162915 0.26803398 -0.032590497 -0.16002506 -0.1841885 -0.09248161 -0.36595577 -0.24032983 -0.18566816 -0.024485577 0.24143924 -0.51323646 -0.07640619 0.061890595 0.013288422 -0.50968546 -0.47812986 -0.26489273 0.0709145 0.32276982 -0.0453682 -0.03046736 0.84541947 -0.007362651 0.30494577 -0.22157396 -0.37084228 -0.23572175 -0.34534684 -0.12174415 -0.28927305 0.010230864 -0.20102094 -0.6502959 -0.50456816 -0.95140904 -0.9221658 0.03830393 -0.7415752 1.0956848 -0.95133173 -0.8255419
292 -0.123873025 -0.033154663 0.3666638 -0.41865605 0.21513285 0.38595653 0.40501451 -0.46241844 -0.12615639 0.23600984 -0.20840873 0.79400986 -0.21019238 0.30245274 0.43773225 0.20091803 -0.51306665 -0.25927436 -0.27023622 0.15388556 -0.20703122 -0.039342467 0.0073226113 -0.08715024 0.6230046 -0.24153541 0.18360075 0.11433718 -0.46446756 0.92120737 -0.025886554 0.28971052 -0.27329847 0.070935376 0.09034776 -0.44525942 -0.030380722 -0.21765918 0.11282744 -0.26185182 0.16548839 0.1494487 0.079505034 -0.18800355 0.42398903 -0.059866663 0.34517023 -0.27845263 0.4402774 -0.21418059 -0.7179818 -0.37643492 -0.6366925 0.43185574 0.9989752 -0.74571186 -0.20586938 -1.1497585 -1.3279948 0.33184963 -1.068294 1.0015084 -0.50136995 -0.8560366
127 0.2592303 -0.048227184 0.16768578 -0.34794837 0.5140825 -0.032839064 0.09096993 -0.08934763 -0.3958421 -0.45497838 -0.096641414 0.062687084 -0.42842755 0.11088522 0.30915186 -0.2951986 0.23543547 0.6514064 -0.11784359 0.33189815 -0.79545164 -0.4216965 -0.24083275 0.16500725 0.30389336 -0.30603617 -0.12597364 0.3423123 -0.051235236 0.03196488 -0.400183 0.12670988 0.01654551 0.2892078 -0.25633 0.3787534 -0.57542974 0.98858863 -0.24125671 -0.36509687 0.3647836 0.195643 0.17814882 -0.17284557 0.109022304 -0.19232672 -0.23747781 -0.14472082 -0.38182685 -0.16265793 -0.6207188 -0.5139459 0.006984824 -0.69067657 0.12136409 -0.71143025 -0.5172213 -1.1474158 -1.0338314 0.4709968 -0.7390464 1.4160175 -0.54936063 -0.6784907
27 0.24382898 -0.13118003 0.47694567 -0.5338106 -0.29346156 -0.25421563 -0.32402977 0.07350946 -0.38672778 -0.04858008 -0.22937989 -0.31392893 -0.17724784 0.030521672 -0.03401236 0.48384443 -0.31380787 -0.0738432 -0.23603752 -0.16825601 -0.29237473 0.7751907 -0.4165709 0.28088507 0.06562518 0.07273919 0.11770843 -0.060306296 0.19101477 -0.11124338 -0.25374275 -0.35104495 -0.24099003 -0.39674488 -0.052059602 0.076455265 0.23512621 -0.3023905 -0.4863531 -0.45789063 0.058039837 0.4460195 -0.2597868 -0.56020325 0.49519634 -0.1168178 0.03450632 0.042593084 -0.09919192 0.14694618 -0.422099 -0.08481238 -0.120738424 -0.1816155 -0.27728295 -0.6541699 -0.14649703 -0.9998642 -1.1236155 0.43430573 -1.3043088 0.8657128 -0.7440739 -0.6018481
33 0.18232246 -0.19228148 0.2652646 0.25466746 0.3193792 0.4607708 0.23205012 -0.793174 0.48082235 0.21275398 -0.08698186 0.021342626 -0.111799076 -0.1335695 -0.81814796 -0.023663253 -0.5518628 0.14128458 -0.31816813 -0.19377664 0.03264443 0.042069774 0.38539115 -0.06304926 -0.33606136 -0.63934475 0.1938292 0.17220739 -0.26089522 -0.20148836 0.39200863 -0.037015475 -0.7390125 -0.3608427 -0.21611932 0.13910717 -0.17015989 0.27591076 -0.16357014 -0.03975049 0.6054305 -0.051045068 0.3098599 -0.1041789 0.5370142 0.36023277 0.069974974 -0.07384352 -0.35089582 0.10654058 -0.14212005 -0.34821746 0.08300672 -0.34296903 0.3279593 -1.1123674 -0.43027923 -1.3303928 -1.3381989 0.9419291 -0.9779585 1.2071712 -0.3075072 -0.27505746
31 0.29293057 -0.18361603 0.5341398 -0.5099016 -0.2298368 -0.11395299 -0.37756586 0.055793263 -0.31313577 -0.0422238 -0.3362807 -0.3059685 -0.117462836 0.21592234 -0.06207466 0.4015484 -0.289405 -0.033203196 -0.15396388 -0.25043333 -0.3184507 0.7153149 -0.31884125 0.3809248 -0.001977492 0.018359251 0.013538735 -0.16265832 0.1662509 -0.0819316 -0.26118088 -0.22154789 -0.21069786 -0.25090575 0.04249043 0.12060668 0.29516026 -0.53248745 -0.4231201 -0.30445012 0.16284493 0.3875854 -0.20700526 -0.47530353 0.57720166 -0.08816045 -0.10211546 0.15779397 -0.002919448 0.12934062 -0.52021563 -0.097767435 -0.255554 -0.2595506 -0.43280947 -0.655689 -0.14928384 -1.018295 -0.98499393 0.36455718 -1.3313589 1.0248963 -0.5339382 -0.7043693
1 0.17101838 -0.17882635 0.7025685 -0.24537489 -0.25989956 -0.055925306 -0.033504847 -0.04911432 -0.15743798 -0.46631137 -0.13316555 -0.09179769 0.003760759 0.23381124 -0.22449332 -0.042015333 -0.25239888 -0.12072791 -0.17265767 0.32593632 0.19834408 0.78963345 -0.47350734 0.2556077 -0.07424685 -0.06809529 -0.22330411 -0.1632515 -0.29964396 -0.32241118 -0.01600548 0.29174978 0.36447477 -0.39273152 -0.036754217 0.046713103 -0.10094713 -0.5273702 -0.42403015 -0.21558923 0.061441083 0.40249932 -0.14820364 -0.14671272 0.63277286 0.10793981 0.20498225 -0.09364601 -0.46785584 -0.28771076 -0.35911158 -0.03059157 -0.17543903 0.05666228 -0.25984478 -0.7105696 -0.4529825 -1.0668092 -1.0766723 -0.02907637 -0.9376395 0.9914973 -0.9714846 -0.6862601
115 -0.5640004 0.14924964 -0.825419 0.6402714 0.37518796 -0.502269 -0.34500104 -0.13442907 -0.1580795 0.16075109 0.19540897 -0.6067076 -0.037026793 0.039204713 0.517931 0.115161024 -0.23277876 0.38456616 0.18947622 -0.2425908 -0.34855878 0.14174747 -0.021614365 0.30212414 -0.23931225 -0.48418808 0.06687046 -0.21706915 -0.38352352 0.30310228 -0.23123169 0.19223903 -0.29714584 -0.07790837 0.16345583 -0.0028356279 -0.21885894 -0.49863565 -0.16648485 -0.030199626 0.22152805 0.0827965 -0.13148178 -0.026889391 0.20171435 -0.05659413 0.15228975 -0.32792684 -0.05454597 -0.17200994 -0.13866709 -0.2210257 -0.35758698 0.005947972 0.3917387 -1.2152146 -0.31526965 -0.9135544 -0.98672646 -0.0063918843 -0.73838234 1.1355395 -0.4881557 -0.5593856
231 -0.7043669 -0.105850436 -0.5469724 0.57301694 0.29263598 -0.020866022 -0.26522768 0.08912883 -0.21938108 0.31324235 -0.063930795 -0.36661234 -0.29194286 -0.29012278 -0.4346493 -0.14752348 0.29366955 -0.0148817925 0.05241927 0.18465167 0.02691138 0.19294742 -0.3293391 0.19132014 0.03491792 -0.4983252 0.12980258 -0.07920131 -0.36042017 0.2901845 0.08439183 0.59569156 0.039894182 0.07672139 -0.10510812 0.04133438 -0.4632633 0.028280042 -0.38794994 -0.29135525 0.5544799 -0.013802348 0.05170353 -0.21240532 0.5004665 -0.48451746 0.24210465 0.21498054 0.2541414 0.2071333 -0.17448719 -0.33576965 -0.38082585 -0.34065175 0.24803688 -1.2179326 -0.15850112 -0.9982771 -1.1385267 -0.34179038 -1.0408701 0.3677213 -0.17354098 -0.9121916
68 0.32447413 -0.18129434 0.4585094 0.1813565 0.50202686 -0.2571637 0.027784044 -0.4079213 0.14466539 0.27807328 -0.43087652 -0.17808701 0.42612693 0.3372195 0.15262768 0.18185107 -0.103297144 0.11146881 -0.274096 0.10672231 0.59516275 -0.03765023 -0.5849635 0.16164975 0.36206272 -0.2147671 0.19630043 -0.1927074 0.031501915 0.39180353 -0.18937571 -0.114505865 -0.03447271 -0.27784976 0.3088506 0.96379566 -0.6842498 0.46875462 0.37391764 0.07237597 -0.2681699 -0.27182114 -0.49955118 -0.15071942 0.3438412 -0.27231258 0.4021395 -0.21217111 0.28434747 -0.25545895 0.13618441 -0.3564283 -0.5940122 -0.67667913 0.11603976 -0.87362695 -0.12450053 -1.3619518 -1.6879083 0.44604385 -0.8285659 0.83210546 -0.30046427 -0.48759034
264 -0.5074079 0.0012736201 -0.6357914 0.079189524 0.50374264 -0.5322161 -0.16587181 -0.25263715 -0.34122455 -0.1822235 0.4224245 -0.3408399 -0.40367952 -0.123203844 0.25273505 0.19549498 -0.13735722 -0.018666055 0.015828865 -0.32271868 0.056162905 -0.029274035 -0.008206186 -0.121944234 -0.06842334 -0.5646623 -0.26319835 -0.156418 -0.3726984 0.09246601 -0.14439584 0.22231267 -0.24755433 -0.009135594 0.080928065 0.25869316 -0.1314771 -0.4391083 0.47962996 0.028014718 0.0035030139 -0.014754998 -0.12826252 -0.007976699 0.08302158 -0.4812322 -0.07903702 -0.36470258 -0.24987108 0.0326188 -0.11160958 -0.062321063 -0.37845647 -0.10065166 0.35426587 -1.5032521 -0.9666334 -0.4076965 -1.3641105 0.023813697 -1.0773437 1.0613858 -0.5399033 -0.13912122
54 -0.55013233 0.07698567 -0.7966174 0.52736115 0.28029075 -0.096778765 -0.11804532 0.098698385 -0.40418854 0.3235527 0.37802473 -0.69398654 -0.061786618 -0.10275956 -0.20670134 -0.306715 -0.047501814 0.04226189 -0.013288808 0.044470288 -0.1616114 -0.03844506 -0.2750809 0.13818313 -0.11500428 -0.6795141 -0.40095738 -0.10581217 -0.3706657 0.3627134 -0.076499745 0.20748208 -0.14869642 0.06134635 0.06569659 0.10079908 -0.16316955 -0.46441576 -0.00028046448 0.0008887008 0.4475521 0.11724919 -0.103834644 -0.05664329 0.20638853 0.11969834 0.12624787 -0.1190361 0.23844181 0.011398663 -0.33026174 -0.20848928 -0.28016987 -0.45393616 0.45359072 -1.1627703 -0.3918805 -1.0643173 -0.951828 -0.345681 -0.7180687 0.79460615 -0.47902727 -0.81003547
266 -0.14903075 0.57557076 -1.0911769 0.45058793 0.19524272 -0.21326102 -0.08853982 -0.11313874 -0.1567 0.54635376 0.24932379 -0.43651688 -0.05444523 -0.2978576 0.3869495 0.038116843 -0.25111765 0.17546546 0.03140912 -0.10118272 -0.40045953 0.2393956 -0.52996963 0.21198289 0.109906256 -0.33008966 -0.17671809 -0.29132682 -0.52859956 0.37151712 -0.15992926 0.2792429 -0.20751601 -0.7034657 0.011455412 0.3132815 -0.11487941 -0.018090978 -0.16453114 -0.18659066 0.21919224 0.16990504 -0.058181077 -0.22995022 0.14778525 0.023048127 0.07253528 -0.4255896 -0.5677235 -0.17785844 0.13400872 0.19656968 -0.18160024 -0.19791286 0.9257208 -0.8183012 -0.113500774 -1.3310131 -1.0926521 -0.03959752 -0.7508567 1.0871531 -0.5871845 -0.5156335
247 -0.6680674 0.06344295 -0.30898902 0.46959603 0.3871044 -0.12467137 -0.112110354 0.22974004 -0.15576044 0.3577849 -0.25129026 -0.40559787 -0.10578679 -0.39668494 -0.49386618 -0.17491536 0.35284725 0.105024315 0.09349231 0.36099422 0.14676516 0.06636329 -0.253631 0.06770775 0.012852085 -0.6286744 0.34492636 -0.123407945 -0.3953833 0.25249597 0.05329476 0.41845632 0.04286394 0.04999565 -0.2111847 -0.0053489367 -0.33095777 -0.007961281 -0.47510275 -0.36452934 0.49147615 0.1669894 -0.07196143 0.053208422 0.5353032 -0.37846896 0.05199695 0.2592174 0.42790136 0.17017546 -0.24164265 -0.5336828 -0.20167395 -0.47701305 0.36722258 -1.2172511 -0.12063799 -0.81460947 -1.14304 -0.39990684 -1.0919927 0.45769185 -0.2540385 -0.9609854
57 0.28213042 -0.36890706 0.40418702 0.19377647 0.31969276 -0.12148648 -0.092916645 -0.40191415 0.08881493 0.29147822 -0.20345776 -0.1746491 0.7633973 0.23165534 0.11494931 0.2383457 -0.08340591 -0.20076253 -0.26848906 0.15707783 0.28585175 -0.21251006 -0.44382325 0.34888747 0.44164994 -0.16005163 0.18240067 -0.23901868 0.111258365 0.31846 -0.037153192 -0.2837918 -0.024009734 -0.31928155 0.36483672 0.72634727 -0.7598607 0.3589961 0.43436337 -0.0058603003 -0.2277797 -0.14628668 -0.29809502 -0.22026926 0.47302634 -0.10958845 0.16118374 -0.27095675 0.3012639 -0.12270289 0.2524366 -0.51349413 -0.5700507 -0.71494067 0.31351647 -0.7188157 -0.23978062 -1.0990113 -1.7580931 0.26662022 -0.73455244 0.9684381 -0.5711932 -0.5557894
243 0.23190291 -0.56479007 0.45477203 0.44759095 0.24820478 -0.08796556 0.021316875 -0.34219706 0.059207976 0.081346095 0.044059318 -0.062253717 0.7721597 0.1976442 0.16245821 0.26994133 -0.103256725 -0.3184673 -0.2698384 -0.0017777502 0.12793474 -0.34340554 -0.30146223 0.46450663 0.4221148 -0.049125098 0.15396027 -0.08948498 0.28600493 0.3749313 0.06537176 -0.16683206 -0.07832323 -0.35515717 0.36869416 0.6058484 -0.7597507 0.24501513 0.08623273 0.109695435 -0.19196811 -0.09366259 -0.10721313 -0.4643999 0.49122098 0.1665079 0.10539798 -0.32854435 0.32834852 -0.07366231 0.3074769 -0.52834743 -0.78737956 -0.77016985 0.19592835 -0.7978803 -0.36231363 -0.93110543 -1.7446836 0.2694775 -0.66900545 1.011781 -0.56103534 -0.8504697
211 0.4525833 -0.102138616 0.0136442715 0.31938952 -0.085271604 -0.10844754 -0.22975431 -0.22838986 0.34360293 0.5373532 -0.20592718 0.25171438 0.39114955 0.0979339 0.05976049 5.8648476e-07 0.2004591 -0.33508292 0.6391849 0.123918176 -0.3137131 -0.13768196 0.15186654 -0.29967153 0.07514145 -0.14411724 -0.4975579 0.14193985 0.25880656 -0.2887587 -0.52799976 0.56543493 0.056489754 -0.26113304 -0.180155 0.18479037 0.46026915 0.5391904 -0.13857281 -0.54757 -0.25857165 0.47393194 0.0573894 0.030875077 0.38903186 -0.07770399 0.9826134 -0.35057476 0.49322218 0.13532229 -0.27303174 -0.14435565 0.110193126 -0.052517366 0.31433415 -1.4135339 -0.3224149 -0.89442605 -1.4702908 0.5287468 -0.93888617 1.4439113 -0.501287 -0.6722861
143 0.22450571 -0.15941146 -0.55997026 -0.49319923 0.5448136 0.06755984 -0.14510581 0.21568872 0.21023709 -0.06234365 0.5431044 0.14103441 0.332966 0.34856388 0.17113854 -0.879704 -0.059654023 -0.48704574 0.20768881 0.50663835 0.13780911 0.7089706 0.28970745 0.23029004 0.47156414 -0.2570402 0.27524674 0.16090733 -0.19341062 0.21913898 -0.21000752 -0.4297714 -0.25341335 -0.7077744 -0.19360863 0.08990227 -0.2432003 0.26195166 -0.21382134 -0.17247717 0.1988519 0.07007224 0.51917577 -0.10903559 0.5218093 0.045096863 -0.15808105 0.0023884892 0.5172096 -0.47445783 -0.05831838 -0.25227144 -0.19922191 -0.2385175 0.066565774 -0.9652518 -0.324258 -0.81972677 -1.2441251 0.5312352 -1.1994058 1.3610646 -0.19052199 -0.5921847
146 0.37306613 -0.071474016 0.0942465 -0.33864576 0.2386991 0.15195417 0.016486771 0.059368636 -0.2966165 -0.33491558 -0.15978007 0.0004909453 -0.30619884 0.22214182 0.22101617 -0.21248688 0.18809105 0.6710434 -0.057080574 0.2462143 -1.0424062 -0.45697206 -0.3093432 0.20633614 0.3183506 -0.26143914 0.05098245 0.41557983 -0.08335012 -0.05868052 -0.34921974 0.060033422 0.22728236 0.32988992 -0.13069582 0.23367928 -0.50484014 0.916793 -0.020495545 -0.22656177 0.43054324 0.039675876 0.20117025 -0.02416238 0.26623788 -0.47219342 -0.23071511 -0.12992583 -0.48874998 -0.32847694 -0.6950543 -0.5579598 0.12782408 -0.65441334 0.37886313 -0.6715368 -0.48597124 -1.0521089 -1.3275901 0.36331734 -0.82663745 1.3585892 -0.52064914 -0.54593
305 -0.012415422 -0.05470687 0.1593998 -0.35627687 0.26477507 -0.5937031 0.32952487 0.67857647 0.1902874 0.20218958 -0.10780031 0.0065090535 0.12050171 -0.52290845 -0.23794378 -0.33006826 -0.16740192 -0.1703986 -0.23392066 -0.1301834 -0.44559938 -0.62495935 0.042713247 -0.09505537 0.35525686 -0.5903967 0.8455091 -0.3612289 0.010329431 -0.24295273 -0.18671207 0.4414804 -0.032940578 -0.52987283 -0.09614706 0.09090153 -0.23956035 0.14659178 0.2547057 -0.3858945 0.76310086 -0.019542702 -0.20935544 -0.51034725 0.39597234 0.1532825 0.37055948 -0.092673875 0.59739697 -0.35377184 -0.24973977 0.37427393 -0.5507539 0.33824816 -0.21902966 -0.5433059 -0.63493717 -1.5282754 -1.5817243 0.2812932 -0.65219253 1.5825597 -0.7253322 -0.14494964
150 -0.13781607 0.13269198 0.32676935 -0.12580793 -0.38662878 -0.6332395 0.1601171 -0.18753178 0.20543414 0.35454166 -0.16488422 0.12236305 0.59025264 -0.14391446 0.33577362 -0.16990994 -0.32910392 -0.21390061 0.013727029 -0.2134384 -0.39154077 0.40575877 -0.1913929 -0.4085317 0.31369463 -1.1007193 -0.13542408 -0.1429529 -0.30773935 0.37280732 0.8969406 -0.20631562 -0.10061963 -0.07032207 -0.5815278 0.5388285 -0.09482182 0.22173043 -0.121405646 -0.26015815 -0.05287399 0.033680603 0.7736992 -0.575524 -0.25593734 -0.57918346 0.45224112 0.46702316 -0.052802723 -0.5534599 -0.454496 -0.73488593 -0.36917508 -0.35158584 -0.10992327 -0.97650963 -0.57914287 -1.1623789 -1.1871874 0.26076454 -0.69225955 1.4810694 -0.39666787 -0.85193056
5 -0.018956736 0.10961552 0.14910643 -0.25749707 -0.08857683 -0.7496558 0.54233104 -0.67657685 -0.09919111 0.81982017 0.17459111 -0.60549074 -0.059326798 0.26207036 0.16058609 -0.111715734 -0.12238674 -0.19386145 -0.53948724 0.1944346 -0.5061107 0.38538522 0.47079113 -0.33621055 0.3501712 0.22639929 -0.16014208 0.40536723 0.1605786 0.46242982 -0.4178687 0.82915705 0.028755834 -0.4141279 -0.47068107 0.44724151 -0.3358316 0.18027036 0.16770488 -0.18161254 0.5609348 0.27013612 0.030666802 0.25607353 0.41480038 0.34228888 -0.25631812 0.78320396 0.07902668 -0.1551552 -0.0046476903 -0.57063895 -0.438495 -0.2518464 -0.005757084 -0.8063166 -0.36703455 -0.9582326 -1.8024988 0.46606404 -1.0153272 1.0438323 -0.41516536 -0.5382832
109 0.10197208 0.11181838 0.29436442 -0.36617896 0.26124382 0.41922033 0.42340374 -0.3473791 -0.18935668 0.2704041 -0.28143525 0.77881235 -0.1631131 0.28233027 0.39281732 0.2645207 -0.27176058 -0.3161185 -0.2829951 -0.09147909 -0.07243229 -0.024810713 0.14337422 -0.032176428 0.71628255 -0.22833312 0.10303768 0.26309875 -0.6471343 0.8136825 0.07141221 0.26113403 -0.31210098 0.21328731 0.054750193 -0.41136736 -0.1189348 -0.09194978 0.18254355 -0.2596938 0.16576156 0.21564573 0.17333849 -0.06787969 0.3441532 0.015144689 0.26211938 -0.23477222 0.39876783 0.000659915 -0.5646055 -0.20537238 -0.65089256 0.42543525 0.82000196 -0.76439613 -0.124838956 -1.204571 -1.3315798 0.1335293 -1.1175799 1.0657911 -0.49485943 -0.91337407
205 -0.024739541 0.48650074 0.09561395 -0.35075 -0.53546476 -0.006830653 -0.31726798 -0.0074518686 -0.0012193669 -0.2796484 -0.034364145 -0.00026225115 0.093889065 -0.7290829 0.71178067 -0.07893732 -0.56987184 0.117381595 0.24388295 0.06796823 0.049898252 0.17251988 -0.11591602 -0.7916005 0.5282618 -0.11966394 -0.3695598 0.041531093 0.0063526183 0.1957245 0.35406238 0.16809404 -0.33594155 -0.014187542 0.67173046 0.43808955 -0.6424585 0.28273004 -0.40085152 -0.6307311 0.58958554 -0.54859847 -0.014705086 0.37066635 1.3326397 0.21940376 0.06041056 0.13561901 0.44978595 -0.10377466 -0.3990277 -0.061018646 -0.25497165 -0.40579093 0.106563784 -1.1320883 -0.45682633 -0.8954676 -1.7056372 0.45388025 -0.6784618 1.3535479 -0.35033935 -0.69670016
14 -0.010337004 0.35198367 0.050918162 -0.09232347 0.33513537 0.7227749 -0.36565596 0.043088593 0.16114153 0.7531318 -0.7175152 -0.22591814 0.19042706 0.017069085 0.3391952 -0.17651053 -0.36298877 0.046471138 -0.18831716 0.8019414 -0.0014530501 -0.15921102 -0.052956168 0.015556779 0.46540353 -0.20202485 -0.012128288 -0.24614346 0.46964785 -0.02317273 -0.10765108 0.9879039 -0.4398065 -0.086870715 0.21089181 0.5374437 -0.18999286 -0.38696694 0.49423316 -0.071171165 0.6042844 0.32519418 0.25467554 -0.2411822 0.24212909 -0.19660957 -0.5073081 -0.28791532 0.014363144 0.076195374 -0.33202377 0.15455644 -0.6051125 -0.45846134 0.11430956 -0.8322704 -0.5902823 -0.7884487 -1.0990598 0.9076729 -1.4587383 1.8886012 0.164667 -0.73552656
201 0.48368666 -0.022286797 -0.019510701 0.23278762 -0.08205173 -0.08163187 -0.06547893 -0.3994072 0.25061697 0.5183262 -0.15581256 0.13418435 0.40332988 0.0761048 -0.01603568 -0.103151105 0.23598285 -0.32758665 0.69289076 0.33954018 -0.31498635 -0.20765913 0.033976663 -0.3737109 0.14046447 -0.18564618 -0.5084055 0.011106234 0.2756833 -0.4065713 -0.49548757 0.44205046 0.074905515 -0.18080741 -0.20292282 0.1297155 0.5629935 0.42022246 -0.13158089 -0.57028663 -0.2686585 0.59819436 0.03140039 0.012149575 0.2933264 0.09651775 0.8778163 -0.4534953 0.5184285 0.100526735 -0.34132272 -0.2103111 0.025465488 -0.09915052 0.23774725 -1.5453954 -0.28163984 -1.0168095 -1.5951201 0.50662446 -0.7556451 1.3221285 -0.3469999 -0.6641071
260 -0.5518903 0.050598986 0.91014236 -0.20544492 0.58454746 -0.1915591 -0.43805474 -0.3441297 0.3579073 0.087243475 0.36830992 -0.67916495 0.2177962 -0.30173257 -0.10412341 0.11522438 0.055329315 -0.4559082 0.65555626 0.43326998 -0.15904677 0.11304181 -0.26885423 -0.16276313 0.29555652 0.25340363 0.23483902 0.055511575 0.037385017 0.40363416 -0.09445816 0.3453622 -0.27232108 0.09484185 -0.23985037 0.42021117 0.18605584 0.33705458 -0.1732787 0.4146581 0.06352393 -0.4093636 0.29038814 -0.6132928 0.46746504 -0.079885244 -0.3131508 0.25757593 0.044300914 -0.42064542 -0.6981843 0.2001323 -0.0075090216 0.13677679 0.89034414 -0.9798084 -0.35624394 -1.3319845 -1.3688413 0.5326777 -0.72601885 1.4446676 -0.5345714 -0.63950616
26 -0.017369613 0.03258961 -0.0684742 0.27976695 0.6590612 -0.07417735 -0.23234223 -0.4009548 -0.031267934 -0.35370308 -0.32766336 -0.056890436 0.82152796 0.026585992 -0.4751944 0.31457195 -0.3505199 -0.012929723 0.1695873 0.16757362 -0.24623637 0.1815894 -0.30568683 -0.6686213 0.54714346 -0.204833 -0.18669784 0.8662238 -0.050447933 0.105448134 -0.3944254 0.25234607 -0.49668887 -0.26329756 -0.5965363 -0.18301475 -0.19730544 -0.45850894 -0.1520092 -1.1044513 0.32317376 -0.4439769 -0.025828077 -0.075174786 0.009625539 -0.2540605 0.04684289 -0.057475265 0.0038024816 -0.6561112 -0.15351453 0.06303337 -0.52392477 -0.4994395 0.111837104 -0.09578417 -0.8228838 -1.1781752 -1.7997581 0.3462031 -1.0010786 1.3369783 -0.070029035 -0.89553684
196 0.4954787 -0.1704018 0.31337085 0.26176718 0.24732962 0.09009094 0.05503279 0.019540459 0.066089265 0.7112703 0.51450247 0.2571738 0.079369076 -0.070320405 0.13248013 -0.13731927 -0.13765517 -0.33777726 -0.39364353 0.20064382 0.029842379 0.04088444 0.056331616 -0.5522435 -0.2615266 0.121166326 0.2818354 0.010709726 0.07638391 0.3168178 -0.4338012 -0.10943603 -0.26242906 0.5017034 0.1641843 1.0636545 -0.6415432 -0.4908202 -0.6683178 -0.90964514 0.44587037 0.30074924 0.38427714 -0.20213373 0.03987805 -0.40791953 -0.10219428 -0.17219333 -0.14241162 -0.54404587 -0.43760884 -0.05002541 0.040939227 0.07089938 0.1793002 -0.99945897 -0.2386295 -1.2210538 -1.5186871 -0.023732558 -0.8060553 1.2963579 -0.2788734 -0.31083387
16 -0.43053502 0.1751946 0.30136132 0.17652692 0.67553824 0.14928597 -0.06871565 -0.27855366 0.12790698 0.20240526 -0.3066925 0.02458347 0.13800716 -0.4904927 0.6400595 0.16030163 -0.3360621 -0.23227562 -0.43120638 -0.09420815 -0.1753492 0.37486908 0.0435046 -0.24580218 -0.39888448 -0.11466644 -0.07775993 -0.34335905 -0.012938036 -0.15038678 -0.45042187 0.0029508844 -0.36479008 -0.10547843 -0.1318939 -0.1014182 0.014482222 0.7754423 0.101914406 0.15300734 0.32178 0.691708 0.6737766 -0.08044037 0.75594085 -0.120462865 0.21391954 -0.28072372 0.16303355 -1.036199 -0.47519085 0.018240932 -0.23232841 -0.5610074 -0.19294702 -0.33676937 -0.2759187 -0.7507521 -1.9921018 -0.19646089 -1.1551832 1.0461811 -0.30104405 -0.7606717
173 0.08855848 0.3124008 0.019478174 -0.17444494 0.34617907 -0.1315345 -0.11833265 0.23093392 -0.061580356 0.1089864 -0.031176537 -0.23758733 0.4447369 0.032324187 0.35128832 -0.28910598 0.34920314 -0.49733981 -0.45242247 0.4883534 -0.28441095 0.14180972 -0.073701136 0.0020541756 0.19013111 -0.1508181 0.30230838 0.14423572 0.51856273 0.63366264 -0.8685131 0.30371898 0.7104352 0.27194008 -0.55826503 -0.20227718 -0.335087 -0.18496409 0.17346404 0.12929711 -0.5065744 0.5570474 -0.12414119 -0.4891601 -0.4328139 -1.0339539 0.18167345 0.16475394 0.19681923 -0.5288141 -0.17708682 0.24969679 -0.69508195 -0.07631581 0.027406253 -0.8316241 -0.36849445 -0.9953839 -1.4860916 0.146733 -0.8951448 1.3743671 -0.7155168 -1.4855623
233 -0.07713199 0.37552637 -0.023053264 0.057564598 0.11729932 0.29817384 0.25146416 -0.5872257 0.30271804 -0.03077278 0.23024566 -0.4417098 0.17218123 -0.23768462 0.17229871 -0.044521384 0.06292706 0.31658232 -0.7807874 0.16922177 -0.089928485 -0.046227563 -0.59249914 -0.380102 1.1289197 0.12756391 0.52997386 -0.46624547 -0.5415458 -0.086703815 -0.13475198 -0.35179204 0.036230706 0.12913872 -0.24948384 -0.42045355 -0.4823582 -0.42308763 -0.040852033 -0.1519945 0.2134715 0.39056572 0.4251664 -0.5401811 0.37903997 0.008048145 -0.5582474 0.23800212 -0.07785361 -0.6163505 -0.4758157 -0.008727088 -0.52931094 -0.34501895 -0.32723692 -1.5444188 -0.54315156 -1.3123531 -1.6881441 0.91471595 -0.49587932 0.84414434 -0.029311422 -0.69859284
79 -0.83061504 1.2536069 0.72173995 0.3799376 -0.16662575 0.036359757 -0.08876777 -0.3691085 -0.06825219 -0.11528391 0.07467331 0.3482803 0.46147028 0.41364866 -0.20667967 -0.6979328 0.33904898 -0.059814356 -0.5669729 -0.17931303 -0.4693869 0.116195865 -0.04198799 0.16693422 0.1360989 -0.32480723 -0.08636418 0.13739331 0.09364613 -0.005781002 -0.081681974 -0.21396232 0.15786816 -0.050545026 0.26252562 0.44937363 -0.03732148 0.14394371 -0.36878467 -0.50120264 0.38331813 0.09757802 -0.3189225 -0.21705738 0.1690822 -0.19790313 -0.0858172 -0.09780115 0.39763123 -0.42882842 0.28072208 -0.005457127 -0.30784613 0.092812985 0.4848532 -0.9386585 -0.38392073 -0.9088736 -1.4259351 0.88166887 -1.3722714 1.3487443 -0.39289162 -0.4201265
282 -0.6150758 0.01131223 0.22656856 -0.27049485 0.33071068 0.43833822 0.35876793 0.16982253 0.21751489 0.61875194 -0.8118318 0.058527045 -0.19324863 0.10263406 -0.18800385 -0.37116605 -0.16017747 0.120300874 0.03881082 0.22828433 -0.56726795 0.34277076 -0.056179184 -0.40654016 -0.21522208 0.11052701 -0.24232484 0.037429467 -0.32380632 0.13314007 -0.18281117 -0.10527537 -0.44462287 -0.67213154 0.20644578 -0.049367927 -0.5709038 0.059608035 -0.3042199 -0.23858489 -0.75710666 0.046328124 -0.23786901 -0.39131555 0.23797107 -0.362144 -0.49270973 0.11678839 0.17246081 -0.04583819 -0.06161704 -0.23531547 -0.26913172 0.08009997 -0.05092103 -1.0573661 -0.52552044 -0.8167844 -1.9433166 0.08298727 -0.05776723 1.7830269 -0.3609943 -0.65084916
195 0.2795977 0.073672265 0.1498282 0.58966976 0.51766497 0.72766894 -0.20297828 0.012743735 -0.25303668 0.024402278 -0.062144704 -0.28032646 -0.15794307 -0.22510104 0.050242234 -0.117284305 -0.06700103 0.02893988 -0.0007014115 -0.3619422 -0.2527899 0.27941805 0.4048372 -0.8131508 0.53829974 0.07520364 -0.1162318 -0.70515347 0.43274307 0.15178399 0.29378226 0.08200235 0.47952998 -0.65660024 -0.4179472 0.2243555 -0.26050583 -0.016177546 -0.11564477 -0.005211692 0.084368825 -0.35924217 0.13505824 0.15998244 -0.06311528 -0.26292247 -0.19575258 -0.15830968 0.3536603 -0.31718123 -0.45975772 -0.65427184 -0.42375508 0.2366829 0.0718077 -0.66044706 -0.06377073 -1.1394922 -1.4169401 0.48913535 -1.2498314 1.2045015 -0.9366003 -0.56861925
144 -0.030132025 0.0103798 0.32034728 -0.43759757 -0.5132177 0.11755287 0.050929673 0.32896948 0.4841049 0.21894035 -0.16673395 -0.65825367 -0.052255627 0.37098408 0.25805816 -0.6231215 -0.27209544 -0.08165073 -0.1947163 -0.47680843 0.36686692 0.10309419 -0.15254202 -0.5718863 0.18440071 -0.4848741 -0.028506659 -0.44528544 0.24408181 0.1897889 -0.7176939 0.38806182 -0.40139002 0.5288181 -0.59594965 -0.16998489 -0.40794235 0.3419054 -0.5692744 0.011082404 0.0942678 -0.042748734 0.2619984 -0.54121846 0.32955167 0.1734108 -0.08808258 -0.7339872 0.0073922975 -0.1792889 0.48959532 -0.6356852 -0.34049338 -0.07696887 0.55053204 -0.85349154 -0.619867 -1.170896 -1.5013907 0.41045538 -1.0984753 1.0097543 -0.38100928 -0.7549942
11 -0.88326305 -0.25520867 -0.44042397 0.5241979 0.2238691 -0.31381714 -0.5480797 -0.02132374 -0.23874907 0.38902244 -0.36897182 -0.30719396 -0.19715838 -0.25897312 -0.38836202 -0.30510217 0.24462032 -0.09534416 -0.19356687 0.36104637 -0.030382106 -0.024550937 -0.34340724 -0.26711106 0.24816722 -0.60038054 0.15987101 0.15856077 -0.28998104 0.017170373 -0.2159803 0.20303103 -0.10058459 -0.07218982 -0.14844787 0.12987387 -0.56522155 -0.06291917 -0.35505524 -0.123809285 0.5308001 0.1886737 0.0835421 -0.23417895 0.6893709 -0.48355874 0.15494214 0.11746172 0.2999713 0.34546903 -0.3702471 -0.5511328 -0.46156284 -0.15671861 0.33482194 -1.0741943 0.011743195 -0.79285705 -0.903158 -0.13751066 -1.0698371 0.58915436 -0.41806552 -0.8347469
40 -0.412098 0.3066532 0.2200213 0.14655516 0.63450557 0.15681297 -0.15185966 -0.55497473 -0.09636949 0.25454426 -0.13566262 0.1009604 -0.0007403352 -0.33970693 0.47086295 -0.022110946 -0.23694308 -0.3759325 -0.5178123 0.056281123 -0.22573164 0.36449715 -0.13892567 -0.3290299 -0.38322058 -0.07727019 -0.16691397 -0.42032868 0.12398678 -0.25613365 -0.18368514 -0.10521316 -0.3997347 -0.019595891 -0.065234095 -0.069339395 -0.035836477 0.945815 0.19164166 0.058081683 0.43817085 0.68586916 0.610844 -0.24122344 0.71686167 -0.11175527 0.20243566 -0.239461 0.24464941 -0.9347741 -0.31050125 0.15881707 -0.18666688 -0.37585533 -0.14931706 -0.2106407 -0.6010515 -0.7928099 -1.997257 -0.22547472 -1.1584212 0.9874708 -0.33800265 -0.9329587
36 -0.4743787 0.008356305 -0.73950493 0.56109434 0.3121943 -0.23569521 -0.20655638 0.0931202 -0.13881959 0.30997097 0.10390022 -1.0901687 -0.1285586 0.084490225 -0.13396081 -0.1062355 -0.009260019 0.064050995 -0.17967427 -0.11086025 0.0049266103 -0.02886492 -0.116176926 0.14432351 0.17156498 -0.4643687 -0.40787613 0.10528252 -0.39992505 0.35243192 -0.13942678 -0.042418376 -0.34197858 0.17689255 0.31907517 0.10796502 -0.25848442 -0.087572254 0.03246354 -0.075730115 0.5988756 0.23540372 0.13509351 0.074383914 0.09382297 -0.14930624 0.46780086 -0.057797156 0.30402002 0.06987853 -0.40967408 -0.037382424 -0.3232287 -0.2755992 0.41387096 -1.1125777 -0.44181615 -1.0396997 -0.69964117 -0.16077365 -0.88177794 0.98043174 -0.7551446 -0.6327035
25 0.20377886 0.44795543 0.4474238 0.09458342 0.16302447 -0.18492599 -0.2867842 0.05326597 -0.30098277 0.34447595 0.53335714 0.1228824 0.16582453 0.32038394 0.2581442 0.26668584 -0.057159383 -0.27961338 -0.44815803 0.336686 0.28317574 -0.1916477 0.056142785 -0.102738224 0.32607272 -0.5554859 -0.43245795 0.035222713 0.33719313 -0.15136378 -0.08439604 0.55651104 -0.73186857 -0.5714496 0.23693909 -0.7473661 -0.39058876 0.18456906 -0.7619935 0.3033724 0.0741923 0.017787907 0.1726215 0.14959167 0.13096137 -0.85511416 -0.17449373 0.22402874 0.030650549 -0.29057172 -0.296542 -0.3154988 -0.113184005 -0.41175455 0.03556694 -0.9772869 -0.360188 -1.7063433 -1.4328395 0.39384368 -0.648154 1.1674929 -0.1890644 -0.40582135
96 -0.12477681 -0.122563794 0.18030843 0.07903978 -0.20378835 -0.640297 -0.44986734 -0.14217295 -0.35628182 0.47789553 -0.49244654 0.19381756 -0.12656672 0.18024047 -0.53760326 -0.1949387 -0.4612256 0.2826018 -0.27045152 0.09406881 0.00014031326 -0.5685728 0.3022955 0.34883815 0.6468384 0.35841697 -0.49147603 -0.5670481 -0.3782993 0.451487 0.16879559 0.09010028 -0.4489362 -0.16756882 -0.8761951 0.40875626 -0.07582779 0.11885288 -0.42520118 -0.35700718 -0.07458837 0.031830173 0.58696616 0.23016171 0.75827634 -0.20191 -0.3986439 -0.54691213 0.41924262 -0.94878435 -0.2104125 0.26585513 -0.30775857 -0.28485584 0.14128168 -1.051898 -0.40430728 -1.0744504 -1.4094653 0.4380958 -0.8778846 1.3867403 -0.30729124 -0.47658935
193 0.24705102 0.22895998 0.12556842 0.557784 0.49401084 0.7595836 -0.32187536 0.053513516 -0.13176101 -0.085925244 0.02349145 -0.21496224 -0.2634871 -0.11917032 -0.036180086 0.13132495 0.01529609 -0.008696864 -0.071325235 -0.18074778 -0.39401624 0.4615949 0.4386753 -0.78549224 0.52386206 -0.07639344 -0.28197116 -0.6433922 0.40778783 0.23744567 0.23208776 0.22634348 0.43555817 -0.54902065 -0.48308736 0.36311027 -0.507859 0.04122966 -0.050846335 -0.028916176 0.016690206 -0.33323246 0.23159014 0.015299453 -0.076405354 -0.15914176 -0.13466293 -0.29931667 0.39534226 -0.32216826 -0.48616213 -0.54260856 -0.46676406 0.16892652 -0.124024265 -0.70713407 -0.06265527 -1.2907007 -1.3812876 0.5483375 -1.1531848 1.0237803 -0.9927248 -0.4160693
248 0.20660272 0.5104397 0.36807925 0.22602087 0.09987218 0.08298483 -0.4505095 -0.3713373 -0.32302865 0.3780856 0.44451436 0.006443981 0.28461245 0.42545065 0.3498421 0.25974765 -0.14939713 -0.22092664 -0.40868548 0.40997374 0.3720959 0.042559095 -0.006261744 -0.08295687 0.27570966 -0.39320546 -0.68069655 0.2152379 0.30322972 0.08981046 -0.06363443 0.32437104 -0.6979322 -0.32578743 0.16318598 -0.68254054 -0.39759934 0.17133822 -0.8637471 0.32274225 -0.19072872 0.072920464 0.35021982 0.30751085 0.22248945 -1.0229124 -0.31940973 0.23701638 -0.15980269 -0.1468404 -0.33708623 -0.51206285 0.057166863 -0.4418386 0.1865862 -1.0305226 -0.3124749 -1.3594223 -1.4786845 0.4883133 -0.78001696 1.1101022 -0.21918419 -0.7026976
47 -0.6062839 -0.052127004 -0.7923883 0.5354111 0.17087999 -0.3679772 -0.22706386 -0.08780537 -0.3005351 0.27985236 0.1485015 -0.8852722 -0.21913913 -0.11795675 -0.19355415 -0.2510512 -0.18705676 -0.052521497 -0.04932963 0.15203701 -0.145644 -0.091338895 -0.3015719 0.13022718 0.12166094 -0.3608181 -0.1538396 0.09094004 -0.17432784 0.18325773 -0.22517706 -0.21299577 -0.36471093 0.018147314 0.29071563 0.012153374 -0.15116513 -0.2776213 0.16039705 -0.058081992 0.59075177 0.07154362 0.30857572 0.11063905 0.22190103 -0.41398832 0.2393712 -0.25143874 0.29725927 0.28399765 -0.38251063 -0.4177002 -0.48884925 -0.051101387 0.4597076 -1.1107734 -0.5835912 -0.82615566 -0.9004977 -0.21142192 -0.68747216 0.93569547 -0.6359289 -0.76777697
198 0.42652678 -0.21426894 0.31227228 0.15014951 0.1837836 0.07382227 0.016046846 -0.103427306 -0.12730403 0.7602618 0.45547175 0.1826539 0.024388384 -0.12312693 0.027592873 -0.17175037 -0.011618833 -0.2345087 -0.35032338 0.14304179 0.21524234 0.022254148 0.22225006 -0.50391424 -0.13866796 0.05480266 0.35595778 -0.031632565 0.04927725 0.21692938 -0.37025982 0.013301145 -0.15926571 0.35900798 0.33425277 0.98795116 -0.70607305 -0.5901499 -0.66579664 -0.98471594 0.44382945 0.28716114 0.5389828 -0.4276179 0.010511815 -0.43188152 -0.026758628 -0.19145879 -0.13880277 -0.5932174 -0.42239013 -0.073581755 0.28866467 0.08828997 0.3539449 -0.8733564 -0.2575383 -0.9668026 -1.7385075 0.006054085 -0.719321 1.3627343 -0.29587796 -0.47728232
235 -0.46869683 -0.13220632 -0.52505505 0.09442455 0.4724487 -0.6662101 0.02736138 -0.14553629 -0.302053 -0.3214049 0.514906 -0.39883754 -0.34051257 -0.054308303 0.38833624 0.33107334 -0.091560714 -0.13660303 0.04490939 -0.3946502 0.083714895 0.008034871 0.20547086 -0.09857146 -0.15895563 -0.52689785 -0.23794077 -0.1332329 -0.49757364 0.002593633 -0.07549875 -0.013236586 -0.13240208 0.032874037 0.0041979128 0.1224881 -0.13338427 -0.28513512 0.3877246 -0.054444913 -0.025630832 -0.06335494 -0.28290614 -0.022413518 -0.074311584 -0.42249772 -0.05597062 -0.3852081 -0.18847595 0.03038484 -0.08646341 -0.03166284 -0.1479467 -0.012166847 0.36527285 -1.5206959 -0.9285399 -0.3974813 -1.6214309 0.12407047 -1.1179955 0.98522353 -0.5356997 -0.2162601
191 0.17525667 0.34497154 -0.06117548 0.40780047 0.49682835 0.5695286 -0.32430694 0.19999307 0.053831175 -0.09679123 -0.07051605 -0.12489388 -0.22948842 0.07793018 -0.12272078 0.33331162 -0.0044975798 0.0021514108 -0.2810533 0.13983458 -0.4829638 0.3814785 0.49046415 -0.8986126 0.61069596 -0.16410738 -0.28306568 -0.5550854 0.27150872 0.313299 0.12807544 0.09892148 0.3659344 -0.51452714 -0.4421033 0.5744377 -0.44190377 -0.0023414944 -0.28277946 0.28328085 0.15249129 -0.26202804 0.18126057 -0.12700552 -0.029222678 -0.09574415 0.007281654 -0.42557064 0.43934986 -0.24289258 -0.5564139 -0.59236985 -0.26642707 0.07900023 -0.14548561 -0.55329454 -0.30349943 -1.1783835 -1.4852499 0.7298914 -1.0664672 0.8314225 -1.1794995 -0.47553825
165 0.18614085 -0.07120051 0.35095838 0.9072387 -0.04337762 -0.24502355 0.075779535 0.38210046 -0.289714 -0.0068685086 0.10916306 -0.39352837 0.31387028 0.20032145 1.2011597e-05 -0.388672 -0.39157897 0.24568784 -0.65865296 0.6302767 -0.24197648 0.69449747 0.558587 -0.5062654 0.38366687 -0.4524259 0.18768767 -0.26601052 -0.3577817 0.40283513 -0.20677453 0.12904333 0.0010477789 -0.05426286 0.07823185 0.086627156 0.51542276 0.36739266 0.23571667 -0.44480026 -0.49327588 0.42175537 0.15874544 -0.5899177 1.1460453 -0.38256875 -0.07837445 -0.17209193 0.117690474 0.2691472 -0.46419966 -0.10462224 -0.33819976 -0.34493685 0.70423394 -0.36851135 -0.7724115 -1.2545682 -1.5031977 0.45050645 -0.6467979 1.2205521 -0.0150100505 0.07906471
74 0.27603054 -0.03732812 0.4498157 0.85886353 -0.08060261 -0.1373772 0.15018737 0.38166034 -0.4014192 -0.2062214 0.09044474 -0.52837753 0.3269849 0.14214562 -0.02512588 -0.37225246 -0.42032328 0.29317474 -0.45426005 0.59623975 -0.2925851 0.5374556 0.69953334 -0.67761415 0.34386137 -0.4798342 0.25125802 -0.24464224 -0.3623538 0.4473415 -0.16618341 0.1393829 -0.06449688 -0.04842877 0.04181696 0.099368736 0.28238007 0.3564023 0.17450224 -0.35622266 -0.46385676 0.6024257 0.15286411 -0.6106241 1.1009427 -0.44071957 0.022698887 0.019444784 0.043636054 0.26934284 -0.31584072 0.09057892 -0.5185865 -0.41441524 0.71206635 -0.463575 -0.6420784 -1.1251228 -1.4490523 0.5036342 -0.7935822 1.3286517 0.0593417 -0.17182001
242 0.36318877 -0.48123217 0.50841796 0.24727413 0.41745842 -0.0954299 -0.08083911 -0.3758892 0.063179746 0.15596373 -0.19918795 -0.20994195 0.9990574 0.063439846 0.19088215 0.39283448 -0.0116677275 -0.1898363 -0.44656125 0.06003238 0.07321151 -0.30719453 -0.3253107 0.41994196 0.41799974 -0.2606673 0.1654883 -0.25385037 0.10966615 0.35504743 0.018638242 -0.13261168 -0.13319637 -0.27601576 0.32742968 0.6484193 -0.7477464 0.2964759 0.113487266 -0.080804065 -0.2169757 -0.041916285 -0.19415788 -0.35982257 0.48572338 0.095351085 -0.060555153 -0.28903586 0.47002146 -0.075223565 0.37990665 -0.46316978 -0.5542082 -0.8110376 0.42721504 -0.89181507 -0.31990054 -0.84230936 -1.6531585 0.25151023 -0.6493084 1.0794058 -0.6798162 -0.76464796
154 0.14087385 0.14249842 0.20909998 -0.2703796 -0.18944262 -0.74986184 0.50821567 -0.5936473 0.006365198 0.73529977 0.09901259 -0.5826805 0.18548709 0.13495666 0.19896516 -0.057613 -0.00757192 -0.022134855 -0.5411707 0.2922066 -0.55820876 0.54033655 0.40541467 -0.20125154 0.01674086 0.19681944 -0.112169206 0.56290644 0.1186889 0.2597132 -0.3159853 0.96677923 0.036080133 -0.45503628 -0.46783155 0.36093444 -0.41807678 0.092090026 0.268444 -0.25524515 0.51529425 0.17851466 0.29230642 0.2941276 0.45756853 0.23151435 -0.50965357 0.5926138 0.24091418 -0.34214947 0.029453797 -0.5929946 -0.55558085 -0.09371709 0.1554934 -0.9882286 -0.4419486 -0.9899474 -1.7636796 0.4498449 -0.93399036 0.83370745 -0.58330125 -0.513657
42 -0.09494439 -0.10152885 0.08980636 -0.05120967 -0.34575218 -0.44626027 -0.5347388 -0.043997657 -0.32418028 0.33777422 -0.31514058 0.09835966 -0.17543629 0.000105076804 -0.53581136 -0.2407691 -0.622207 0.16671874 -0.27976826 0.2691934 -0.020715605 -0.6226317 0.4899916 0.30932125 0.35510564 0.47204208 -0.31532195 -0.3001561 -0.23677148 0.4836846 0.26631618 -0.043538712 -0.2722672 0.040126104 -1.0402129 0.2661756 -0.32106262 0.0922426 -0.31432098 -0.20798056 -0.21548726 0.14122221 0.23282838 0.3119645 0.64149606 -0.35862032 -0.060477555 -0.3627231 0.32819235 -1.0001693 -0.11100369 0.4576056 -0.38217014 -0.4037006 0.20430924 -1.0898203 -0.3067 -1.1128972 -1.5052472 0.6378018 -0.86144865 1.2387109 -0.42446315 -0.71560514
299 0.02363576 -0.17710637 0.04294256 0.09302455 -0.28331897 0.44753847 0.03988266 -0.51423395 0.24493869 0.046909004 -0.08820438 -0.21372247 -0.017870868 -0.23140357 0.37597027 -0.5034721 0.28936228 -0.06545973 -0.07716381 0.45678866 -0.20450264 0.40919122 0.56118536 0.6094413 0.9211353 -1.1269056 0.21466029 0.008303781 0.57766795 0.017876705 -0.3984393 -0.11373264 -0.843751 -0.32890114 -0.36468393 0.49421537 -0.28945908 0.16355708 -0.3984789 -0.35214445 -0.3576344 -0.14785364 -0.03526291 0.16419509 0.23486778 0.12676013 -0.09225782 0.20823812 -0.078590855 -0.4668714 -0.65577745 0.45041516 -0.48971877 0.13918148 0.21505307 -0.9087953 -0.6740264 -0.9806591 -1.708731 -0.19721271 -0.9838366 0.86801517 -0.38454458 -0.61999494
122 0.16786617 -0.123629145 0.6761501 -0.17285807 -0.37853658 -0.10562443 0.066910505 0.10160702 -0.032041557 -0.3882398 -0.1874265 -0.24519901 -0.28500882 0.37224233 -0.24736688 -0.18055467 -0.2574971 -0.3561925 -0.08178669 0.2784131 0.2634538 0.6478954 -0.5434366 0.2113409 0.12830934 0.00051439885 -0.24360937 -0.00039736414 -0.32059842 -0.2718285 -0.0047909017 0.09771615 0.34599233 -0.56787294 -0.040627137 0.1600061 0.05649694 -0.52001834 -0.31487978 -0.061945405 0.2434082 0.55055827 -0.1657924 -0.011478369 0.5299703 0.030686274 0.28222156 -0.14938952 -0.6371729 -0.13622294 -0.56930655 -0.059105713 -0.1412264 -0.015775522 -0.22662711 -0.4995942 -0.407416 -1.0682557 -1.306237 0.037528075 -0.93078303 0.9904905 -0.82520026 -0.7378531
206 -0.006300218 0.08199066 0.41201264 -0.34190366 -0.6410845 0.11148581 -0.025960984 0.28998825 0.5152219 0.4340565 -0.06156855 -0.5755519 -0.14036182 0.16962388 0.4222892 -0.6729393 -0.17281222 -0.17764223 -0.21014988 -0.46395767 0.46649286 0.13637106 -0.1012819 -0.33893695 0.09327274 -0.4353442 -0.019922672 -0.6793043 0.121291965 0.16458288 -0.65766454 0.29744363 -0.28810757 0.5243394 -0.5768047 -0.16900854 -0.59861356 0.4723262 -0.2643732 0.08873529 0.0032842117 0.064266145 0.3011727 -0.42061895 0.4000844 0.14484034 -0.1402368 -0.540772 0.112472825 0.05029711 0.46163073 -0.5319175 -0.11533115 0.079390414 0.52114666 -0.989238 -0.4133165 -1.233485 -1.3853254 0.33180565 -1.2003753 1.2086889 -0.48992792 -0.5989752
246 -0.7765941 0.041326266 -0.1946358 0.34551775 0.20785932 -0.16708523 -0.3420986 0.20092669 -0.040371355 0.6669837 -0.1883695 -0.21361819 -0.02154279 -0.32987654 -0.6386924 -0.03334114 0.37152112 -0.012709996 -0.08489982 0.48853526 0.10477939 -0.17083248 -0.23702234 -0.28854224 0.10701391 -0.67965937 0.080282465 0.33521643 0.13118933 0.20829502 -0.09663755 -0.14720367 0.2860992 -0.074479595 -0.29521462 -0.06266768 -0.5648245 0.09825998 -0.27341205 -0.32440364 0.3367896 0.24274707 0.1071829 -0.16951545 0.97781366 -0.13472907 -0.09049251 0.044573706 0.21627742 0.20002733 -0.55602723 -0.6719354 -0.60968596 -0.1497862 0.18717617 -1.0633978 -0.022401158 -1.0749078 -0.92039967 -0.4166722 -1.2047609 0.6388559 -0.088649295 -0.76582557
140 0.089813806 0.57064754 -0.156326 0.2760306 -0.254236 -0.07556333 0.17565255 -0.0021120182 0.5629888 -0.006124136 0.37168193 0.4238019 -0.03284479 -0.008978209 -0.6553213 0.51218486 -0.16546066 0.31959847 0.19936088 0.6892057 -0.37483191 0.5618071 0.3001416 -0.26081842 0.48459098 -0.3320726 -0.3992231 -0.5505895 0.020680597 0.3189937 -0.46938667 0.111712 -0.2692626 0.121989794 -0.16777474 0.35819396 -0.58901805 -0.056203824 0.027611518 0.5361814 0.33917114 -0.20520636 0.25665018 -0.50634784 0.17515336 -0.30938956 0.016302742 -0.43049484 0.31535608 0.0027106947 -0.4333663 -0.29296392 -0.35365275 0.04662311 -0.31056494 -0.40037957 0.06588108 -0.804328 -1.906536 0.48878282 -1.0298455 1.1728967 -0.78556347 -0.66284245
197 0.30416763 -0.08699488 0.3580422 0.53236294 0.6890073 0.58556724 -0.020148493 -0.007617611 -0.43654218 0.19664538 -0.009362299 -0.35799405 -0.1616081 -0.4383058 0.2752168 -0.40536752 0.073661216 0.18490039 -0.002312411 -0.21069819 -0.14157154 0.32929844 0.34476647 -0.67559975 0.50145364 0.063017584 -0.1745702 -0.55269647 0.61315143 0.08801423 0.4625561 -0.15363577 0.41297716 -0.60249966 -0.5103502 0.12151576 0.028873902 -0.14035462 -0.13506635 -0.06804556 0.26744136 -0.3552708 0.07354084 0.28931823 -0.0021061357 -0.23490743 -0.1595982 -0.31588376 0.32291383 -0.24427652 -0.21637578 -0.6775349 -0.46281922 0.29448414 0.13387454 -0.6913626 -0.19772686 -1.2447343 -1.4611533 0.56958807 -0.9875843 1.1873343 -0.82974994 -0.7963222
281 -0.39162797 0.0072455024 0.18334259 -0.14981845 0.28294712 0.46481374 0.31162935 0.4015719 0.3122755 0.50907195 -0.80940866 -0.020478347 -0.27368256 0.17534496 -0.0900172 -0.07722325 -0.16758916 0.18391894 -0.14451133 0.28796574 -0.48994932 0.27329886 -0.15660767 -0.3819496 -0.33499458 0.12075236 -0.28492445 0.19939597 -0.30030632 0.2781349 -0.18406095 -0.24641964 -0.3552875 -0.56843495 0.14954121 -0.059067007 -0.3777969 0.2689668 -0.44246906 -0.23168486 -0.58987206 -0.08445033 -0.13715962 -0.3887977 0.0484326 -0.15282318 -0.43075693 0.31695047 0.14029682 -0.10541981 -0.022029873 -0.1391908 -0.558689 0.05907458 -0.022865882 -1.2389853 -0.41379732 -0.7883282 -1.9756867 0.060075402 -0.17077416 1.7931639 -0.3452974 -0.409085
157 0.3683623 0.6161351 0.22338706 0.31484345 -0.28149807 0.09877836 -0.28126416 -0.605847 0.23006645 0.24922249 -0.4467446 -0.16662091 0.37533003 0.1308197 0.56869125 -0.54031366 -0.04483728 0.1643426 -0.3972841 0.30110204 -0.029816894 -0.014308971 0.12515746 -0.20230208 0.16435061 0.20701696 0.3497554 0.5350647 0.08913154 0.6934227 -0.11464629 -0.08761061 -0.37793344 -0.5496805 -0.7196074 -0.08618771 -0.0581554 -0.03290205 -0.052407265 0.11675589 0.7444372 -0.25431255 -0.2479992 -0.8403721 0.48986205 -0.26569906 0.075008355 -0.5239479 0.41656625 -0.091778025 -0.6217062 -0.1762232 0.26010975 -0.46795502 -0.18904169 -1.1118132 -0.2756676 -1.1572466 -1.295407 -0.42531407 -0.61602736 1.6046681 -0.6439436 -0.4327579
176 0.04005902 0.172257 0.22500713 -0.07902497 -0.13644397 -0.48074675 -0.18652758 0.044834413 0.007710825 0.034851216 -0.2023216 0.49450827 0.019684246 -0.05425872 0.14786133 0.28413567 0.31734353 -0.36606836 -0.3527661 0.47496566 0.079012096 -0.03145464 0.64578444 -0.4748911 0.324855 -0.08446559 -0.08933786 -0.43151066 0.31589282 -0.30489388 -0.35963294 -0.01638531 -0.49457037 -0.50577635 0.42343986 -0.49319622 -0.18212466 -0.04501943 -0.2876275 0.27982786 0.41390324 0.023648083 -0.014783371 0.060827844 -0.09392827 -0.43083626 -0.17524943 0.3517501 -0.047468156 -0.43003827 0.016563127 -0.3549385 -0.15798283 -0.8682725 0.69697917 -1.0039471 -0.734607 -2.0365453 -1.0814707 0.08648657 -0.72513896 1.2930278 -0.23877645 -0.6809233
199 0.22522955 -0.3275219 0.4097227 0.40524417 0.8599029 0.5317168 -0.12423018 0.053057015 -0.5105457 0.36626378 -0.18972783 -0.3143616 0.01995634 -0.4857725 0.39653322 -0.5323552 0.15390012 0.26899523 -0.21033067 -0.33215874 -0.14772078 0.42202926 0.29204133 -0.63409126 0.6422173 -0.010321997 -0.31236267 -0.4469119 0.6799148 0.17819844 0.46779126 -0.16663298 0.45634946 -0.6156208 -0.51879954 0.030382292 0.13520359 -0.08285729 -0.14473143 -0.18267779 0.42781174 -0.25653455 -0.07345322 0.22536063 0.21763855 -0.32595953 -0.120107606 -0.2666057 0.029452682 -0.31639752 -0.17294884 -0.5566443 -0.35039422 0.28815034 0.3191304 -0.819132 -0.38664034 -1.1945575 -1.4420954 0.69728255 -0.80795926 1.1069506 -0.87387913 -0.75556433
213 0.13056114 -0.13557051 0.2520427 0.3008781 0.6259863 0.43286246 0.03721857 -0.6381704 0.5583573 0.3959013 -0.039000586 0.036066804 0.031191312 0.06420364 -0.7155062 -0.02651652 -0.34871012 -0.084472425 -0.4842277 0.022216925 -0.17287724 0.0068554576 0.46545175 0.25043643 -0.5292695 -0.636716 0.6030065 0.21847908 -0.0272151 0.045788076 -0.06896018 -0.10770429 -0.29160634 -0.18541706 -0.79715645 -0.1856349 -0.16070274 0.002555875 0.08201767 0.19099627 0.104404785 0.37669167 0.11621735 -0.2947285 0.030452652 -0.028242031 0.23910072 0.11635989 -0.58079153 0.014842355 -0.01384375 -0.31866297 -0.037600573 -0.3055762 0.25882503 -0.9584743 -0.3474493 -1.3637663 -1.2878262 0.8936891 -1.0745605 1.2795876 -0.55373895 -0.4167215
251 -0.17318206 0.13980862 0.64961606 -0.5270214 0.6235198 -0.27994928 0.4804743 -0.51995945 -0.9967999 -0.6270938 0.49312553 -0.6009848 -0.9326945 0.4182761 -0.20704487 0.09067949 -0.38921294 0.1341733 -0.54136294 0.27089655 -1.1579982 0.29118896 -0.043174382 -0.34102133 0.18648762 -0.37193292 0.11447909 0.28709367 -0.4935122 -0.029758409 0.37295324 -0.19812478 -1.253862 -0.81909436 -0.9626365 1.3756694 -0.91875124 0.5673836 -1.6873454 -1.0549074 0.5521948 1.3477471 0.51495713 0.39572388 1.2785168 -0.15173566 -0.3695884 -0.46611798 -0.06870537 -0.7272473 0.7184914 -0.5564352 0.13746078 0.7640659 0.59302664 -0.8979574 -0.6812531 -2.393177 -2.6522346 0.28869936 -1.0723536 1.6499766 -1.199291 -0.0123066185
190 0.09918913 -0.2144315 0.06136024 0.16889831 0.2312652 0.021937817 0.4500344 0.19326109 0.3809317 0.18369809 0.38899967 0.11535329 0.43297902 0.06303304 0.009506276 -0.24352439 0.28466356 -0.5784738 -0.5673796 0.15299384 -0.23281635 -0.029651599 -0.024843281 -0.66397774 -0.07244452 0.21862336 0.18021616 -0.30999812 0.13799384 0.4842728 -0.12085598 0.1777083 -0.98345816 0.17049314 0.020722596 0.9160611 -0.31494588 -0.12066963 -0.26826188 -0.93615294 0.25818264 0.28114823 -0.01598688 0.0779149 0.6357733 -0.7723828 -0.15392514 -0.4021819 -0.5595657 -0.39723545 -0.52930945 -0.1609582 -0.07692753 0.10196789 -0.013036535 -0.99053997 -0.10808832 -1.1456621 -1.1448095 0.32989186 -0.8306876 1.0961087 -0.5782321 -0.737115
48 0.16709681 0.3244532 0.31845948 -0.50704575 -0.5606812 0.1353803 -0.24242201 0.097743616 0.55721873 0.3750715 -0.107563205 -0.44544718 -0.44266033 0.039423857 0.45239782 -0.7085823 -0.039274488 -0.33875027 -0.20381074 -0.3925255 0.26891324 0.003330868 -0.043720305 -0.010161222 0.05274171 -0.5133159 0.031601194 -0.8345943 0.20197849 0.41186354 -0.42392346 0.19130768 -0.028911611 0.4790762 -0.3545223 0.022598105 -0.55230206 0.52942276 -0.082335934 0.27997783 0.062238082 0.44920638 0.48171875 -0.27196628 0.6423348 -0.118627705 -0.3540418 -0.35454166 0.115160815 0.23540644 0.3603454 -0.56479484 -0.0047162334 0.20782977 0.4211858 -1.1933577 -0.3325787 -1.3435522 -1.5152243 0.22632211 -0.8237735 1.221367 -0.54977316 -0.50312907
254 -0.4476497 0.17107092 -0.2785503 -0.2703986 0.3199079 -0.24795578 0.3397771 -0.014995237 0.45863932 -0.53409326 -0.27828866 -0.07067167 0.49481338 0.4365627 0.10302818 -0.29023102 0.44971758 -0.06828446 -0.68966025 0.21826766 -0.3457041 -0.17046545 -0.26928446 -0.2701826 0.028835276 -0.09161165 -0.022880113 -0.49431908 0.6146793 0.45933512 0.252968 0.25885224 -0.60873365 -0.30157396 -0.3363543 0.040277146 0.05250604 -0.14215285 0.3680304 -0.42945376 -0.21747644 -0.23736885 0.5458512 0.3234107 0.9291076 -0.32631966 0.13062038 -0.011182214 -0.2798681 0.33877352 -0.45718986 0.09600772 0.14746144 -0.22091438 0.09861167 -0.79783523 0.18967028 -1.2857139 -1.5184479 0.43710497 -0.8901864 1.1712117 -0.62819135 -0.8481392
259 -0.52437246 0.23876022 0.8388113 -0.17629139 0.6534077 -0.17982012 -0.33531335 -0.09137474 -0.10292949 0.25210914 0.21597193 -0.47156006 0.3602708 -0.0982828 -0.13645318 0.10672873 0.0067318706 -0.5207174 0.5299407 0.3540596 -0.09609449 0.31716362 -0.12770881 -0.21932223 0.4317531 0.22455242 0.3774899 0.13459885 -0.06461753 0.16951427 -0.16052973 0.34553814 -0.34304404 0.3351531 -0.29622027 0.50693905 0.26835945 0.41903448 -0.13984257 0.4606246 0.014409073 -0.60339975 0.32924742 -0.56556183 0.4198939 0.22702555 -0.29705268 0.12745482 -0.20144932 -0.2756334 -0.6951661 0.2349119 -0.13340008 0.02624913 0.7306925 -1.1559243 -0.252724 -1.3480836 -1.3671895 0.46068567 -0.5785856 1.3116627 -0.65030116 -0.6876054
141 -0.22094074 -0.14252292 -0.22013447 -0.035367362 0.29488507 -0.078761525 0.7788557 0.049720664 0.36906344 -0.32445136 0.09262509 0.15516436 0.7736606 0.27473706 0.17498828 -0.15761255 0.19388594 -0.102661505 -0.65948594 0.26562536 -0.26891336 -0.13508399 -0.36432502 -0.4904905 -0.28994092 0.33676368 0.03165275 -0.5254379 0.60531825 0.46555784 0.27135965 0.20146461 -0.7937876 0.22181383 -0.3538395 0.2970729 -0.07700633 0.009923105 -0.1551725 -0.48392826 -0.060474515 -0.12970638 0.21039407 0.3158646 0.54772353 -0.2823469 -0.028906876 0.022533372 -0.22594057 0.15277225 -0.35468867 0.10996397 -0.07649294 -0.0059937877 -0.08799478 -1.09913 0.029458074 -1.3531349 -1.1903385 0.12858957 -1.3276168 1.2501441 -0.49768853 -0.57358855
202 -0.4285497 -0.0039014043 0.29392353 0.053130522 0.58611375 0.2807476 0.067538284 -0.21967237 0.064455606 0.21495396 -0.27433044 0.01040215 0.2135584 -0.70625705 0.7316202 0.076381154 -0.3368494 -0.1528566 -0.42900053 -0.06810325 -0.10466437 0.28647223 0.049250573 -0.2953215 -0.43117008 -0.19914937 -0.1396112 -0.16917482 -0.19445956 -0.15409824 -0.66197145 0.10674432 -0.30129004 -0.12487185 -0.22125341 0.09051299 0.19740352 0.48624536 0.007868363 0.37324947 0.21343476 0.4841775 0.76819336 0.011265842 0.72891146 -0.1382612 0.21824363 -0.31200123 0.20237228 -0.9425055 -0.45924073 -0.009577698 -0.3308876 -0.80169064 -0.2946235 -0.40586606 -0.09577593 -0.9640903 -1.9053726 -0.111877106 -1.1334634 0.9611021 -0.31706816 -0.6430839
245 0.14526084 0.42950252 0.3460183 -0.57352877 -0.4844727 0.114717014 -0.20682447 0.19615193 0.46235844 0.48785266 -0.062313706 -0.41001052 -0.621142 0.0041858633 0.47803476 -0.79102135 -0.100241505 -0.29070628 -0.42620787 -0.19274245 0.106902696 -0.0070863506 0.17627987 0.11653504 0.059013184 -0.54944915 0.19756676 -0.9358129 0.27970412 0.42974353 -0.34244445 0.110633455 -0.019679442 0.27953166 -0.07925512 0.23560946 -0.26279166 0.5587167 -0.09240719 0.43568677 0.08846855 0.47743216 0.44337282 -0.38590065 0.8246799 -0.23423153 -0.1893533 -0.31749237 0.0057543246 0.19968767 0.10928301 -0.64033234 -0.1746052 0.044979922 0.42973527 -1.465999 -0.19952975 -1.1390733 -1.486454 0.42447966 -0.56742364 1.0539262 -0.7367458 -0.646423
19 -0.13418487 0.64895725 -1.1140254 0.4293352 0.11553153 -0.17736585 -0.14141989 -0.09474195 -0.12323289 0.47282678 0.12968735 -0.46474627 0.07292342 -0.37341654 0.5079608 0.040494062 -0.48358378 0.030086275 0.009663585 0.072401136 -0.5031426 0.28628823 -0.51155895 0.15247118 0.015752826 -0.3652093 -0.14152496 -0.22725974 -0.5349535 0.37984663 -0.14937353 0.23642538 -0.09230706 -0.64752984 -0.016064864 0.27295268 -0.3716248 0.028216127 -0.11236726 -0.19178273 0.15004607 0.34647468 -0.21240908 -0.14768933 0.09587833 -0.030560251 0.10886044 -0.3537134 -0.63043517 -0.23434599 0.10382613 0.3469858 -0.05670195 -0.13671756 0.9983067 -0.8094314 -0.07257731 -1.4208865 -1.1335658 0.19881344 -0.6639035 1.07961 -0.79142016 -0.5280182
296 0.15858343 0.025146201 0.23716158 -0.030980656 0.1750081 -0.4923732 0.34822235 0.034736633 0.54342896 0.45919406 0.2906917 0.5905016 0.34389055 -0.39408252 -0.23618568 0.112227865 0.1850829 0.8790076 0.0018492845 0.58074385 -0.09588415 0.6755404 0.017245265 0.10757417 0.55841297 -0.4987873 -0.73822266 -0.077746786 0.07894565 0.37983137 -0.38397482 -0.20607845 -0.40632814 0.516139 -0.31190744 0.061943352 -0.14331412 -0.13336246 -0.14895026 0.45800874 0.84905684 0.09663557 0.027983228 -0.42736527 0.48148832 -0.37619624 -0.00012970022 -0.1833058 0.06306127 0.19514154 0.1856656 0.22257519 -0.2723295 -0.1416245 0.033379346 -0.7195688 -0.13281134 -0.7494012 -1.9427365 0.4618556 -0.70667315 1.3752445 -0.63636696 -0.7910149
291 0.19704552 0.5478986 0.01268698 -0.20724367 0.28090948 0.24883844 0.14594452 0.1264163 -0.84649235 0.5525851 -0.50483996 0.8351567 0.24650697 0.40985554 0.19061042 -0.014426756 -0.22199365 -0.26951802 -0.56302077 -0.17736307 0.00013349991 0.46048677 0.38803312 -0.14122772 0.6841487 -0.41335526 0.36803728 0.22569963 -0.6464528 0.009861924 -0.27247378 0.21580945 -0.3637749 0.4621071 -0.158242 -0.058775954 -0.09966836 0.073600456 0.3393675 -0.38318884 0.045656532 -0.20304348 0.24325998 0.1320469 0.38554937 0.2014163 0.15965079 -0.36452478 -0.12469564 0.21518405 -0.29743177 -0.17428988 -0.6780202 -0.10613608 0.107810706 -1.1164445 -0.017319513 -1.2247498 -1.4637909 0.15672149 -0.63827807 0.9238407 -0.8528316 -0.94544727
53 -0.9095842 1.1777992 0.5550051 0.14770417 -0.18712962 0.2031246 0.005142477 -0.3139614 -0.08761748 -0.2612513 0.120688744 0.17187528 0.49786678 0.15773734 -0.2841197 -0.5233909 0.30418366 -0.24783249 -0.5769223 -0.118850805 -0.3579985 0.030816223 0.09572305 0.41830623 0.29300383 -0.16666056 -0.2719311 0.32497495 0.1309148 0.24782604 -0.17238988 -0.28885776 0.26834154 -0.12985618 0.23499899 0.52325404 0.05568728 0.20713829 -0.36824244 -0.548688 0.4716391 0.14792109 -0.048553117 -0.2015967 0.104011886 -0.30785814 0.056078527 -0.24299622 0.28119373 -0.19312525 0.28252202 -0.18638895 -0.28995836 0.1403894 0.322073 -0.9471875 -0.5537346 -1.2175198 -1.4881872 0.82111835 -1.0862037 1.2432555 -0.2899353 -0.2551743
15 -0.1087426 0.13307868 0.21303526 0.15195471 0.14815529 -0.21415712 0.3577737 -0.5608446 0.45953017 0.37859285 -0.30647922 -0.15877467 0.12109544 0.42271623 0.7041873 0.02346051 -0.5916782 -0.40697962 -0.00054846186 0.4754098 -0.11712114 -0.12658899 0.58879805 -0.12038097 0.058891848 -0.40912056 0.0466595 -0.037730448 -0.07888932 0.1668332 -0.14566597 -0.16381623 0.6097637 -0.39074463 -0.34796613 -0.124287404 -0.10798297 0.3569279 -0.447738 -0.6345672 0.6404225 -0.6082453 -0.08913705 -0.7089284 0.51712865 -0.6758882 -0.61863226 -0.6110738 0.008584263 0.18796752 -0.3053969 0.49334016 -0.041603364 -0.42154106 -0.22842203 -1.0395583 -0.27581772 -1.1509916 -1.2946401 0.22794749 -0.8526003 0.90984946 -0.5313846 -0.91808647
207 -0.166665 0.15346518 0.6506495 -0.53504646 0.6265372 -0.26784056 0.48050123 -0.49914297 -0.9961923 -0.5978434 0.5097904 -0.6200804 -0.94211745 0.4096025 -0.19015847 0.08664352 -0.3802001 0.14370391 -0.5696639 0.27184922 -1.157146 0.2638634 -0.02869313 -0.32937384 0.19585368 -0.37813404 0.114363536 0.29311028 -0.5364038 -0.03666128 0.37309656 -0.20417252 -1.2395529 -0.8210235 -0.9646072 1.3907697 -0.9373421 0.5519868 -1.6758503 -1.055833 0.5387914 1.3457172 0.5189608 0.40536767 1.2879186 -0.16354059 -0.362348 -0.46402037 -0.062155586 -0.7171496 0.7210685 -0.55552137 0.15176708 0.7418928 0.58635575 -0.8866691 -0.68599707 -2.3906827 -2.6478574 0.27819642 -1.0713288 1.6516515 -1.2324674 0.004950663
267 -0.084447406 -0.22972198 -0.06820422 0.05960819 -0.22922099 0.5649222 -0.13712566 0.11262292 -0.002421067 0.4617164 -0.42227527 -0.016592365 -0.36128408 -0.03479983 0.044625 -0.12020084 0.4063466 -0.17165339 -0.36883977 0.71389055 0.1046794 -0.18801078 -0.40130168 -0.39174253 -0.35926926 -0.2785546 -0.24148253 0.07916638 -0.58312494 0.5790368 -0.24905191 -0.13114722 -0.3573874 -0.2490813 0.07999756 0.010518105 0.49800986 0.30184978 -0.01607498 -0.32003748 -0.12217967 -0.5280246 0.053097382 -0.24569556 0.08936764 -0.013767219 -0.37970367 0.56609523 0.046924103 -0.29953137 0.22726905 -0.23628992 -0.46413764 -0.0026864032 -0.28065065 -0.8129583 -0.42427826 -0.8370155 -1.9414449 0.5223939 -0.4946277 1.666538 -0.82675034 -0.58394384
64 -0.12876986 -0.43927798 -0.11813258 0.42916363 -0.34820598 0.09719607 -0.19596498 0.08475943 -0.20388825 0.072131574 -0.49302968 -0.08519763 -0.11969086 0.022934394 0.13930221 0.296275 0.28808486 -0.35877505 -0.38757044 0.7110884 0.2724087 -0.08372342 -0.1985755 -0.19402532 -0.32493836 -0.67706627 -0.11309324 -0.09600305 -0.14550002 0.75606966 -0.3341487 -0.032311574 -0.0644681 -0.06131887 0.20920633 -0.1907099 0.29070666 0.55147743 -0.11453905 -0.5324281 0.2681279 -0.2743623 0.17072114 -0.21955487 0.085555054 0.3439374 -0.43427262 0.33869657 -0.16813049 -0.6889826 -0.05178445 -0.21414666 -0.4024837 0.42001146 -0.25699672 -0.8319341 -0.07247094 -0.8693307 -1.757939 1.060805 -0.5723552 1.6830099 -0.6136395 -0.75384426
139 0.13140772 0.022695413 0.19230291 -0.34701806 0.39955103 -0.45456442 0.25130635 0.64513564 0.2032994 0.23247704 0.1138483 -0.06203557 0.07785848 -0.43248406 -0.17206569 -0.34564835 -0.1782459 -0.06921716 -0.21849431 -0.28844213 -0.4425132 -0.7548276 -0.15978515 0.028021652 0.31645992 -0.7087764 0.81204075 -0.15189399 -0.0069171907 -0.19944745 -0.047248434 0.69864714 -0.095560364 -0.4506817 -0.16039269 0.08737766 -0.20096679 0.13977373 0.033565093 -0.30617562 0.70346725 -0.06306613 -0.10222711 -0.50726724 0.46286076 0.025484856 0.38312232 -0.05024633 0.6737271 -0.30065525 -0.2339857 0.48102647 -0.722474 0.39618903 -0.5318628 -0.5625659 -0.5202451 -1.5110826 -1.7435551 0.27038518 -0.661414 1.5001743 -0.7488782 -0.0044691227
128 0.15864617 -0.23436975 0.17834535 0.114760354 0.20594941 0.44744015 0.1965525 -0.87814784 0.27985087 0.19674435 -0.18679091 -0.0009162765 -0.046803664 -0.13635394 -0.8692369 -0.18586987 -0.59723 0.034854833 -0.25497228 -0.14223649 -0.0011416572 0.07998814 0.38573915 -0.18547538 -0.41987628 -0.7846019 0.032980513 0.117361665 -0.28221688 -0.3521513 0.36749005 -0.10172166 -0.7671705 -0.36679724 -0.18243833 0.20617016 -0.36498177 0.25493255 0.012216674 -0.076657884 0.65918326 -0.039610416 0.19658111 -0.14053564 0.6059681 0.3279165 -0.04999199 -0.08946702 -0.31881496 0.12571222 -0.30212817 -0.32469442 0.18042254 -0.22342089 0.43184844 -1.0483804 -0.28546658 -1.4954214 -1.4241791 1.0879934 -0.7876841 1.1088752 -0.31659538 -0.33781353
288 -0.14921464 -0.16414382 0.012962269 -0.0027913416 -0.09881827 0.70184976 -0.0144924745 0.3844774 0.15759902 0.45454147 -0.43266293 -0.07569765 -0.38331297 -0.007982479 -0.20412198 -0.12279512 0.35494754 -0.27881595 -0.44367817 0.5500543 -0.037324052 0.0498482 -0.38004994 -0.39074206 -0.19599536 -0.15535046 -0.5093125 0.16230264 -0.5869484 0.50883377 -0.19903103 0.00780686 -0.33682713 -0.4319477 0.10795573 0.01046605 0.06706927 0.46583027 0.067101024 -0.48049653 -0.27883974 -0.38096178 0.17133228 -0.355866 0.018615758 -0.078635 -0.37739602 0.5190557 0.034361586 -0.23936127 0.15869838 -0.03696291 -0.45642135 -0.19547239 -0.1205935 -1.0459839 -0.51378024 -0.7532313 -1.8731602 0.34898102 -0.32721046 1.7219125 -0.8323199 -0.39580277
65 -0.7658118 -0.12331557 -0.14063181 0.76112956 0.18619528 -0.1938519 -0.50863117 0.31519496 0.058450922 0.39369512 -0.29227507 -0.12282928 -0.16607012 -0.35186505 -0.44524747 -0.20360637 0.1631932 -0.283026 -0.17969769 0.39393836 -0.14610231 0.1054909 -0.47676334 -0.040755335 0.20284101 -0.6157354 0.16448416 0.23388809 -0.2535003 0.15866998 -0.24561818 0.19216876 0.10540481 -0.1325175 -0.36990884 0.006926644 -0.6728585 0.010270145 -0.21066596 -0.2511747 0.49348217 0.17767821 0.1543684 0.048603747 0.70990634 -0.31237784 -0.018963967 0.14517222 0.41371027 0.35829157 -0.50174004 -0.5574203 -0.3723075 -0.30291492 0.35844207 -1.2101781 0.047151778 -0.8898955 -0.96804637 -0.3396697 -1.091205 0.6337568 -0.20661291 -0.719223
287 -0.24741021 -0.430997 -0.12124606 0.2676087 -0.32957706 0.27243766 -0.19412868 0.014244474 -0.18841729 0.31399095 -0.48216188 -0.0035562296 -0.23873861 0.051801015 0.19077425 0.1418027 0.37107933 -0.21039452 -0.39062008 0.7626787 0.19771509 -0.1772293 -0.2404501 -0.31533232 -0.37907538 -0.47120738 -0.14327991 0.039036226 -0.2702499 0.67578244 -0.2748298 -0.18605354 -0.19769792 -0.04068514 0.17690066 -0.10123252 0.39428195 0.37981254 -0.1810578 -0.33191624 0.050701357 -0.42594725 0.02902676 -0.29592383 0.08897941 0.31427026 -0.35172406 0.41333503 -0.0024042937 -0.48543656 0.11846064 -0.25272387 -0.32628426 0.3222387 -0.43615204 -0.7682702 -0.3593799 -0.92051697 -1.808614 0.8410869 -0.54749566 1.7470179 -0.70915544 -0.70078814
262 0.34425193 -0.096011005 0.05564485 -0.090527184 0.12226514 -0.14565083 -0.40031165 -0.09152191 -0.06446835 0.34956068 -0.40425137 0.5406261 0.20505856 0.14070569 -0.1288627 -0.19350377 -0.2407511 -0.3961783 0.5697015 0.15498595 -0.26832637 0.074751064 0.38774645 -0.13257383 -0.5766001 -0.55554235 -0.5862785 0.32554924 0.7727913 0.3003721 -0.3485531 0.82644033 -0.009286236 -0.21086133 -0.103018716 0.6324564 0.39872223 0.5873562 -0.27765203 -0.27434918 -0.020616371 -0.00485726 -0.02669052 0.12167144 0.3825213 -0.28858924 0.805732 -0.29250863 0.3362267 0.21354812 -0.11497857 -0.16053174 -0.16645874 -0.15305063 0.46274257 -0.93379974 -0.40322146 -0.9945385 -1.4542502 0.0406765 -0.9531117 1.4933321 -0.7450322 -0.6346458
294 0.06067048 0.5340866 0.19375262 -0.27750012 0.32272336 0.10690227 0.17750497 -0.103577405 -0.6991105 0.49333408 -0.28962126 0.7111297 0.10160317 0.24859206 0.2988496 0.18828596 -0.105283365 -0.31133822 -0.4190633 -0.046378862 0.021525148 0.42933896 0.4950176 -0.046234563 0.7050797 -0.3458336 0.4477909 0.3484754 -0.63698196 0.2661877 -0.10934394 0.051795755 -0.47561553 0.4301844 -0.12864071 -0.30240607 -0.12682249 0.16943061 0.32626867 -0.557626 -0.025432594 -0.046381876 0.24138626 0.13266014 0.3705467 0.24319248 0.24083987 -0.5690414 0.068961255 0.22425628 -0.21526766 -0.3300177 -0.61841244 0.21980536 0.15850201 -0.96923757 -0.01272005 -1.3657026 -1.404212 0.14411806 -0.59528655 0.98534584 -0.8013009 -1.1046696
103 -0.34508112 0.41269106 0.5795905 0.084156014 0.5886067 -0.28256768 -0.38026807 0.099709146 -0.2730043 0.26993033 0.04405406 -0.5352263 0.5617543 -0.072082005 -0.2989406 -0.008864169 0.05054019 -0.5256446 0.49660307 0.11816684 -0.0066746115 0.38657126 -0.0067534917 -0.20970401 0.40432572 0.22371839 0.43238032 0.19797212 0.09059524 -0.13262132 -0.17901894 0.26359075 -0.24683972 0.44036835 -0.27761588 0.62590766 0.1740382 0.5236901 -0.23433127 0.56265223 0.02580096 -0.62981635 0.4622503 -0.42540705 0.38570368 0.28791443 -0.44002005 0.14447531 -0.47124967 -0.1373206 -0.4982948 0.35129508 -0.10610297 -0.166061 0.2199017 -1.260087 -0.32439163 -1.320524 -1.4794202 0.36731133 -0.5183613 1.4258019 -0.65804267 -0.7218798
178 0.11571724 0.35431856 0.41764322 0.0021124126 0.07256491 -0.31437233 -0.2483659 0.17923369 -0.33742166 0.38807344 0.4777568 0.21637766 0.16216415 0.23699853 0.21677703 0.18759786 -0.036047954 -0.3395697 -0.43023524 0.36619896 0.20935954 -0.2728457 0.14601988 -0.18804786 0.37209108 -0.51893854 -0.25135666 -0.20563653 0.3091822 -0.37465042 -0.20447783 0.50128984 -0.7795972 -0.7130058 0.27338856 -0.7726538 -0.32486677 0.13804813 -0.6120341 0.26090083 0.21115242 -0.06396336 0.034860127 0.0732376 0.11063024 -0.84709764 -0.091579705 0.29071268 0.012100373 -0.33478895 -0.3028036 -0.3502007 -0.19147007 -0.45624363 0.1793276 -0.87338096 -0.35780284 -1.762696 -1.4193887 0.35788372 -0.60901237 1.2068217 -0.28098136 -0.30546057
210 0.32931843 -0.30319646 0.02141906 0.14659114 0.006637433 -0.12601976 -0.30332878 -0.05347665 0.048566815 0.41289273 -0.33516386 0.552297 0.43988588 0.22976887 -0.06788971 -0.05153006 -0.011209742 -0.31417492 0.55382 -0.028526993 -0.3456547 0.0394443 0.301011 -0.28076518 -0.30246377 -0.31826112 -0.56567484 0.20517784 0.46019593 -0.05467115 -0.4799299 0.9575703 0.0027891153 -0.30057037 -0.09797246 0.40879053 0.4218428 0.57292265 -0.3249142 -0.36886188 -0.111204065 0.18263379 -0.007351956 -0.15017375 0.4450091 -0.19646148 0.8746168 -0.35779318 0.41747805 0.039728045 -0.23287083 -0.15139234 -0.02769158 -0.1455401 0.44426292 -1.3009517 -0.35149428 -0.77728003 -1.3819005 0.45445034 -0.99475515 1.4516798 -0.64088005 -0.70376164
184 -0.42505333 0.14382035 -0.16048276 -0.379841 0.2359404 -0.28823602 0.3373103 -0.07731271 0.12535667 -0.36351538 -0.2586601 -0.20950717 0.25621554 0.44692743 0.1429423 -0.10146323 0.38009214 0.4905836 -0.75199056 0.1121335 -0.001840153 -0.08627253 -0.057930987 -0.13395339 0.023573 -0.15580659 0.0017496316 -0.2773531 0.73755276 0.17033574 0.28599057 0.30986285 -0.06926587 -0.41167212 -0.20253447 -0.1864108 -0.14240178 -0.27991286 0.122074015 -0.32559294 -0.33711982 -0.59394675 1.0986016 -0.18419306 0.52877706 0.15233131 0.54487574 0.10208081 0.015111795 0.2959351 -0.31358597 0.35881627 0.2547945 -0.4182553 0.42137244 -0.81508374 0.29055867 -1.0103667 -1.7875068 0.40028295 -1.081875 1.4264239 -0.34340802 -0.8568426
18 -0.023631532 0.1773331 0.22827935 0.26455423 0.48962763 0.7379152 -0.61959696 0.42797193 0.04004548 -0.41745043 -0.24707589 0.6459483 0.120196514 -0.53430367 -0.08924023 -0.322633 -0.35926878 -0.13110094 -0.009759611 0.13050674 0.42121196 -0.29386386 -0.31210303 0.11677086 0.15727115 -0.88444924 0.1564077 -0.73203087 -0.055155028 0.1879947 0.12106307 -0.7501667 -0.3480789 0.13350107 0.2499063 0.033566207 -0.07470194 0.2147962 -0.4379412 -0.057301644 -0.25121108 -0.28988704 0.11972235 -0.66024476 0.3203642 -0.77440196 0.5261291 -0.7721889 0.009669264 -0.033466995 -0.6475957 0.5021755 -0.05789392 -0.2945366 0.29561576 -0.9949444 -0.25828877 -1.1844933 -1.0629472 0.35505953 -0.8646013 1.9986593 -0.4685959 -0.95659935
151 0.6796371 0.6852596 -0.5570606 0.3261792 -0.18328664 0.018243367 0.26465747 0.2348885 -0.6170576 0.3920785 -0.6815674 0.50316757 0.35008794 0.06722017 -0.008480113 -0.32156548 -0.18286453 -0.046616767 -0.8034224 -0.33955464 0.1573621 0.28329986 0.52303284 -0.02624878 0.40780866 -0.57083863 0.14859712 0.09188074 -0.110624425 -0.2616747 -0.17820382 -0.13220653 -0.10423187 0.040021807 -0.10620327 -0.122249775 -0.61080354 0.14034678 0.19385289 -0.6834818 0.13907379 0.2813508 0.27194315 0.47246534 0.29012305 -0.09688344 0.10047144 -0.40446922 -0.28610694 0.3067487 0.25972244 -0.2580591 -0.47708294 -0.3960702 -0.7764471 -1.0165993 -0.3499096 -0.88630867 -1.6697288 0.09170927 -0.810478 1.3775338 -0.48725784 -1.0345145
7 0.17972718 0.056910865 -0.05165437 0.16293354 0.66345334 0.5847894 -0.16861999 -0.090604 -0.06187825 -0.18104053 0.24951099 -0.27920794 -0.3215043 -0.0020604618 -0.36074182 -0.0750657 0.13470122 0.095246404 -0.4800631 0.4380585 0.23573232 -0.19269738 0.25107774 0.052101526 0.11426587 0.7553959 0.22434554 0.23786077 0.3517177 -0.03044531 -1.4241406 0.3473481 -0.17823513 -0.19607691 0.16856308 -0.48274758 -0.33680615 0.13017558 -0.10954112 -0.28507325 0.35847756 -0.01158833 -0.58973306 0.19810301 0.99419457 0.27958834 -0.42415905 -0.61978513 0.2566293 0.09941355 -0.03006535 0.49574122 -0.16326873 -0.030567609 0.51841074 -0.95893186 -0.13473801 -1.2213697 -2.1263282 0.5197222 -1.0438446 0.87949395 -0.61638606 -0.5430112
179 0.083838716 -0.12334588 0.2990044 0.26577827 0.52954125 0.38610902 -0.0021997446 -0.78725004 0.5163705 0.32311207 -0.114627816 0.19299987 -0.00054929376 -0.099846765 -0.68524003 0.028052604 -0.4028165 0.049390245 -0.30677328 -0.054171458 -0.08982424 -0.0012175174 0.46914196 0.14396262 -0.48568156 -0.7365952 0.566846 0.06799054 -0.17494188 -0.03239198 0.1329122 -0.018927291 -0.48822263 -0.3203462 -0.70213956 -0.039158598 -0.19030745 0.004941469 -0.02459846 0.029023984 0.23683423 0.28512952 0.07802276 -0.15092838 0.3384938 0.19708051 0.029839393 0.05647632 -0.57180935 0.05715985 -0.02051748 -0.45336562 0.17649785 -0.30433118 0.27504253 -0.98979396 -0.3000937 -1.3377634 -1.386206 0.91834474 -1.0006208 1.329265 -0.4412025 -0.27548984
23 -0.1364337 0.20300904 0.6491645 -0.5610625 0.6522168 -0.27351362 0.4635728 -0.43892506 -1.0171542 -0.5962068 0.53958315 -0.6655626 -0.93161684 0.4759231 -0.23717466 0.081917785 -0.39270929 0.13538752 -0.5561366 0.23227432 -1.2376024 0.24634318 -0.038007792 -0.25303972 0.19100781 -0.36864716 0.16930486 0.3434336 -0.55792093 -0.046959262 0.38100323 -0.18773432 -1.2715455 -0.84707433 -0.97775006 1.4526929 -0.9197349 0.62623376 -1.717265 -1.1068565 0.5253088 1.4450306 0.5086702 0.41780564 1.315536 -0.17577736 -0.28275052 -0.42159548 -0.017418578 -0.7318208 0.7171224 -0.6273529 0.15300256 0.7501261 0.6245859 -0.8937491 -0.69480073 -2.4317973 -2.6476266 0.25138947 -1.0591965 1.6874287 -1.2533963 0.05546036
194 0.3664312 -0.13752167 0.18180944 0.26878068 0.28306466 0.10643911 0.03802107 0.056380905 0.2653612 0.60365003 0.41746658 0.35370776 0.26196864 0.011101528 0.18974589 -0.20709632 -0.16156384 -0.37058866 -0.33249468 0.22523923 -0.14118384 -0.072354354 -0.023395393 -0.52451265 -0.24193552 0.2614127 0.41715094 -0.14031619 0.15145302 0.43230292 -0.38117313 -0.11902036 -0.4467806 0.55372244 0.1395223 1.005474 -0.41473842 -0.5150514 -0.5947189 -0.90938604 0.4379588 0.30702433 0.30220658 0.05141038 0.30866766 -0.6632147 -0.18422884 -0.049875703 -0.32784897 -0.4507105 -0.43364826 -0.22469372 -0.023157163 0.10955343 0.10432313 -0.9373239 -0.33915538 -1.220751 -1.4742681 0.0040808744 -0.7849374 1.1729996 -0.5866746 -0.31910744
239 -0.14766365 0.20413342 0.66470593 -0.60665613 0.67271817 -0.28642935 0.49628645 -0.44954237 -1.0604064 -0.57062167 0.5118605 -0.6917616 -0.93796664 0.46165577 -0.24573496 0.051387414 -0.38755766 0.12286838 -0.60606945 0.2638782 -1.2386103 0.24709955 -0.010697026 -0.23318152 0.19153796 -0.33417162 0.16221812 0.37034038 -0.5601867 -0.08102561 0.34854728 -0.20300163 -1.3282043 -0.872293 -0.9973483 1.4862721 -0.9333439 0.64593863 -1.7120323 -1.087962 0.5226498 1.3987371 0.5144463 0.5001823 1.3291763 -0.1500726 -0.27455154 -0.46576062 -0.052963838 -0.7442195 0.76071054 -0.60613406 0.17180207 0.76334864 0.5912949 -0.9195612 -0.6910377 -2.4668734 -2.6585824 0.27627626 -1.07108 1.701103 -1.2952132 0.06593554
192 0.3106074 -0.07415509 0.12919848 0.23016609 0.34025636 0.031815287 0.229726 0.27755496 0.5220015 0.30973798 0.34694874 0.16112109 0.32285058 0.11311848 0.13207671 -0.19471574 0.1700821 -0.43605995 -0.46331146 0.055747356 -0.2521597 -0.13983996 0.06209072 -0.61938715 -0.15756007 0.24652092 0.3423863 -0.123098545 0.1273494 0.471307 -0.23361391 -0.03202578 -0.8397992 0.28592938 0.09651023 0.9870888 -0.219822 -0.35208312 -0.47689125 -0.882651 0.33597308 0.34431165 0.10899416 0.06655109 0.5963544 -0.7924529 -0.16520882 -0.24206488 -0.534083 -0.4863249 -0.53714764 -0.23033296 -0.20883986 0.03731763 0.08055833 -0.9972374 -0.10515216 -1.0909721 -1.3355036 0.18462129 -0.8001366 1.0817413 -0.59662026 -0.59326744
81 0.09355857 0.2366603 0.14679612 0.2718027 0.4413685 -0.17547582 0.21181649 -0.42092085 -0.40671125 0.42548013 0.16785368 0.6518788 0.019904034 -0.63164884 0.0553702 0.04979318 0.065487124 -0.021127326 -0.5486659 0.8142803 -0.4126991 0.104993775 0.4947635 0.49619722 -0.034903552 -0.017309884 0.14864862 -0.09080366 -0.093352355 0.2584146 0.54929096 -0.112850465 0.37587813 -0.7498287 0.6122538 0.7149346 -0.0036061085 0.23398787 0.33118787 0.18756053 0.13819887 0.25184396 0.1181832 0.03961125 0.5536742 -0.40731382 0.17188512 0.6272858 0.20133556 -0.10614785 -1.1900566 0.35629568 -0.25561327 -0.24980435 -0.15696968 -1.6544375 -0.00558539 -0.91652304 -1.2561466 0.5234452 -0.73222226 1.6332291 -0.71235937 -0.70001423
283 -0.268069 -0.110845536 0.102046624 0.016513672 0.073749274 0.6319602 0.12813243 0.5178484 0.37959266 0.49093664 -0.53164774 -0.105121955 -0.44281104 0.17147008 -0.09047717 0.038929027 0.1042183 -0.17258802 -0.45062187 0.26893544 -0.37431934 0.15639146 -0.2689153 -0.3942264 -0.22170494 0.051405556 -0.52844137 0.39334354 -0.43199432 0.48443812 -0.21372724 -0.19482923 -0.39925417 -0.5449874 0.16912308 -0.024274385 -0.2183772 0.5171419 -0.21920973 -0.36823934 -0.45765188 -0.2035521 0.15980306 -0.4756003 0.018290406 -0.025518842 -0.32621357 0.41377133 0.11949274 -0.14146194 0.06522239 0.12523575 -0.6203468 -0.14400893 -0.122402124 -1.182658 -0.5318521 -0.81794775 -1.7701294 0.27676076 -0.34116364 1.7366084 -0.5712992 -0.4284152
177 0.14163704 -0.26310563 0.2071117 0.28666314 0.6074714 0.4000685 0.16495314 -0.6618504 0.3641576 0.47119802 0.014261879 -0.036006816 0.084677674 0.16120943 -0.94149464 -0.19321544 -0.24474113 -0.17331176 -0.66936415 0.106670365 -0.19510473 0.066703856 0.41737744 0.37717223 -0.49005753 -0.55227125 0.58699036 0.09441055 0.025061512 0.00044910252 -0.23575048 0.016208401 -0.2884065 -0.23530419 -0.80069506 -0.20230842 -0.0050325203 0.045248028 0.21598503 0.19778267 0.062917896 0.3077207 0.27072173 -0.4840368 -0.1902451 -0.35099316 0.2228399 -0.05692201 -0.4907255 -0.11272903 -0.053601824 -0.3061711 -0.16099632 -0.20255391 0.3284256 -0.92489165 -0.45096463 -1.2835128 -1.2443181 0.82212746 -0.99541026 1.2060419 -0.615326 -0.68873817
108 0.25137332 -0.024908066 -0.13590273 0.58941257 -0.02557409 -0.30213937 -0.10471583 -0.07275456 0.20886669 -0.09434933 0.17630546 -0.091084294 -0.050491765 -0.20695107 0.16942471 -0.27170753 0.059406202 0.029632108 -0.593405 0.09673007 0.13738984 0.6093592 0.33388758 -0.13182887 0.107829675 -0.079563 0.27679354 0.19287355 -0.19720398 0.24993002 0.2256888 0.41290045 0.22122978 0.40360188 -0.10022682 0.06202506 0.19561003 0.35210118 -0.3335759 -0.23878382 -0.55358464 0.27942836 0.0008129479 -0.31243464 0.6738557 -0.33414796 -0.25281143 -0.17177422 0.3563584 0.4392522 -0.6340821 -0.018083287 -0.63667536 -0.5478222 0.4079094 0.050290763 -0.75701755 -1.283415 -1.367905 0.54381454 -0.62641823 1.510206 -0.054490585 -0.08780008
29 0.1661492 0.33454746 0.21814103 0.033075687 0.741216 0.4876401 0.54079854 -0.22280087 0.4829291 -0.042977437 0.21515238 -0.23131241 0.5202159 -0.12720877 0.61575615 -0.03966142 0.41795763 -0.36942235 -0.17886822 0.027281981 -0.19048335 0.93947697 -0.44950414 -0.6561629 -0.021353908 -1.0635898 0.3866853 0.33898705 0.37348503 -0.115795165 -0.78983593 0.3769507 0.008637841 -0.36788398 0.92250246 -0.022105247 -0.056436162 0.20224763 0.17900151 -0.22879787 0.65287507 -0.15660492 -0.009439698 -0.71475416 0.09328761 0.024562921 0.015003455 0.219867 -0.18454117 0.75110376 -0.4419895 -0.77935016 -0.15828577 0.05558021 0.23289697 -0.7238861 -0.45294222 -1.1491967 -1.6214148 0.106643654 -1.0125535 1.3442444 -0.55722463 -0.6868853
107 0.103275344 0.32464978 0.19905229 0.15609485 0.36568558 0.6726855 0.045718856 -0.5254669 -0.13595456 0.4994072 0.23013633 -0.80457586 0.53085464 0.072021246 0.08790095 -0.53078794 -0.8260048 0.22867368 -0.20859325 0.0071469327 -0.06822545 0.18349597 -0.76499856 0.21644714 0.12923595 -0.5057974 -0.20784153 0.5045121 -0.23836128 0.7272745 0.10084442 0.27341026 0.030548353 0.31427896 -0.8287182 0.5629351 -0.3018652 0.31994662 -0.21813741 -0.58550745 -0.33695114 0.111714855 0.37548575 -0.22638844 0.8736377 -0.23442866 0.09346179 -0.36841255 0.058505993 0.16522191 -0.7338584 -0.07488611 -0.20025286 0.43187097 -0.25940368 -0.94151014 0.0025720908 0.10899307 -2.0966337 0.8854649 -1.096381 1.2502247 -0.6896279 -0.8028225
138 -0.086967245 0.13865733 -0.03563697 0.27139816 -0.21250689 0.42935985 -0.19248654 -1.0403208 0.21285361 -0.11941997 -0.61969244 0.05310707 0.034797788 -0.015592821 0.14358719 -0.13627978 0.041955594 -0.009486682 -0.07036572 0.44170156 0.086631656 1.1055168 0.3094824 -0.38883507 0.028129073 0.39173388 -0.5565744 0.012063864 -0.012706938 0.779627 -0.35116783 -0.5562772 0.16523233 0.40459335 -0.23856373 0.6290302 -0.15706202 -0.017528623 0.18422289 -0.23379046 -0.26098627 0.13437541 0.48120776 -0.02625639 0.34548676 -0.042083435 -0.33057237 -0.107903324 -0.4895532 -0.14443937 -0.19871707 -0.5487027 -0.11126818 -0.86051697 0.8741712 -1.4747632 -0.37935004 -0.7274587 -1.2069547 0.4780004 -1.1687732 1.1541836 -0.16099045 -1.6085697
92 -0.20366569 0.11237029 0.63862526 -0.5403134 0.6122965 -0.23065475 0.45385578 -0.5156327 -1.0024246 -0.60899496 0.5140579 -0.6189738 -0.9775792 0.40433532 -0.16577278 0.06881594 -0.36340767 0.085615225 -0.54996717 0.28841573 -1.1230137 0.24539115 -0.030247275 -0.36534047 0.19658187 -0.37051353 0.13862078 0.26954007 -0.50020075 -0.025315989 0.33620736 -0.1909548 -1.2450218 -0.796844 -0.9763531 1.3559546 -0.95098335 0.55098015 -1.6663039 -1.0789313 0.54976565 1.3683215 0.4859366 0.41747206 1.3317059 -0.13839798 -0.35786667 -0.46769878 -0.060654026 -0.71715325 0.741066 -0.53938746 0.092747435 0.74905056 0.5448174 -0.8663917 -0.68054533 -2.3704596 -2.6688838 0.2808878 -1.0986515 1.6290756 -1.2403148 -0.022635603
275 -0.33333215 0.2961303 0.5748306 -0.32610467 0.35110542 -0.18080057 -0.017300438 0.46009037 -0.4349326 0.08524039 -0.09366388 -0.22956918 0.011959299 -0.23163824 -0.031764764 -0.38469115 -0.813834 -0.12653905 -0.8507766 0.06253403 0.24031177 0.4258498 0.35688844 0.27989158 -0.34509218 -0.7518291 0.17060351 0.2648232 0.12933767 1.0369601 0.23855725 0.047062762 -0.5647362 -0.29358086 -0.15414147 0.44326973 -0.94928205 0.14840157 -0.074166894 0.10326459 0.5418878 -0.8343629 0.07378912 -0.05768501 0.49958888 -0.58814865 -0.5596277 0.0958669 -0.24921227 -0.22178316 -0.17923655 -0.09587563 -0.4438683 -0.123191215 0.45174524 0.20041114 -0.36469227 -0.9164907 -1.4126948 0.030168291 -1.3397341 1.7329893 -0.8647768 -0.8232776
158 0.30816093 0.48466435 0.25750163 0.41277874 -0.3272984 0.07610616 -0.12732835 -0.484315 0.28637573 0.09691398 -0.3962326 -0.2745897 0.3353125 0.21176216 0.48455277 -0.32994297 -0.08026104 -0.011985994 -0.33937693 0.33206382 0.14461072 0.06889748 0.2831569 -0.13065541 0.15869933 0.07483347 0.24058613 0.41603452 0.13023867 0.77106035 -0.07045454 -0.021448908 -0.21477726 -0.59356624 -0.60425717 -0.25802332 -0.12213765 0.24147551 0.096922524 -0.20315056 0.9091811 -0.23799057 -0.24025156 -0.92462015 0.37829357 -0.2943362 -0.04953003 -0.6484816 0.28445032 -0.24239859 -0.7004767 -0.054221284 0.23954369 -0.4377801 -0.19831273 -1.252939 -0.112734884 -1.0571649 -1.2296225 -0.34272978 -0.62399966 1.5716504 -0.6150899 -0.41947237
189 0.24315935 0.5392831 -0.0859104 0.33398607 0.42043886 0.4460789 -0.19630182 0.16834411 0.20781457 -0.051926225 -0.014780291 -0.18511479 -0.16585182 -0.019476503 -0.2514195 0.49349228 -0.0493684 0.10658635 -0.31244755 0.4554555 -0.54115754 0.41987333 0.52937776 -0.75701016 0.59475553 -0.17568259 -0.22892429 -0.5549248 0.23733 0.27930528 0.020629045 -0.009111884 0.1835452 -0.37454343 -0.37093323 0.5721662 -0.43530762 0.046768624 -0.3139134 0.2742789 0.103608504 -0.34321505 0.31409743 -0.09028534 -0.048273575 -0.12601101 0.053264502 -0.54483134 0.62147623 -0.1629739 -0.48107946 -0.6339739 -0.2232905 0.14027023 -0.17834158 -0.51037014 -0.4494564 -1.1012965 -1.4787327 0.6894083 -1.0236347 0.87100124 -1.2257131 -0.60799855
203 -0.1731709 0.1630746 0.6542423 -0.56076604 0.66975963 -0.2336101 0.4704277 -0.46713278 -1.0055643 -0.59280616 0.5025508 -0.66097903 -0.97085553 0.45994395 -0.18188757 0.078402095 -0.40510982 0.14587983 -0.5494642 0.29749995 -1.1464778 0.21044658 0.02286694 -0.34492278 0.21561198 -0.354655 0.12257028 0.3089914 -0.53024983 -0.02762442 0.3610084 -0.16360182 -1.2287934 -0.80723494 -0.9679227 1.3555123 -0.91991216 0.50242686 -1.7136277 -1.031301 0.51454794 1.4529397 0.5052699 0.3605296 1.2803802 -0.13831757 -0.31474242 -0.45111635 -0.04614546 -0.69307446 0.7088924 -0.5527646 0.16328771 0.6852277 0.60555506 -0.8750442 -0.6975693 -2.4117546 -2.63532 0.28372943 -1.0610421 1.65621 -1.2329499 -0.031828962
100 -0.17224008 0.26144928 0.6457817 -0.6271566 0.6686571 -0.24619365 0.53392905 -0.44404304 -1.1404712 -0.573002 0.501505 -0.7504859 -0.93327665 0.53418857 -0.29523528 0.055808872 -0.36442155 0.10286531 -0.6386541 0.28822076 -1.2796263 0.23651835 -0.032406006 -0.17250423 0.20519012 -0.2907919 0.20373328 0.40717745 -0.56559914 -0.11042197 0.3622173 -0.19637093 -1.3582729 -0.9241181 -1.0412514 1.5722233 -0.94377685 0.71847135 -1.7563211 -1.1037792 0.46934393 1.4488734 0.49246714 0.5603418 1.376056 -0.12838048 -0.18370898 -0.48274493 -0.054251216 -0.75698733 0.8183079 -0.6524123 0.18665993 0.7750259 0.6725206 -0.9745063 -0.67001843 -2.4610975 -2.6874225 0.2768241 -1.0681379 1.7425032 -1.3371791 0.07280273
6 -0.111520365 0.11955696 0.6103878 -0.55916464 0.6071687 -0.25078857 0.479494 -0.4249149 -0.98510736 -0.60586214 0.5064084 -0.66859186 -0.9593799 0.44555393 -0.25617775 0.115912385 -0.42069784 0.14138979 -0.5147379 0.30731818 -1.2370569 0.22419663 -0.008569101 -0.23921204 0.18607424 -0.37034908 0.15635519 0.30946916 -0.54286176 0.02106362 0.41591924 -0.21392073 -1.299413 -0.8765345 -1.0244144 1.41446 -1.016679 0.6232089 -1.7239112 -1.0519071 0.5309403 1.4383106 0.46463063 0.46345875 1.3330297 -0.17677994 -0.30658767 -0.38933444 -0.039349813 -0.6909981 0.6904117 -0.59087354 0.19071406 0.78995556 0.6258119 -0.8876343 -0.65578586 -2.3925686 -2.6921813 0.27936256 -1.031907 1.6843045 -1.256401 0.030101663
232 -0.17444965 0.18521509 0.6475316 -0.5421435 0.6730949 -0.22580768 0.48063448 -0.48672995 -1.0325496 -0.5650766 0.55102056 -0.6549241 -0.90815276 0.48603544 -0.21202958 0.062859334 -0.38106316 0.114212275 -0.6157477 0.30628946 -1.1417499 0.24892198 -0.01804225 -0.2540803 0.16826987 -0.31492928 0.13987994 0.32764766 -0.5007679 -0.09204391 0.3051321 -0.1728537 -1.2564262 -0.89528304 -0.94159454 1.3946687 -0.9260515 0.632108 -1.7035658 -1.0636559 0.5266435 1.3813889 0.55402964 0.47499987 1.327084 -0.14282705 -0.3320855 -0.48176017 -0.07070101 -0.7493718 0.7534224 -0.556557 0.1822449 0.70207155 0.5848175 -0.88970405 -0.65160984 -2.4300463 -2.627805 0.33681512 -1.0675037 1.6776147 -1.2952526 0.010588379
95 -0.16753449 0.2933581 0.7282367 -0.66462207 0.6933541 -0.27723175 0.575705 -0.42677817 -1.2779973 -0.5572585 0.5329921 -0.80270404 -0.9032199 0.56571764 -0.31163716 0.07254243 -0.36608472 0.10440352 -0.60947883 0.2667738 -1.3770716 0.2100161 -0.044341255 -0.098768115 0.21925843 -0.24626635 0.27234653 0.4489552 -0.59255004 -0.19850816 0.37552384 -0.17430343 -1.4223176 -0.953644 -1.0722954 1.7123578 -0.936567 0.8048521 -1.8260549 -1.1425885 0.44940898 1.545575 0.48398036 0.635732 1.412325 -0.12741937 -0.10645032 -0.49891266 -0.052338555 -0.77261716 0.8102677 -0.686873 0.21886954 0.7781496 0.67536205 -1.0198288 -0.7077291 -2.5109882 -2.7732787 0.24892339 -1.0629774 1.7960225 -1.4033136 0.13199641
284 -0.22250162 0.14862694 0.6469592 -0.5509286 0.5833144 -0.31423068 0.44951776 -0.52850133 -1.0366108 -0.6315102 0.5302919 -0.5420986 -0.9187921 0.37664726 -0.179322 0.08962491 -0.43923205 0.10414827 -0.55442864 0.21238129 -1.1470441 0.31901896 0.024234455 -0.31251398 0.16506957 -0.3984667 0.12310991 0.31604508 -0.45944425 0.029656278 0.3920498 -0.24209803 -1.1020838 -0.7146743 -0.9691935 1.3638531 -0.9571437 0.5189912 -1.6727748 -0.9980343 0.51086587 1.398846 0.5084724 0.31733364 1.2440228 -0.25837627 -0.4206896 -0.46058154 -0.015682245 -0.80883855 0.73610544 -0.49501508 0.05528582 0.7694488 0.62818474 -0.849424 -0.6543207 -2.2767797 -2.6124012 0.26600096 -1.1086394 1.7083813 -1.2367406 -0.08870311
129 -0.22500852 0.1142764 0.63303596 -0.5398908 0.6862557 -0.2626538 0.57367045 -0.45297125 -1.0323579 -0.5942719 0.47909427 -0.574397 -0.89294887 0.48052827 -0.16052724 0.074449815 -0.38946676 0.08441245 -0.56103116 0.33310923 -1.1504759 0.22116861 -0.09184482 -0.3228525 0.16646634 -0.3434829 0.044944085 0.24720296 -0.4834719 0.045427494 0.37719575 -0.223778 -1.1467915 -0.8992841 -0.9860278 1.3521442 -1.0005387 0.5059543 -1.688947 -1.0173655 0.5299851 1.3586783 0.51863813 0.44256657 1.2256992 -0.15588614 -0.35534453 -0.40634212 -0.08394207 -0.7829102 0.7255278 -0.5899691 0.18388057 0.68332964 0.5673111 -0.91329706 -0.74900174 -2.4485977 -2.6655715 0.24168293 -1.0323664 1.5849485 -1.2243829 -0.09352583
301 0.6988956 -0.15973765 0.294279 0.49236268 0.006659508 1.7459439 -0.8418456 -1.9230628 -1.9207159 -1.7874689 1.030756 0.73340106 -1.8653637 -0.3300531 1.1675225 -0.27423236 -0.35704738 0.06476842 -0.24631582 0.8518905 -1.0372558 1.0393212 0.038840022 -1.0463243 0.4693372 -0.069439374 -0.93923426 -0.6672259 0.19656198 -0.72131586 -0.9774678 -0.70442724 1.0846893 -0.10501634 -0.16497037 1.2806036 -0.35066414 -0.5496557 -1.6193382 0.080679886 1.3266062 2.0901318 2.041315 -0.98422104 2.0810313 -2.795696 -1.3622175 -2.5670853 -0.6053236 -0.94285995 1.5464358 1.2998254 0.8864961 0.5165199 1.4004399 -1.3046986 -0.21596754 -4.18298 -3.0395353 -0.39028603 -2.7698734 1.9985507 -0.48162305 -1.6291735
204 2.0673065 -0.77103037 0.83372736 0.35058758 -0.029223578 -1.1522808 0.45266846 -0.91088516 0.24786183 -0.68737483 0.86208993 -1.9852575 -0.629756 1.4489425 0.7743713 1.3287075 -0.9640423 -0.44044575 0.48271382 0.34231216 -0.688757 0.5194039 -0.31064442 -1.9582738 -0.6467431 -0.552076 -0.29679832 1.3510175 0.8075826 -0.8647406 0.34847754 -1.4948605 -0.7813398 -1.5329862 -0.28133595 0.75757176 0.3923756 -0.31246075 -2.782299 -0.9198457 1.2982525 0.81435406 0.9962155 -0.4653935 0.51738393 -0.9692771 0.3223314 -0.26526916 0.42645946 1.0840248 0.6378189 -2.2052066 0.77270675 0.23673399 2.7954957 -0.9797216 -1.5492926 -4.0839553 -2.9203866 -0.25839832 -1.7347556 4.0778165 -0.27034616 0.021999571
215 -0.23996241 0.19705562 0.75099456 -0.41316095 0.814748 0.0023766684 0.52455723 -0.46018565 -0.8734518 -0.6216414 0.6600811 -0.7316443 -0.95103264 0.2662537 -0.06535202 0.20668432 -0.4854472 0.14923261 -0.4678219 0.29738814 -1.3502963 0.11735299 -0.1626889 -0.46971074 0.33873746 -0.51943284 0.07378318 0.39126277 -0.5260143 -0.11692953 0.43307033 -0.29608208 -1.1701401 -0.85405177 -0.96255803 1.2176828 -0.7768335 0.45330927 -1.7764838 -1.1038443 0.61030644 1.6263237 0.5849009 0.25896898 1.3864629 -0.06744824 -0.2774944 -0.6755044 -0.17708428 -0.79911536 0.60200065 -0.3783848 0.21691817 0.49388734 0.68394965 -0.8249504 -0.76860225 -2.4493427 -2.679588 0.13507348 -1.0186324 1.6572636 -1.0667596 0.025399381
249 -0.10933767 0.13023338 0.597536 -0.5551924 0.6805938 -0.21796238 0.55330217 -0.38946262 -0.9443725 -0.5354843 0.48415115 -0.6884939 -0.98335844 0.36424342 -0.14844666 0.035140514 -0.25558978 0.06645431 -0.6577705 0.3633884 -1.1407361 0.12045624 -0.03837808 -0.33074352 0.25798228 -0.3758431 0.07921941 0.2702752 -0.42257285 0.08306423 0.3234294 -0.21761645 -1.1644684 -0.8195877 -1.0461556 1.1978205 -0.91301095 0.46730885 -1.573121 -1.051562 0.47675475 1.4486948 0.4807517 0.4442526 1.3284268 -0.26307386 -0.2356548 -0.45375124 -0.00261272 -0.7008354 0.8654562 -0.51930815 0.16531108 0.7827765 0.5732894 -0.91866744 -0.6920689 -2.3800457 -2.6149645 0.19514462 -1.1913968 1.6039035 -1.2479029 -0.13148116
